%YAML:1.0
my_svm: !!opencv-ml-svm
   svm_type: C_SVC
   kernel: { type:RBF, gamma:5.0625000000000009e-001 }
   C: 1.0000000000000001e-001
   term_criteria: { epsilon:2.2204460492503131e-016, iterations:100 }
   var_all: 1000
   var_count: 1000
   class_count: 2
   class_labels: !!opencv-matrix
      rows: 1
      cols: 2
      dt: i
      data: [ 0, 1 ]
   sv_total: 200
   support_vectors:
      - [ 0., 0., 0., 0., 8.33333358e-002, 0., 0., 0., 8.33333358e-002,
          0., 0., 0., 0., 0., 0., 0., 0., 0., 0., 0., 0., 0., 0., 0., 0.,
          0., 0., 0., 0., 0., 0., 0., 0., 0., 0., 0., 0., 0., 0., 0., 0.,
          0., 0., 0., 0., 0., 0., 0., 0., 0., 0., 0., 0., 0., 0., 0., 0.,
          0., 0., 0., 0., 0., 0., 0., 0., 0., 0., 0., 0., 0., 0., 0., 0.,
          0., 0., 0., 8.33333358e-002, 0., 0., 0., 0., 0., 0., 0., 0.,
          0., 0., 0., 0., 0., 0., 0., 0., 0., 0., 0., 0., 0., 0., 0., 0.,
          0., 0., 0., 0., 0., 0., 0., 0., 0., 0., 0., 0., 0., 0., 0., 0.,
          0., 0., 0., 0., 0., 0., 0., 0., 0., 0., 0., 0., 0., 0., 0., 0.,
          8.33333358e-002, 0., 0., 0., 0., 0., 0., 0., 0., 0., 0., 0.,
          0., 0., 0., 0., 0., 0., 0., 0., 0., 0., 0., 0.,
          8.33333358e-002, 0., 0., 0., 0., 0., 0., 0., 0., 0., 0., 0.,
          0., 0., 0., 0., 0., 0., 0., 0., 0., 0., 0., 0., 0., 0., 0., 0.,
          0., 0., 0., 0., 0., 0., 0., 0., 0., 0., 0., 0., 0., 0., 0.,
          8.33333358e-002, 0., 0., 0., 0., 0., 0., 0., 0., 0., 0., 0.,
          0., 0., 0., 0., 0., 0., 0., 0., 0., 0., 0., 0., 0., 0., 0., 0.,
          0., 0., 0., 0., 0., 0., 0., 0., 0., 0., 0., 0., 0., 0., 0., 0.,
          0., 0., 0., 0., 0., 0., 0., 0., 0., 0., 0., 0., 0., 0., 0., 0.,
          0., 0., 0., 0., 0., 0., 0., 0., 0., 0., 0., 0., 0., 0., 0., 0.,
          0., 0., 0., 0., 0., 0., 0., 0., 0., 0., 0., 0., 0., 0., 0., 0.,
          0., 0., 0., 0., 0., 0., 0., 0., 0., 0., 0., 0., 0., 0., 0., 0.,
          0., 0., 0., 0., 0., 0., 0., 0., 0., 0., 0., 0., 0., 0., 0., 0.,
          0., 0., 0., 0., 0., 0., 0., 0., 0., 0., 0., 0., 0., 0., 0., 0.,
          0., 0., 0., 0., 0., 8.33333358e-002, 0., 0., 0., 0., 0., 0.,
          0., 0., 0., 0., 0., 0., 0., 0., 0., 0., 0., 0., 0., 0., 0., 0.,
          0., 0., 0., 0., 0., 0., 0., 0., 0., 0., 0., 0., 0., 0., 0., 0.,
          0., 0., 0., 0., 0., 0., 0., 0., 0., 0., 0., 0., 0., 0., 0., 0.,
          0., 0., 0., 0., 0., 0., 0., 0., 0., 0., 0., 0., 0., 0., 0., 0.,
          0., 0., 0., 0., 0., 0., 0., 0., 0., 0., 0., 0., 0., 0., 0., 0.,
          0., 0., 0., 0., 0., 0., 0., 0., 0., 0., 0., 0., 0., 0., 0., 0.,
          0., 0., 0., 0., 0., 0., 0., 0., 0., 0., 0., 0., 0., 0., 0., 0.,
          0., 0., 0., 0., 0., 0., 0., 0., 0., 0., 0., 0., 0., 0., 0., 0.,
          0., 0., 0., 0., 0., 0., 0., 0., 0., 0., 0., 0., 0., 0., 0., 0.,
          0., 0., 0., 0., 0., 0., 0., 0., 0., 0., 0., 0., 0., 0., 0., 0.,
          0., 0., 0., 0., 0., 0., 0., 0., 0., 0., 0., 0., 0., 0., 0., 0.,
          0., 0., 0., 0., 0., 0., 0., 0., 0., 0., 0., 0., 0., 0., 0., 0.,
          0., 0., 0., 0., 0., 0., 0., 0., 0., 0., 0., 0., 0., 0., 0., 0.,
          0., 0., 0., 0., 0., 0., 0., 0., 0., 0., 0., 0., 0., 0., 0., 0.,
          0., 0., 0., 0., 0., 0., 0., 0., 0., 0., 0., 0., 0., 0., 0., 0.,
          0., 0., 0., 0., 0., 0., 0., 0., 0., 0., 0., 0., 0., 0., 0., 0.,
          0., 0., 0., 0., 0., 0., 0., 0., 0., 0., 0., 0., 0., 0., 0., 0.,
          0., 0., 0., 0., 0., 0., 0., 0., 0., 0., 0., 0., 0., 0., 0., 0.,
          0., 0., 0., 0., 0., 0., 0., 0., 0., 0., 0., 0., 0., 0., 0., 0.,
          0., 0., 0., 0., 0., 0., 0., 0., 0., 0., 0., 0., 0., 0., 0., 0.,
          0., 0., 0., 0., 0., 0., 0., 0., 0., 0., 0., 0., 0., 0.,
          8.33333358e-002, 0., 0., 0., 0., 0., 0., 0., 0., 0., 0., 0.,
          0., 0., 0., 0., 0., 0., 0., 0., 0., 0., 0., 0., 0., 0., 0., 0.,
          0., 0., 0., 0., 0., 0., 0., 0., 0., 0., 0., 0., 0., 0., 0., 0.,
          0., 0., 0., 0., 0., 0., 0., 0., 0., 0., 0., 0., 0., 0., 0., 0.,
          0., 0., 0., 0., 0., 0., 0., 0., 0., 0., 0., 0., 0., 0., 0., 0.,
          0., 0., 0., 0., 0., 0., 0., 0., 0., 0., 0., 0., 0., 0., 0., 0.,
          0., 0., 0., 0., 0., 0., 0., 0., 0., 0., 0., 0., 0., 0., 0., 0.,
          0., 0., 0., 0., 0., 0., 0., 0., 0., 0., 0., 0., 0., 0., 0.,
          8.33333358e-002, 0., 0., 0., 8.33333358e-002, 0., 0., 0., 0.,
          0., 0., 0., 0., 0., 0., 0., 0., 0., 0., 0., 0., 0., 0., 0., 0.,
          0., 0., 0., 0., 0., 0., 0., 0., 0., 0., 0., 0., 0., 0., 0., 0.,
          0., 0., 0., 0., 0., 0., 0., 0., 0., 0., 0., 0., 0., 0., 0., 0.,
          0., 0., 0., 0., 0., 0., 0., 0., 0., 0., 0., 0., 0., 0., 0., 0.,
          0., 0., 0., 0., 0., 0., 0., 0., 0., 0., 0., 0., 0., 0., 0., 0.,
          0., 0., 0., 0., 0., 0., 0., 0., 0., 0., 0., 0., 0., 0., 0., 0.,
          0., 0., 0., 0., 0., 0., 0., 0., 0., 0., 0., 0., 0., 0., 0., 0.,
          0., 0., 0., 0., 0., 0., 8.33333358e-002, 0., 0., 0., 0., 0.,
          0., 0., 0., 0., 0., 0., 0., 0., 0., 0., 0., 0., 0., 0., 0., 0.,
          0., 0., 0., 0., 0., 8.33333358e-002, 0., 0., 0., 0., 0., 0.,
          0., 0., 0., 0., 0., 0., 0., 0., 0., 0., 0., 0., 0., 0., 0., 0.,
          0., 0., 0., 0., 0., 0., 0., 0., 0., 0., 0., 0., 0., 0. ]
      - [ 2.00000009e-003, 0., 0., 0., 0., 0., 0., 6.00000005e-003,
          2.00000009e-003, 0., 0., 0., 0., 0., 0., 0., 2.00000009e-003,
          2.00000009e-003, 0., 0., 0., 0., 0., 0., 0., 0., 0., 0.,
          2.00000009e-003, 0., 0., 0., 0., 0., 2.00000009e-003,
          4.00000019e-003, 0., 2.00000009e-003, 2.00000009e-003,
          2.00000009e-003, 0., 0., 0., 0., 0., 0., 0., 2.00000009e-003,
          0., 0., 0., 0., 0., 0., 0., 0., 0., 0., 0., 0., 0., 0., 0.,
          2.00000009e-003, 0., 2.00000009e-003, 0., 2.00000009e-003, 0.,
          2.00000009e-003, 0., 0., 2.00000009e-003, 0., 2.00000009e-003,
          0., 2.00000009e-003, 0., 2.00000009e-003, 0., 2.00000009e-003,
          0., 0., 4.00000019e-003, 2.00000009e-003, 0., 0.,
          4.00000019e-003, 0., 0., 0., 2.00000009e-003, 0., 0., 0.,
          2.00000009e-003, 2.00000009e-003, 2.00000009e-003, 0., 0., 0.,
          0., 2.00000009e-003, 0., 0., 0., 0., 0., 0., 0.,
          2.00000009e-003, 4.00000019e-003, 6.00000005e-003, 0., 0., 0.,
          2.00000009e-003, 0., 0., 4.00000019e-003, 0., 2.00000009e-003,
          0., 6.00000005e-003, 0., 0., 0., 0., 2.00000009e-003, 0., 0.,
          4.00000019e-003, 0., 0., 0., 4.00000019e-003, 2.00000009e-003,
          0., 2.00000009e-003, 0., 0., 0., 0., 4.00000019e-003, 0., 0.,
          0., 0., 0., 4.00000019e-003, 0., 2.00000009e-003, 0., 0.,
          2.00000009e-003, 0., 2.00000009e-003, 0., 0., 0.,
          2.00000009e-003, 0., 0., 0., 0., 0., 2.00000009e-003,
          2.00000009e-003, 0., 0., 2.00000009e-003, 0., 0., 0., 0.,
          2.00000009e-003, 0., 0., 2.00000009e-003, 0., 2.00000009e-003,
          0., 2.00000009e-003, 0., 0., 0., 0., 0., 0., 2.00000009e-003,
          0., 6.00000005e-003, 2.00000009e-003, 0., 0., 0., 0., 0., 0.,
          1.00000007e-002, 4.00000019e-003, 2.00000009e-003, 0.,
          2.00000009e-003, 2.00000009e-003, 0., 4.00000019e-003, 0.,
          8.00000038e-003, 0., 2.00000009e-003, 0., 0., 2.00000009e-003,
          0., 2.00000009e-003, 2.00000009e-003, 0., 0., 8.00000038e-003,
          0., 0., 2.00000009e-003, 2.00000009e-003, 0., 0., 0., 0.,
          2.00000009e-003, 0., 0., 0., 0., 0., 0., 2.00000009e-003, 0.,
          0., 4.00000019e-003, 2.00000009e-003, 0., 4.00000019e-003, 0.,
          0., 0., 2.00000009e-003, 0., 0., 8.00000038e-003, 0.,
          8.00000038e-003, 4.00000019e-003, 0., 6.00000005e-003, 0., 0.,
          1.00000007e-002, 0., 0., 2.00000009e-003, 0., 6.00000005e-003,
          2.00000009e-003, 0., 0., 0., 0., 2.00000009e-003,
          2.00000009e-003, 0., 0., 0., 2.00000009e-003, 0.,
          2.00000009e-003, 0., 2.00000009e-003, 0., 0., 0., 0., 0.,
          6.00000005e-003, 0., 0., 0., 0., 0., 6.00000005e-003,
          2.00000009e-003, 8.00000038e-003, 0., 0., 0., 0., 0., 0., 0.,
          0., 0., 2.00000009e-003, 0., 6.00000005e-003, 1.00000007e-002,
          2.00000009e-003, 4.00000019e-003, 0., 4.00000019e-003,
          2.00000009e-003, 2.00000009e-003, 0., 0., 8.00000038e-003,
          2.00000009e-003, 0., 0., 0., 0., 0., 2.00000009e-003,
          4.00000019e-003, 0., 0., 0., 0., 0., 0., 0., 0., 0., 0.,
          4.00000019e-003, 4.00000019e-003, 6.00000005e-003, 0.,
          2.00000009e-003, 0., 0., 2.00000009e-003, 0., 0., 0., 0.,
          2.00000009e-003, 0., 0., 0., 0., 0., 0., 0., 0., 0., 0.,
          2.00000009e-003, 0., 0., 0., 0., 0., 0., 2.00000009e-003, 0.,
          0., 4.00000019e-003, 2.00000009e-003, 0., 2.00000009e-003, 0.,
          0., 0., 2.00000009e-003, 0., 0., 0., 4.00000019e-003,
          2.00000009e-003, 0., 0., 0., 0., 0., 0., 2.00000009e-003,
          2.00000009e-003, 2.00000009e-003, 2.00000009e-003, 0., 0., 0.,
          0., 0., 0., 4.00000019e-003, 0., 0., 4.00000019e-003, 0., 0.,
          0., 0., 0., 0., 0., 0., 2.00000009e-003, 0., 2.00000009e-003,
          0., 2.00000009e-003, 2.00000009e-003, 2.00000009e-003, 0.,
          4.00000019e-003, 2.00000009e-003, 0., 2.00000009e-003, 0.,
          2.00000009e-003, 0., 2.00000009e-003, 2.00000009e-003, 0., 0.,
          0., 0., 0., 2.00000009e-003, 0., 0., 0., 0., 0., 0., 0., 0.,
          2.00000009e-003, 0., 0., 4.00000019e-003, 0., 0.,
          2.00000009e-003, 2.00000009e-003, 0., 6.00000005e-003, 0.,
          2.00000009e-003, 0., 0., 0., 2.00000009e-003, 0., 0., 0., 0.,
          2.00000009e-003, 2.00000009e-003, 0., 4.00000019e-003,
          2.00000009e-003, 2.00000009e-003, 4.00000019e-003,
          2.00000009e-003, 0., 4.00000019e-003, 0., 4.00000019e-003, 0.,
          0., 0., 2.00000009e-003, 0., 2.00000009e-003, 0., 0., 0., 0.,
          4.00000019e-003, 4.00000019e-003, 0., 0., 0., 4.00000019e-003,
          2.00000009e-003, 0., 6.00000005e-003, 0., 0., 2.00000009e-003,
          0., 6.00000005e-003, 2.00000009e-003, 0., 2.00000009e-003,
          4.00000019e-003, 2.00000009e-003, 0., 8.00000038e-003,
          2.00000009e-003, 4.00000019e-003, 0., 2.00000009e-003,
          4.00000019e-003, 0., 0., 0., 0., 0., 0., 0., 0., 0., 0., 0.,
          0., 0., 0., 4.00000019e-003, 0., 0., 0., 2.00000009e-003, 0.,
          2.00000009e-003, 2.00000009e-003, 0., 0., 4.00000019e-003, 0.,
          4.00000019e-003, 8.00000038e-003, 0., 0., 0., 0.,
          2.00000009e-003, 2.00000009e-003, 4.00000019e-003,
          2.00000009e-003, 2.00000009e-003, 2.00000009e-003, 0., 0.,
          4.00000019e-003, 0., 0., 0., 0., 4.00000019e-003, 0.,
          2.00000009e-003, 0., 0., 6.00000005e-003, 0., 0.,
          2.00000009e-003, 2.00000009e-003, 2.00000009e-003, 0.,
          2.00000009e-003, 4.00000019e-003, 2.00000009e-003, 0.,
          4.00000019e-003, 0., 0., 0., 2.00000009e-003, 0., 0., 0., 0.,
          0., 0., 0., 0., 2.00000009e-003, 0., 4.00000019e-003, 0., 0.,
          0., 2.00000009e-003, 0., 2.00000009e-003, 0., 0.,
          2.00000009e-003, 0., 0., 2.00000009e-003, 2.00000009e-003,
          2.00000009e-003, 0., 0., 0., 0., 2.00000009e-003, 0., 0., 0.,
          0., 0., 0., 0., 0., 2.00000009e-003, 0., 0., 4.00000019e-003,
          0., 2.00000009e-003, 0., 0., 0., 0., 0., 0., 0., 0.,
          4.00000019e-003, 0., 0., 0., 0., 2.00000009e-003, 0.,
          2.00000009e-003, 2.00000009e-003, 0., 0., 0., 0., 0., 0., 0.,
          2.00000009e-003, 0., 2.00000009e-003, 0., 0., 6.00000005e-003,
          2.00000009e-003, 0., 2.00000009e-003, 0., 0., 0.,
          4.00000019e-003, 0., 0., 2.00000009e-003, 0., 2.00000009e-003,
          2.00000009e-003, 2.00000009e-003, 0., 0., 2.00000009e-003,
          2.00000009e-003, 0., 2.00000009e-003, 4.00000019e-003, 0., 0.,
          0., 0., 0., 0., 0., 0., 2.00000009e-003, 0., 2.00000009e-003,
          0., 0., 0., 0., 0., 4.00000019e-003, 0., 0., 4.00000019e-003,
          0., 0., 0., 2.00000009e-003, 2.00000009e-003, 0.,
          2.00000009e-003, 2.00000009e-003, 0., 0., 2.00000009e-003, 0.,
          0., 0., 2.00000009e-003, 0., 2.00000009e-003, 0.,
          6.00000005e-003, 0., 2.00000009e-003, 0., 0., 0., 0., 0., 0.,
          8.00000038e-003, 4.00000019e-003, 0., 2.00000009e-003, 0., 0.,
          2.00000009e-003, 2.00000009e-003, 2.00000009e-003,
          2.00000009e-003, 8.00000038e-003, 2.00000009e-003, 0., 0.,
          2.00000009e-003, 2.00000009e-003, 0., 2.00000009e-003, 0.,
          2.00000009e-003, 0., 0., 0., 2.00000009e-003, 0.,
          6.00000005e-003, 0., 0., 6.00000005e-003, 0., 2.00000009e-003,
          0., 2.00000009e-003, 0., 0., 0., 4.00000019e-003,
          4.00000019e-003, 2.00000009e-003, 4.00000019e-003,
          2.00000009e-003, 0., 0., 0., 0., 0., 0., 0., 4.00000019e-003,
          0., 0., 0., 2.00000009e-003, 2.00000009e-003, 0., 0., 0., 0.,
          0., 0., 6.00000005e-003, 0., 0., 0., 2.00000009e-003, 0., 0.,
          2.00000009e-003, 0., 2.00000009e-003, 0., 2.00000009e-003, 0.,
          4.00000019e-003, 0., 0., 0., 0., 4.00000019e-003, 0., 0., 0.,
          0., 0., 0., 0., 0., 0., 0., 0., 0., 0., 0., 0.,
          4.00000019e-003, 0., 2.00000009e-003, 0., 4.00000019e-003, 0.,
          0., 0., 0., 0., 0., 2.00000009e-003, 0., 0., 0.,
          2.00000009e-003, 2.00000009e-003, 0., 0., 4.00000019e-003, 0.,
          0., 0., 0., 0., 0., 0., 0., 2.00000009e-003, 6.00000005e-003,
          2.00000009e-003, 0., 6.00000005e-003, 0., 6.00000005e-003,
          2.00000009e-003, 0., 0., 4.00000019e-003, 2.00000009e-003,
          2.00000009e-003, 0., 2.00000009e-003, 0., 0., 0., 0., 0., 0.,
          2.00000009e-003, 0., 0., 4.00000019e-003, 0., 0., 0.,
          2.00000009e-003, 0., 0., 0., 2.00000009e-003, 0., 0.,
          2.00000009e-003, 0., 0., 2.00000009e-003, 2.00000009e-003,
          2.00000009e-003, 0., 0., 0., 0., 0., 2.00000009e-003,
          2.00000009e-003, 0., 0., 0., 0., 2.00000009e-003, 0., 0., 0.,
          0., 0., 0., 0., 0., 0., 4.00000019e-003, 0., 0., 0.,
          6.00000005e-003, 0., 0., 4.00000019e-003, 2.00000009e-003,
          2.00000009e-003, 2.00000009e-003, 0., 4.00000019e-003, 0., 0.,
          0., 0., 2.00000009e-003, 2.00000009e-003, 0., 0., 0.,
          2.00000009e-003, 0., 0., 2.00000009e-003, 2.00000009e-003, 0.,
          0., 0., 4.00000019e-003, 4.00000019e-003, 2.00000009e-003, 0.,
          0., 0., 0., 6.00000005e-003, 4.00000019e-003, 0., 0., 0., 0.,
          0., 2.00000009e-003, 0., 0., 0., 2.00000009e-003, 0., 0., 0.,
          0., 0., 0., 0., 4.00000019e-003, 2.00000009e-003, 0.,
          2.00000009e-003, 2.00000009e-003, 2.00000009e-003,
          2.00000009e-003, 6.00000005e-003, 2.00000009e-003, 0., 0., 0.,
          0., 0., 0., 2.00000009e-003, 0., 0., 0., 0., 0., 0., 0., 0.,
          0., 0., 0., 2.00000009e-003, 2.00000009e-003, 4.00000019e-003,
          0., 0., 2.00000009e-003, 2.00000009e-003, 2.00000009e-003, 0.,
          0., 0., 0., 0., 0., 0., 2.00000009e-003, 0., 0., 0.,
          4.00000019e-003, 0. ]
      - [ 0., 0., 0., 0., 0., 0., 0., 0., 0., 0., 0., 0., 0., 0.,
          1.20481923e-002, 0., 0., 0., 0., 0., 0., 0., 0., 0., 0., 0.,
          0., 0., 0., 0., 0., 0., 0., 0., 0., 0., 0., 0., 0., 0., 0., 0.,
          0., 0., 0., 0., 0., 0., 0., 0., 1.20481923e-002,
          1.20481923e-002, 0., 0., 0., 0., 0., 1.20481923e-002, 0., 0.,
          0., 0., 0., 1.20481923e-002, 0., 0., 1.20481923e-002, 0., 0.,
          0., 0., 0., 0., 0., 0., 0., 0., 0., 0., 0., 0., 0., 0., 0., 0.,
          1.20481923e-002, 0., 0., 0., 1.20481923e-002, 0., 0., 0., 0.,
          0., 0., 1.20481923e-002, 0., 0., 2.40963846e-002, 0., 0.,
          1.20481923e-002, 1.20481923e-002, 0., 0., 0., 0., 0., 0., 0.,
          0., 0., 0., 0., 0., 2.40963846e-002, 0., 0., 0., 0., 0., 0.,
          1.20481923e-002, 0., 0., 0., 0., 0., 0., 1.20481923e-002, 0.,
          0., 0., 0., 0., 0., 0., 0., 0., 0., 0., 0., 0., 0., 0., 0., 0.,
          0., 0., 0., 0., 0., 0., 0., 0., 0., 0., 0., 0., 0., 0., 0., 0.,
          0., 0., 0., 0., 0., 0., 0., 0., 0., 0., 0., 0., 0., 0., 0., 0.,
          0., 0., 0., 0., 0., 0., 1.20481923e-002, 0., 0., 0., 0., 0.,
          0., 0., 0., 0., 0., 0., 0., 0., 0., 0., 0., 0., 0., 0., 0., 0.,
          0., 0., 0., 0., 0., 1.20481923e-002, 0., 1.20481923e-002,
          1.20481923e-002, 0., 0., 0., 0., 1.20481923e-002, 0., 0., 0.,
          0., 0., 0., 0., 1.20481923e-002, 0., 0., 0., 0., 0.,
          1.20481923e-002, 0., 1.20481923e-002, 0., 0., 0., 0., 0., 0.,
          0., 1.20481923e-002, 0., 0., 0., 0., 0., 0., 0., 0., 0., 0.,
          0., 1.20481923e-002, 0., 0., 0., 0., 0., 0., 0., 0., 0., 0.,
          0., 0., 0., 0., 0., 0., 0., 0., 0., 0., 0., 0., 0., 0., 0., 0.,
          0., 0., 0., 0., 0., 0., 0., 0., 0., 0., 0., 0., 0., 0., 0., 0.,
          0., 0., 0., 0., 0., 0., 0., 0., 0., 1.20481923e-002, 0., 0.,
          1.20481923e-002, 0., 0., 0., 0., 0., 1.20481923e-002, 0., 0.,
          0., 0., 0., 0., 0., 1.20481923e-002, 0., 0., 0., 0., 0., 0.,
          0., 0., 0., 0., 0., 0., 0., 1.20481923e-002, 0., 0., 0.,
          1.20481923e-002, 0., 0., 0., 0., 0., 0., 0., 0., 0., 0., 0.,
          0., 0., 0., 0., 0., 0., 1.20481923e-002, 0., 0., 0., 0., 0.,
          0., 0., 0., 0., 0., 0., 0., 0., 0., 0., 0., 0., 0., 0., 0., 0.,
          0., 0., 0., 0., 0., 0., 0., 0., 0., 0., 0., 0., 0., 0., 0., 0.,
          0., 0., 0., 0., 0., 0., 0., 0., 0., 0., 0., 1.20481923e-002,
          0., 0., 0., 0., 0., 0., 0., 1.20481923e-002, 0., 0., 0., 0.,
          0., 0., 0., 0., 0., 0., 0., 0., 0., 0., 0., 0., 0., 0., 0., 0.,
          0., 0., 0., 0., 0., 1.20481923e-002, 0., 0., 0., 0., 0., 0.,
          0., 0., 1.20481923e-002, 0., 0., 0., 0., 0., 0., 0., 0., 0.,
          0., 1.20481923e-002, 0., 0., 0., 0., 0., 0., 0., 0., 0., 0.,
          0., 0., 0., 0., 0., 0., 0., 0., 0., 0., 0., 1.20481923e-002,
          0., 0., 0., 0., 0., 0., 0., 0., 0., 0., 0., 0., 0., 0., 0., 0.,
          0., 0., 0., 0., 0., 0., 0., 0., 0., 0., 0., 0.,
          1.20481923e-002, 0., 0., 0., 1.20481923e-002, 0., 0., 0., 0.,
          1.20481923e-002, 1.20481923e-002, 0., 0., 0., 0., 0.,
          1.20481923e-002, 0., 0., 0., 0., 0., 1.20481923e-002, 0., 0.,
          0., 0., 0., 0., 0., 0., 0., 0., 0., 0., 0., 0., 0., 0.,
          1.20481923e-002, 0., 0., 0., 0., 0., 0., 0., 0., 0.,
          1.20481923e-002, 0., 0., 0., 0., 0., 1.20481923e-002, 0., 0.,
          1.20481923e-002, 0., 0., 0., 0., 0., 0., 0., 0., 0., 0., 0.,
          0., 0., 0., 0., 0., 0., 0., 0., 0., 0., 0., 0., 0., 0., 0.,
          2.40963846e-002, 0., 0., 0., 0., 0., 0., 0., 0., 0., 0., 0.,
          0., 0., 0., 0., 0., 0., 0., 0., 0., 0., 1.20481923e-002, 0.,
          0., 0., 0., 0., 0., 0., 0., 0., 0., 0., 0., 0., 0., 0., 0., 0.,
          1.20481923e-002, 0., 0., 0., 0., 0., 0., 0., 0., 0., 0., 0.,
          0., 0., 0., 0., 0., 1.20481923e-002, 0., 0., 0., 0., 0., 0.,
          0., 1.20481923e-002, 0., 0., 0., 0., 0., 0., 1.20481923e-002,
          0., 0., 0., 0., 0., 0., 0., 0., 0., 0., 0., 0., 0.,
          2.40963846e-002, 0., 0., 0., 0., 0., 0., 0., 0., 0.,
          1.20481923e-002, 0., 0., 0., 0., 0., 0., 0., 0., 0., 0., 0.,
          0., 0., 1.20481923e-002, 0., 0., 0., 0., 0., 0., 0.,
          2.40963846e-002, 0., 0., 0., 0., 0., 0., 0., 0., 0., 0., 0.,
          0., 0., 0., 0., 1.20481923e-002, 0., 0., 0., 0., 0., 0., 0.,
          0., 0., 0., 0., 0., 0., 0., 0., 0., 0., 0., 0., 0.,
          1.20481923e-002, 0., 0., 0., 0., 0., 0., 0., 0., 0., 0., 0.,
          0., 0., 0., 0., 1.20481923e-002, 1.20481923e-002, 0., 0., 0.,
          0., 0., 0., 0., 0., 0., 0., 0., 0., 0., 0., 0., 0., 0., 0., 0.,
          0., 0., 0., 0., 0., 0., 0., 0., 0., 0., 1.20481923e-002, 0.,
          0., 0., 0., 0., 0., 0., 1.20481923e-002, 0., 0., 0., 0., 0.,
          0., 0., 0., 0., 0., 0., 0., 0., 0., 0., 1.20481923e-002, 0.,
          0., 0., 0., 0., 0., 0., 0., 2.40963846e-002, 0., 0., 0.,
          1.20481923e-002, 0., 0., 0., 0., 0., 0., 0., 0., 0., 0., 0.,
          0., 0., 0., 0., 0., 0., 0., 0., 0., 0., 0., 0., 0., 0., 0., 0.,
          0., 0., 0., 0., 0., 0., 0., 0., 0., 0., 0., 0., 0., 0., 0., 0.,
          0., 0., 0., 0., 0., 0., 0., 0., 0., 0., 0., 0., 0., 0., 0., 0.,
          0., 0., 0., 0., 0., 0., 0., 0., 0., 0., 0., 0., 0., 0., 0., 0.,
          0., 0., 0., 1.20481923e-002, 0., 0., 0., 0., 0., 0., 0., 0.,
          0., 0., 0., 0., 0., 0., 0., 0., 0., 0., 0., 0., 0., 0., 0., 0.,
          0., 0., 0., 1.20481923e-002, 0., 0., 0., 0., 0., 0., 0., 0.,
          0., 2.40963846e-002, 0., 1.20481923e-002, 0., 0., 0., 0.,
          1.20481923e-002, 0., 0., 0., 0., 0., 0., 0., 0., 0., 0., 0.,
          0., 0., 0., 0., 1.20481923e-002, 0., 0., 0., 0.,
          1.20481923e-002, 0., 0., 0., 0., 0., 0., 0., 0., 0., 0., 0.,
          1.20481923e-002, 0., 1.20481923e-002 ]
      - [ 0., 0., 7.93650839e-003, 0., 0., 0., 0., 2.38095261e-002, 0.,
          0., 0., 0., 0., 0., 0., 0., 0., 0., 7.93650839e-003, 0., 0.,
          0., 0., 0., 0., 0., 0., 0., 0., 0., 0., 7.93650839e-003, 0.,
          0., 0., 0., 7.93650839e-003, 0., 7.93650839e-003, 0., 0., 0.,
          0., 0., 0., 0., 0., 0., 0., 0., 0., 0., 0., 0., 0., 0., 0., 0.,
          0., 0., 2.38095261e-002, 7.93650839e-003, 7.93650839e-003, 0.,
          7.93650839e-003, 0., 0., 0., 0., 0., 0., 0., 7.93650839e-003,
          0., 7.93650839e-003, 7.93650839e-003, 0., 0., 0., 0., 0., 0.,
          0., 0., 0., 0., 0., 0., 0., 0., 0., 7.93650839e-003, 0., 0.,
          0., 0., 0., 0., 0., 0., 0., 0., 0., 0., 0., 0., 0., 0.,
          7.93650839e-003, 0., 0., 1.58730168e-002, 0., 0., 0., 0.,
          7.93650839e-003, 7.93650839e-003, 0., 0., 7.93650839e-003, 0.,
          0., 0., 0., 0., 0., 0., 0., 7.93650839e-003, 0., 0., 0., 0.,
          0., 0., 0., 0., 0., 0., 0., 0., 0., 0., 0., 0.,
          7.93650839e-003, 7.93650839e-003, 0., 0., 0., 0., 0., 0., 0.,
          0., 7.93650839e-003, 0., 0., 0., 0., 0., 0., 0., 0., 0., 0.,
          0., 0., 0., 0., 0., 0., 0., 0., 0., 0., 7.93650839e-003, 0.,
          0., 0., 0., 0., 0., 0., 0., 0., 0., 0., 0., 0., 0., 0., 0., 0.,
          0., 0., 0., 0., 0., 0., 0., 0., 0., 0., 7.93650839e-003, 0.,
          0., 0., 0., 0., 0., 0., 0., 0., 0., 7.93650839e-003, 0., 0.,
          0., 0., 0., 7.93650839e-003, 0., 0., 0., 0., 0.,
          1.58730168e-002, 0., 0., 7.93650839e-003, 0., 0., 0., 0.,
          7.93650839e-003, 0., 0., 0., 0., 0., 7.93650839e-003, 0., 0.,
          0., 0., 0., 0., 0., 0., 0., 0., 0., 7.93650839e-003, 0., 0.,
          0., 0., 0., 0., 0., 0., 0., 0., 0., 0., 0., 0., 0., 0., 0., 0.,
          0., 0., 0., 0., 0., 0., 0., 0., 0., 0., 0., 0., 0., 0., 0., 0.,
          0., 0., 0., 0., 0., 0., 0., 0., 0., 0., 0., 0.,
          7.93650839e-003, 0., 0., 0., 0., 0., 0., 0., 0., 0., 0.,
          7.93650839e-003, 0., 0., 0., 0., 0., 0., 0., 0., 0., 0., 0.,
          0., 0., 0., 1.58730168e-002, 0., 0., 0., 0., 2.38095261e-002,
          0., 0., 0., 0., 0., 0., 0., 0., 0., 0., 0., 0., 0., 0., 0., 0.,
          0., 0., 0., 0., 0., 0., 0., 0., 0., 0., 7.93650839e-003,
          7.93650839e-003, 7.93650839e-003, 0., 0., 0., 7.93650839e-003,
          0., 0., 0., 0., 0., 0., 0., 0., 0., 0., 0., 7.93650839e-003,
          0., 0., 0., 0., 0., 0., 0., 0., 0., 0., 0., 0., 0., 0., 0., 0.,
          0., 0., 0., 0., 0., 0., 0., 0., 0., 0., 0., 1.58730168e-002,
          0., 0., 7.93650839e-003, 0., 0., 7.93650839e-003, 0., 0., 0.,
          0., 0., 0., 0., 0., 0., 0., 0., 0., 0., 0., 0., 0., 0., 0., 0.,
          0., 0., 0., 7.93650839e-003, 0., 0., 0., 0., 0., 0., 0., 0.,
          0., 0., 0., 0., 7.93650839e-003, 0., 0., 0., 0.,
          7.93650839e-003, 0., 0., 0., 0., 0., 0., 0., 0., 0., 0.,
          1.58730168e-002, 7.93650839e-003, 0., 0., 0., 0., 0.,
          1.58730168e-002, 0., 0., 0., 0., 0., 0., 0., 0., 0., 0., 0.,
          0., 0., 0., 0., 0., 0., 0., 7.93650839e-003, 0., 0., 0., 0.,
          0., 0., 0., 0., 7.93650839e-003, 0., 0., 0., 0., 0., 0., 0.,
          0., 0., 0., 0., 0., 0., 0., 0., 0., 0., 0., 0., 0., 0., 0., 0.,
          0., 0., 0., 0., 0., 0., 0., 0., 0., 0., 0., 0., 0., 0., 0., 0.,
          0., 0., 0., 0., 0., 0., 7.93650839e-003, 0., 0., 0., 0.,
          7.93650839e-003, 0., 0., 0., 7.93650839e-003, 0., 0., 0., 0.,
          0., 0., 0., 0., 0., 0., 0., 7.93650839e-003, 0., 0., 0., 0.,
          0., 0., 0., 0., 7.93650839e-003, 0., 0., 0., 0., 0., 0.,
          7.93650839e-003, 0., 0., 0., 0., 0., 7.93650839e-003,
          7.93650839e-003, 0., 0., 7.93650839e-003, 7.93650839e-003, 0.,
          0., 0., 0., 0., 0., 0., 0., 0., 0., 0., 0., 0., 0., 0., 0., 0.,
          0., 0., 0., 0., 0., 0., 0., 0., 0., 0., 0., 2.38095261e-002,
          0., 0., 0., 0., 0., 0., 0., 0., 0., 0., 0., 0., 0., 0., 0., 0.,
          0., 0., 2.38095261e-002, 0., 0., 0., 0., 0., 1.58730168e-002,
          0., 0., 0., 0., 0., 7.93650839e-003, 0., 0., 0., 0., 0., 0.,
          0., 0., 7.93650839e-003, 0., 0., 0., 0., 0., 0., 0., 0., 0.,
          0., 0., 0., 0., 0., 0., 0., 0., 0., 0., 0., 0., 0., 0., 0., 0.,
          0., 0., 0., 7.93650839e-003, 0., 0., 0., 0., 0., 0., 0., 0.,
          0., 0., 0., 0., 0., 0., 0., 0., 0., 0., 0., 0., 0., 0., 0., 0.,
          7.93650839e-003, 0., 0., 0., 0., 0., 0., 0., 0., 0., 0., 0.,
          0., 0., 0., 0., 0., 0., 0., 0., 0., 7.93650839e-003, 0., 0.,
          0., 0., 0., 0., 0., 0., 0., 0., 0., 0., 0., 0., 0., 0., 0., 0.,
          0., 0., 3.17460336e-002, 0., 0., 0., 0., 0., 0., 0., 0., 0.,
          0., 0., 0., 0., 2.38095261e-002, 7.93650839e-003, 0., 0., 0.,
          0., 0., 0., 0., 0., 0., 0., 0., 0., 0., 7.93650839e-003, 0.,
          0., 0., 0., 0., 0., 0., 0., 0., 0., 0., 0., 0., 0.,
          7.93650839e-003, 0., 0., 0., 0., 0., 0., 0., 0., 0., 0., 0.,
          0., 0., 0., 0., 0., 0., 1.58730168e-002, 0., 0., 0., 0., 0.,
          7.93650839e-003, 0., 0., 0., 0., 0., 0., 0., 7.93650839e-003,
          0., 0., 2.38095261e-002, 0., 0., 0., 0., 0., 0., 0., 0.,
          3.17460336e-002, 0., 0., 0., 0., 0., 0., 0., 0., 0., 0., 0.,
          0., 0., 0., 0., 0., 0., 0., 0., 0., 0., 0., 0., 0., 0., 0., 0.,
          7.93650839e-003, 0., 0., 0., 0., 0., 0., 0., 0.,
          7.93650839e-003, 0., 0., 0., 0., 0., 0., 0., 0., 0., 0., 0.,
          7.93650839e-003, 0., 0., 0., 0., 0., 0., 0., 0., 0., 0.,
          7.93650839e-003, 2.38095261e-002, 0., 0., 0., 0., 0., 0., 0.,
          0., 0., 0., 0., 0., 0., 0., 0., 0., 0., 0., 0.,
          7.93650839e-003, 0., 0., 0., 0., 0., 0., 0., 0., 0., 0.,
          1.58730168e-002, 1.58730168e-002, 0., 0., 0., 0., 0.,
          7.93650839e-003, 0., 7.93650839e-003, 0., 0., 0., 0., 0., 0.,
          0., 0., 7.93650839e-003, 7.93650839e-003, 0., 0., 0., 0., 0.,
          0., 0., 0., 0., 0., 0., 7.93650839e-003, 0., 0., 0., 0., 0.,
          0., 0., 0., 0., 0., 0., 0., 0., 0., 0., 0., 0., 0., 0., 0., 0.,
          0., 0., 0., 0., 0., 0., 0., 0., 0., 7.93650839e-003 ]
      - [ 0., 0., 1.83823530e-003, 0., 0., 0., 3.67647060e-003,
          1.83823530e-003, 1.83823530e-003, 1.83823530e-003,
          1.83823530e-003, 0., 0., 0., 1.83823530e-003, 1.83823530e-003,
          0., 1.83823530e-003, 0., 1.83823530e-003, 0., 1.83823530e-003,
          1.83823530e-003, 0., 0., 0., 0., 1.83823530e-003,
          3.67647060e-003, 1.83823530e-003, 0., 0., 3.67647060e-003, 0.,
          0., 0., 0., 0., 1.83823530e-003, 0., 0., 1.83823530e-003,
          1.83823530e-003, 0., 1.83823530e-003, 0., 0., 0.,
          1.83823530e-003, 0., 1.83823530e-003, 0., 0., 3.67647060e-003,
          0., 0., 1.83823530e-003, 0., 0., 0., 1.83823530e-003, 0., 0.,
          0., 1.10294120e-002, 7.35294120e-003, 3.67647060e-003, 0., 0.,
          3.67647060e-003, 1.83823530e-003, 1.83823530e-003, 0., 0., 0.,
          0., 0., 0., 0., 0., 0., 1.83823530e-003, 5.51470602e-003, 0.,
          0., 3.67647060e-003, 0., 0., 0., 0., 7.35294120e-003, 0.,
          7.35294120e-003, 1.83823530e-003, 0., 0., 0., 0., 0., 0.,
          3.67647060e-003, 3.67647060e-003, 1.83823530e-003, 0., 0.,
          1.83823530e-003, 3.67647060e-003, 0., 0., 3.67647060e-003,
          1.83823530e-003, 0., 0., 1.83823530e-003, 0., 3.67647060e-003,
          0., 0., 0., 3.67647060e-003, 1.83823530e-003, 0.,
          5.51470602e-003, 0., 3.67647060e-003, 1.83823530e-003, 0.,
          1.83823530e-003, 0., 0., 0., 0., 3.67647060e-003, 0., 0., 0.,
          0., 1.83823530e-003, 0., 1.83823530e-003, 0., 0., 0., 0., 0.,
          1.83823530e-003, 0., 0., 0., 3.67647060e-003, 0., 0., 0.,
          3.67647060e-003, 0., 7.35294120e-003, 0., 0., 0., 0.,
          3.67647060e-003, 1.83823530e-003, 0., 0., 1.83823530e-003, 0.,
          0., 0., 0., 5.51470602e-003, 0., 0., 1.83823530e-003, 0.,
          1.83823530e-003, 0., 1.83823530e-003, 2.75735296e-002,
          1.83823530e-003, 0., 0., 0., 0., 0., 0., 0., 0., 0., 0., 0.,
          0., 0., 0., 0., 0., 1.83823530e-003, 1.83823530e-003, 0.,
          7.35294120e-003, 0., 0., 1.83823530e-003, 0., 0., 0.,
          1.83823530e-003, 1.83823530e-003, 3.67647060e-003, 0., 0., 0.,
          0., 1.83823530e-003, 0., 1.83823530e-003, 1.83823530e-003, 0.,
          0., 0., 0., 0., 0., 0., 0., 0., 0., 0., 1.83823530e-003,
          1.83823530e-003, 7.35294120e-003, 1.83823530e-003,
          1.83823530e-003, 0., 1.83823530e-003, 1.83823530e-003, 0., 0.,
          0., 1.83823530e-003, 0., 0., 0., 0., 0., 1.83823530e-003,
          1.83823530e-003, 0., 0., 1.83823530e-003, 0., 0., 0., 0., 0.,
          1.83823530e-003, 0., 0., 0., 3.67647060e-003, 3.67647060e-003,
          0., 0., 1.83823530e-003, 0., 1.83823530e-003, 0., 0., 0., 0.,
          0., 0., 0., 0., 1.83823530e-003, 0., 0., 0., 0.,
          3.67647060e-003, 3.67647060e-003, 1.83823530e-003, 0.,
          1.83823530e-003, 0., 1.83823530e-003, 0., 1.83823530e-003, 0.,
          1.83823530e-003, 0., 3.67647060e-003, 0., 0., 1.83823530e-003,
          3.67647060e-003, 0., 0., 0., 1.83823530e-003, 0.,
          1.83823530e-003, 0., 0., 0., 0., 0., 0., 0., 0., 0., 0.,
          1.83823530e-003, 0., 1.83823530e-003, 0., 0., 0., 0.,
          1.83823530e-003, 0., 0., 0., 0., 0., 0., 0., 0., 0., 0., 0.,
          7.35294120e-003, 0., 0., 0., 0., 0., 1.10294120e-002, 0., 0.,
          0., 0., 0., 0., 0., 0., 3.67647060e-003, 0., 1.83823530e-003,
          3.67647060e-003, 3.67647060e-003, 1.83823530e-003, 0.,
          1.83823530e-003, 0., 3.67647060e-003, 0., 0., 0., 0., 0.,
          1.83823530e-003, 1.83823530e-003, 5.51470602e-003, 0., 0., 0.,
          1.83823530e-003, 0., 1.83823530e-003, 0., 0., 3.67647060e-003,
          0., 0., 1.83823530e-003, 0., 0., 1.83823530e-003, 0., 0., 0.,
          0., 0., 0., 1.83823530e-003, 0., 0., 0., 3.67647060e-003, 0.,
          1.83823530e-003, 0., 0., 0., 0., 0., 0., 7.35294120e-003, 0.,
          1.83823530e-003, 9.19117685e-003, 0., 0., 1.83823530e-003, 0.,
          0., 0., 0., 0., 0., 0., 0., 0., 0., 0., 0., 0., 0., 0., 0., 0.,
          0., 0., 0., 1.83823530e-003, 0., 0., 1.83823530e-003, 0., 0.,
          0., 1.83823530e-003, 1.83823530e-003, 1.83823530e-003, 0., 0.,
          0., 1.83823530e-003, 0., 0., 1.83823530e-003, 0.,
          3.67647060e-003, 0., 0., 0., 1.83823530e-003, 3.67647060e-003,
          5.51470602e-003, 0., 0., 0., 1.83823530e-003, 0., 0.,
          3.67647060e-003, 1.83823530e-003, 0., 0., 0., 0.,
          1.83823530e-003, 0., 0., 0., 0., 0., 0., 0., 0.,
          1.83823530e-003, 0., 0., 1.83823530e-003, 1.83823530e-003,
          1.83823530e-003, 0., 1.83823530e-003, 0., 0., 1.83823530e-003,
          0., 0., 0., 1.83823530e-003, 0., 0., 0., 0., 9.19117685e-003,
          0., 1.83823530e-003, 0., 0., 0., 0., 1.83823530e-003,
          1.83823530e-003, 0., 0., 1.83823530e-003, 0., 0.,
          3.67647060e-003, 0., 0., 0., 0., 0., 1.83823530e-003, 0.,
          1.83823530e-003, 0., 0., 0., 0., 3.67647060e-003, 0., 0., 0.,
          0., 0., 1.83823530e-003, 1.83823530e-003, 1.83823530e-003,
          1.83823530e-003, 0., 0., 0., 0., 0., 0., 0., 0., 0., 0.,
          1.83823530e-003, 0., 0., 0., 3.67647060e-003, 0.,
          1.83823530e-003, 0., 1.83823530e-003, 0., 0., 0.,
          3.67647060e-003, 1.83823530e-003, 0., 0., 1.83823530e-003,
          1.83823530e-003, 1.83823530e-003, 0., 0., 1.83823530e-003, 0.,
          0., 0., 0., 0., 0., 0., 1.83823530e-003, 3.67647060e-003,
          1.83823530e-003, 0., 0., 5.51470602e-003, 0., 1.83823530e-003,
          1.83823530e-003, 3.67647060e-003, 0., 1.83823530e-003, 0., 0.,
          0., 0., 0., 0., 0., 0., 0., 0., 1.83823530e-003,
          1.83823530e-003, 0., 0., 1.83823530e-003, 0., 0., 0., 0., 0.,
          0., 3.67647060e-003, 0., 1.83823530e-003, 0., 0., 0.,
          1.28676472e-002, 1.83823530e-003, 0., 0., 1.83823530e-003, 0.,
          0., 0., 3.67647060e-003, 1.83823530e-003, 0., 0.,
          1.83823530e-003, 0., 1.83823530e-003, 0., 3.67647060e-003,
          1.83823530e-003, 9.19117685e-003, 0., 0., 0., 3.67647060e-003,
          0., 0., 1.83823530e-003, 7.35294120e-003, 0., 0., 0.,
          1.83823530e-003, 0., 0., 0., 0., 1.83823530e-003, 0.,
          1.83823530e-003, 0., 0., 0., 0., 0., 1.83823530e-003, 0.,
          1.83823530e-003, 3.67647060e-003, 1.83823530e-003, 0., 0., 0.,
          0., 0., 0., 0., 0., 0., 0., 1.83823530e-003, 0., 0., 0.,
          3.67647060e-003, 0., 0., 0., 0., 0., 0., 0., 3.67647060e-003,
          0., 5.51470602e-003, 3.67647060e-003, 0., 0., 0.,
          9.19117685e-003, 1.83823530e-003, 0., 5.51470602e-003, 0., 0.,
          1.83823530e-003, 0., 0., 0., 0., 0., 1.83823530e-003, 0., 0.,
          1.83823530e-003, 0., 0., 0., 0., 0., 0., 0., 0., 0.,
          1.83823530e-003, 0., 0., 1.83823530e-003, 0., 1.83823530e-003,
          0., 1.83823530e-003, 1.83823530e-003, 0., 0., 0.,
          3.67647060e-003, 0., 0., 3.67647060e-003, 0., 0.,
          5.51470602e-003, 0., 0., 1.83823530e-003, 0., 1.83823530e-003,
          0., 0., 0., 0., 0., 0., 1.83823530e-003, 0., 0.,
          5.51470602e-003, 0., 0., 0., 0., 1.83823530e-003, 0., 0., 0.,
          0., 3.67647060e-003, 0., 0., 0., 0., 0., 1.83823530e-003, 0.,
          0., 5.51470602e-003, 3.67647060e-003, 0., 3.67647060e-003, 0.,
          0., 1.83823530e-003, 1.83823530e-003, 0., 0., 3.67647060e-003,
          1.83823530e-003, 5.51470602e-003, 0., 7.35294120e-003, 0., 0.,
          0., 0., 0., 5.51470602e-003, 1.83823530e-003, 0., 0., 0., 0.,
          0., 1.83823530e-003, 5.51470602e-003, 0., 0., 0., 0.,
          1.83823530e-003, 0., 0., 0., 1.83823530e-003, 0.,
          1.83823530e-003, 0., 1.83823530e-003, 0., 0., 0., 0., 0., 0.,
          1.83823530e-003, 0., 0., 0., 0., 0., 1.83823530e-003, 0., 0.,
          0., 0., 0., 3.67647060e-003, 1.83823530e-003, 1.83823530e-003,
          1.83823530e-003, 0., 1.83823530e-003, 1.83823530e-003, 0.,
          3.67647060e-003, 3.67647060e-003, 0., 1.83823530e-003,
          1.83823530e-003, 0., 0., 1.83823530e-003, 3.67647060e-003,
          1.83823530e-003, 3.67647060e-003, 0., 0., 0., 0.,
          5.51470602e-003, 1.83823530e-003, 0., 0., 0., 0., 0., 0.,
          3.67647060e-003, 0., 0., 0., 3.67647060e-003, 0., 0.,
          1.83823530e-003, 0., 0., 5.51470602e-003, 0., 0.,
          1.83823530e-003, 3.67647060e-003, 2.20588241e-002,
          1.83823530e-003, 0., 3.67647060e-003, 0., 1.83823530e-003, 0.,
          1.83823530e-003, 0., 1.83823530e-003, 0., 0., 1.83823530e-003,
          0., 3.67647060e-003, 0., 0., 0., 3.67647060e-003,
          1.83823530e-003, 0., 3.67647060e-003, 0., 0., 0.,
          3.67647060e-003, 0., 1.83823530e-003, 0., 0., 0., 0.,
          1.83823530e-003, 0., 0., 0., 0., 0., 1.83823530e-003, 0., 0.,
          7.35294120e-003, 0., 0., 0., 0., 0., 0., 0., 0.,
          1.83823530e-003, 5.51470602e-003, 1.83823530e-003,
          1.83823530e-003, 0., 0., 0., 0., 0., 1.83823530e-003,
          3.67647060e-003, 0., 0., 0., 0., 3.67647060e-003, 0., 0.,
          7.35294120e-003, 1.83823530e-003, 0., 0., 0., 1.83823530e-003,
          1.83823530e-003, 3.67647060e-003, 0., 3.67647060e-003, 0., 0.,
          1.83823530e-003, 0., 1.83823530e-003, 0., 7.35294120e-003,
          1.83823530e-003, 0., 0., 0., 0., 0., 0., 0., 1.83823530e-003,
          7.35294120e-003, 1.83823530e-003, 1.83823530e-003,
          1.83823530e-003, 0., 1.83823530e-003, 0., 0., 7.35294120e-003,
          0., 0., 1.83823530e-003, 0., 0., 0., 3.67647060e-003, 0., 0.,
          1.83823530e-003, 9.19117685e-003, 0., 0., 5.51470602e-003,
          1.83823530e-003, 0., 0., 0., 0., 0., 1.83823530e-003, 0.,
          1.83823530e-003, 0., 0., 0., 1.83823530e-003, 0., 0.,
          1.83823530e-003, 0., 1.83823530e-003, 0. ]
      - [ 8.70321994e-004, 0., 0., 8.70321994e-004, 1.74064399e-003,
          8.70321994e-004, 1.74064399e-003, 0., 0., 0., 0.,
          1.74064399e-003, 1.74064399e-003, 0., 8.70321994e-004, 0., 0.,
          1.74064399e-003, 1.74064399e-003, 2.61096610e-003,
          8.70321994e-004, 1.74064399e-003, 3.48128797e-003,
          8.70321994e-004, 0., 5.22193220e-003, 2.61096610e-003,
          8.70321994e-004, 8.70321994e-004, 1.74064399e-003, 0., 0.,
          2.61096610e-003, 8.70321994e-004, 8.70321994e-004, 0., 0., 0.,
          0., 2.61096610e-003, 8.70321994e-004, 0., 8.70321994e-004,
          1.74064399e-003, 0., 1.74064399e-003, 2.61096610e-003, 0., 0.,
          1.74064399e-003, 0., 8.70321994e-004, 1.74064399e-003, 0., 0.,
          0., 0., 2.61096610e-003, 0., 0., 0., 8.70321994e-004, 0., 0.,
          0., 1.74064399e-003, 4.35160985e-003, 0., 8.70321994e-004,
          2.61096610e-003, 0., 8.70321994e-004, 0., 8.70321994e-004, 0.,
          0., 2.61096610e-003, 0., 8.70321994e-004, 8.70321994e-004, 0.,
          0., 8.70321994e-004, 1.74064399e-003, 0., 0., 8.70321994e-004,
          8.70321994e-004, 1.74064399e-003, 8.70321994e-004,
          8.70321994e-004, 1.74064399e-003, 8.70321994e-004,
          8.70321994e-004, 0., 0., 0., 0., 1.74064399e-003,
          1.74064399e-003, 0., 1.74064399e-003, 8.70321994e-004,
          8.70321994e-004, 8.70321994e-004, 8.70321994e-004,
          1.74064399e-003, 0., 0., 1.74064399e-003, 6.09225407e-003,
          3.48128797e-003, 0., 8.70321994e-004, 2.61096610e-003,
          1.74064399e-003, 2.61096610e-003, 1.74064399e-003,
          8.70321994e-004, 8.70321994e-004, 0., 8.70321994e-004, 0., 0.,
          1.74064399e-003, 8.70321994e-004, 2.61096610e-003,
          1.74064399e-003, 0., 2.61096610e-003, 0., 8.70321994e-004, 0.,
          0., 0., 0., 0., 0., 0., 0., 0., 8.70321994e-004,
          8.70321994e-004, 0., 0., 0., 2.61096610e-003, 8.70321994e-004,
          0., 0., 0., 1.74064399e-003, 0., 3.48128797e-003,
          2.61096610e-003, 1.74064399e-003, 0., 8.70321994e-004, 0.,
          8.70321994e-004, 1.74064399e-003, 0., 1.74064399e-003,
          1.74064399e-003, 8.70321994e-004, 1.74064399e-003, 0.,
          1.74064399e-003, 0., 0., 0., 5.22193220e-003, 0.,
          8.70321994e-004, 0., 8.70321994e-004, 8.70321994e-004, 0., 0.,
          8.70321994e-004, 0., 0., 0., 0., 0., 8.70321994e-004, 0., 0.,
          0., 3.48128797e-003, 8.70321994e-004, 1.74064399e-003,
          2.61096610e-003, 0., 3.48128797e-003, 8.70321994e-004,
          8.70321994e-004, 2.61096610e-003, 0., 8.70321994e-004, 0., 0.,
          0., 0., 0., 8.70321994e-004, 0., 0., 1.74064399e-003, 0.,
          8.70321994e-004, 8.70321994e-004, 0., 2.61096610e-003,
          8.70321994e-004, 1.74064399e-003, 8.70321994e-004, 0.,
          8.70321994e-004, 0., 8.70321994e-004, 8.70321994e-004, 0., 0.,
          0., 0., 8.70321994e-004, 0., 0., 8.70321994e-004,
          1.74064399e-003, 1.74064399e-003, 8.70321994e-004,
          2.61096610e-003, 0., 0., 0., 1.74064399e-003, 3.48128797e-003,
          6.09225407e-003, 0., 8.70321994e-004, 1.74064399e-003,
          1.74064399e-003, 0., 8.70321994e-004, 0., 0., 0.,
          8.70321994e-004, 8.70321994e-004, 0., 8.70321994e-004,
          3.48128797e-003, 0., 0., 1.74064399e-003, 0., 2.61096610e-003,
          8.70321994e-004, 0., 0., 8.70321994e-004, 0., 0., 0.,
          8.70321994e-004, 8.70321994e-004, 1.74064399e-003, 0., 0.,
          1.74064399e-003, 0., 8.70321994e-004, 8.70321994e-004,
          8.70321994e-004, 1.74064399e-003, 0., 6.96257595e-003, 0.,
          8.70321994e-004, 3.48128797e-003, 0., 0., 8.70321994e-004, 0.,
          8.70321994e-004, 1.74064399e-003, 0., 1.74064399e-003, 0.,
          1.74064399e-003, 1.74064399e-003, 8.70321994e-004, 0.,
          8.70321994e-004, 8.70321994e-004, 3.48128797e-003, 0., 0., 0.,
          0., 0., 6.09225407e-003, 3.48128797e-003, 0., 0., 0., 0., 0.,
          0., 1.74064399e-003, 2.61096610e-003, 0., 8.70321994e-004, 0.,
          4.35160985e-003, 1.74064399e-003, 0., 1.74064399e-003, 0.,
          1.74064399e-003, 1.74064399e-003, 8.70321994e-004, 0.,
          1.74064399e-003, 0., 8.70321994e-004, 8.70321994e-004,
          8.70321994e-004, 8.70321994e-004, 4.35160985e-003, 0., 0., 0.,
          8.70321994e-004, 0., 0., 0., 4.35160985e-003, 8.70321994e-004,
          0., 8.70321994e-004, 8.70321994e-004, 0., 0., 0.,
          3.48128797e-003, 0., 8.70321994e-004, 8.70321994e-004, 0.,
          8.70321994e-004, 8.70321994e-004, 0., 8.70321994e-004, 0.,
          1.74064399e-003, 0., 8.70321994e-004, 8.70321994e-004, 0.,
          8.70321994e-004, 0., 4.35160985e-003, 3.48128797e-003,
          8.70321994e-004, 0., 2.61096610e-003, 8.70321994e-004, 0., 0.,
          0., 0., 8.70321994e-004, 8.70321994e-004, 0., 3.48128797e-003,
          0., 0., 1.74064399e-003, 0., 0., 0., 0., 0., 0., 0., 0.,
          1.74064399e-003, 8.70321994e-004, 0., 1.74064399e-003,
          8.70321994e-004, 2.61096610e-003, 1.74064399e-003,
          8.70321994e-004, 0., 0., 0., 0., 0., 8.70321994e-004,
          8.70321994e-004, 0., 1.74064399e-003, 0., 8.70321994e-004,
          6.09225407e-003, 8.70321994e-004, 1.74064399e-003, 0., 0., 0.,
          8.70321994e-004, 8.70321994e-004, 3.48128797e-003, 0., 0., 0.,
          0., 6.96257595e-003, 0., 3.48128797e-003, 2.61096610e-003, 0.,
          0., 0., 2.61096610e-003, 0., 8.70321994e-004, 0., 0., 0.,
          1.74064399e-003, 8.70321994e-004, 2.61096610e-003, 0.,
          1.74064399e-003, 2.61096610e-003, 8.70321994e-004, 0.,
          8.70321994e-004, 0., 0., 1.74064399e-003, 0., 0., 0., 0.,
          4.35160985e-003, 8.70321994e-004, 0., 8.70321994e-004,
          2.61096610e-003, 2.61096610e-003, 0., 0., 0., 8.70321994e-004,
          0., 0., 2.61096610e-003, 4.35160985e-003, 8.70321994e-004, 0.,
          8.70321994e-004, 0., 8.70321994e-004, 1.74064399e-003,
          6.96257595e-003, 4.35160985e-003, 8.70321994e-004,
          8.70321994e-004, 0., 0., 0., 0., 0., 1.74064399e-003, 0., 0.,
          8.70321994e-004, 8.70321994e-004, 0., 0., 6.09225407e-003,
          1.74064399e-003, 3.48128797e-003, 8.70321994e-004, 0.,
          8.70321994e-004, 8.70321994e-004, 1.74064399e-003, 0.,
          8.70321994e-004, 1.74064399e-003, 0., 0., 1.74064399e-003, 0.,
          0., 0., 8.70321994e-004, 0., 0., 0., 0., 8.70321994e-004,
          1.74064399e-003, 0., 9.57354158e-003, 8.70321994e-004,
          8.70321994e-004, 8.70321970e-003, 0., 2.61096610e-003,
          4.35160985e-003, 1.74064399e-003, 8.70321994e-004,
          8.70321994e-004, 1.74064399e-003, 8.70321994e-004,
          1.74064399e-003, 1.74064399e-003, 0., 8.70321994e-004, 0.,
          3.48128797e-003, 0., 8.70321994e-004, 0., 0., 0.,
          8.70321994e-004, 0., 0., 0., 8.70321994e-004, 0.,
          8.70321994e-004, 1.74064399e-003, 8.70321994e-004,
          3.48128797e-003, 1.74064399e-003, 0., 0., 1.74064399e-003,
          8.70321994e-004, 0., 8.70321994e-004, 0., 0., 0.,
          8.70321970e-003, 0., 8.70321994e-004, 0., 0., 0.,
          8.70321994e-004, 8.70321994e-004, 8.70321994e-004,
          8.70321994e-004, 0., 8.70321994e-004, 0., 0., 0., 0.,
          8.70321994e-004, 8.70321994e-004, 1.74064399e-003, 0., 0.,
          8.70321994e-004, 0., 8.70321994e-004, 8.70321994e-004, 0.,
          3.48128797e-003, 2.61096610e-003, 0., 5.22193220e-003, 0., 0.,
          1.74064399e-003, 0., 1.74064399e-003, 8.70321994e-004, 0., 0.,
          8.70321994e-004, 8.70321994e-004, 8.70321994e-004, 0.,
          2.61096610e-003, 0., 1.74064399e-003, 8.70321994e-004,
          8.70321994e-004, 0., 1.74064399e-003, 0., 4.35160985e-003,
          8.70321994e-004, 0., 8.70321994e-004, 0., 0., 8.70321994e-004,
          1.74064399e-003, 1.74064399e-003, 1.74064399e-003,
          1.74064399e-003, 8.70321994e-004, 8.70321994e-004,
          8.70321994e-004, 0., 0., 8.70321994e-004, 8.70321994e-004, 0.,
          1.74064399e-003, 2.61096610e-003, 6.96257595e-003, 0.,
          8.70321994e-004, 0., 0., 0., 0., 1.74064399e-003,
          2.61096610e-003, 0., 0., 2.61096610e-003, 8.70321994e-004, 0.,
          0., 8.70321994e-004, 0., 8.70321994e-004, 1.74064399e-003,
          8.70321994e-004, 8.70321994e-004, 0., 1.74064399e-003,
          1.74064399e-003, 8.70321994e-004, 8.70321994e-004,
          1.74064399e-003, 8.70321994e-004, 0., 0., 8.70321994e-004, 0.,
          0., 8.70321994e-004, 0., 8.70321994e-004, 8.70321994e-004,
          8.70321994e-004, 0., 8.70321994e-004, 8.70321994e-004,
          8.70321994e-004, 1.74064399e-003, 1.74064399e-003,
          1.74064399e-003, 0., 4.35160985e-003, 0., 0., 1.74064399e-003,
          1.74064399e-003, 1.74064399e-003, 8.70321994e-004,
          8.70321994e-004, 2.61096610e-003, 2.61096610e-003, 0., 0., 0.,
          8.70321994e-004, 5.22193220e-003, 8.70321994e-004,
          8.70321994e-004, 0., 0., 1.74064399e-003, 1.74064399e-003,
          8.70321994e-004, 1.74064399e-003, 0., 8.70321994e-004, 0., 0.,
          0., 8.70321994e-004, 8.70321994e-004, 0., 1.74064399e-003,
          2.61096610e-003, 0., 0., 8.70321994e-004, 1.74064399e-003, 0.,
          0., 0., 0., 8.70321994e-004, 1.74064399e-003, 1.74064399e-003,
          8.70321994e-004, 1.74064399e-003, 0., 0., 6.09225407e-003, 0.,
          1.74064399e-003, 1.74064399e-003, 0., 8.70321994e-004, 0., 0.,
          2.61096610e-003, 0., 3.48128797e-003, 0., 0., 1.74064399e-003,
          0., 0., 0., 0., 7.83289783e-003, 8.70321994e-004, 0., 0., 0.,
          0., 8.70321994e-004, 0., 8.70321994e-004, 1.74064399e-003,
          2.61096610e-003, 8.70321994e-004, 2.61096610e-003,
          3.48128797e-003, 0., 1.74064399e-003, 0., 8.70321994e-004,
          3.48128797e-003, 2.61096610e-003, 0., 0., 0., 4.35160985e-003,
          2.61096610e-003, 0., 1.74064399e-003, 8.70321994e-004, 0., 0.,
          0., 0., 2.61096610e-003, 1.74064399e-003, 8.70321994e-004, 0.,
          0., 0., 8.70321994e-004, 4.35160985e-003, 1.74064399e-003,
          1.74064399e-003, 1.74064399e-003, 1.74064399e-003,
          2.61096610e-003, 8.70321994e-004, 8.70321994e-004,
          1.74064399e-003, 8.70321994e-004, 0., 8.70321994e-004, 0., 0.,
          1.74064399e-003, 1.74064399e-003, 0., 8.70321994e-004,
          8.70321994e-004, 0., 0., 0., 0., 2.61096610e-003,
          7.83289783e-003, 0., 0., 3.48128797e-003, 0., 0., 0.,
          9.57354158e-003, 0., 8.70321994e-004, 8.70321994e-004,
          8.70321994e-004, 8.70321994e-004, 8.70321994e-004, 0., 0., 0.,
          8.70321994e-004, 3.48128797e-003, 0., 0., 6.96257595e-003, 0.,
          8.70321994e-004, 0., 0., 0., 0., 0., 1.74064399e-003,
          3.48128797e-003, 4.35160985e-003, 8.70321994e-004, 0.,
          1.04438644e-002, 1.74064399e-003, 8.70321994e-004, 0.,
          4.35160985e-003, 0., 8.70321994e-004, 0., 0., 1.74064399e-003,
          0., 0., 8.70321994e-004, 0., 8.70321994e-004, 3.48128797e-003,
          0., 8.70321994e-004, 0., 0., 8.70321994e-004, 0., 0.,
          8.70321994e-004, 2.61096610e-003, 3.48128797e-003,
          1.74064399e-003, 2.61096610e-003, 0., 2.61096610e-003,
          8.70321994e-004, 0., 0., 8.70321994e-004, 0., 8.70321994e-004,
          1.74064399e-003, 1.74064399e-003, 0., 8.70321994e-004, 0.,
          6.96257595e-003, 8.70321994e-004, 1.74064399e-003, 0.,
          1.74064399e-003, 8.70321994e-004, 8.70321994e-004, 0., 0., 0.,
          2.61096610e-003, 0., 0., 0., 1.74064399e-003, 0.,
          8.70321994e-004, 0., 2.61096610e-003, 8.70321994e-004,
          8.70321994e-004, 0., 0., 0., 8.70321994e-004, 0.,
          1.74064399e-003, 0., 1.74064399e-003, 8.70321994e-004,
          8.70321994e-004, 8.70321994e-004, 2.61096610e-003, 0.,
          8.70321994e-004, 0., 8.70321994e-004, 0., 8.70321994e-004,
          8.70321994e-004, 8.70321994e-004, 3.48128797e-003,
          3.48128797e-003, 2.61096610e-003, 0., 0., 0., 0.,
          8.70321994e-004, 8.70321994e-004, 0., 8.70321994e-004,
          8.70321994e-004, 0., 2.61096610e-003, 0., 1.74064399e-003,
          2.61096610e-003, 1.74064399e-003, 0., 8.70321994e-004,
          8.70321994e-004, 2.61096610e-003, 0., 8.70321994e-004, 0.,
          3.48128797e-003, 0., 0., 0., 8.70321994e-004, 8.70321994e-004,
          1.74064399e-003, 8.70321994e-004, 0., 0., 0., 1.74064399e-003,
          8.70321994e-004, 1.74064394e-002, 8.70321994e-004, 0.,
          4.35160985e-003, 0., 8.70321994e-004, 3.48128797e-003,
          8.70321994e-004, 0., 2.61096610e-003, 0., 8.70321994e-004, 0.,
          0., 7.83289783e-003, 0., 0., 8.70321994e-004, 0., 0., 0., 0.,
          3.48128797e-003, 8.70321994e-004, 1.74064399e-003,
          8.70321994e-004, 1.74064399e-003, 0., 8.70321994e-004, 0., 0.,
          0., 0., 8.70321994e-004, 1.74064399e-003, 1.74064399e-003, 0.,
          0., 8.70321994e-004, 0., 3.48128797e-003, 2.61096610e-003, 0.,
          0., 0., 0. ]
      - [ 0., 0., 7.04225339e-003, 0., 0., 1.05633801e-002, 0., 0., 0.,
          0., 0., 0., 0., 0., 0., 3.52112651e-002, 0., 0., 0., 0., 0.,
          3.52112669e-003, 0., 0., 0., 0., 0., 0., 0., 3.52112669e-003,
          7.04225339e-003, 0., 0., 0., 0., 0., 0., 0., 0., 0.,
          3.52112669e-003, 0., 7.04225339e-003, 0., 0., 0., 0., 0., 0.,
          0., 0., 0., 0., 0., 0., 0., 2.11267602e-002, 0., 0., 0., 0.,
          0., 0., 0., 0., 0., 0., 0., 0., 0., 1.05633801e-002, 0., 0.,
          0., 0., 3.52112669e-003, 0., 0., 0., 0., 0., 0.,
          1.40845068e-002, 0., 0., 2.11267602e-002, 0., 0., 0., 0., 0.,
          0., 1.40845068e-002, 0., 0., 0., 0., 0., 0., 0., 0., 0., 0.,
          0., 0., 0., 7.04225339e-003, 0., 0., 1.76056325e-002, 0., 0.,
          0., 0., 0., 3.52112669e-003, 0., 0., 0., 0., 0., 0.,
          3.52112669e-003, 0., 0., 0., 0., 0., 0., 0., 0., 0.,
          1.40845068e-002, 0., 0., 0., 0., 0., 0., 0., 0., 0., 0., 0.,
          0., 0., 0., 0., 0., 0., 0., 0., 0., 0., 0., 0., 0., 0., 0., 0.,
          0., 0., 0., 0., 3.52112669e-003, 0., 0., 0., 0., 0., 0., 0.,
          0., 0., 0., 0., 0., 0., 0., 0., 0., 0., 0., 7.04225339e-003,
          0., 0., 0., 1.05633801e-002, 0., 0., 0., 0., 0., 0., 0., 0.,
          0., 0., 3.16901393e-002, 0., 0., 0., 0., 0., 0., 0., 0.,
          1.76056325e-002, 0., 0., 0., 0., 0., 0., 0., 0., 0., 0., 0.,
          0., 0., 3.52112669e-003, 0., 0., 0., 0., 0., 0., 0.,
          1.76056325e-002, 0., 0., 0., 0., 0., 0., 0., 0., 0., 0.,
          2.11267602e-002, 0., 0., 0., 0., 1.40845068e-002, 0., 0., 0.,
          0., 0., 0., 0., 0., 0., 7.04225339e-003, 0., 0., 0., 0., 0.,
          0., 0., 0., 0., 0., 0., 3.52112669e-003, 0., 0.,
          3.52112669e-003, 0., 0., 0., 0., 0., 0., 0., 0., 0., 0., 0.,
          0., 0., 3.52112669e-003, 3.52112669e-003, 0., 0., 0., 0., 0.,
          3.52112669e-003, 0., 0., 0., 3.52112669e-003, 0., 0., 0., 0.,
          0., 0., 0., 0., 0., 0., 0., 0., 0., 0., 0., 7.04225339e-003,
          0., 0., 1.40845068e-002, 0., 0., 0., 0., 0., 0., 0., 0., 0.,
          0., 0., 0., 0., 0., 0., 0., 0., 0., 0., 0., 7.04225339e-003,
          0., 0., 0., 0., 4.22535203e-002, 0., 0., 0., 0., 0., 0., 0.,
          0., 3.52112669e-003, 1.05633801e-002, 3.52112669e-003, 0., 0.,
          0., 0., 0., 0., 7.04225339e-003, 0., 0., 0., 0., 0., 0., 0.,
          0., 7.04225339e-003, 0., 0., 0., 0., 0., 0., 0., 0., 0., 0.,
          0., 0., 0., 0., 0., 0., 0., 0., 0., 0., 1.05633801e-002, 0.,
          0., 0., 0., 0., 0., 0., 0., 2.46478878e-002, 3.52112669e-003,
          0., 0., 0., 0., 0., 0., 0., 0., 0., 0., 0., 0., 0.,
          1.05633801e-002, 0., 0., 0., 0., 0., 0., 0., 0., 0., 0., 0.,
          0., 0., 0., 1.40845068e-002, 0., 0., 0., 0., 0., 0., 0., 0.,
          0., 0., 0., 0., 0., 3.52112669e-003, 0., 0., 0., 0.,
          7.04225339e-003, 0., 7.04225339e-003, 0., 0., 0., 0., 0., 0.,
          0., 0., 0., 0., 0., 0., 0., 0., 0., 0., 0., 0., 0.,
          3.52112669e-003, 0., 0., 0., 0., 0., 0., 0., 0., 0., 0., 0.,
          0., 0., 0., 0., 0., 0., 0., 0., 0., 0., 0., 0., 0., 0., 0., 0.,
          0., 7.04225339e-003, 0., 0., 0., 0., 0., 3.52112669e-003, 0.,
          0., 0., 3.52112669e-003, 0., 3.52112669e-003, 0., 0.,
          1.40845068e-002, 0., 0., 0., 3.52112669e-003, 0., 0., 0., 0.,
          0., 0., 0., 0., 0., 0., 0., 0., 0., 0., 0., 0., 0., 0., 0., 0.,
          0., 0., 0., 0., 0., 1.05633801e-002, 0., 0., 0., 0., 0., 0.,
          0., 0., 0., 0., 3.52112669e-003, 0., 0., 0., 0., 0., 0., 0.,
          0., 0., 3.52112669e-003, 0., 0., 3.52112669e-003,
          3.52112669e-003, 0., 0., 0., 0., 0., 1.05633801e-002, 0., 0.,
          0., 0., 0., 0., 0., 0., 0., 0., 0., 0., 0., 0., 0., 0., 0., 0.,
          0., 0., 0., 0., 0., 0., 0., 0., 0., 0., 0., 0., 0., 0.,
          3.52112669e-003, 2.46478878e-002, 0., 3.52112669e-003, 0., 0.,
          0., 0., 0., 0., 0., 0., 3.52112669e-003, 0., 3.52112669e-003,
          0., 0., 0., 0., 0., 1.76056325e-002, 0., 0., 7.04225339e-003,
          0., 0., 0., 0., 0., 0., 0., 0., 0., 0., 0., 7.04225339e-003,
          3.52112669e-003, 0., 0., 0., 0., 0., 0., 0., 0., 0., 0.,
          2.11267602e-002, 0., 3.52112669e-003, 0., 0., 0., 0., 0., 0.,
          3.52112669e-003, 0., 0., 0., 0., 0., 3.52112669e-003, 0., 0.,
          0., 7.04225339e-003, 0., 0., 0., 7.04225339e-003, 0., 0., 0.,
          0., 0., 0., 0., 7.04225339e-003, 0., 0., 0., 0., 0., 0., 0.,
          0., 0., 0., 0., 0., 0., 0., 0., 0., 0., 0., 0., 0., 0., 0., 0.,
          0., 0., 0., 0., 0., 0., 0., 3.52112669e-003, 0., 0., 0., 0.,
          0., 0., 0., 0., 0., 0., 0., 0., 3.52112669e-003,
          3.52112669e-003, 0., 0., 0., 0., 0., 0., 3.52112669e-003, 0.,
          0., 0., 0., 0., 0., 3.52112669e-003, 0., 0., 0., 0., 0., 0.,
          0., 0., 0., 0., 0., 0., 0., 0., 0., 0., 0., 0., 0.,
          3.52112669e-003, 2.11267602e-002, 0., 0., 7.04225339e-003, 0.,
          0., 0., 0., 0., 0., 0., 0., 0., 0., 7.04225339e-003,
          7.04225339e-003, 0., 0., 0., 0., 0., 0., 0., 3.52112669e-003,
          0., 0., 0., 0., 0., 0., 0., 0., 0., 0., 0., 3.52112669e-003,
          0., 0., 0., 0., 0., 0., 7.04225339e-003, 0., 0., 0., 0.,
          3.52112669e-003, 3.52112669e-003, 0., 0., 0., 0., 0., 0., 0.,
          0., 0., 0., 3.52112669e-003, 0., 0., 0., 0., 0.,
          2.11267602e-002, 0., 0., 0., 0., 0., 0., 0., 1.05633801e-002,
          0., 0., 0., 0., 0., 0., 0., 0., 0., 0., 0., 0., 0., 0., 0., 0.,
          7.04225339e-003, 1.40845068e-002, 0., 0., 0., 0., 0., 0., 0.,
          2.11267602e-002, 0., 0., 0., 0., 0., 0., 0., 0., 0., 0., 0.,
          0., 0., 0., 0., 0., 0., 0., 0., 3.52112669e-003, 0.,
          3.52112669e-003, 0., 0., 0., 0., 0., 0., 3.52112669e-003, 0.,
          0., 3.52112669e-003, 0., 0., 0., 0., 0., 0., 0., 0., 0., 0.,
          0., 0., 0., 0., 0., 0., 0., 0., 0., 0., 0., 0., 0., 0., 0., 0.,
          0., 0., 0., 1.05633801e-002, 0., 0., 3.52112669e-003, 0., 0.,
          0., 3.52112669e-003, 0., 0., 0., 0., 0., 0., 3.16901393e-002,
          0., 0., 0., 0., 0., 0., 0., 0., 0., 0., 0., 0., 0., 0., 0., 0.,
          0., 0., 3.52112669e-003, 0., 3.52112669e-003, 0., 0., 0., 0.,
          0., 0., 0., 0., 0., 0., 0., 0., 1.05633801e-002, 0., 0., 0.,
          0., 0., 3.52112669e-003, 0., 0., 0., 0., 0., 0., 0., 0., 0.,
          0., 0., 0., 0., 0., 0., 0., 0., 0., 0., 7.04225339e-003 ]
      - [ 0., 0., 0., 0., 0., 0., 0., 7.90513866e-003, 0., 0.,
          3.95256933e-003, 3.95256933e-003, 0., 0., 3.95256933e-003, 0.,
          0., 0., 0., 0., 0., 0., 0., 0., 0., 0., 0., 0.,
          3.95256933e-003, 0., 0., 1.18577080e-002, 0., 0., 0.,
          3.95256933e-003, 0., 7.90513866e-003, 0., 0., 0.,
          3.95256933e-003, 0., 3.95256933e-003, 0., 0., 0., 0., 0., 0.,
          0., 3.95256933e-003, 0., 0., 0., 3.95256933e-003, 0.,
          3.95256933e-003, 0., 0., 1.58102773e-002, 0., 0.,
          7.90513866e-003, 1.18577080e-002, 0., 0., 0., 0.,
          3.95256933e-003, 0., 0., 0., 0., 0., 0., 0., 0., 0.,
          3.95256933e-003, 7.90513866e-003, 7.90513866e-003, 0., 0.,
          3.95256933e-003, 0., 0., 3.95256933e-003, 0., 3.95256933e-003,
          0., 0., 0., 3.95256933e-003, 3.95256933e-003, 0., 0., 0.,
          3.95256933e-003, 0., 0., 0., 0., 0., 0., 0., 0., 0.,
          3.95256933e-003, 0., 0., 0., 0., 1.18577080e-002, 0., 0., 0.,
          0., 0., 0., 0., 0., 0., 0., 3.95256933e-003, 0., 0., 0., 0.,
          0., 0., 0., 0., 0., 0., 0., 3.95256933e-003, 0.,
          3.95256933e-003, 0., 0., 3.95256933e-003, 1.18577080e-002, 0.,
          0., 7.90513866e-003, 0., 0., 0., 1.18577080e-002, 0., 0., 0.,
          0., 0., 0., 0., 0., 0., 0., 0., 0., 0., 0., 0., 0., 0., 0., 0.,
          0., 0., 0., 3.95256933e-003, 0., 0., 0., 3.95256933e-003,
          1.58102773e-002, 0., 0., 0., 7.90513866e-003, 7.90513866e-003,
          0., 0., 0., 0., 0., 0., 0., 0., 0., 0., 1.18577080e-002, 0.,
          0., 0., 0., 0., 0., 0., 0., 0., 0., 0., 3.95256933e-003, 0.,
          0., 0., 0., 0., 0., 0., 0., 0., 0., 0., 3.95256933e-003, 0.,
          0., 0., 0., 0., 0., 0., 0., 0., 0., 7.90513866e-003, 0., 0.,
          7.90513866e-003, 0., 0., 1.58102773e-002, 0., 0., 0., 0., 0.,
          0., 0., 0., 0., 3.95256933e-003, 0., 0., 0., 3.95256933e-003,
          0., 0., 0., 0., 0., 0., 0., 0., 0., 0., 0., 0., 0., 0., 0., 0.,
          0., 0., 0., 0., 0., 0., 0., 0., 0., 0., 0., 0., 0., 0., 0.,
          7.90513866e-003, 0., 0., 0., 0., 0., 0., 0., 3.95256933e-003,
          0., 0., 0., 7.90513866e-003, 0., 3.95256933e-003, 0.,
          3.95256933e-003, 0., 3.95256933e-003, 0., 0., 7.90513866e-003,
          0., 0., 0., 0., 0., 0., 3.95256933e-003, 0., 0., 0., 0., 0.,
          0., 0., 0., 0., 0., 0., 0., 0., 0., 0., 3.95256933e-003, 0.,
          3.95256933e-003, 0., 0., 0., 0., 7.90513866e-003, 0., 0., 0.,
          0., 0., 0., 3.95256933e-003, 0., 0., 0., 1.18577080e-002, 0.,
          0., 0., 0., 0., 0., 0., 0., 0., 0., 0., 3.95256933e-003, 0.,
          0., 0., 0., 0., 0., 0., 3.95256933e-003, 0., 0., 0.,
          3.95256933e-003, 0., 0., 0., 0., 0., 0., 0., 0.,
          3.95256933e-003, 0., 0., 0., 0., 0., 0., 0., 0.,
          1.97628476e-002, 0., 0., 0., 0., 0., 0., 0., 0., 0., 0., 0.,
          0., 0., 0., 7.90513866e-003, 0., 0., 0., 0., 0., 0., 0.,
          3.95256933e-003, 7.90513866e-003, 0., 0., 0., 0., 0., 0., 0.,
          0., 0., 0., 0., 0., 0., 0., 0., 0., 0., 0., 0., 0., 0., 0., 0.,
          0., 2.37154160e-002, 3.95256933e-003, 0., 0., 0., 0., 0., 0.,
          0., 1.58102773e-002, 0., 0., 0., 0., 0., 0., 0., 0., 0., 0.,
          0., 0., 0., 0., 0., 0., 7.90513866e-003, 1.18577080e-002, 0.,
          0., 0., 0., 3.95256933e-003, 3.95256933e-003, 0., 0., 0., 0.,
          0., 0., 0., 3.95256933e-003, 0., 0., 0., 7.90513866e-003, 0.,
          0., 0., 3.95256933e-003, 0., 0., 0., 0., 0., 0.,
          7.90513866e-003, 0., 0., 0., 3.95256933e-003, 3.95256933e-003,
          3.95256933e-003, 0., 0., 0., 0., 0., 0., 0., 0., 0., 0., 0.,
          0., 7.90513866e-003, 0., 1.18577080e-002, 0., 0., 0., 0., 0.,
          0., 0., 0., 0., 3.95256933e-003, 0., 0., 0., 0., 0., 0., 0.,
          0., 0., 0., 0., 3.95256933e-003, 0., 0., 0., 0., 0., 0., 0.,
          7.90513866e-003, 0., 0., 0., 0., 3.95256933e-003, 0., 0., 0.,
          0., 0., 0., 0., 0., 0., 0., 0., 0., 0., 0., 0., 0., 0., 0., 0.,
          0., 0., 0., 0., 0., 0., 0., 0., 0., 1.18577080e-002, 0.,
          3.95256933e-003, 0., 0., 0., 0., 0., 0., 3.95256933e-003, 0.,
          0., 0., 0., 7.90513866e-003, 0., 0., 3.95256933e-003, 0., 0.,
          0., 0., 0., 3.95256933e-003, 0., 0., 0., 0., 0., 0., 0., 0.,
          0., 0., 3.95256933e-003, 0., 0., 0., 0., 0., 0., 0., 0., 0.,
          0., 0., 0., 0., 0., 0., 0., 0., 0., 0., 0., 0.,
          7.90513866e-003, 0., 0., 0., 0., 0., 0., 0., 0., 0., 0., 0.,
          0., 0., 0., 0., 1.18577080e-002, 0., 0., 0., 0., 0., 0., 0.,
          0., 0., 0., 3.95256933e-003, 3.95256933e-003, 0.,
          3.95256933e-003, 0., 0., 0., 3.95256933e-003, 0., 0., 0., 0.,
          3.95256933e-003, 0., 0., 3.95256933e-003, 0., 0., 0., 0.,
          7.90513866e-003, 0., 0., 3.95256933e-003, 0., 0., 0., 0., 0.,
          0., 0., 0., 0., 0., 1.58102773e-002, 0., 0., 0., 0., 0., 0.,
          0., 0., 0., 0., 0., 0., 0., 0., 0., 0., 0., 3.95256933e-003,
          0., 1.18577080e-002, 0., 3.95256933e-003, 0., 3.95256933e-003,
          0., 0., 0., 0., 0., 0., 0., 0., 0., 0., 0., 0., 0., 0., 0., 0.,
          0., 0., 3.95256933e-003, 0., 0., 0., 0., 3.95256933e-003, 0.,
          0., 0., 0., 0., 0., 0., 0., 3.95256933e-003, 0., 0., 0., 0.,
          3.95256933e-003, 0., 0., 0., 0., 0., 3.95256933e-003, 0.,
          7.90513866e-003, 0., 0., 0., 0., 0., 0., 0., 0., 0., 0., 0.,
          0., 0., 0., 0., 0., 0., 0., 7.90513866e-003, 0., 0., 0., 0.,
          0., 1.18577080e-002, 0., 0., 0., 0., 3.95256933e-003, 0., 0.,
          3.95256933e-003, 0., 3.95256933e-003, 0., 0., 0., 0., 0., 0.,
          3.95256933e-003, 0., 0., 0., 0., 3.95256933e-003, 0., 0., 0.,
          0., 0., 0., 0., 0., 0., 0., 0., 0., 0., 3.95256933e-003, 0.,
          1.58102773e-002, 0., 0., 3.95256933e-003, 0., 0., 0., 0., 0.,
          7.90513866e-003, 0., 0., 0., 0., 0., 0., 0., 0.,
          3.95256933e-003, 0., 0., 7.90513866e-003, 0., 0., 0., 0.,
          3.95256933e-003, 0., 0., 0., 3.95256933e-003, 0., 0., 0., 0.,
          0., 0., 0., 0., 0., 0., 0., 0., 0., 0., 0., 0., 0., 0., 0., 0.,
          0., 0., 0., 0., 0., 0., 0., 1.97628476e-002, 0.,
          3.95256933e-003, 0., 3.95256933e-003, 0., 0., 0.,
          3.95256933e-003, 0., 0., 0., 0., 0., 0., 0., 0., 0.,
          3.95256933e-003, 0., 0., 0., 0., 3.95256933e-003, 0., 0., 0.,
          0., 3.95256933e-003, 0., 0., 0., 0., 0., 0., 0., 0.,
          3.95256933e-003, 0., 0., 3.95256933e-003, 3.95256933e-003, 0.,
          0., 3.95256933e-003, 0., 0., 3.95256933e-003, 0., 0., 0., 0.,
          3.95256933e-003, 0., 0., 0., 0., 0., 0., 0., 0., 0.,
          7.90513866e-003, 7.90513866e-003, 0., 0., 0., 3.95256933e-003,
          3.95256933e-003, 0., 0., 7.90513866e-003, 0., 0., 0., 0., 0.,
          3.95256933e-003, 0., 3.95256933e-003, 0., 0., 0., 0., 0.,
          3.95256933e-003, 0., 0., 0., 0., 0., 0., 3.95256933e-003,
          1.18577080e-002, 0., 3.95256933e-003, 0., 0., 0., 0.,
          3.95256933e-003, 3.95256933e-003, 0., 0., 0., 0., 0., 0.,
          3.95256933e-003, 3.95256933e-003, 0., 0., 0., 0., 0., 0.,
          1.18577080e-002, 0. ]
      - [ 0., 0., 0., 3.11526470e-003, 0., 0., 9.34579410e-003, 0., 0.,
          0., 0., 0., 3.11526470e-003, 0., 0., 0., 0., 3.11526470e-003,
          0., 0., 3.11526470e-003, 3.11526470e-003, 0., 3.11526470e-003,
          0., 0., 0., 3.11526470e-003, 0., 0., 0., 0., 0., 0., 0., 0.,
          0., 6.23052940e-003, 6.23052940e-003, 6.23052940e-003, 0.,
          2.18068529e-002, 3.11526470e-003, 0., 3.11526470e-003,
          3.11526470e-003, 0., 3.11526470e-003, 0., 6.23052940e-003, 0.,
          0., 0., 0., 0., 0., 0., 0., 0., 0., 6.23052940e-003, 0., 0.,
          0., 0., 3.11526470e-003, 0., 0., 3.11526470e-003, 0., 0.,
          3.11526470e-003, 0., 0., 0., 0., 3.11526470e-003, 0.,
          3.11526470e-003, 0., 0., 3.11526470e-003, 0., 0., 0., 0., 0.,
          0., 0., 3.11526470e-003, 0., 0., 0., 0., 0., 3.11526470e-003,
          6.23052940e-003, 0., 0., 0., 0., 0., 0., 0., 0., 0., 0., 0.,
          9.34579410e-003, 0., 0., 0., 0., 0., 0., 0., 3.11526470e-003,
          6.23052940e-003, 3.11526470e-003, 0., 0., 0., 3.11526470e-003,
          6.23052940e-003, 0., 0., 0., 0., 0., 0., 3.11526470e-003, 0.,
          0., 3.11526470e-003, 0., 0., 0., 0., 0., 3.11526470e-003, 0.,
          0., 3.11526470e-003, 0., 0., 0., 3.11526470e-003,
          3.11526470e-003, 0., 0., 0., 0., 3.11526470e-003, 0., 0., 0.,
          0., 0., 0., 0., 0., 0., 3.11526470e-003, 3.11526470e-003, 0.,
          0., 0., 0., 6.23052940e-003, 0., 3.11526470e-003, 0., 0., 0.,
          0., 0., 3.11526470e-003, 0., 3.11526470e-003, 0.,
          3.11526470e-003, 0., 3.11526470e-003, 0., 0., 0.,
          3.11526470e-003, 0., 3.11526470e-003, 0., 0., 0.,
          3.11526470e-003, 3.11526470e-003, 0., 6.23052940e-003, 0., 0.,
          0., 0., 0., 3.11526470e-003, 0., 9.34579410e-003, 0., 0., 0.,
          6.23052940e-003, 0., 0., 0., 0., 0., 0., 0., 0., 0., 0., 0.,
          0., 0., 0., 3.11526470e-003, 0., 0., 0., 0., 0., 0., 0.,
          3.11526470e-003, 3.11526470e-003, 6.23052940e-003, 0., 0., 0.,
          0., 0., 3.11526470e-003, 0., 0., 3.11526470e-003,
          3.11526470e-003, 0., 0., 0., 0., 3.11526470e-003, 0., 0., 0.,
          0., 3.11526470e-003, 6.23052940e-003, 9.34579410e-003, 0., 0.,
          0., 0., 0., 3.11526470e-003, 0., 0., 0., 0., 3.11526470e-003,
          0., 0., 3.11526470e-003, 0., 0., 0., 6.23052940e-003, 0., 0.,
          0., 0., 0., 0., 3.11526470e-003, 0., 3.11526470e-003, 0., 0.,
          0., 0., 0., 0., 0., 0., 0., 0., 1.24610588e-002, 0., 0., 0.,
          0., 0., 0., 0., 3.11526470e-003, 6.23052940e-003, 0.,
          6.23052940e-003, 0., 3.11526470e-003, 0., 0., 0., 0., 0., 0.,
          0., 0., 0., 6.23052940e-003, 0., 0., 0., 3.11526470e-003, 0.,
          0., 0., 0., 3.11526470e-003, 3.11526470e-003, 3.11526470e-003,
          0., 3.11526470e-003, 0., 0., 0., 0., 0., 0., 0.,
          3.11526470e-003, 0., 0., 0., 0., 3.11526470e-003, 0., 0., 0.,
          3.11526470e-003, 0., 0., 0., 0., 0., 0., 0., 0.,
          3.11526470e-003, 3.11526470e-003, 0., 0., 0., 3.11526470e-003,
          0., 0., 0., 0., 0., 0., 0., 0., 0., 6.23052940e-003, 0.,
          3.11526470e-003, 0., 3.11526470e-003, 3.11526470e-003,
          6.23052940e-003, 0., 3.11526470e-003, 3.11526470e-003, 0., 0.,
          0., 0., 0., 0., 3.11526470e-003, 0., 0., 0., 0.,
          3.11526470e-003, 0., 3.11526470e-003, 3.11526470e-003, 0., 0.,
          0., 0., 0., 0., 6.23052940e-003, 3.11526470e-003, 0.,
          3.11526470e-003, 0., 3.11526470e-003, 6.23052940e-003, 0., 0.,
          3.11526470e-003, 0., 0., 0., 0., 0., 0., 0., 9.34579410e-003,
          3.11526470e-003, 0., 0., 0., 0., 3.11526470e-003, 0., 0., 0.,
          0., 0., 0., 0., 0., 3.11526470e-003, 0., 3.11526470e-003,
          3.11526470e-003, 0., 6.23052940e-003, 0., 0., 0., 0., 0.,
          3.11526470e-003, 0., 0., 0., 0., 0., 0., 0., 0., 0., 0., 0.,
          0., 0., 0., 0., 0., 3.11526470e-003, 3.11526470e-003, 0., 0.,
          0., 0., 0., 3.11526470e-003, 0., 0., 0., 0., 3.11526470e-003,
          0., 0., 0., 0., 0., 0., 0., 0., 3.11526470e-003,
          6.23052940e-003, 0., 3.11526470e-003, 0., 0., 0., 0., 0., 0.,
          0., 3.11526470e-003, 6.23052940e-003, 3.11526470e-003, 0., 0.,
          0., 3.11526470e-003, 3.11526470e-003, 3.11526470e-003, 0., 0.,
          0., 3.11526470e-003, 0., 0., 0., 3.11526470e-003,
          6.23052940e-003, 3.11526470e-003, 0., 0., 0., 0.,
          1.24610588e-002, 0., 0., 0., 0., 6.23052940e-003, 0.,
          3.11526470e-003, 0., 3.11526470e-003, 0., 0., 0., 0., 0.,
          3.11526470e-003, 3.11526470e-003, 0., 0., 0., 0., 0., 0., 0.,
          0., 0., 3.11526470e-003, 0., 0., 3.11526470e-003, 0., 0., 0.,
          0., 3.11526470e-003, 0., 0., 0., 0., 0., 0., 0., 0.,
          6.23052940e-003, 0., 0., 6.23052940e-003, 0., 0., 0., 0., 0.,
          0., 6.23052940e-003, 0., 0., 0., 3.11526470e-003,
          3.11526470e-003, 0., 3.11526470e-003, 0., 0., 0., 0., 0.,
          3.11526470e-003, 0., 0., 3.11526470e-003, 0., 0., 0.,
          3.11526470e-003, 0., 0., 0., 0., 0., 0., 0., 3.11526470e-003,
          0., 0., 0., 3.11526470e-003, 0., 0., 0., 0., 0., 0., 0., 0.,
          3.11526470e-003, 0., 0., 6.23052940e-003, 6.23052940e-003, 0.,
          0., 0., 3.11526470e-003, 0., 3.11526470e-003, 0., 0., 0., 0.,
          0., 0., 0., 0., 6.23052940e-003, 3.11526470e-003,
          1.24610588e-002, 3.11526470e-003, 0., 3.11526470e-003, 0.,
          3.11526470e-003, 0., 0., 0., 0., 0., 3.11526470e-003, 0., 0.,
          0., 0., 0., 3.11526470e-003, 3.11526470e-003, 0.,
          3.11526470e-003, 0., 0., 3.11526470e-003, 0., 0.,
          3.11526470e-003, 0., 6.23052940e-003, 0., 0., 0., 0., 0., 0.,
          0., 0., 0., 0., 0., 0., 0., 0., 0., 3.11526470e-003, 0., 0.,
          0., 3.11526470e-003, 3.11526470e-003, 0., 0., 0.,
          3.11526470e-003, 0., 3.11526470e-003, 0., 0., 0., 0., 0., 0.,
          0., 3.11526470e-003, 0., 0., 0., 0., 0., 6.23052940e-003, 0.,
          0., 0., 3.11526470e-003, 0., 0., 3.11526470e-003, 0.,
          3.11526470e-003, 0., 0., 0., 0., 0., 3.11526470e-003, 0.,
          6.23052940e-003, 0., 0., 0., 0., 0., 0., 0., 0., 0., 0., 0.,
          0., 0., 0., 0., 0., 0., 9.34579410e-003, 0., 0., 0., 0., 0.,
          0., 0., 3.11526470e-003, 0., 0., 0., 0., 0., 0., 0., 0.,
          3.11526470e-003, 0., 6.23052940e-003, 0., 0., 0., 0., 0., 0.,
          0., 3.11526470e-003, 0., 0., 3.11526470e-003, 0.,
          3.11526470e-003, 0., 3.11526470e-003, 3.11526470e-003, 0., 0.,
          1.55763235e-002, 0., 0., 0., 0., 0., 0., 0., 0., 0., 0., 0.,
          0., 0., 3.11526470e-003, 0., 0., 0., 3.11526470e-003,
          6.23052940e-003, 0., 0., 0., 6.23052940e-003, 0., 0.,
          3.11526470e-003, 0., 0., 0., 0., 0., 3.11526470e-003, 0., 0.,
          0., 0., 0., 0., 0., 0., 0., 0., 0., 0., 6.23052940e-003,
          3.11526470e-003, 0., 0., 0., 0., 3.11526470e-003, 0.,
          3.11526470e-003, 0., 0., 0., 0., 0., 9.34579410e-003, 0., 0.,
          0., 0., 0., 0., 0., 3.11526470e-003, 3.11526470e-003, 0.,
          1.24610588e-002, 3.11526470e-003, 0., 0., 0., 0., 0.,
          3.11526470e-003, 0., 0., 3.11526470e-003, 0., 0., 0.,
          3.11526470e-003, 0., 3.11526470e-003, 0., 0., 0., 0., 0., 0.,
          0., 0., 0., 3.11526470e-003, 0., 0., 0., 0., 0., 0., 0., 0.,
          0., 0., 0., 0., 0., 0., 0., 0., 0., 3.11526470e-003, 0.,
          3.11526470e-003, 0., 0., 3.11526470e-003, 0., 0., 0., 0., 0.,
          0., 9.34579410e-003, 6.23052940e-003, 0., 0., 0., 0., 0., 0.,
          0., 0., 0., 3.11526470e-003, 3.11526470e-003, 0.,
          3.11526470e-003, 0., 0., 0., 3.11526470e-003, 0., 0., 0.,
          3.11526470e-003, 0., 0., 3.11526470e-003, 0., 0., 0., 0., 0.,
          0., 0., 0., 0., 0., 0., 6.23052940e-003, 0., 0., 0., 0.,
          6.23052940e-003, 0., 0., 0., 0., 0., 0., 0., 0., 0., 0., 0.,
          3.11526470e-003, 0., 0., 0., 0., 0., 0., 0., 3.11526470e-003,
          0., 3.11526470e-003, 0., 3.11526470e-003, 0., 3.11526470e-003,
          3.11526470e-003, 0., 3.11526470e-003, 0., 0., 0., 0., 0.,
          3.11526470e-003, 0., 3.11526470e-003, 0., 0., 3.11526470e-003,
          0., 0., 0., 3.11526470e-003, 0., 0., 0., 0., 3.11526470e-003,
          0., 3.11526470e-003, 0., 3.11526470e-003, 3.11526470e-003, 0.,
          3.11526470e-003, 0., 0., 0. ]
      - [ 0., 0., 0., 0., 3.55871883e-003, 0., 0., 1.77935942e-003, 0.,
          0., 0., 0., 1.77935942e-003, 3.55871883e-003, 0.,
          3.55871883e-003, 0., 0., 1.77935942e-003, 3.55871883e-003,
          8.89679696e-003, 1.77935942e-003, 0., 3.55871883e-003,
          1.77935942e-003, 0., 0., 1.77935942e-003, 0., 1.77935942e-003,
          0., 0., 1.77935942e-003, 1.77935942e-003, 0., 1.77935942e-003,
          1.77935942e-003, 0., 1.77935942e-003, 0., 0., 0., 0., 0.,
          5.33807836e-003, 0., 1.77935942e-003, 0., 1.77935942e-003, 0.,
          0., 0., 0., 1.77935942e-003, 1.77935942e-003, 0., 0.,
          1.77935942e-003, 0., 5.33807836e-003, 0., 0., 0.,
          5.33807836e-003, 0., 0., 0., 0., 1.77935942e-003,
          3.55871883e-003, 0., 1.77935942e-003, 1.77935942e-003, 0., 0.,
          1.77935942e-003, 0., 1.77935942e-003, 0., 1.77935942e-003,
          1.77935942e-003, 0., 0., 0., 0., 0., 0., 1.24555156e-002,
          1.77935942e-003, 0., 0., 0., 0., 0., 0., 3.55871883e-003, 0.,
          0., 0., 3.55871883e-003, 0., 0., 3.55871883e-003, 0., 0.,
          1.77935942e-003, 0., 0., 1.77935942e-003, 1.77935942e-003,
          1.77935942e-003, 0., 0., 0., 1.77935942e-003, 3.55871883e-003,
          1.77935942e-003, 0., 0., 0., 0., 0., 8.89679696e-003, 0.,
          1.77935942e-003, 3.55871883e-003, 1.77935942e-003,
          1.77935942e-003, 0., 3.55871883e-003, 0., 0., 0., 0., 0., 0.,
          1.77935942e-003, 0., 1.77935942e-003, 3.55871883e-003, 0., 0.,
          0., 0., 0., 0., 1.77935942e-003, 1.77935942e-003, 0., 0., 0.,
          0., 0., 0., 0., 1.77935942e-003, 0., 5.33807836e-003, 0., 0.,
          0., 0., 0., 7.11743766e-003, 3.55871883e-003, 1.77935942e-003,
          0., 0., 0., 1.77935942e-003, 1.77935942e-003, 0., 0., 0., 0.,
          0., 0., 0., 0., 0., 0., 0., 1.77935942e-003, 1.77935942e-003,
          0., 0., 0., 0., 3.55871883e-003, 0., 0., 0., 3.55871883e-003,
          0., 0., 0., 1.77935942e-003, 0., 3.55871883e-003, 0.,
          1.77935942e-003, 1.77935942e-003, 0., 0., 0., 5.33807836e-003,
          8.89679696e-003, 1.77935942e-003, 1.77935942e-003, 0., 0., 0.,
          1.77935942e-003, 0., 0., 0., 1.77935942e-003, 0., 0., 0., 0.,
          0., 0., 5.33807836e-003, 0., 0., 1.42348753e-002, 0., 0., 0.,
          0., 0., 0., 0., 0., 0., 0., 1.77935942e-003, 0., 0., 0., 0.,
          0., 1.77935942e-003, 0., 0., 0., 1.77935942e-003, 0., 0., 0.,
          0., 3.55871883e-003, 0., 1.77935942e-003, 0., 0., 0.,
          1.77935942e-003, 0., 1.77935942e-003, 0., 0., 0., 0., 0., 0.,
          0., 0., 0., 0., 0., 0., 1.77935942e-003, 0., 0., 0., 0., 0.,
          0., 1.77935942e-003, 0., 0., 1.77935942e-003, 0., 0., 0., 0.,
          0., 0., 3.55871883e-003, 0., 0., 3.55871883e-003, 0., 0.,
          1.77935942e-003, 0., 0., 0., 0., 0., 3.55871883e-003,
          1.77935942e-003, 0., 1.77935942e-003, 1.77935942e-003, 0., 0.,
          0., 0., 1.77935942e-003, 3.55871883e-003, 5.33807836e-003, 0.,
          1.77935942e-003, 0., 1.77935942e-003, 0., 1.77935942e-003, 0.,
          1.77935942e-003, 1.77935942e-003, 0., 0., 3.55871883e-003,
          1.77935942e-003, 0., 1.77935942e-003, 0., 0., 3.55871883e-003,
          1.77935942e-003, 5.33807836e-003, 0., 0., 0., 0., 0.,
          1.77935942e-003, 1.77935942e-003, 0., 0., 0., 0., 0.,
          3.55871883e-003, 0., 0., 1.77935942e-003, 0., 3.55871883e-003,
          0., 0., 3.55871883e-003, 0., 0., 0., 0., 0., 0.,
          1.95729528e-002, 1.77935942e-003, 0., 1.24555156e-002, 0., 0.,
          0., 0., 0., 0., 0., 0., 1.77935942e-003, 0., 0., 0., 0.,
          1.77935942e-003, 1.77935942e-003, 1.77935942e-003, 0., 0., 0.,
          0., 1.77935942e-003, 1.77935942e-003, 0., 0., 0.,
          1.77935942e-003, 0., 0., 1.77935942e-003, 0., 0.,
          3.55871883e-003, 0., 1.77935942e-003, 0., 0., 0.,
          1.77935942e-003, 1.77935942e-003, 0., 1.77935942e-003, 0., 0.,
          0., 0., 0., 0., 0., 0., 0., 1.77935942e-003, 1.77935942e-003,
          0., 0., 0., 1.77935942e-003, 0., 0., 1.77935942e-003,
          1.77935942e-003, 0., 0., 1.77935942e-003, 3.55871883e-003, 0.,
          1.77935942e-003, 0., 0., 0., 5.33807836e-003, 5.33807836e-003,
          5.33807836e-003, 0., 0., 7.11743766e-003, 0., 0.,
          1.77935942e-003, 0., 1.77935942e-003, 5.33807836e-003, 0.,
          1.77935942e-003, 0., 0., 0., 0., 1.77935942e-003, 0.,
          3.55871883e-003, 0., 1.77935942e-003, 0., 0., 0.,
          1.77935942e-003, 0., 1.77935942e-003, 0., 0., 0., 0., 0., 0.,
          0., 0., 0., 0., 0., 0., 3.55871883e-003, 1.77935942e-003,
          3.55871883e-003, 0., 1.77935942e-003, 0., 0., 0.,
          1.77935942e-003, 0., 0., 0., 1.77935942e-003, 1.77935942e-003,
          0., 0., 0., 0., 0., 0., 0., 0., 0., 0., 0., 1.77935942e-003,
          1.77935942e-003, 0., 1.77935942e-003, 1.77935942e-003,
          1.77935942e-003, 0., 0., 0., 0., 0., 0., 1.77935942e-003,
          1.77935942e-003, 0., 3.55871883e-003, 3.55871883e-003,
          1.77935942e-003, 0., 1.77935942e-003, 0., 0., 0., 0., 0., 0.,
          3.55871883e-003, 0., 0., 5.33807836e-003, 0., 1.77935942e-003,
          1.77935942e-003, 0., 1.77935942e-003, 0., 1.77935942e-003,
          1.77935942e-003, 0., 1.77935942e-003, 0., 3.55871883e-003, 0.,
          1.77935942e-003, 0., 0., 1.77935942e-003, 0., 0., 0., 0., 0.,
          0., 7.11743766e-003, 0., 0., 3.55871883e-003, 0., 0., 0., 0.,
          0., 0., 1.77935942e-003, 1.77935942e-003, 1.77935942e-003,
          1.77935942e-003, 0., 5.33807836e-003, 1.77935942e-003,
          1.77935942e-003, 0., 0., 0., 0., 0., 0., 0., 0.,
          3.55871883e-003, 0., 0., 1.77935942e-003, 0., 0., 0., 0., 0.,
          1.77935942e-003, 1.77935942e-003, 3.55871883e-003, 0., 0.,
          1.77935942e-003, 1.77935942e-003, 1.77935942e-003, 0., 0., 0.,
          0., 1.77935942e-003, 0., 0., 0., 0., 3.55871883e-003, 0., 0.,
          0., 5.33807836e-003, 0., 1.77935942e-003, 0., 0., 0., 0.,
          1.77935942e-003, 0., 0., 0., 1.77935942e-003, 7.11743766e-003,
          1.77935942e-003, 1.77935942e-003, 0., 5.33807836e-003, 0., 0.,
          0., 1.77935942e-003, 0., 1.77935942e-003, 0., 0.,
          1.77935942e-003, 0., 1.77935942e-003, 1.77935942e-003, 0., 0.,
          3.55871883e-003, 0., 3.55871883e-003, 0., 0., 0.,
          8.89679696e-003, 3.55871883e-003, 0., 0., 0., 5.33807836e-003,
          1.77935942e-003, 0., 5.33807836e-003, 1.77935942e-003, 0., 0.,
          0., 0., 0., 0., 1.77935942e-003, 0., 3.55871883e-003, 0., 0.,
          0., 0., 0., 0., 0., 0., 0., 0., 5.33807836e-003, 0., 0.,
          1.77935942e-003, 0., 0., 3.55871883e-003, 0., 1.77935942e-003,
          3.55871883e-003, 0., 0., 3.55871883e-003, 0., 0.,
          5.33807836e-003, 0., 0., 0., 0., 0., 0., 0., 0., 0., 0., 0.,
          0., 0., 0., 0., 0., 0., 0., 0., 1.77935942e-003, 0.,
          1.77935942e-003, 0., 1.77935942e-003, 3.55871883e-003, 0., 0.,
          1.77935942e-003, 3.55871883e-003, 0., 1.77935942e-003, 0., 0.,
          0., 1.77935942e-003, 1.77935942e-003, 3.55871883e-003,
          1.77935942e-003, 5.33807836e-003, 0., 0., 0., 0.,
          3.55871883e-003, 0., 3.55871883e-003, 7.11743766e-003,
          5.33807836e-003, 1.77935942e-003, 3.55871883e-003, 0., 0., 0.,
          0., 0., 0., 0., 1.77935942e-003, 0., 3.55871883e-003,
          7.11743766e-003, 1.77935942e-003, 0., 0., 3.55871883e-003,
          1.77935942e-003, 5.33807836e-003, 3.55871883e-003, 0., 0., 0.,
          0., 0., 0., 3.55871883e-003, 1.77935942e-003, 3.55871883e-003,
          0., 1.77935942e-003, 1.77935942e-003, 0., 0., 1.77935942e-003,
          0., 0., 0., 1.77935942e-003, 0., 0., 0., 3.55871883e-003, 0.,
          0., 0., 0., 1.77935942e-003, 0., 1.77935942e-003, 0.,
          5.33807836e-003, 0., 0., 0., 3.55871883e-003, 0., 0., 0.,
          3.55871883e-003, 1.77935942e-003, 1.77935942e-003, 0., 0.,
          1.77935942e-003, 3.55871883e-003, 0., 0., 1.77935942e-003,
          3.55871883e-003, 5.33807836e-003, 1.77935942e-003,
          1.77935942e-003, 0., 0., 0., 0., 0., 0., 3.55871883e-003, 0.,
          3.55871883e-003, 0., 0., 0., 0., 3.55871883e-003,
          1.77935942e-003, 0., 1.77935942e-003, 0., 0., 1.77935942e-003,
          1.77935942e-003, 0., 0., 1.77935942e-003, 0., 0.,
          1.77935942e-003, 0., 0., 0., 0., 1.77935942e-003,
          3.55871883e-003, 0., 0., 0., 0., 0., 0., 0., 0.,
          1.77935942e-003, 0., 0., 5.33807836e-003, 0., 0., 0.,
          7.11743766e-003, 3.55871883e-003, 0., 0., 0., 3.55871883e-003,
          0., 0., 0., 1.77935942e-003, 0., 5.33807836e-003, 0.,
          7.11743766e-003, 0., 0., 0., 0., 0., 1.77935942e-003, 0., 0.,
          0., 0., 0., 0., 1.77935942e-003, 0., 0., 0., 5.33807836e-003,
          0., 0., 1.77935942e-003, 1.77935942e-003, 0., 3.55871883e-003,
          3.55871883e-003, 0., 0., 0., 1.77935942e-003, 0.,
          5.33807836e-003, 0., 0., 0., 0., 1.77935942e-003,
          1.77935942e-003, 0., 1.77935942e-003, 1.77935942e-003, 0., 0.,
          0., 0., 0., 0., 0., 1.77935942e-003, 0., 0., 5.33807836e-003,
          5.33807836e-003, 0., 0., 0., 0., 3.55871883e-003, 0.,
          3.55871883e-003, 0., 1.77935942e-003, 3.55871883e-003, 0.,
          1.77935942e-003, 3.55871883e-003, 1.77935942e-003,
          1.77935942e-003, 0., 0., 3.55871883e-003, 0., 0., 0., 0., 0.,
          0., 0., 1.77935942e-003, 0., 0., 1.77935942e-003,
          1.77935942e-003, 0., 1.77935942e-003, 0., 0., 0., 0., 0., 0.,
          1.77935942e-003, 0., 3.55871883e-003, 0., 1.77935942e-003, 0.,
          0., 0., 1.77935942e-003, 0., 1.77935942e-003, 0., 0., 0.,
          1.77935942e-003, 0., 1.77935942e-003, 7.11743766e-003, 0.,
          5.33807836e-003, 1.77935942e-003, 0., 1.77935942e-003, 0., 0.,
          1.77935942e-003, 0., 0., 0., 0., 0., 0., 5.33807836e-003,
          3.55871883e-003, 0., 0., 7.11743766e-003 ]
      - [ 0., 0., 0., 0., 0., 0., 0., 0., 0., 5.61797759e-003,
          5.61797759e-003, 0., 0., 0., 0., 0., 0., 5.61797759e-003, 0.,
          1.12359552e-002, 0., 0., 0., 0., 0., 0., 5.61797759e-003, 0.,
          0., 5.61797759e-003, 0., 0., 0., 0., 0., 0., 0., 0., 0., 0.,
          0., 0., 1.12359552e-002, 0., 5.61797759e-003, 0.,
          5.61797759e-003, 0., 0., 0., 0., 0., 0., 0., 0., 0., 0., 0.,
          0., 0., 0., 5.61797759e-003, 0., 0., 0., 0., 0.,
          5.61797759e-003, 0., 0., 5.61797759e-003, 0., 0., 0., 0., 0.,
          0., 0., 0., 0., 5.61797759e-003, 0., 0., 0., 0., 0., 0., 0.,
          0., 0., 0., 5.61797759e-003, 0., 0., 0., 0., 0., 0., 0., 0.,
          0., 5.61797759e-003, 0., 0., 5.61797759e-003, 0., 0., 0., 0.,
          0., 0., 0., 0., 0., 0., 5.61797759e-003, 5.61797759e-003, 0.,
          0., 0., 5.61797759e-003, 0., 0., 0., 5.61797759e-003, 0., 0.,
          0., 0., 0., 0., 0., 0., 0., 0., 0., 0., 5.61797759e-003, 0.,
          1.12359552e-002, 0., 0., 0., 0., 0., 0., 0., 0., 0., 0., 0.,
          0., 5.61797759e-003, 0., 5.61797759e-003, 0., 5.61797759e-003,
          0., 5.61797759e-003, 0., 0., 0., 0., 0., 0., 0.,
          5.61797759e-003, 0., 0., 0., 0., 0., 0., 0., 0., 0.,
          5.61797759e-003, 0., 0., 0., 0., 5.61797759e-003, 0.,
          1.12359552e-002, 0., 0., 0., 0., 0., 0., 0., 0.,
          5.61797759e-003, 0., 0., 0., 5.61797759e-003, 0., 0., 0., 0.,
          0., 0., 5.61797759e-003, 0., 0., 0., 5.61797759e-003, 0., 0.,
          0., 0., 0., 0., 0., 0., 0., 0., 0., 0., 0., 5.61797759e-003,
          0., 0., 0., 0., 5.61797759e-003, 0., 0., 0., 0., 0., 0., 0.,
          0., 0., 0., 5.61797759e-003, 0., 5.61797759e-003, 0., 0., 0.,
          0., 0., 0., 0., 0., 0., 0., 0., 0., 0., 0., 5.61797759e-003,
          5.61797759e-003, 0., 0., 5.61797759e-003, 0., 0.,
          1.12359552e-002, 0., 0., 5.61797759e-003, 0., 5.61797759e-003,
          0., 5.61797759e-003, 0., 1.68539323e-002, 0., 0., 0., 0., 0.,
          0., 0., 0., 0., 0., 0., 0., 0., 0., 0., 0., 0., 0.,
          5.61797759e-003, 0., 0., 0., 0., 0., 5.61797759e-003,
          5.61797759e-003, 0., 0., 0., 0., 0., 0., 0., 0., 0., 0., 0.,
          0., 0., 0., 0., 0., 0., 0., 0., 0., 0., 0., 0.,
          5.61797759e-003, 0., 0., 0., 0., 5.61797759e-003,
          1.12359552e-002, 5.61797759e-003, 0., 0., 0., 0., 0., 0., 0.,
          0., 0., 0., 0., 0., 0., 5.61797759e-003, 0., 0., 0., 0., 0.,
          0., 0., 5.61797759e-003, 0., 5.61797759e-003, 0., 0., 0., 0.,
          0., 5.61797759e-003, 0., 1.12359552e-002, 0., 0., 0., 0., 0.,
          0., 0., 5.61797759e-003, 0., 0., 0., 0., 0., 0., 0., 0., 0.,
          0., 0., 0., 0., 0., 0., 0., 0., 0., 0., 5.61797759e-003, 0.,
          0., 0., 0., 5.61797759e-003, 0., 0., 5.61797759e-003, 0.,
          5.61797759e-003, 0., 0., 0., 0., 0., 0., 0., 0., 0., 0., 0.,
          0., 0., 0., 0., 0., 0., 0., 0., 0., 5.61797759e-003, 0., 0.,
          0., 5.61797759e-003, 0., 0., 0., 0., 0., 0., 0., 0.,
          5.61797759e-003, 0., 0., 0., 0., 0., 5.61797759e-003,
          5.61797759e-003, 1.12359552e-002, 0., 0., 0., 0.,
          5.61797759e-003, 0., 0., 0., 0., 0., 0., 0., 0., 0., 0., 0.,
          0., 0., 0., 0., 5.61797759e-003, 0., 0., 0., 0., 0., 0., 0.,
          0., 0., 5.61797759e-003, 0., 0., 0., 0., 5.61797759e-003, 0.,
          0., 0., 0., 0., 0., 0., 0., 0., 5.61797759e-003, 0., 0., 0.,
          0., 0., 0., 5.61797759e-003, 0., 0., 0., 0., 0., 0., 0., 0.,
          0., 0., 5.61797759e-003, 0., 0., 0., 0., 0., 0., 0., 0., 0.,
          0., 0., 0., 0., 0., 0., 0., 0., 0., 0., 0., 0., 0., 0., 0., 0.,
          0., 0., 0., 0., 0., 0., 0., 5.61797759e-003, 0., 0., 0., 0.,
          0., 0., 0., 0., 0., 0., 0., 0., 0., 0., 5.61797759e-003, 0.,
          5.61797759e-003, 0., 0., 0., 0., 0., 0., 0., 0.,
          5.61797759e-003, 0., 0., 0., 5.61797759e-003, 0., 0., 0., 0.,
          0., 0., 0., 0., 0., 0., 0., 0., 0., 0., 0., 0., 0., 0., 0., 0.,
          0., 0., 5.61797759e-003, 0., 0., 0., 0., 0., 0., 0., 0., 0.,
          0., 0., 0., 0., 5.61797759e-003, 0., 0., 5.61797759e-003, 0.,
          5.61797759e-003, 0., 0., 0., 0., 5.61797759e-003, 0., 0., 0.,
          5.61797759e-003, 0., 0., 0., 0., 0., 0., 1.12359552e-002, 0.,
          0., 0., 0., 5.61797759e-003, 0., 0., 0., 0., 1.68539323e-002,
          5.61797759e-003, 0., 0., 0., 0., 0., 0., 0., 0., 0., 0., 0.,
          5.61797759e-003, 5.61797759e-003, 0., 0., 0., 0., 0.,
          5.61797759e-003, 0., 0., 0., 0., 0., 0., 0., 0.,
          5.61797759e-003, 0., 0., 0., 5.61797759e-003, 0., 0., 0., 0.,
          5.61797759e-003, 0., 0., 0., 0., 0., 0., 0., 0., 0., 0., 0.,
          0., 0., 5.61797759e-003, 0., 5.61797759e-003, 0., 0.,
          5.61797759e-003, 0., 0., 0., 1.12359552e-002, 0.,
          1.12359552e-002, 0., 5.61797759e-003, 0., 0., 0., 0., 0., 0.,
          0., 0., 0., 0., 0., 0., 0., 0., 0., 0., 0., 0.,
          5.61797759e-003, 0., 0., 0., 0., 1.12359552e-002, 0., 0.,
          1.12359552e-002, 0., 5.61797759e-003, 0., 0., 0., 0., 0., 0.,
          0., 5.61797759e-003, 0., 0., 0., 0., 0., 0., 0., 0., 0., 0.,
          0., 0., 0., 0., 0., 0., 0., 0., 0., 0., 0., 0.,
          1.12359552e-002, 0., 0., 0., 5.61797759e-003, 5.61797759e-003,
          0., 0., 0., 0., 0., 5.61797759e-003, 0., 0., 1.68539323e-002,
          0., 0., 0., 0., 1.12359552e-002, 0., 0., 0., 0., 0., 0., 0.,
          0., 5.61797759e-003, 0., 0., 0., 0., 0., 0., 0., 0., 0., 0.,
          0., 1.12359552e-002, 0., 0., 0., 0., 0., 0., 0., 0., 0., 0.,
          0., 0., 0., 0., 0., 0., 0., 0., 0., 0., 5.61797759e-003, 0.,
          0., 0., 0., 0., 0., 0., 0., 0., 0., 5.61797759e-003,
          1.12359552e-002, 0., 0., 0., 0., 0., 0., 0., 0., 0., 0., 0.,
          0., 0., 0., 0., 5.61797759e-003, 0., 0., 0., 0., 0., 0., 0.,
          0., 5.61797759e-003, 0., 0., 0., 0., 0., 0., 0., 0.,
          5.61797759e-003, 0., 0., 0., 0., 0., 0., 0., 0.,
          5.61797759e-003, 0., 0., 0., 5.61797759e-003, 0.,
          5.61797759e-003, 0., 0., 5.61797759e-003, 0., 0., 0., 0., 0.,
          0., 0., 0., 0., 5.61797759e-003, 0., 0., 0., 5.61797759e-003,
          0., 0., 0., 0., 0., 0., 0., 0., 0., 5.61797759e-003, 0., 0.,
          0., 0., 5.61797759e-003, 0., 0., 0., 0., 0., 5.61797759e-003,
          0., 0., 0., 0., 0., 5.61797759e-003, 0., 0., 0.,
          5.61797759e-003, 0., 0., 5.61797759e-003, 0., 0.,
          5.61797759e-003, 0., 0., 0., 0., 0., 0., 0., 5.61797759e-003,
          0., 5.61797759e-003, 0., 0., 0., 2.24719103e-002, 0., 0.,
          5.61797759e-003, 0., 1.12359552e-002, 0., 5.61797759e-003, 0.,
          0., 5.61797759e-003, 5.61797759e-003, 0., 0., 0., 0., 0.,
          5.61797759e-003, 0., 5.61797759e-003, 5.61797759e-003, 0., 0.,
          0., 0., 0., 0., 0., 0., 0., 0., 0., 0., 0., 0.,
          1.12359552e-002, 0., 0., 0., 0., 0., 0., 0., 0.,
          5.61797759e-003, 5.61797759e-003, 5.61797759e-003, 0., 0., 0.,
          0. ]
      - [ 0., 0., 0., 0., 0., 0., 0., 0., 0., 0., 0., 0., 0., 0., 0., 0.,
          0., 0., 0., 0., 0., 0., 5.55555560e-002, 0., 0., 0., 0., 0.,
          0., 0., 0., 0., 0., 0., 0., 3.33333351e-002, 0., 0., 0., 0.,
          0., 0., 0., 0., 0., 0., 0., 0., 0., 3.33333351e-002, 0., 0.,
          0., 0., 0., 0., 0., 0., 0., 0., 0., 0., 0., 0., 0., 0., 0., 0.,
          0., 0., 0., 0., 0., 0., 0., 0., 0., 0., 0., 0., 0., 0., 0., 0.,
          0., 0., 0., 0., 0., 0., 0., 0., 0., 0., 0., 0., 0., 0., 0., 0.,
          0., 0., 0., 0., 0., 0., 0., 0., 0., 0., 0., 0., 0., 0., 0., 0.,
          0., 0., 0., 0., 0., 0., 0., 0., 0., 0., 0., 0., 0., 0.,
          1.11111114e-002, 0., 0., 0., 0., 0., 0., 0., 0., 0., 0., 0.,
          0., 0., 0., 0., 0., 0., 0., 0., 0., 0., 0., 0.,
          1.11111114e-002, 0., 0., 0., 0., 0., 0., 0., 0., 0., 0., 0.,
          0., 2.22222228e-002, 0., 0., 0., 0., 3.33333351e-002, 0., 0.,
          4.44444455e-002, 0., 0., 0., 0., 0., 0., 0., 0., 0., 0., 0.,
          0., 0., 0., 0., 0., 0., 0., 0., 1.11111114e-002, 0., 0., 0.,
          0., 0., 0., 0., 0., 0., 0., 0., 0., 0., 0., 0., 0., 0.,
          1.11111114e-002, 0., 0., 0., 0., 0., 0., 0., 0., 0., 0., 0.,
          0., 0., 0., 0., 0., 0., 0., 0., 0., 0., 1.11111114e-002, 0.,
          0., 0., 0., 0., 0., 0., 0., 0., 0., 0., 0., 0., 0., 0., 0., 0.,
          0., 0., 0., 0., 0., 0., 0., 0., 0., 0., 0., 0., 0., 0., 0., 0.,
          1.11111114e-002, 0., 0., 0., 0., 0., 0., 0., 0., 0., 0., 0.,
          0., 0., 0., 0., 0., 0., 0., 0., 0., 0., 0., 0., 0., 0., 0., 0.,
          0., 0., 0., 0., 0., 0., 0., 0., 0., 0., 1.11111114e-002, 0.,
          0., 0., 0., 0., 0., 0., 0., 0., 0., 0., 0., 0., 0., 0., 0., 0.,
          0., 0., 0., 0., 0., 0., 0., 0., 0., 0., 0., 0., 0., 0., 0., 0.,
          0., 0., 0., 0., 1.11111114e-002, 0., 0., 0., 0., 0., 0., 0.,
          0., 0., 1.11111114e-002, 0., 0., 0., 0., 0., 0., 0., 0.,
          1.11111114e-002, 0., 0., 0., 0., 0., 0., 0., 0., 0., 0., 0.,
          1.11111114e-002, 0., 0., 0., 0., 0., 0., 0., 0., 0., 0., 0.,
          0., 0., 1.11111114e-002, 0., 0., 0., 3.33333351e-002, 0., 0.,
          0., 0., 0., 0., 0., 0., 0., 0., 0., 0., 1.11111114e-002, 0.,
          0., 0., 0., 0., 0., 0., 0., 0., 0., 0., 0., 0.,
          1.11111114e-002, 0., 0., 0., 0., 0., 0., 0., 0., 0., 0., 0.,
          0., 0., 0., 1.11111114e-002, 0., 0., 2.22222228e-002, 0., 0.,
          0., 0., 0., 0., 0., 0., 0., 0., 3.33333351e-002, 0., 0., 0.,
          0., 0., 0., 0., 0., 0., 0., 0., 0., 0., 0., 0., 0., 0., 0., 0.,
          0., 0., 0., 0., 0., 0., 0., 0., 0., 0., 0., 3.33333351e-002,
          0., 0., 0., 0., 0., 0., 0., 0., 0., 0., 0., 0., 0., 0., 0., 0.,
          0., 0., 0., 0., 0., 0., 0., 0., 0., 0., 0., 0., 0., 0., 0., 0.,
          0., 0., 0., 0., 0., 0., 0., 0., 0., 0., 2.22222228e-002, 0.,
          0., 0., 0., 0., 1.11111114e-002, 0., 0., 0., 0., 0., 0., 0.,
          0., 0., 0., 1.11111114e-002, 0., 0., 0., 0., 0., 0., 0., 0.,
          2.22222228e-002, 0., 0., 0., 0., 0., 0., 0., 0., 0., 0., 0.,
          0., 0., 0., 0., 0., 0., 0., 0., 0., 0., 0., 0., 0., 0., 0., 0.,
          0., 0., 0., 0., 0., 0., 0., 0., 0., 0., 0., 1.11111114e-002,
          0., 0., 0., 0., 0., 0., 0., 0., 0., 0., 0., 0., 0.,
          1.11111114e-002, 0., 0., 0., 0., 0., 0., 1.11111114e-002, 0.,
          0., 0., 0., 0., 0., 0., 0., 0., 0., 0., 0., 0., 0., 0., 0., 0.,
          0., 0., 0., 0., 0., 0., 0., 0., 0., 0., 0., 0., 0., 0., 0., 0.,
          0., 0., 0., 0., 0., 0., 0., 0., 0., 0., 0., 0., 0., 0., 0., 0.,
          0., 0., 0., 0., 0., 0., 0., 0., 0., 0., 0., 0., 0., 0., 0., 0.,
          0., 0., 0., 1.11111114e-002, 0., 0., 2.22222228e-002, 0., 0.,
          0., 0., 0., 0., 0., 0., 0., 0., 0., 0., 0., 0., 0., 0.,
          1.11111114e-002, 0., 0., 0., 3.33333351e-002, 0., 0., 0., 0.,
          0., 1.11111114e-002, 0., 0., 0., 0., 0., 0., 0., 0., 0., 0.,
          0., 0., 0., 0., 0., 0., 0., 0., 0., 0., 0., 0., 0., 0., 0., 0.,
          0., 0., 0., 0., 0., 0., 3.33333351e-002, 0., 0., 0., 0., 0.,
          0., 1.11111114e-002, 0., 0., 0., 0., 0., 0., 0., 0., 0., 0.,
          0., 0., 0., 0., 0., 0., 0., 0., 0., 0., 0., 0., 0., 0., 0.,
          4.44444455e-002, 1.11111114e-002, 0., 0., 0., 0., 0., 0., 0.,
          0., 0., 0., 0., 0., 1.11111114e-002, 0., 0., 0., 0., 0., 0.,
          0., 0., 0., 0., 0., 0., 0., 0., 0., 0., 0., 0., 0., 0., 0., 0.,
          0., 0., 0., 0., 0., 5.55555560e-002, 0., 0., 0., 0., 0., 0.,
          4.44444455e-002, 0., 0., 0., 0., 0., 0., 0., 0., 0., 0., 0.,
          0., 0., 0., 0., 0., 0., 0., 0., 0., 0., 0., 0., 0., 0., 0., 0.,
          0., 0., 0., 0., 0., 0., 0., 0., 0., 0., 0., 0., 0., 0., 0., 0.,
          0., 0., 0., 0., 2.22222228e-002, 0., 0., 0., 0., 0., 0., 0.,
          0., 0., 0., 0., 0., 0., 0., 0., 0., 0., 0., 3.33333351e-002,
          0., 2.22222228e-002, 0., 0., 0., 0., 0., 0., 0., 0., 0., 0.,
          0., 0., 0., 0., 0., 0., 0., 0., 0., 0., 0., 0., 0., 0., 0., 0.,
          0., 0., 0., 0., 0., 0., 0., 0., 0., 0., 0., 0., 0., 0., 0., 0.,
          0., 0., 0., 0., 0., 0., 0., 0., 0., 0., 0., 0., 0., 0., 0., 0.,
          0., 0., 0., 0., 0., 0., 0., 0., 0., 0., 0., 0., 0., 0., 0., 0.,
          1.11111114e-002, 0., 0., 0., 0., 0., 0., 0., 0., 0., 0., 0.,
          0., 0., 0., 0., 0., 0., 0., 0., 0., 0., 0., 0., 0., 0., 0., 0.,
          0., 0., 0., 0. ]
      - [ 0., 0., 0., 0., 0., 0., 0., 0., 0., 0., 0., 0., 0., 0., 0., 0.,
          0., 0., 0., 0., 0., 0., 0., 0., 0., 0., 0., 0., 0., 0., 0., 0.,
          0., 0., 0., 0., 0., 0., 0., 0., 0., 0., 0., 0., 0., 0., 0., 0.,
          0., 0., 0., 0., 0., 0., 0., 0., 0., 0., 0., 0., 0., 0., 0., 0.,
          3.22580636e-002, 0., 0., 0., 0., 0., 0., 0., 0., 0., 0., 0.,
          0., 0., 0., 0., 0., 3.22580636e-002, 0., 0., 0., 0., 0., 0.,
          0., 0., 0., 0., 0., 0., 0., 0., 0., 0., 0., 0., 0., 0., 0., 0.,
          0., 0., 0., 0., 0., 0., 0., 0., 0., 0., 0., 0., 0., 0., 0., 0.,
          0., 0., 0., 0., 0., 0., 0., 0., 0., 0., 0., 0., 0., 0., 0., 0.,
          0., 0., 0., 0., 0., 0., 0., 0., 0., 0., 0., 0., 0., 0., 0., 0.,
          0., 0., 0., 0., 0., 0., 0., 0., 0., 0., 0., 0., 0., 0., 0., 0.,
          0., 0., 0., 0., 0., 0., 0., 0., 0., 0., 0., 0., 0., 0., 0., 0.,
          0., 0., 0., 0., 0., 0., 0., 0., 0., 0., 0., 0., 0.,
          3.22580636e-002, 0., 0., 0., 0., 0., 0., 0., 0., 0., 0., 0.,
          0., 0., 0., 0., 0., 0., 0., 0., 0., 0., 0., 0.,
          3.22580636e-002, 0., 0., 0., 0., 0., 0., 0., 0., 0., 0., 0.,
          0., 0., 0., 0., 0., 0., 0., 0., 0., 0., 0., 0., 0., 0., 0., 0.,
          0., 0., 0., 0., 0., 0., 0., 0., 0., 0., 0., 0., 0., 0., 0., 0.,
          0., 0., 0., 0., 0., 0., 0., 0., 0., 0., 0., 0., 0., 0., 0., 0.,
          0., 0., 0., 0., 0., 0., 0., 0., 0., 0., 0., 0., 0., 0., 0., 0.,
          0., 0., 0., 0., 0., 0., 0., 0., 0., 0., 0., 0., 0., 0., 0., 0.,
          0., 0., 0., 0., 0., 0., 0., 0., 0., 0., 0., 0., 0., 0., 0., 0.,
          0., 0., 0., 0., 0., 0., 0., 0., 0., 0., 3.22580636e-002, 0.,
          0., 0., 0., 0., 0., 0., 0., 0., 3.22580636e-002, 0., 0., 0.,
          0., 0., 0., 0., 0., 0., 0., 0., 0., 0., 0., 0., 0., 0., 0., 0.,
          0., 0., 0., 0., 0., 0., 0., 0., 0., 0., 0., 0., 0., 0., 0.,
          3.22580636e-002, 0., 0., 0., 0., 0., 0., 0., 0., 0., 0., 0.,
          0., 0., 0., 0., 0., 0., 3.22580636e-002, 0., 3.22580636e-002,
          0., 0., 0., 0., 0., 0., 0., 0., 0., 0., 0., 0., 0., 0., 0., 0.,
          0., 0., 0., 0., 0., 0., 0., 0., 0., 0., 0., 0., 0., 0., 0., 0.,
          0., 0., 0., 0., 0., 0., 0., 0., 0., 0., 0., 0., 0., 0., 0., 0.,
          0., 0., 3.22580636e-002, 0., 0., 0., 0., 0., 0., 0., 0., 0.,
          0., 0., 0., 0., 0., 0., 0., 0., 0., 0., 0., 0.,
          3.22580636e-002, 0., 0., 0., 0., 0., 0., 0., 0., 0., 0., 0.,
          0., 0., 3.22580636e-002, 3.22580636e-002, 0., 0., 0., 0., 0.,
          0., 0., 0., 0., 3.22580636e-002, 0., 0., 0., 0., 0., 0., 0.,
          0., 0., 0., 0., 0., 0., 0., 0., 0., 0., 0., 0., 0., 0., 0., 0.,
          0., 0., 0., 0., 0., 0., 0., 0., 0., 0., 0., 0., 0., 0., 0., 0.,
          0., 0., 0., 0., 0., 0., 0., 0., 0., 0., 0., 0., 0., 0., 0., 0.,
          0., 0., 0., 0., 0., 0., 0., 0., 0., 0., 0., 0., 0., 0., 0., 0.,
          0., 0., 0., 0., 0., 0., 3.22580636e-002, 0., 0., 0., 0., 0.,
          0., 0., 0., 0., 0., 0., 0., 0., 0., 0., 0., 0.,
          6.45161271e-002, 0., 0., 3.22580636e-002, 0., 0., 0., 0., 0.,
          0., 0., 0., 0., 0., 0., 0., 0., 3.22580636e-002, 0., 0., 0.,
          0., 0., 0., 0., 0., 0., 0., 0., 0., 0., 0., 0., 0., 0., 0., 0.,
          0., 0., 0., 0., 0., 0., 0., 0., 0., 0., 0., 0., 0., 0., 0., 0.,
          0., 0., 0., 0., 0., 0., 0., 0., 0., 0., 0., 0., 0., 0., 0., 0.,
          0., 0., 0., 0., 0., 0., 0., 0., 0., 0., 0., 0., 0., 0., 0., 0.,
          0., 0., 0., 0., 0., 0., 0., 0., 0., 0., 0., 0., 0., 0., 0., 0.,
          0., 0., 0., 0., 0., 0., 0., 3.22580636e-002, 0., 0., 0., 0.,
          0., 0., 0., 0., 0., 0., 0., 0., 0., 0., 0., 0., 0., 0., 0., 0.,
          0., 0., 0., 0., 0., 0., 0., 0., 0., 0., 0., 0.,
          3.22580636e-002, 0., 0., 0., 0., 3.22580636e-002, 0., 0., 0.,
          0., 0., 0., 0., 0., 0., 0., 0., 0., 0., 0., 0., 0., 0., 0., 0.,
          0., 0., 0., 0., 0., 0., 0., 0., 0., 0., 0., 0., 0., 0., 0., 0.,
          0., 0., 0., 0., 3.22580636e-002, 0., 0., 0., 0., 0., 0., 0.,
          0., 0., 0., 0., 0., 0., 0., 0., 0., 0., 0., 0., 0., 0., 0., 0.,
          0., 0., 0., 0., 0., 0., 0., 0., 0., 0., 0., 0., 0., 0., 0., 0.,
          0., 3.22580636e-002, 0., 0., 0., 0., 0., 0., 0., 0., 0., 0.,
          0., 0., 0., 0., 0., 0., 6.45161271e-002, 0., 0., 0., 0., 0.,
          0., 0., 0., 0., 0., 0., 0., 0., 0., 0., 0., 0., 0., 0., 0., 0.,
          0., 0., 0., 0., 0., 0., 0., 0., 0., 0., 0., 0., 0., 0., 0., 0.,
          0., 0., 0., 0., 0., 0., 0., 0., 0., 0., 0., 0., 0., 0., 0., 0.,
          0., 0., 0., 0., 0., 3.22580636e-002, 0., 0., 0., 0., 0., 0.,
          3.22580636e-002, 0., 0., 0., 0., 0., 0., 0., 0., 0., 0., 0.,
          0., 0., 0., 0., 0., 0., 3.22580636e-002, 0., 0., 0., 0., 0.,
          0., 0., 0., 0., 0., 0., 0., 0., 0., 0., 0., 0., 0., 0., 0., 0.,
          0., 0., 0., 0., 0., 0., 0., 0., 0., 0., 0., 0., 0., 0., 0., 0.,
          0., 0., 0., 3.22580636e-002, 0., 0., 3.22580636e-002, 0., 0.,
          0., 0., 0., 0., 0., 0., 0., 0., 0., 0., 0., 0., 0., 0., 0., 0.,
          0., 0., 0., 0., 0., 0., 0., 0., 0., 0., 0. ]
      - [ 0., 0., 0., 0., 0., 0., 0., 0., 0., 0., 0., 0., 0., 0., 0., 0.,
          0., 0., 0., 0., 0., 5.37634408e-003, 0., 5.37634408e-003, 0.,
          0., 0., 0., 5.37634408e-003, 0., 5.37634408e-003, 0.,
          1.07526882e-002, 0., 0., 0., 0., 0., 0., 0., 0., 0., 0., 0.,
          0., 0., 0., 5.37634408e-003, 0., 0., 0., 5.37634408e-003,
          5.37634408e-003, 0., 0., 0., 0., 0., 0., 0., 0., 0., 0., 0.,
          0., 5.37634408e-003, 0., 5.37634408e-003, 0., 0., 0.,
          5.37634408e-003, 0., 0., 0., 0., 0., 0., 5.37634408e-003, 0.,
          0., 0., 0., 0., 0., 0., 1.61290318e-002, 0., 0., 0., 0.,
          5.37634408e-003, 0., 0., 5.37634408e-003, 0., 0., 0., 0., 0.,
          0., 0., 0., 5.37634408e-003, 0., 5.37634408e-003, 0., 0., 0.,
          0., 5.37634408e-003, 5.37634408e-003, 5.37634408e-003,
          5.37634408e-003, 0., 0., 0., 0., 0., 0., 5.37634408e-003, 0.,
          0., 0., 0., 0., 0., 0., 0., 0., 0., 0., 0., 5.37634408e-003,
          0., 0., 1.07526882e-002, 0., 0., 0., 0., 0., 0., 0., 0.,
          5.37634408e-003, 5.37634408e-003, 0., 0., 0., 5.37634408e-003,
