%YAML:1.0
my_svm: !!opencv-ml-svm
   svm_type: C_SVC
   kernel: { type:RBF, gamma:5.0625000000000009e-001 }
   C: 6.2500000000000000e+001
   term_criteria: { epsilon:2.2204460492503131e-016, iterations:100 }
   var_all: 1000
   var_count: 1000
   class_count: 2
   class_labels: !!opencv-matrix
      rows: 1
      cols: 2
      dt: i
      data: [ 0, 1 ]
   sv_total: 43
   support_vectors:
      - [ 0., 0., 0., 0., 0., 0., 0., 6.06060587e-003, 0., 0., 0., 0.,
          1.21212117e-002, 0., 0., 0., 0., 0., 6.06060587e-003, 0., 0.,
          6.06060587e-003, 0., 0., 0., 0., 0., 0., 0., 0., 0., 0., 0.,
          0., 6.06060587e-003, 0., 6.06060587e-003, 0., 0., 0., 0.,
          6.06060587e-003, 0., 0., 1.81818176e-002, 0., 0., 0., 0., 0.,
          0., 0., 0., 0., 0., 0., 6.06060587e-003, 0., 0., 0., 0., 0.,
          0., 0., 6.06060587e-003, 0., 0., 0., 0., 0., 0., 0., 0., 0.,
          0., 0., 0., 1.21212117e-002, 0., 0., 0., 0., 0., 0., 0., 0.,
          0., 6.06060587e-003, 0., 0., 0., 0., 0., 0., 0., 0., 0., 0.,
          1.21212117e-002, 0., 0., 0., 6.06060587e-003, 0., 0., 0., 0.,
          0., 0., 6.06060587e-003, 0., 6.06060587e-003, 0., 0., 0., 0.,
          0., 0., 0., 0., 0., 0., 0., 0., 0., 0., 0., 0., 0., 0., 0., 0.,
          0., 0., 0., 0., 0., 0., 0., 0., 0., 6.06060587e-003,
          6.06060587e-003, 0., 0., 0., 0., 0., 0., 0., 0., 0., 0., 0.,
          0., 0., 0., 0., 0., 0., 6.06060587e-003, 0., 0., 0., 0., 0.,
          0., 0., 0., 0., 0., 0., 6.06060587e-003, 0., 0., 0., 0., 0.,
          6.06060587e-003, 0., 0., 0., 0., 0., 0., 6.06060587e-003, 0.,
          0., 0., 0., 0., 6.06060587e-003, 6.06060587e-003, 0., 0., 0.,
          0., 0., 0., 0., 0., 0., 0., 6.06060587e-003, 0., 0., 0., 0.,
          0., 0., 0., 0., 0., 0., 0., 0., 0., 0., 0., 0., 0.,
          1.21212117e-002, 6.06060587e-003, 0., 0., 0., 0., 0., 0., 0.,
          0., 6.06060587e-003, 0., 0., 0., 0., 0., 0., 0., 0., 0.,
          1.21212117e-002, 0., 0., 0., 0., 0., 0., 0., 0., 0., 0., 0.,
          0., 0., 0., 0., 6.06060587e-003, 6.06060587e-003, 0., 0., 0.,
          0., 0., 0., 0., 0., 0., 0., 0., 6.06060587e-003, 0., 0.,
          6.06060587e-003, 0., 0., 0., 0., 0., 0., 0., 0.,
          1.21212117e-002, 6.06060587e-003, 6.06060587e-003, 0., 0., 0.,
          0., 0., 0., 0., 0., 0., 6.06060587e-003, 0., 0., 0., 0., 0.,
          0., 0., 0., 0., 0., 0., 0., 0., 0., 0., 0., 0., 0., 0., 0.,
          6.06060587e-003, 0., 0., 0., 0., 6.06060587e-003, 0., 0., 0.,
          0., 0., 0., 0., 0., 0., 0., 0., 6.06060587e-003, 0., 0., 0.,
          0., 0., 0., 0., 0., 0., 0., 0., 0., 0., 0., 0., 0., 0.,
          1.21212117e-002, 0., 0., 0., 0., 0., 0., 0., 1.21212117e-002,
          0., 0., 0., 0., 1.81818176e-002, 0., 0., 1.21212117e-002, 0.,
          0., 0., 0., 0., 0., 0., 0., 0., 6.06060587e-003, 0., 0., 0.,
          6.06060587e-003, 0., 0., 0., 0., 0., 1.21212117e-002, 0., 0.,
          0., 0., 0., 0., 6.06060587e-003, 0., 0., 0., 0., 0., 0., 0.,
          0., 0., 0., 0., 0., 0., 0., 6.06060587e-003, 0.,
          6.06060587e-003, 0., 0., 0., 0., 0., 0., 0., 0., 0.,
          6.06060587e-003, 0., 0., 0., 0., 0., 6.06060587e-003, 0., 0.,
          0., 0., 0., 0., 0., 0., 0., 6.06060587e-003, 0., 0., 0., 0.,
          0., 0., 0., 0., 6.06060587e-003, 0., 0., 0., 6.06060587e-003,
          0., 0., 0., 6.06060587e-003, 0., 0., 6.06060587e-003, 0., 0.,
          0., 0., 0., 0., 0., 0., 0., 0., 0., 0., 0., 0., 0., 0., 0.,
          6.06060587e-003, 0., 0., 0., 0., 6.06060587e-003, 0., 0., 0.,
          0., 6.06060587e-003, 0., 0., 0., 0., 0., 6.06060587e-003, 0.,
          0., 0., 0., 0., 0., 0., 0., 0., 0., 0., 0., 0., 0., 0.,
          6.06060587e-003, 0., 0., 0., 0., 0., 0., 0., 0., 0., 0., 0.,
          0., 0., 0., 0., 0., 0., 6.06060587e-003, 0., 0., 0., 0.,
          6.06060587e-003, 0., 0., 0., 6.06060587e-003, 0., 0.,
          1.21212117e-002, 0., 6.06060587e-003, 0., 1.21212117e-002, 0.,
          0., 0., 6.06060587e-003, 0., 0., 0., 0., 0., 6.06060587e-003,
          0., 0., 0., 0., 0., 0., 0., 0., 0., 0., 0., 0.,
          6.06060587e-003, 0., 0., 0., 0., 0., 0., 0., 0., 0., 0., 0.,
          6.06060587e-003, 0., 0., 0., 0., 0., 0., 0., 0., 0., 0., 0.,
          0., 0., 0., 0., 0., 0., 0., 0., 0., 0., 0., 1.21212117e-002,
          0., 0., 0., 0., 0., 0., 1.21212117e-002, 6.06060587e-003, 0.,
          6.06060587e-003, 6.06060587e-003, 6.06060587e-003,
          6.06060587e-003, 0., 1.21212117e-002, 0., 0., 6.06060587e-003,
          0., 0., 0., 0., 0., 0., 0., 0., 0., 0., 0., 0., 0., 0.,
          6.06060587e-003, 6.06060587e-003, 0., 0., 0., 0., 0., 0., 0.,
          0., 0., 0., 0., 0., 6.06060587e-003, 0., 0., 0., 0., 0., 0.,
          0., 0., 0., 0., 0., 0., 0., 0., 0., 0., 0., 0., 0., 0., 0., 0.,
          0., 0., 0., 6.06060587e-003, 0., 6.06060587e-003, 0.,
          6.06060587e-003, 0., 0., 0., 0., 0., 0., 0., 0., 0., 0.,
          1.21212117e-002, 0., 0., 0., 6.06060587e-003, 0.,
          6.06060587e-003, 0., 0., 0., 0., 0., 0., 0., 6.06060587e-003,
          6.06060587e-003, 0., 0., 0., 0., 0., 0., 0., 0., 0., 0., 0.,
          0., 1.21212117e-002, 0., 0., 0., 0., 0., 0., 0.,
          6.06060587e-003, 0., 0., 0., 0., 0., 0., 0., 0., 0., 0., 0.,
          6.06060587e-003, 0., 0., 0., 0., 0., 0., 6.06060587e-003, 0.,
          6.06060587e-003, 0., 6.06060587e-003, 0., 6.06060587e-003,
          6.06060587e-003, 0., 0., 0., 0., 0., 0., 0., 0., 0., 0., 0.,
          0., 0., 0., 0., 0., 0., 0., 0., 0., 6.06060587e-003, 0., 0.,
          0., 6.06060587e-003, 0., 0., 0., 6.06060587e-003, 0., 0., 0.,
          0., 0., 0., 0., 0., 0., 0., 0., 0., 0., 0., 0.,
          6.06060587e-003, 0., 0., 0., 0., 0., 0., 0., 0., 0.,
          6.06060587e-003, 0., 0., 6.06060587e-003, 6.06060587e-003, 0.,
          0., 6.06060587e-003, 0., 0., 0., 0., 0., 0., 0.,
          6.06060587e-003, 0., 0., 0., 0., 0., 0., 0., 0., 0., 0., 0.,
          0., 0., 0., 6.06060587e-003, 0., 0., 0., 0., 0., 0., 0., 0.,
          0., 0., 0., 1.21212117e-002, 0., 0., 0., 0., 0., 0., 0., 0.,
          0., 6.06060587e-003, 0., 0., 6.06060587e-003, 0., 0., 0., 0.,
          0., 0., 0., 0., 0., 6.06060587e-003, 0., 6.06060587e-003, 0.,
          0., 0., 0., 0., 0., 0., 6.06060587e-003, 0., 1.21212117e-002,
          0., 0., 0., 6.06060587e-003, 0., 0., 0., 0., 0., 0., 0., 0.,
          0., 6.06060587e-003, 0., 0., 0., 0., 0., 6.06060587e-003,
          6.06060587e-003, 0., 6.06060587e-003, 0., 0., 0., 0., 0., 0.,
          0., 0., 0., 0., 0., 0., 0., 0., 0., 0., 0., 0., 0., 0.,
          6.06060587e-003, 0., 0., 6.06060587e-003, 0., 0., 0., 0., 0.,
          0., 0., 0., 0., 1.21212117e-002, 0., 0., 0., 0.,
          6.06060587e-003, 0., 6.06060587e-003, 0., 0., 0.,
          6.06060587e-003, 0., 3.03030293e-002, 0., 0., 0., 0., 0., 0.,
          0., 0., 0., 6.06060587e-003, 0., 0., 0., 0., 0., 0., 0., 0.,
          0., 6.06060587e-003, 0., 0., 0., 0., 6.06060587e-003,
          6.06060587e-003, 0., 0., 0., 0., 0., 0., 0., 6.06060587e-003,
          0., 0., 0., 1.21212117e-002, 0., 0., 0., 0., 6.06060587e-003,
          0., 0., 0., 0., 0., 0. ]
      - [ 0., 0., 0., 0., 0., 0., 0., 0., 0., 0., 0., 0.,
          5.20833349e-003, 0., 0., 0., 1.04166670e-002, 0., 0., 0.,
          5.20833349e-003, 0., 0., 5.20833349e-003, 0., 0., 0., 0., 0.,
          0., 5.20833349e-003, 0., 0., 0., 5.20833349e-003, 0.,
          1.04166670e-002, 0., 0., 0., 0., 0., 0., 5.20833349e-003, 0.,
          0., 0., 0., 0., 0., 5.20833349e-003, 0., 0., 1.04166670e-002,
          0., 0., 0., 0., 0., 0., 0., 0., 0., 0., 0., 0., 0., 0.,
          1.04166670e-002, 5.20833349e-003, 0., 5.20833349e-003, 0., 0.,
          0., 0., 0., 1.04166670e-002, 5.20833349e-003, 0., 0., 0., 0.,
          0., 0., 0., 0., 0., 0., 0., 0., 5.20833349e-003, 0., 0.,
          5.20833349e-003, 5.20833349e-003, 0., 0., 1.04166670e-002, 0.,
          0., 0., 0., 0., 5.20833349e-003, 0., 0., 0., 0., 0., 0., 0.,
          0., 0., 0., 0., 0., 0., 0., 0., 0., 5.20833349e-003, 0., 0.,
          0., 0., 0., 0., 1.04166670e-002, 0., 0., 0., 0.,
          5.20833349e-003, 0., 0., 0., 0., 0., 0., 0., 0., 0., 0., 0.,
          0., 0., 0., 5.20833349e-003, 0., 0., 0., 0., 0., 0., 0., 0.,
          0., 0., 0., 0., 0., 0., 0., 0., 0., 0., 0., 0., 0., 0., 0., 0.,
          0., 0., 0., 0., 0., 0., 0., 0., 0., 0., 5.20833349e-003, 0.,
          0., 0., 1.04166670e-002, 5.20833349e-003, 0., 0., 0., 0., 0.,
          0., 0., 0., 0., 0., 0., 0., 0., 5.20833349e-003,
          1.04166670e-002, 0., 0., 0., 0., 0., 0., 0., 0., 0., 0., 0.,
          0., 0., 5.20833349e-003, 0., 0., 0., 1.04166670e-002, 0., 0.,
          0., 0., 0., 0., 0., 5.20833349e-003, 0., 2.08333340e-002, 0.,
          0., 5.20833349e-003, 0., 5.20833349e-003, 0., 0., 0., 0., 0.,
          0., 0., 0., 0., 0., 0., 0., 0., 0., 0., 5.20833349e-003, 0.,
          0., 0., 5.20833349e-003, 0., 1.56250000e-002, 0., 0.,
          5.20833349e-003, 0., 0., 0., 0., 0., 0., 0., 0., 0., 0., 0.,
          0., 0., 5.20833349e-003, 1.04166670e-002, 0., 0.,
          1.56250000e-002, 5.20833349e-003, 0., 5.20833349e-003,
          1.04166670e-002, 0., 0., 0., 0., 0., 0., 5.20833349e-003, 0.,
          0., 0., 5.20833349e-003, 0., 0., 0., 0., 0., 0., 0., 0., 0.,
          0., 5.20833349e-003, 0., 0., 0., 0., 0., 0., 0., 0., 0., 0.,
          0., 0., 0., 1.04166670e-002, 0., 0., 0., 0., 0., 0., 0., 0.,
          0., 1.56250000e-002, 0., 0., 0., 0., 5.20833349e-003, 0., 0.,
          0., 0., 0., 0., 0., 0., 5.20833349e-003, 0., 0., 0., 0., 0.,
          0., 0., 0., 0., 0., 0., 0., 0., 0., 1.04166670e-002, 0., 0.,
          5.20833349e-003, 0., 5.20833349e-003, 0., 0., 0., 0., 0., 0.,
          0., 0., 0., 0., 0., 0., 0., 0., 0., 0., 0., 0., 0., 0., 0., 0.,
          0., 0., 5.20833349e-003, 0., 0., 0., 0., 5.20833349e-003,
          5.20833349e-003, 0., 0., 0., 0., 0., 0., 0., 0., 0., 0., 0.,
          5.20833349e-003, 0., 0., 0., 2.08333340e-002, 0., 0., 0., 0.,
          0., 1.04166670e-002, 0., 0., 0., 0., 0., 0., 0., 0., 0., 0.,
          0., 0., 0., 0., 0., 5.20833349e-003, 0., 0., 0.,
          5.20833349e-003, 5.20833349e-003, 0., 0., 0., 0., 0., 0., 0.,
          0., 5.20833349e-003, 1.04166670e-002, 5.20833349e-003, 0., 0.,
          0., 0., 0., 0., 0., 5.20833349e-003, 0., 0., 0., 0., 0., 0.,
          0., 0., 0., 0., 0., 0., 0., 0., 0., 0., 0., 5.20833349e-003,
          0., 0., 0., 0., 5.20833349e-003, 0., 0., 5.20833349e-003, 0.,
          0., 0., 0., 0., 0., 0., 0., 0., 0., 0., 0., 0., 0., 0., 0., 0.,
          5.20833349e-003, 0., 0., 0., 0., 0., 1.04166670e-002, 0.,
          5.20833349e-003, 0., 0., 0., 0., 0., 0., 0., 0., 0., 0., 0.,
          0., 0., 0., 0., 0., 0., 0., 0., 0., 0., 0., 0., 0., 0., 0., 0.,
          0., 0., 0., 0., 0., 0., 0., 5.20833349e-003, 5.20833349e-003,
          0., 0., 0., 0., 0., 0., 0., 0., 0., 0., 0., 0., 0., 0., 0., 0.,
          0., 0., 0., 0., 0., 0., 0., 0., 1.04166670e-002,
          5.20833349e-003, 0., 0., 5.20833349e-003, 0., 0., 0., 0., 0.,
          0., 0., 0., 0., 0., 0., 5.20833349e-003, 0., 0., 0.,
          5.20833349e-003, 0., 0., 0., 1.04166670e-002, 0., 0., 0., 0.,
          0., 0., 0., 0., 0., 5.20833349e-003, 0., 5.20833349e-003, 0.,
          0., 0., 0., 0., 0., 0., 0., 0., 0., 0., 0., 0., 0., 0., 0.,
          2.60416679e-002, 0., 0., 0., 0., 0., 0., 0., 0.,
          5.20833349e-003, 0., 0., 0., 0., 0., 0., 0., 0., 0., 0., 0.,
          0., 0., 0., 0., 0., 0., 0., 0., 0., 0., 0., 5.20833349e-003,
          0., 0., 0., 0., 0., 0., 0., 5.20833349e-003, 1.04166670e-002,
          0., 0., 5.20833349e-003, 0., 0., 0., 0., 0., 0., 0.,
          5.20833349e-003, 1.04166670e-002, 0., 0., 0., 0., 0., 0.,
          5.20833349e-003, 0., 0., 5.20833349e-003, 0., 0., 0., 0., 0.,
          1.04166670e-002, 0., 0., 0., 0., 0., 0., 0., 0., 0., 0., 0.,
          0., 0., 0., 0., 0., 0., 0., 0., 0., 0., 0., 0., 0., 0., 0., 0.,
          0., 0., 0., 5.20833349e-003, 0., 0., 0., 0., 0., 0.,
          5.20833349e-003, 5.20833349e-003, 0., 0., 5.20833349e-003, 0.,
          0., 0., 0., 0., 0., 0., 5.20833349e-003, 0., 0., 0., 0., 0.,
          0., 0., 0., 5.20833349e-003, 0., 0., 0., 0., 0., 0., 0., 0.,
          0., 5.20833349e-003, 0., 0., 0., 0., 0., 0., 0., 0., 0., 0.,
          0., 0., 0., 0., 5.20833349e-003, 0., 0., 0., 0., 0.,
          1.04166670e-002, 0., 0., 0., 5.20833349e-003, 0., 0., 0., 0.,
          0., 0., 0., 0., 0., 0., 0., 0., 0., 0., 0., 0., 0.,
          5.20833349e-003, 0., 5.20833349e-003, 0., 0., 1.04166670e-002,
          1.04166670e-002, 1.56250000e-002, 0., 0., 0., 0., 0., 0., 0.,
          0., 0., 0., 0., 0., 0., 0., 0., 0., 0., 0., 0., 0., 0., 0., 0.,
          0., 0., 0., 0., 0., 0., 0., 0., 0., 5.20833349e-003, 0., 0.,
          0., 0., 0., 0., 0., 0., 0., 0., 0., 0., 0., 0., 0.,
          5.20833349e-003, 0., 0., 0., 0., 0., 0., 5.20833349e-003, 0.,
          0., 0., 0., 0., 0., 0., 0., 0., 0., 0., 1.56250000e-002, 0.,
          0., 0., 0., 0., 0., 0., 5.20833349e-003, 0., 0., 0., 0., 0.,
          0., 0., 0., 0., 1.04166670e-002, 0., 0., 0., 0.,
          1.04166670e-002, 0., 1.56250000e-002, 0., 0., 0.,
          5.20833349e-003, 0., 0., 2.08333340e-002, 1.04166670e-002,
          5.20833349e-003, 0., 0., 0., 0., 0., 0., 0., 0., 0., 0., 0.,
          0., 0., 0., 0., 0., 0., 0., 0., 0., 0., 0., 0., 0.,
          5.20833349e-003, 0., 0., 0., 0., 0., 0., 0., 0., 0., 0., 0.,
          0., 2.60416679e-002, 5.20833349e-003, 0., 0., 0.,
          5.20833349e-003, 0., 0., 1.56250000e-002, 0., 0., 0., 0., 0.,
          0., 0., 0., 0., 0., 0., 0., 0., 0., 0., 0., 0.,
          1.04166670e-002, 5.20833349e-003, 0., 0., 0., 5.20833349e-003,
          0., 0., 5.20833349e-003, 0., 0., 0., 0., 0., 0., 0.,
          5.20833349e-003, 0., 0., 0., 0., 0., 0., 0. ]
      - [ 0., 0., 5.31914877e-003, 0., 0., 0., 0., 0., 5.31914877e-003,
          0., 0., 0., 0., 1.06382975e-002, 0., 0., 0., 0., 0., 0.,
          1.59574468e-002, 0., 0., 0., 0., 0., 0., 1.59574468e-002, 0.,
          0., 0., 0., 0., 0., 0., 0., 0., 0., 0., 0., 0., 0., 0., 0., 0.,
          0., 0., 1.06382975e-002, 0., 0., 1.06382975e-002, 0., 0., 0.,
          0., 0., 0., 0., 0., 0., 0., 0., 0., 0., 0., 5.31914877e-003,
          0., 0., 0., 0., 0., 0., 5.31914877e-003, 0., 0., 0., 0., 0.,
          0., 0., 0., 0., 0., 0., 0., 0., 0., 0., 0., 0., 0., 0., 0., 0.,
          0., 0., 0., 0., 0., 0., 0., 0., 0., 0., 0., 0., 0., 0., 0.,
          5.31914877e-003, 0., 0., 0., 0., 0., 0., 0., 0., 0., 0., 0.,
          5.31914877e-003, 0., 0., 0., 0., 0., 0., 0., 0., 0., 0., 0.,
          0., 5.31914877e-003, 0., 1.06382975e-002, 0., 0.,
          1.06382975e-002, 0., 0., 0., 0., 0., 0., 0., 0., 0., 0., 0.,
          0., 0., 0., 0., 1.59574468e-002, 0., 0., 0., 0., 0., 0., 0.,
          0., 0., 0., 0., 0., 0., 0., 0., 0., 0., 0., 0., 0., 0., 0., 0.,
          0., 0., 0., 0., 1.06382975e-002, 5.31914877e-003, 0., 0.,
          5.31914877e-003, 0., 1.59574468e-002, 0., 0., 0.,
          5.31914877e-003, 0., 0., 0., 0., 0., 0., 0., 0., 0., 0., 0.,
          5.31914877e-003, 0., 0., 0., 0., 0., 0., 0., 0., 0., 0., 0.,
          0., 0., 0., 0., 0., 0., 0., 5.31914877e-003, 0.,
          5.31914877e-003, 0., 0., 0., 5.31914877e-003, 5.31914877e-003,
          0., 0., 0., 0., 0., 0., 0., 0., 0., 0., 0., 0., 0., 0., 0., 0.,
          0., 0., 0., 0., 0., 5.31914877e-003, 0., 0., 0.,
          1.06382975e-002, 0., 0., 0., 0., 0., 0., 0., 5.31914877e-003,
          0., 5.31914877e-003, 0., 0., 0., 0., 0., 0., 0.,
          1.06382975e-002, 0., 0., 0., 0., 0., 0., 0., 0., 0., 0., 0.,
          0., 0., 0., 2.12765951e-002, 0., 0., 0., 0., 0., 0., 0., 0.,
          0., 5.31914877e-003, 0., 0., 5.31914877e-003, 0., 0., 0., 0.,
          0., 0., 5.31914877e-003, 0., 0., 0., 0., 0., 0.,
          5.31914877e-003, 5.31914877e-003, 0., 0., 0., 0., 0., 0., 0.,
          0., 0., 0., 3.19148935e-002, 0., 0., 0., 0., 1.06382975e-002,
          0., 0., 0., 0., 5.31914877e-003, 0., 0., 0., 0., 0., 0., 0.,
          0., 0., 0., 0., 0., 0., 0., 0., 0., 0., 0., 0., 0., 0., 0., 0.,
          0., 5.31914877e-003, 0., 0., 0., 0., 0., 0., 0., 0., 0., 0.,
          0., 0., 0., 0., 0., 0., 0., 0., 0., 0., 0., 0., 0., 0., 0., 0.,
          0., 0., 0., 0., 0., 0., 0., 0., 0., 0., 0., 0., 0., 0.,
          5.31914877e-003, 0., 0., 0., 0., 0., 0., 0., 0., 0., 0., 0.,
          0., 5.31914877e-003, 0., 0., 0., 0., 0., 0., 0., 0., 0., 0.,
          0., 0., 0., 0., 0., 0., 5.31914877e-003, 5.31914877e-003, 0.,
          0., 0., 0., 1.06382975e-002, 0., 0., 5.31914877e-003, 0., 0.,
          0., 5.31914877e-003, 1.06382975e-002, 0., 0., 0., 0., 0., 0.,
          0., 0., 0., 1.06382975e-002, 0., 0., 0., 0., 0., 0., 0., 0.,
          0., 0., 5.31914877e-003, 0., 0., 0., 0., 0., 5.31914877e-003,
          0., 0., 0., 0., 0., 0., 5.31914877e-003, 0., 0., 0.,
          5.31914877e-003, 0., 0., 0., 5.31914877e-003, 0., 0.,
          5.31914877e-003, 0., 0., 0., 0., 0., 1.59574468e-002, 0., 0.,
          0., 0., 5.31914877e-003, 0., 0., 0., 0., 0., 0., 0., 0., 0.,
          0., 0., 0., 0., 0., 0., 1.06382975e-002, 0., 5.31914877e-003,
          0., 0., 0., 0., 0., 0., 0., 0., 0., 0., 0., 0., 0., 0., 0., 0.,
          0., 0., 0., 0., 0., 0., 0., 0., 5.31914877e-003, 0., 0., 0.,
          0., 0., 0., 0., 0., 0., 0., 0., 0., 0., 0., 0., 0., 0., 0., 0.,
          5.31914877e-003, 0., 5.31914877e-003, 0., 0., 0., 0., 0., 0.,
          0., 0., 5.31914877e-003, 0., 0., 0., 0., 0., 0., 0., 0., 0.,
          0., 0., 0., 1.06382975e-002, 5.31914877e-003, 0., 0., 0., 0.,
          0., 1.06382975e-002, 1.06382975e-002, 0., 0., 3.72340418e-002,
          1.06382975e-002, 0., 0., 0., 0., 5.31914877e-003, 0., 0., 0.,
          0., 0., 0., 5.31914877e-003, 5.31914877e-003, 5.31914877e-003,
          0., 0., 0., 0., 0., 0., 0., 0., 0., 0., 5.31914877e-003, 0.,
          2.12765951e-002, 0., 0., 0., 5.31914877e-003, 0., 0., 0., 0.,
          0., 0., 0., 0., 0., 1.06382975e-002, 0., 0., 1.06382975e-002,
          0., 0., 0., 5.31914877e-003, 0., 0., 0., 0., 0., 0., 0., 0.,
          0., 5.31914877e-003, 5.31914877e-003, 0., 0., 0., 0., 0., 0.,
          0., 0., 0., 0., 0., 5.31914877e-003, 0., 0., 0., 0., 0., 0.,
          0., 0., 0., 0., 0., 0., 0., 0., 5.31914877e-003, 0., 0., 0.,
          0., 0., 0., 0., 0., 0., 2.12765951e-002, 0., 0., 0., 0., 0.,
          0., 0., 0., 0., 0., 0., 0., 0., 0., 0., 0., 0., 0., 0., 0., 0.,
          0., 0., 0., 0., 0., 5.31914877e-003, 0., 0., 0., 0., 0., 0.,
          0., 0., 0., 5.31914877e-003, 0., 0., 0., 0., 0., 0., 0., 0.,
          0., 0., 0., 0., 0., 0., 5.31914877e-003, 0., 0., 0., 0., 0.,
          0., 0., 0., 0., 0., 0., 0., 0., 1.06382975e-002, 0., 0.,
          1.06382975e-002, 0., 0., 0., 5.31914877e-003, 0., 0., 0., 0.,
          0., 0., 0., 0., 0., 0., 0., 0., 0., 0., 0., 0., 0., 0., 0., 0.,
          0., 0., 0., 0., 0., 0., 0., 0., 0., 5.31914877e-003, 0., 0.,
          0., 0., 0., 0., 5.31914877e-003, 0., 0., 0., 0., 0., 0., 0.,
          0., 0., 5.31914877e-003, 0., 0., 0., 0., 0., 0., 0., 0., 0.,
          0., 0., 0., 0., 0., 5.31914877e-003, 1.59574468e-002, 0., 0.,
          0., 0., 0., 0., 1.06382975e-002, 0., 0., 0., 0., 0., 0., 0.,
          0., 0., 0., 0., 0., 0., 0., 0., 0., 0., 1.06382975e-002, 0.,
          0., 0., 0., 0., 0., 0., 0., 0., 0., 0., 0., 0., 0., 0., 0., 0.,
          0., 1.06382975e-002, 0., 0., 5.31914877e-003, 0., 0., 0.,
          5.31914877e-003, 0., 0., 0., 0., 0., 0., 0., 0.,
          1.06382975e-002, 0., 0., 0., 0., 2.12765951e-002, 0., 0., 0.,
          0., 0., 0., 0., 0., 0., 1.59574468e-002, 0., 0., 0., 0., 0.,
          5.31914877e-003, 0., 0., 0., 5.31914877e-003, 0., 0., 0., 0.,
          5.31914877e-003, 0., 0., 5.31914877e-003, 5.31914877e-003, 0.,
          0., 0., 0., 0., 0., 1.06382975e-002, 0., 0., 0., 0., 0., 0.,
          0., 0., 0., 0., 0., 0., 0., 0., 0., 0., 5.31914877e-003, 0.,
          0., 0., 2.12765951e-002, 0., 0., 5.31914877e-003, 0., 0.,
          5.31914877e-003, 0., 0., 5.31914877e-003, 0., 0.,
          5.31914877e-003, 0., 0., 0., 0., 0., 0., 0., 0., 0., 0., 0.,
          1.59574468e-002, 0., 0., 0., 5.31914877e-003, 0., 0., 0., 0.,
          0., 0., 0., 0., 0., 5.31914877e-003, 1.06382975e-002, 0., 0. ]
      - [ 0., 0., 0., 0., 0., 0., 0., 0., 0., 0., 0., 0., 0., 0., 0., 0.,
          0., 3.50877196e-002, 0., 0., 0., 0., 0., 0., 0., 0., 0., 0.,
          0., 0., 1.75438598e-002, 0., 0., 0., 0., 0., 0.,
          1.75438598e-002, 0., 0., 0., 0., 0., 0., 0., 0., 0., 0., 0.,
          0., 0., 0., 0., 0., 0., 0., 0., 0., 0., 1.75438598e-002, 0.,
          0., 0., 3.50877196e-002, 0., 0., 0., 0., 0., 0., 0., 0., 0.,
          3.50877196e-002, 0., 0., 0., 0., 0., 1.75438598e-002, 0., 0.,
          0., 0., 0., 0., 0., 1.75438598e-002, 0., 0., 0., 0., 0., 0.,
          0., 0., 0., 1.75438598e-002, 0., 0., 0., 0., 1.75438598e-002,
          0., 1.75438598e-002, 5.26315793e-002, 0., 0., 0., 0., 0.,
          1.75438598e-002, 0., 0., 0., 0., 0., 0., 0., 0., 0., 0., 0.,
          0., 0., 0., 0., 0., 0., 0., 0., 0., 0., 0., 0., 0., 0., 0., 0.,
          0., 0., 0., 0., 0., 0., 0., 0., 0., 0., 0., 0., 0., 0., 0., 0.,
          0., 0., 0., 0., 0., 0., 0., 0., 0., 0., 0., 0., 0., 0., 0., 0.,
          0., 0., 0., 0., 0., 0., 0., 0., 0., 0., 0., 0., 0., 0., 0., 0.,
          0., 0., 0., 0., 0., 0., 0., 0., 0., 0., 0., 0., 0., 0., 0.,
          3.50877196e-002, 3.50877196e-002, 0., 0., 0., 0., 0., 0., 0.,
          0., 0., 0., 0., 0., 0., 0., 0., 0., 0., 1.75438598e-002, 0.,
          0., 0., 0., 0., 0., 0., 0., 0., 0., 0., 0., 0., 0., 0., 0., 0.,
          0., 1.75438598e-002, 0., 0., 0., 0., 0., 0., 0., 0., 0., 0.,
          0., 0., 0., 0., 0., 0., 0., 1.75438598e-002, 0., 0., 0., 0.,
          0., 0., 0., 0., 0., 0., 0., 0., 0., 0., 0., 0., 0., 0., 0., 0.,
          0., 0., 0., 0., 0., 0., 0., 0., 0., 0., 0., 0., 0., 0., 0., 0.,
          0., 0., 0., 0., 0., 0., 0., 0., 0., 0., 0., 0.,
          1.75438598e-002, 0., 0., 0., 0., 0., 0., 0., 0., 0., 0., 0.,
          0., 0., 0., 0., 0., 0., 0., 0., 0., 0., 0., 0., 0., 0., 0., 0.,
          0., 0., 0., 0., 0., 0., 0., 0., 0., 0., 0., 0., 0., 0.,
          1.75438598e-002, 0., 0., 0., 0., 0., 0., 0., 0., 0., 0., 0.,
          0., 0., 0., 0., 0., 0., 0., 1.75438598e-002, 0., 0., 0., 0.,
          0., 0., 0., 0., 0., 0., 0., 0., 0., 0., 0., 0., 0.,
          1.75438598e-002, 0., 0., 0., 0., 0., 0., 0., 0., 0., 0., 0.,
          0., 0., 0., 0., 0., 0., 0., 0., 0., 0., 0., 0., 0., 0., 0., 0.,
          0., 0., 0., 0., 0., 0., 0., 0., 0., 1.75438598e-002, 0., 0.,
          0., 0., 0., 0., 0., 0., 0., 0., 0., 0., 0., 0., 0., 0., 0., 0.,
          0., 0., 0., 0., 0., 0., 0., 0., 0., 0., 0., 0., 0., 0., 0., 0.,
          0., 0., 0., 0., 0., 0., 0., 0., 1.75438598e-002, 0., 0., 0.,
          0., 0., 0., 0., 0., 0., 0., 0., 0., 0., 0., 0., 0., 0.,
          7.01754391e-002, 0., 0., 0., 0., 0., 0., 0., 0., 0., 0., 0.,
          0., 0., 0., 0., 0., 0., 0., 0., 0., 0., 0., 0., 0., 0., 0., 0.,
          0., 0., 0., 0., 0., 0., 0., 0., 0., 0., 0., 0., 0., 0., 0., 0.,
          0., 0., 0., 0., 0., 0., 0., 0., 0., 0., 0., 0., 0., 0., 0., 0.,
          0., 0., 0., 0., 0., 0., 0., 0., 0., 0., 0., 0., 0.,
          3.50877196e-002, 0., 0., 0., 0., 0., 0., 0., 0., 0., 0., 0.,
          0., 0., 0., 0., 0., 0., 0., 0., 0., 0., 0., 0., 0., 0., 0., 0.,
          0., 0., 0., 0., 0., 0., 0., 0., 0., 0., 0., 0., 0., 0., 0., 0.,
          0., 0., 0., 0., 0., 0., 0., 0., 0., 0., 0., 0., 0., 0., 0., 0.,
          0., 0., 0., 0., 0., 0., 0., 0., 0., 0., 0., 0., 0.,
          1.75438598e-002, 0., 0., 0., 0., 0., 0., 0., 0., 0., 0., 0.,
          0., 0., 0., 0., 3.50877196e-002, 0., 0., 0., 0., 0., 0., 0.,
          0., 0., 0., 0., 0., 0., 0., 1.75438598e-002, 0.,
          1.75438598e-002, 0., 0., 0., 0., 0., 0., 0., 0., 0., 0., 0.,
          0., 0., 0., 0., 0., 0., 0., 0., 0., 0., 0., 0., 0., 0., 0., 0.,
          1.75438598e-002, 0., 0., 0., 0., 0., 0., 0., 0., 0., 0., 0.,
          0., 0., 0., 0., 0., 0., 0., 0., 0., 0., 1.75438598e-002, 0.,
          0., 0., 0., 0., 0., 0., 0., 0., 0., 0., 0., 0., 0., 0., 0., 0.,
          0., 1.75438598e-002, 0., 0., 0., 0., 0., 0., 1.75438598e-002,
          0., 5.26315793e-002, 0., 0., 0., 0., 0., 0., 0., 0., 0., 0.,
          0., 0., 0., 0., 0., 0., 0., 0., 0., 0., 0., 0., 0., 0., 0., 0.,
          0., 0., 0., 0., 0., 0., 0., 0., 0., 0., 0., 0., 0., 0., 0., 0.,
          0., 0., 0., 1.75438598e-002, 0., 0., 0., 0., 0., 0., 0., 0.,
          0., 0., 0., 0., 0., 0., 0., 0., 0., 0., 0., 0., 0., 0., 0., 0.,
          0., 0., 0., 0., 0., 0., 0., 0., 0., 0., 0., 0., 0., 0., 0., 0.,
          0., 0., 0., 0., 0., 0., 0., 0., 0., 0., 0., 0., 0., 0., 0., 0.,
          0., 0., 0., 0., 0., 0., 0., 0., 1.75438598e-002, 0., 0., 0.,
          0., 0., 0., 0., 0., 0., 0., 0., 0., 0., 0., 0., 0., 0., 0., 0.,
          0., 0., 0., 0., 0., 0., 0., 0., 0., 0., 0., 0., 0., 0., 0., 0.,
          0., 0., 0., 0., 0., 0., 0., 0., 0., 0., 0., 0., 0., 0., 0., 0.,
          0., 0., 0., 0., 0., 0., 0., 0., 0., 0., 0., 0., 0., 0.,
          5.26315793e-002, 0., 0., 0., 0., 0., 0., 0., 0., 0., 0., 0.,
          0., 0., 0., 1.75438598e-002, 0., 0., 0., 0., 0., 0., 0., 0.,
          0., 0., 0., 0., 0., 0., 0., 0., 0., 0., 0., 0., 0., 0., 0., 0.,
          0., 0., 0., 0., 0., 0., 0., 0., 0., 0., 0., 0.,
          1.75438598e-002, 0., 0., 0., 1.75438598e-002, 0., 0., 0., 0.,
          0., 0., 0., 0., 0., 0., 0., 0., 0., 0., 0., 0., 0., 0., 0., 0.,
          0., 0., 0., 0., 0. ]
      - [ 0., 0., 0., 0., 0., 0., 0., 0., 0., 0., 0., 0., 0., 0., 0., 0.,
          0., 9.99999978e-003, 0., 9.99999978e-003, 0., 0., 0., 0., 0.,
          0., 0., 0., 0., 0., 9.99999978e-003, 0., 0., 0., 0., 0., 0.,
          0., 0., 0., 0., 0., 0., 9.99999978e-003, 0., 0., 0., 0., 0.,
          0., 0., 0., 9.99999978e-003, 9.99999978e-003, 0., 0., 0., 0.,
          0., 0., 0., 0., 0., 0., 0., 0., 0., 0., 0., 0., 0., 0., 0.,
          9.99999978e-003, 0., 0., 0., 9.99999978e-003, 0., 0., 0., 0.,
          0., 0., 0., 0., 0., 0., 0., 0., 0., 0., 0., 0., 0., 0., 0., 0.,
          0., 0., 0., 0., 0., 0., 0., 0., 0., 0., 0., 0., 0., 0., 0., 0.,
          0., 0., 0., 0., 0., 0., 0., 0., 0., 0., 0., 0., 0., 0., 0., 0.,
          0., 0., 0., 0., 0., 0., 9.99999978e-003, 0., 0., 0., 0., 0.,
          0., 0., 0., 0., 0., 0., 0., 0., 0., 0., 0., 0., 0., 0., 0., 0.,
          0., 0., 0., 0., 0., 0., 0., 0., 0., 0., 0., 0., 0., 0.,
          1.99999996e-002, 0., 0., 0., 0., 0., 0., 0., 0., 0., 0.,
          9.99999978e-003, 0., 0., 0., 0., 0., 9.99999978e-003, 0., 0.,
          0., 0., 0., 0., 0., 0., 0., 0., 0., 0., 0., 0., 0., 0., 0., 0.,
          0., 0., 0., 0., 0., 0., 0., 0., 0., 0., 0., 0., 0., 0., 0., 0.,
          9.99999978e-003, 0., 0., 0., 9.99999978e-003, 0., 0., 0., 0.,
          9.99999978e-003, 9.99999978e-003, 0., 0., 0., 0., 0., 0., 0.,
          0., 0., 0., 0., 0., 0., 0., 0., 0., 0., 0., 9.99999978e-003,
          9.99999978e-003, 0., 0., 9.99999978e-003, 0., 0., 0., 0., 0.,
          0., 9.99999978e-003, 9.99999978e-003, 0., 0., 9.99999978e-003,
          0., 0., 0., 0., 0., 0., 0., 0., 0., 0., 0., 0., 0., 0., 0., 0.,
          0., 0., 0., 9.99999978e-003, 0., 9.99999978e-003, 0., 0., 0.,
          0., 0., 0., 0., 0., 0., 0., 0., 0., 0., 0., 1.99999996e-002,
          0., 0., 0., 9.99999978e-003, 0., 0., 0., 0., 0., 0., 0., 0.,
          0., 0., 0., 0., 0., 0., 0., 0., 0., 0., 0., 0., 0., 0., 0., 0.,
          0., 9.99999978e-003, 0., 2.99999993e-002, 0., 9.99999978e-003,
          0., 0., 0., 9.99999978e-003, 0., 0., 0., 0., 0., 0.,
          9.99999978e-003, 0., 1.99999996e-002, 0., 0., 9.99999978e-003,
          9.99999978e-003, 0., 0., 0., 0., 0., 0., 0., 0., 0., 0., 0.,
          0., 0., 0., 0., 0., 0., 0., 0., 0., 0., 0., 0.,
          9.99999978e-003, 0., 0., 0., 0., 0., 0., 0., 9.99999978e-003,
          0., 0., 0., 0., 0., 0., 0., 0., 0., 0., 0., 0., 0., 0., 0.,
          1.99999996e-002, 0., 0., 0., 0., 0., 0., 9.99999978e-003, 0.,
          0., 0., 0., 0., 0., 0., 0., 0., 0., 0., 0., 0., 0., 0., 0., 0.,
          9.99999978e-003, 0., 0., 0., 0., 0., 0., 0., 0., 0., 0., 0.,
          0., 9.99999978e-003, 0., 0., 0., 0., 0., 0., 0., 0., 0.,
          9.99999978e-003, 0., 0., 0., 0., 0., 0., 0., 0., 0., 0., 0.,
          0., 0., 0., 0., 0., 0., 0., 0., 0., 0., 0., 0., 0., 0., 0., 0.,
          0., 0., 0., 0., 9.99999978e-003, 0., 0., 0., 9.99999978e-003,
          0., 0., 0., 0., 0., 0., 0., 0., 0., 0., 0., 0., 0., 0., 0., 0.,
          0., 0., 0., 0., 0., 0., 0., 0., 9.99999978e-003, 0.,
          9.99999978e-003, 0., 0., 0., 0., 0., 0., 0., 0., 0., 0., 0.,
          0., 0., 9.99999978e-003, 0., 0., 0., 0., 0., 0., 0., 0., 0.,
          0., 0., 0., 0., 0., 0., 0., 0., 0., 0., 0., 0., 0., 0., 0., 0.,
          0., 0., 0., 0., 0., 0., 9.99999978e-003, 0., 0., 0., 0.,
          9.99999978e-003, 0., 9.99999978e-003, 0., 0., 0., 0., 0., 0.,
          0., 0., 0., 0., 0., 0., 0., 0., 0., 0., 9.99999978e-003, 0.,
          0., 0., 0., 0., 0., 0., 9.99999978e-003, 0., 0., 0., 0., 0.,
          0., 0., 0., 0., 0., 0., 0., 0., 0., 0., 0., 0., 0.,
          9.99999978e-003, 0., 9.99999978e-003, 0., 0., 0., 0., 0., 0.,
          0., 0., 0., 0., 0., 0., 0., 0., 0., 1.99999996e-002, 0., 0.,
          0., 0., 0., 1.99999996e-002, 0., 1.99999996e-002, 0., 0., 0.,
          0., 0., 0., 0., 0., 0., 0., 0., 0., 0., 0., 0., 0., 0., 0., 0.,
          0., 9.99999978e-003, 0., 9.99999978e-003, 0., 0., 0., 0.,
          9.99999978e-003, 0., 0., 0., 0., 0., 0., 0., 0., 0., 0., 0.,
          0., 0., 0., 0., 0., 0., 9.99999978e-003, 0., 0., 0., 0., 0.,
          9.99999978e-003, 0., 0., 0., 9.99999978e-003, 9.99999978e-003,
          0., 0., 0., 0., 9.99999978e-003, 0., 0., 0., 0.,
          9.99999978e-003, 9.99999978e-003, 0., 0., 0., 0., 0., 0., 0.,
          0., 0., 0., 0., 0., 0., 9.99999978e-003, 0., 0., 0., 0., 0.,
          0., 0., 9.99999978e-003, 9.99999978e-003, 0., 0., 0.,
          9.99999978e-003, 0., 0., 0., 0., 0., 0., 0., 0., 0., 0., 0.,
          0., 0., 0., 0., 0., 0., 0., 0., 0., 0., 0., 0., 0., 0., 0., 0.,
          0., 0., 0., 0., 0., 0., 0., 0., 0., 0., 0., 0., 0., 0., 0., 0.,
          0., 0., 0., 0., 0., 1.99999996e-002, 0., 0., 0., 0., 0., 0.,
          0., 0., 0., 9.99999978e-003, 9.99999978e-003, 0., 0., 0.,
          9.99999978e-003, 0., 0., 0., 0., 9.99999978e-003, 0., 0., 0.,
          0., 0., 9.99999978e-003, 0., 0., 9.99999978e-003, 0., 0., 0.,
          0., 0., 0., 0., 0., 0., 0., 0., 0., 0., 0., 0., 0., 0., 0., 0.,
          0., 9.99999978e-003, 0., 0., 0., 0., 0., 0., 0., 0., 0., 0.,
          0., 0., 0., 0., 0., 0., 0., 0., 0., 0., 0., 0., 0.,
          9.99999978e-003, 0., 0., 0., 0., 0., 0., 0., 0., 0., 0., 0.,
          9.99999978e-003, 0., 9.99999978e-003, 0., 0., 0., 0., 0., 0.,
          0., 0., 0., 0., 0., 0., 0., 0., 0., 0., 0., 0., 0., 0., 0., 0.,
          9.99999978e-003, 0., 0., 0., 0., 9.99999978e-003, 0., 0., 0.,
          0., 0., 0., 0., 0., 0., 0., 0., 0., 0., 0., 0., 0., 0., 0., 0.,
          0., 0., 0., 0., 0., 0., 9.99999978e-003, 0., 0., 0., 0., 0.,
          0., 0., 0., 0., 0., 0., 0., 0., 0., 0., 0., 0., 0., 0., 0., 0.,
          0., 0., 9.99999978e-003, 0., 0., 0., 0., 0., 0., 0., 0., 0.,
          0., 0., 0., 0., 0., 0., 0., 0., 0., 9.99999978e-003, 0., 0.,
          0., 0., 0., 0., 0., 0., 9.99999978e-003, 9.99999978e-003, 0.,
          0., 0., 0., 0., 0., 0., 0., 1.99999996e-002, 0., 0., 0., 0.,
          0., 0., 0., 0., 0., 0., 0., 0., 0. ]
      - [ 6.28930796e-003, 0., 0., 0., 0., 0., 0., 0., 0., 0., 0., 0.,
          6.28930796e-003, 6.28930796e-003, 0., 0., 0., 0., 0., 0.,
          1.25786159e-002, 0., 0., 0., 0., 0., 0., 6.28930796e-003, 0.,
          0., 0., 6.28930796e-003, 0., 0., 0., 0., 0., 0., 0., 0., 0.,
          1.25786159e-002, 0., 0., 0., 0., 0., 0., 0., 0., 0., 0., 0.,
          0., 0., 0., 0., 0., 0., 0., 0., 6.28930796e-003, 0., 0., 0.,
          0., 0., 0., 0., 6.28930796e-003, 6.28930796e-003, 0., 0., 0.,
          6.28930796e-003, 0., 0., 6.28930796e-003, 0., 0., 0., 0., 0.,
          0., 0., 0., 0., 0., 0., 0., 0., 6.28930796e-003, 0., 0., 0.,
          0., 0., 0., 0., 0., 0., 0., 6.28930796e-003, 0., 0., 0., 0.,
          0., 0., 0., 0., 1.25786159e-002, 0., 0., 0., 0.,
          6.28930796e-003, 0., 0., 0., 0., 0., 0., 0., 0., 0.,
          6.28930796e-003, 0., 0., 0., 0., 0., 0., 6.28930796e-003,
          1.25786159e-002, 0., 0., 0., 0., 0., 0., 6.28930796e-003, 0.,
          0., 0., 0., 0., 0., 0., 0., 0., 0., 0., 0., 6.28930796e-003,
          0., 0., 0., 0., 0., 0., 0., 0., 0., 0., 0., 0., 0., 0., 0., 0.,
          0., 6.28930796e-003, 0., 0., 0., 0., 0., 0., 0., 0., 0., 0.,
          1.25786159e-002, 0., 0., 6.28930796e-003, 0., 0.,
          6.28930796e-003, 6.28930796e-003, 0., 0., 0., 0., 0., 0., 0.,
          0., 0., 0., 0., 6.28930796e-003, 6.28930796e-003, 0., 0., 0.,
          0., 0., 0., 0., 0., 0., 0., 0., 0., 0., 0., 0., 0., 0., 0.,
          6.28930796e-003, 0., 0., 6.28930796e-003, 0., 0., 0., 0., 0.,
          2.51572318e-002, 0., 0., 0., 0., 0., 0., 0., 0., 0., 0., 0.,
          0., 0., 0., 0., 0., 0., 0., 0., 0., 6.28930796e-003, 0., 0.,
          0., 0., 0., 0., 0., 0., 0., 0., 0., 0., 0., 0., 0., 0., 0., 0.,
          6.28930796e-003, 6.28930796e-003, 0., 0., 6.28930796e-003, 0.,
          6.28930796e-003, 0., 0., 0., 0., 0., 0., 0., 0., 0., 0., 0.,
          0., 1.25786159e-002, 0., 0., 0., 0., 0., 0., 0.,
          6.28930796e-003, 0., 0., 0., 6.28930796e-003, 0., 0., 0., 0.,
          0., 0., 0., 0., 0., 0., 6.28930796e-003, 0., 0., 0., 0.,
          6.28930796e-003, 0., 0., 0., 0., 0., 0., 0., 0., 0., 0.,
          6.28930796e-003, 0., 0., 0., 0., 0., 0., 0., 6.28930796e-003,
          0., 6.28930796e-003, 0., 0., 0., 0., 0., 0., 0., 0., 0., 0.,
          0., 0., 0., 0., 0., 0., 0., 0., 0., 0., 0., 6.28930796e-003,
          0., 0., 0., 0., 0., 0., 0., 0., 0., 0., 0., 0., 0., 0., 0., 0.,
          0., 0., 0., 0., 0., 0., 0., 0., 6.28930796e-003, 0., 0., 0.,
          0., 0., 0., 0., 0., 0., 0., 0., 6.28930796e-003, 0., 0., 0.,
          0., 0., 6.28930796e-003, 0., 0., 0., 0., 0., 0.,
          6.28930796e-003, 0., 0., 0., 0., 0., 0., 0., 6.28930796e-003,
          0., 0., 0., 0., 0., 0., 0., 0., 0., 0., 0., 0., 0., 0.,
          6.28930796e-003, 1.25786159e-002, 0., 6.28930796e-003, 0., 0.,
          0., 0., 0., 0., 6.28930796e-003, 0., 0., 0., 1.25786159e-002,
          0., 0., 0., 0., 0., 0., 0., 0., 0., 0., 0., 0., 0., 0., 0., 0.,
          0., 0., 0., 0., 0., 6.28930796e-003, 0., 0., 0.,
          1.25786159e-002, 0., 0., 0., 0., 0., 0., 0., 0., 0., 0., 0.,
          6.28930796e-003, 0., 6.28930796e-003, 0., 6.28930796e-003,
          6.28930796e-003, 6.28930796e-003, 0., 0., 0., 0., 0., 0., 0.,
          6.28930796e-003, 0., 0., 0., 0., 0., 6.28930796e-003, 0., 0.,
          0., 0., 0., 0., 0., 0., 6.28930796e-003, 0., 6.28930796e-003,
          6.28930796e-003, 0., 0., 0., 0., 6.28930796e-003, 0., 0., 0.,
          0., 0., 6.28930796e-003, 0., 0., 0., 0., 0., 0., 0., 0.,
          6.28930796e-003, 0., 0., 6.28930796e-003, 0., 6.28930796e-003,
          0., 0., 0., 0., 0., 0., 0., 0., 0., 0., 0., 0., 0., 0., 0., 0.,
          0., 0., 0., 0., 0., 0., 0., 0., 6.28930796e-003, 0.,
          6.28930796e-003, 0., 0., 0., 0., 0., 0., 0., 0., 0., 0., 0.,
          0., 0., 0., 0., 0., 0., 0., 0., 0., 0., 6.28930796e-003, 0.,
          0., 0., 0., 0., 6.28930796e-003, 0., 0., 0., 0.,
          6.28930796e-003, 0., 0., 0., 0., 0., 1.25786159e-002, 0., 0.,
          6.28930796e-003, 6.28930796e-003, 6.28930796e-003, 0., 0., 0.,
          6.28930796e-003, 1.25786159e-002, 0., 0., 0., 0., 0., 0., 0.,
          0., 0., 0., 0., 6.28930796e-003, 0., 0., 0., 0., 0., 0., 0.,
          0., 0., 0., 0., 0., 1.25786159e-002, 0., 0., 0., 0.,
          6.28930796e-003, 0., 0., 0., 6.28930796e-003, 0., 0., 0., 0.,
          0., 0., 0., 0., 0., 0., 0., 0., 0., 0., 0., 0., 0., 0., 0., 0.,
          0., 6.28930796e-003, 0., 0., 0., 0., 0., 0., 0., 0., 0., 0.,
          0., 6.28930796e-003, 0., 0., 0., 0., 0., 0., 6.28930796e-003,
          0., 0., 0., 0., 0., 6.28930796e-003, 0., 0., 0., 0.,
          6.28930796e-003, 6.28930796e-003, 0., 0., 0., 0., 0., 0.,
          6.28930796e-003, 0., 0., 0., 0., 0., 6.28930796e-003, 0., 0.,
          0., 0., 0., 0., 0., 0., 0., 0., 0., 0., 6.28930796e-003, 0.,
          0., 0., 0., 0., 0., 0., 0., 0., 0., 0., 0., 0., 0.,
          6.28930796e-003, 6.28930796e-003, 0., 0., 0., 0., 0., 0., 0.,
          0., 0., 0., 0., 0., 0., 0., 0., 0., 0., 0., 0., 0.,
          6.28930796e-003, 0., 0., 0., 6.28930796e-003, 0., 0., 0., 0.,
          0., 0., 0., 0., 6.28930796e-003, 0., 0., 0., 0.,
          6.28930796e-003, 0., 0., 0., 0., 0., 0., 0., 0., 0.,
          6.28930796e-003, 0., 0., 0., 0., 3.77358496e-002,
          1.88679248e-002, 0., 0., 0., 0., 6.28930796e-003, 0., 0., 0.,
          0., 0., 0., 0., 0., 0., 0., 0., 6.28930796e-003, 0., 0.,
          6.28930796e-003, 0., 0., 0., 6.28930796e-003, 0.,
          6.28930796e-003, 0., 0., 6.28930796e-003, 0., 0., 0., 0., 0.,
          0., 0., 0., 0., 0., 0., 0., 0., 0., 0., 0., 6.28930796e-003,
          0., 0., 0., 0., 0., 0., 1.88679248e-002, 0., 0.,
          6.28930796e-003, 0., 0., 0., 0., 0., 0., 0., 0., 0., 0., 0.,
          0., 0., 0., 0., 0., 0., 0., 0., 0., 6.28930796e-003,
          1.25786159e-002, 6.28930796e-003, 0., 0., 0., 6.28930796e-003,
          6.28930796e-003, 0., 0., 0., 0., 0., 0., 0., 0., 0., 0., 0.,
          0., 6.28930796e-003, 0., 0., 6.28930796e-003, 0., 0.,
          6.28930796e-003, 0., 0., 0., 0., 0., 0., 0., 0., 0., 0., 0.,
          0., 6.28930796e-003, 0., 0., 0., 0., 0., 0., 0., 0., 0., 0.,
          0., 0., 0., 6.28930796e-003, 0., 0., 6.28930796e-003,
          6.28930796e-003, 0., 0., 0., 0., 0., 0., 0., 1.25786159e-002,
          0., 0., 0., 0., 0., 0., 0., 0., 6.28930796e-003, 0., 0., 0.,
          0., 0., 0., 0., 0., 0., 0., 0., 0., 0., 0., 0.,
          2.51572318e-002, 0., 0., 0., 0., 0., 6.28930796e-003, 0., 0.,
          0., 0., 0., 0., 0., 0., 0., 0., 0., 0., 0., 0., 0., 0., 0., 0.,
          0., 0., 0., 0., 0. ]
      - [ 0., 0., 0., 0., 0., 0., 0., 0., 0., 0., 0., 0., 0., 0., 0., 0.,
          0., 0., 0., 0., 7.87401572e-003, 0., 0., 0., 0., 0., 0.,
          7.87401572e-003, 0., 0., 0., 0., 7.87401572e-003, 0., 0., 0.,
          0., 0., 0., 0., 0., 0., 0., 0., 0., 0., 0., 7.87401572e-003,
          0., 0., 0., 0., 7.87401572e-003, 7.87401572e-003, 0., 0., 0.,
          0., 0., 0., 0., 0., 7.87401572e-003, 0., 0., 0., 0., 0., 0.,
          1.57480314e-002, 0., 0., 0., 0., 0., 0., 0., 7.87401572e-003,
          7.87401572e-003, 0., 0., 0., 0., 7.87401572e-003, 0., 0., 0.,
          0., 1.57480314e-002, 0., 7.87401572e-003, 0., 0., 0., 0., 0.,
          0., 0., 0., 0., 0., 0., 0., 0., 0., 0., 0., 0., 0., 0., 0., 0.,
          0., 7.87401572e-003, 0., 0., 0., 0., 0., 0., 0.,
          1.57480314e-002, 0., 0., 0., 0., 0., 0., 0., 0., 0., 0., 0.,
          0., 0., 0., 0., 0., 0., 0., 0., 0., 0., 0., 0., 0., 0., 0., 0.,
          0., 0., 0., 0., 0., 0., 0., 0., 0., 0., 0., 0., 0., 0., 0., 0.,
          0., 0., 0., 0., 0., 0., 0., 0., 7.87401572e-003, 0., 0., 0.,
          0., 0., 0., 0., 0., 0., 0., 0., 0., 1.57480314e-002,
          7.87401572e-003, 0., 0., 0., 0., 0., 0., 0., 0., 0., 0.,
          7.87401572e-003, 0., 7.87401572e-003, 0., 0., 7.87401572e-003,
          0., 0., 0., 0., 0., 0., 0., 0., 0., 7.87401572e-003, 0., 0.,
          0., 0., 0., 0., 0., 0., 0., 0., 0., 0., 0., 0., 0., 0., 0.,
          7.87401572e-003, 0., 0., 0., 0., 0., 0., 0., 0., 0.,
          7.87401572e-003, 0., 0., 0., 0., 0., 0., 0., 0., 0., 0., 0.,
          0., 7.87401572e-003, 0., 0., 2.36220472e-002, 0., 0., 0., 0.,
          0., 0., 0., 0., 0., 0., 0., 0., 0., 0., 0., 0., 0., 0., 0., 0.,
          7.87401572e-003, 0., 0., 0., 1.57480314e-002, 0., 0., 0., 0.,
          0., 0., 0., 0., 0., 0., 0., 0., 0., 0., 0., 0., 0., 0., 0., 0.,
          7.87401572e-003, 0., 0., 0., 0., 0., 0., 0., 0., 0., 0., 0.,
          0., 0., 0., 0., 0., 7.87401572e-003, 0., 0., 0., 0., 0., 0.,
          0., 0., 0., 0., 7.87401572e-003, 0., 0., 7.87401572e-003,
          1.57480314e-002, 0., 0., 0., 0., 0., 0., 0., 0., 0., 0., 0.,
          0., 0., 0., 0., 0., 0., 0., 0., 0., 0., 0., 7.87401572e-003,
          0., 0., 0., 0., 1.57480314e-002, 0., 0., 0., 0.,
          7.87401572e-003, 0., 0., 0., 0., 0., 0., 0., 0., 0., 0., 0.,
          0., 0., 0., 0., 0., 0., 0., 0., 0., 0., 0., 0., 0., 0., 0., 0.,
          0., 0., 0., 0., 0., 7.87401572e-003, 0., 0., 0., 0.,
          7.87401572e-003, 0., 0., 0., 0., 7.87401572e-003, 0.,
          7.87401572e-003, 0., 0., 0., 7.87401572e-003, 7.87401572e-003,
          0., 0., 0., 0., 0., 0., 0., 0., 0., 0., 1.57480314e-002, 0.,
          0., 7.87401572e-003, 0., 0., 7.87401572e-003, 0.,
          7.87401572e-003, 0., 0., 0., 0., 0., 0., 0., 0., 0., 0., 0.,
          0., 0., 0., 0., 0., 0., 0., 7.87401572e-003, 0., 0., 0., 0.,
          0., 0., 0., 0., 0., 0., 0., 0., 0., 0., 0., 0., 0., 0., 0., 0.,
          0., 0., 0., 0., 0., 0., 0., 0., 0., 7.87401572e-003, 0., 0.,
          0., 0., 0., 0., 0., 0., 0., 0., 0., 1.57480314e-002, 0., 0.,
          0., 0., 0., 0., 7.87401572e-003, 7.87401572e-003,
          7.87401572e-003, 0., 0., 0., 0., 0., 0., 7.87401572e-003, 0.,
          0., 0., 0., 0., 0., 0., 0., 0., 0., 0., 0., 0., 0., 0., 0., 0.,
          0., 0., 0., 0., 0., 0., 0., 0., 7.87401572e-003, 0., 0.,
          7.87401572e-003, 0., 0., 0., 0., 0., 0., 0., 0., 0., 0., 0.,
          0., 0., 0., 0., 0., 2.36220472e-002, 0., 0., 0., 0., 0., 0.,
          0., 0., 0., 0., 0., 7.87401572e-003, 0., 0., 0., 0., 0., 0.,
          0., 0., 0., 0., 0., 0., 0., 0., 0., 7.87401572e-003,
          7.87401572e-003, 0., 0., 0., 0., 1.57480314e-002, 0., 0., 0.,
          0., 0., 0., 0., 0., 0., 0., 0., 0., 7.87401572e-003,
          7.87401572e-003, 0., 0., 0., 0., 0., 0., 0., 7.87401572e-003,
          7.87401572e-003, 0., 0., 0., 0., 1.57480314e-002, 0., 0., 0.,
          0., 0., 0., 7.87401572e-003, 0., 0., 7.87401572e-003, 0., 0.,
          0., 0., 0., 1.57480314e-002, 0., 0., 0., 7.87401572e-003, 0.,
          7.87401572e-003, 0., 0., 0., 0., 0., 7.87401572e-003, 0., 0.,
          0., 7.87401572e-003, 0., 0., 0., 0., 0., 0., 0., 0., 0., 0.,
          0., 0., 0., 0., 0., 0., 0., 0., 0., 0., 0., 0., 0., 0., 0., 0.,
          0., 0., 7.87401572e-003, 0., 0., 0., 0., 0., 0.,
          7.87401572e-003, 0., 0., 0., 0., 0., 0., 0., 0., 0.,
          2.36220472e-002, 0., 0., 0., 0., 0., 0., 0., 0.,
          7.87401572e-003, 0., 0., 0., 0., 0., 0., 0., 0.,
          3.14960629e-002, 0., 0., 0., 0., 0., 0., 0., 0., 0., 0., 0.,
          0., 0., 0., 0., 0., 0., 0., 0., 0., 0., 0., 0., 0., 0., 0., 0.,
          7.87401572e-003, 0., 0., 0., 0., 0., 7.87401572e-003, 0., 0.,
          0., 0., 7.87401572e-003, 0., 0., 0., 0., 0., 0., 0., 0., 0.,
          0., 0., 1.57480314e-002, 7.87401572e-003, 0., 0., 0., 0., 0.,
          0., 0., 0., 0., 0., 0., 0., 0., 0., 0., 0., 0., 0., 0., 0., 0.,
          0., 0., 0., 0., 0., 0., 0., 0., 0., 0., 7.87401572e-003, 0.,
          0., 0., 0., 0., 0., 7.87401572e-003, 0., 0., 0., 0.,
          7.87401572e-003, 0., 0., 0., 0., 0., 0., 0., 0.,
          7.87401572e-003, 7.87401572e-003, 7.87401572e-003, 0., 0., 0.,
          0., 0., 0., 0., 0., 7.87401572e-003, 0., 2.36220472e-002, 0.,
          0., 0., 0., 0., 0., 7.87401572e-003, 0., 0., 0., 0., 0., 0.,
          0., 0., 0., 0., 0., 0., 7.87401572e-003, 0., 0., 0., 0., 0.,
          0., 0., 0., 0., 0., 0., 0., 0., 0., 0., 0., 0., 0., 0., 0., 0.,
          7.87401572e-003, 7.87401572e-003, 7.87401572e-003, 0., 0., 0.,
          0., 0., 0., 0., 0., 0., 0., 0., 0., 0., 0., 0., 0., 0., 0., 0.,
          0., 0., 0., 0., 0., 0., 0., 0., 0., 0., 0., 0., 0., 0., 0., 0.,
          0., 0., 0., 0., 0., 0., 0., 0., 0., 0., 0., 0., 0., 0., 0., 0.,
          0., 0., 0., 0., 0., 0., 0., 0., 0., 0., 0., 0., 0., 0., 0., 0.,
          0., 7.87401572e-003, 0., 0., 0., 0., 7.87401572e-003, 0., 0.,
          0., 0., 0., 7.87401572e-003, 0., 0., 0., 0., 0., 0.,
          7.87401572e-003, 0., 0., 0., 0., 1.57480314e-002, 0., 0., 0.,
          0., 0., 0., 0., 0., 0., 7.87401572e-003, 0., 0., 0.,
          7.87401572e-003, 0., 0., 0., 0., 0., 0., 0., 0., 0., 0., 0.,
          0., 0. ]
      - [ 0., 0., 0., 0., 0., 0., 0., 0., 0., 0., 0., 0., 0.,
          8.00000038e-003, 0., 0., 0., 0., 1.60000008e-002,
          8.00000038e-003, 8.00000038e-003, 0., 0., 0., 0., 0., 0., 0.,
          0., 0., 5.60000017e-002, 0., 0., 0., 0., 0., 0., 0., 0., 0.,
          0., 0., 0., 2.40000002e-002, 0., 0., 0., 0., 0., 0., 0., 0.,
          0., 0., 0., 0., 0., 0., 0., 0., 0., 0., 0., 0., 0., 0., 0., 0.,
          0., 8.00000038e-003, 0., 0., 0., 0., 0., 0., 0., 0.,
          4.00000028e-002, 0., 0., 0., 0., 0., 0., 0., 0., 0., 0., 0.,
          0., 0., 0., 0., 0., 8.00000038e-003, 0., 8.00000038e-003, 0.,
          0., 0., 0., 0., 0., 0., 0., 0., 0., 0., 0., 0., 0., 0., 0., 0.,
          0., 0., 0., 0., 8.00000038e-003, 0., 0., 0., 0., 0., 0., 0.,
          0., 0., 0., 0., 0., 0., 0., 0., 0., 0., 0., 0., 0., 0., 0., 0.,
          0., 0., 0., 0., 0., 8.00000038e-003, 0., 0., 0., 0., 0., 0.,
          0., 0., 0., 0., 0., 0., 0., 0., 0., 0., 0., 0., 0., 0., 0., 0.,
          0., 0., 0., 0., 0., 0., 0., 0., 0., 0., 0., 8.00000038e-003,
          0., 0., 0., 0., 0., 0., 0., 0., 0., 1.60000008e-002, 0., 0.,
          0., 0., 0., 0., 0., 0., 0., 8.00000038e-003, 0., 0., 0., 0.,
          0., 0., 0., 0., 0., 0., 0., 0., 8.00000038e-003, 0., 0., 0.,
          0., 0., 0., 0., 0., 0., 0., 0., 0., 0., 0., 0.,
          8.00000038e-003, 0., 0., 0., 0., 0., 0., 0., 0., 0., 0., 0.,
          0., 0., 0., 0., 0., 0., 0., 0., 0., 0., 0., 0., 0., 0., 0., 0.,
          1.60000008e-002, 0., 1.60000008e-002, 0., 0., 0., 0., 0., 0.,
          0., 0., 0., 8.00000038e-003, 0., 0., 0., 0., 8.00000038e-003,
          0., 0., 0., 0., 0., 0., 0., 0., 0., 0., 0., 0.,
          8.00000038e-003, 0., 0., 0., 0., 8.00000038e-003, 0., 0., 0.,
          0., 0., 0., 0., 0., 0., 0., 0., 0., 0., 0., 0., 0., 0., 0., 0.,
          0., 0., 0., 8.00000038e-003, 0., 0., 0., 0., 0., 0., 0., 0.,
          8.00000038e-003, 0., 0., 0., 0., 0., 0., 0., 0., 0., 0., 0.,
          0., 0., 0., 0., 0., 0., 0., 0., 0., 0., 0., 0.,
          8.00000038e-003, 0., 0., 0., 0., 0., 0., 0., 8.00000038e-003,
          0., 0., 0., 0., 8.00000038e-003, 0., 0., 0., 0., 0.,
          1.60000008e-002, 0., 0., 0., 0., 0., 0., 0., 8.00000038e-003,
          0., 0., 0., 0., 0., 0., 0., 0., 0., 0., 0., 0., 0., 0., 0.,
          8.00000038e-003, 8.00000038e-003, 0., 1.60000008e-002, 0., 0.,
          0., 0., 0., 0., 0., 8.00000038e-003, 0., 0., 0.,
          8.00000038e-003, 0., 0., 8.00000038e-003, 0., 0., 0., 0., 0.,
          0., 0., 8.00000038e-003, 0., 0., 0., 0., 0., 0., 0., 0., 0.,
          0., 0., 0., 8.00000038e-003, 0., 0., 0., 8.00000038e-003, 0.,
          0., 0., 0., 0., 1.60000008e-002, 0., 0., 0., 0., 0., 0., 0.,
          0., 0., 0., 0., 0., 0., 0., 0., 0., 0., 0., 0., 0., 0., 0., 0.,
          0., 0., 0., 0., 0., 0., 0., 0., 0., 0., 0., 0., 0., 0., 0., 0.,
          0., 0., 0., 0., 0., 0., 8.00000038e-003, 2.40000002e-002, 0.,
          0., 0., 0., 0., 0., 0., 0., 0., 0., 0., 0., 0., 0., 0., 0., 0.,
          0., 0., 0., 0., 0., 0., 0., 0., 0., 0., 0., 0., 0., 0., 0., 0.,
          0., 0., 0., 0., 0., 0., 0., 0., 0., 0., 3.20000015e-002, 0.,
          0., 0., 0., 1.60000008e-002, 0., 0., 0., 0., 0., 0., 0., 0.,
          0., 0., 0., 0., 0., 0., 0., 0., 0., 0., 0., 0., 0., 0., 0., 0.,
          0., 0., 0., 0., 0., 0., 0., 0., 0., 0., 0., 0.,
          8.00000038e-003, 0., 0., 0., 0., 0., 0., 8.00000038e-003, 0.,
          0., 0., 0., 0., 0., 0., 0., 0., 0., 0., 0., 0., 0.,
          8.00000038e-003, 8.00000038e-003, 0., 8.00000038e-003, 0., 0.,
          0., 0., 0., 0., 0., 0., 0., 0., 0., 0., 0., 0., 0., 0., 0., 0.,
          0., 0., 8.00000038e-003, 0., 0., 0., 0., 0., 0., 0.,
          8.00000038e-003, 0., 0., 0., 0., 0., 0., 0., 0., 0., 0., 0.,
          0., 0., 0., 0., 0., 1.60000008e-002, 0., 0., 0., 0., 0., 0.,
          0., 8.00000038e-003, 0., 0., 0., 0., 0., 0., 0., 0.,
          1.60000008e-002, 0., 0., 8.00000038e-003, 0., 0., 0., 0., 0.,
          0., 0., 0., 8.00000038e-003, 0., 0., 0., 0., 0., 0., 0., 0.,
          0., 8.00000038e-003, 0., 0., 0., 0., 0., 0., 0., 0.,
          8.00000038e-003, 0., 0., 0., 0., 0., 0., 1.60000008e-002, 0.,
          0., 0., 0., 8.00000038e-003, 0., 0., 0., 0., 0., 0., 0.,
          2.40000002e-002, 0., 0., 0., 0., 0., 0., 0., 0., 0., 0., 0.,
          0., 0., 0., 0., 0., 0., 0., 0., 0., 0., 0., 0., 0., 0., 0.,
          2.40000002e-002, 0., 0., 0., 0., 0., 0., 0., 0., 0., 0., 0.,
          0., 0., 0., 0., 0., 0., 0., 0., 0., 0., 0., 0., 0., 0., 0.,
          8.00000038e-003, 0., 0., 0., 0., 0., 0., 0., 0., 0.,
          8.00000038e-003, 0., 0., 4.80000004e-002, 0., 0., 0., 0., 0.,
          0., 0., 0., 0., 0., 0., 0., 0., 0., 8.00000038e-003, 0., 0.,
          0., 0., 0., 0., 0., 0., 0., 0., 0., 0., 0., 1.60000008e-002,
          0., 0., 0., 0., 0., 0., 0., 0., 0., 0., 0., 0., 0., 0., 0., 0.,
          0., 0., 0., 0., 0., 0., 0., 0., 0., 0., 0., 0., 0., 0., 0., 0.,
          8.00000038e-003, 0., 0., 0., 0., 0., 0., 0., 0., 0., 0.,
          1.60000008e-002, 0., 0., 0., 0., 0., 0., 0., 0., 0., 0., 0.,
          8.00000038e-003, 0., 0., 0., 0., 0., 0., 0., 0., 0., 0., 0.,
          0., 0., 0., 0., 0., 0., 3.20000015e-002, 0., 0., 0., 0., 0.,
          0., 0., 0., 0., 0., 0., 8.00000038e-003, 0., 0., 0., 0., 0.,
          0., 8.00000038e-003, 0., 0., 0., 0., 0., 0., 0., 0.,
          8.00000038e-003, 0., 0., 0., 0., 0., 0., 0., 0., 0., 0., 0.,
          0., 0., 0., 0., 0., 0., 0., 8.00000038e-003, 0., 0., 0., 0.,
          0., 0., 0., 0., 0., 0., 0., 0., 0., 0., 0., 0., 0., 0., 0., 0.,
          0., 0., 0., 8.00000038e-003, 0., 0., 0., 0., 0., 0., 0., 0.,
          8.00000038e-003, 0., 0., 0., 0., 0., 8.00000038e-003, 0., 0.,
          0., 0., 0., 0., 8.00000038e-003, 0., 0., 0., 0., 0., 0., 0.,
          1.60000008e-002, 0., 0., 0., 0., 0., 0., 1.60000008e-002, 0.,
          0., 0., 0., 0., 0., 0. ]
      - [ 0., 0., 0., 0., 5.12820529e-003, 0., 0., 0., 1.02564106e-002,
          0., 0., 0., 1.02564106e-002, 0., 0., 0., 0., 0., 0., 0.,
          1.53846163e-002, 0., 0., 0., 0., 0., 0., 0., 0., 0.,
          5.12820529e-003, 0., 0., 0., 0., 0., 5.12820529e-003, 0., 0.,
          0., 0., 5.12820529e-003, 0., 0., 0., 0., 0., 0., 0., 0., 0.,
          0., 1.02564106e-002, 1.53846163e-002, 0., 0., 0., 0., 0., 0.,
          5.12820529e-003, 0., 0., 0., 0., 1.02564106e-002, 0., 0., 0.,
          5.12820529e-003, 0., 0., 0., 0., 0., 0., 0., 5.12820529e-003,
          0., 1.02564106e-002, 0., 0., 0., 0., 0., 0., 0., 0., 0., 0.,
          0., 0., 0., 0., 0., 5.12820529e-003, 0., 0., 1.53846163e-002,
          0., 0., 0., 0., 0., 0., 0., 0., 0., 0., 0., 0., 0., 0., 0., 0.,
          0., 0., 0., 0., 0., 0., 0., 5.12820529e-003, 0., 0., 0., 0.,
          0., 0., 0., 0., 0., 0., 0., 5.12820529e-003, 0.,
          1.02564106e-002, 0., 0., 0., 0., 0., 0., 0., 0., 0., 0., 0.,
          0., 0., 0., 0., 0., 0., 0., 0., 0., 0., 0., 0., 0., 0., 0., 0.,
          0., 0., 0., 0., 0., 0., 0., 0., 0., 0., 0., 0., 0., 0., 0.,
          5.12820529e-003, 0., 0., 0., 0., 0., 0., 0., 5.12820529e-003,
          5.12820529e-003, 1.02564106e-002, 0., 0., 0., 1.02564106e-002,
          0., 0., 0., 0., 0., 0., 0., 0., 5.12820529e-003, 0., 0., 0.,
          0., 0., 0., 0., 0., 0., 0., 0., 0., 0., 0., 0., 0., 0., 0., 0.,
          0., 0., 0., 0., 5.12820529e-003, 0., 0., 0., 0.,
          5.12820529e-003, 0., 1.02564106e-002, 0., 0., 0., 0., 0., 0.,
          0., 0., 0., 0., 5.12820529e-003, 0., 0., 0., 0., 0., 0., 0.,
          1.02564106e-002, 0., 5.12820529e-003, 0., 0., 1.02564106e-002,
          0., 0., 0., 0., 0., 5.12820529e-003, 0., 0., 0.,
          1.02564106e-002, 0., 0., 0., 1.02564106e-002, 0., 0., 0.,
          5.12820529e-003, 0., 0., 0., 5.12820529e-003, 0., 0.,
          5.12820529e-003, 0., 0., 0., 5.12820529e-003, 0., 0., 0.,
          1.53846163e-002, 0., 0., 0., 0., 0., 0., 0., 5.12820529e-003,
          0., 0., 0., 0., 0., 0., 0., 0., 0., 0., 0., 5.12820529e-003,
          0., 0., 0., 0., 0., 0., 0., 1.53846163e-002, 0.,
          5.12820529e-003, 0., 0., 0., 0., 0., 0., 5.12820529e-003, 0.,
          5.12820529e-003, 0., 0., 0., 0., 5.12820529e-003, 0., 0., 0.,
          0., 0., 0., 0., 0., 0., 0., 0., 0., 0., 0., 5.12820529e-003,
          0., 0., 0., 0., 0., 0., 0., 0., 0., 0., 0., 0., 0., 0.,
          1.02564106e-002, 0., 0., 5.12820529e-003, 0., 0., 0., 0.,
          5.12820529e-003, 0., 0., 0., 0., 0., 0., 0., 0., 0., 0., 0.,
          0., 0., 0., 0., 0., 0., 0., 5.12820529e-003, 0., 0., 0., 0.,
          5.12820529e-003, 0., 0., 0., 0., 0., 0., 0., 0., 0., 0., 0.,
          0., 0., 0., 5.12820529e-003, 1.02564106e-002, 0., 0., 0.,
          5.12820529e-003, 0., 1.02564106e-002, 0., 0., 0., 0., 0., 0.,
          0., 0., 0., 5.12820529e-003, 0., 0., 0., 0., 0., 0., 0., 0.,
          0., 0., 0., 0., 5.12820529e-003, 0., 0., 0., 0., 0., 0.,
          1.02564106e-002, 5.12820529e-003, 0., 0., 0., 0., 0., 0., 0.,
          0., 0., 0., 0., 0., 0., 5.12820529e-003, 0., 0., 0., 0.,
          1.02564106e-002, 0., 0., 0., 0., 0., 5.12820529e-003, 0., 0.,
          0., 0., 0., 0., 0., 0., 5.12820529e-003, 5.12820529e-003, 0.,
          0., 0., 5.12820529e-003, 0., 0., 0., 5.12820529e-003, 0., 0.,
          0., 0., 0., 0., 0., 0., 0., 0., 0., 0., 0., 0., 0.,
          5.12820529e-003, 0., 0., 0., 0., 0., 0., 0., 0., 0., 0., 0.,
          0., 5.12820529e-003, 0., 5.12820529e-003, 0., 5.12820529e-003,
          0., 0., 0., 0., 0., 5.12820529e-003, 0., 0., 0., 0., 0., 0.,
          1.02564106e-002, 0., 0., 0., 0., 0., 0., 0., 0., 0., 0., 0.,
          0., 0., 0., 0., 0., 0., 0., 0., 0., 0., 0., 0., 0., 0., 0., 0.,
          0., 0., 0., 0., 1.53846163e-002, 0., 0., 0., 0.,
          5.12820529e-003, 0., 0., 0., 0., 0., 0., 0., 0., 0., 0., 0.,
          0., 5.12820529e-003, 0., 0., 0., 1.02564106e-002, 0., 0., 0.,
          0., 0., 0., 0., 0., 0., 0., 0., 0., 0., 0., 0., 0., 0., 0.,
          5.12820529e-003, 0., 0., 0., 0., 0., 0., 0., 1.02564106e-002,
          0., 5.12820529e-003, 0., 0., 0., 0., 0., 0., 0., 0.,
          5.12820529e-003, 0., 0., 0., 0., 0., 5.12820529e-003, 0., 0.,
          0., 0., 0., 0., 0., 0., 5.12820529e-003, 0., 0.,
          5.12820529e-003, 0., 0., 0., 0., 0., 0., 0., 5.12820529e-003,
          0., 5.12820529e-003, 5.12820529e-003, 0., 0., 5.12820529e-003,
          0., 0., 0., 0., 0., 0., 0., 0., 0., 0., 0., 0., 0., 0., 0., 0.,
          0., 0., 0., 5.12820529e-003, 0., 0., 0., 0., 0., 0., 0., 0.,
          1.02564106e-002, 5.12820529e-003, 0., 0., 0., 0., 0., 0., 0.,
          1.02564106e-002, 0., 0., 0., 0., 0., 0., 0., 0., 0.,
          1.53846163e-002, 0., 0., 0., 0., 0., 0., 0., 1.02564106e-002,
          0., 0., 0., 0., 0., 0., 0., 0., 0., 0., 1.02564106e-002, 0.,
          0., 5.12820529e-003, 0., 0., 0., 0., 0., 0., 0., 0., 0., 0.,
          0., 5.12820529e-003, 5.12820529e-003, 5.12820529e-003, 0., 0.,
          5.12820529e-003, 5.12820529e-003, 5.12820529e-003,
          5.12820529e-003, 0., 0., 5.12820529e-003, 0., 0., 0., 0., 0.,
          0., 0., 0., 0., 0., 0., 0., 0., 5.12820529e-003,
          5.12820529e-003, 0., 0., 0., 5.12820529e-003, 0.,
          5.12820529e-003, 5.12820529e-003, 0., 0., 0., 0., 0., 0., 0.,
          0., 5.12820529e-003, 0., 0., 0., 0., 0., 0., 5.12820529e-003,
          0., 0., 0., 0., 0., 0., 0., 0., 1.53846163e-002,
          5.12820529e-003, 0., 0., 5.12820529e-003, 5.12820529e-003, 0.,
          0., 1.53846163e-002, 0., 0., 0., 0., 0., 0., 0., 0., 0., 0.,
          5.12820529e-003, 0., 0., 0., 0., 0., 1.02564106e-002, 0., 0.,
          0., 0., 5.12820529e-003, 0., 0., 5.12820529e-003,
          1.53846163e-002, 0., 0., 0., 0., 0., 0., 0., 0.,
          5.12820529e-003, 0., 0., 0., 0., 0., 0., 0., 0., 0., 0., 0.,
          0., 5.12820529e-003, 0., 0., 0., 0., 0., 0., 0., 0., 0., 0.,
          0., 0., 0., 0., 5.12820529e-003, 0., 0., 0., 0., 0.,
          5.12820529e-003, 2.05128212e-002, 0., 0., 0., 0., 0., 0., 0.,
          0., 0., 0., 0., 0., 0., 0., 0., 0., 0., 0., 0., 0.,
          5.12820529e-003, 0., 0., 0., 0., 0., 0., 0., 0., 0.,
          5.12820529e-003, 0., 0., 0., 0., 0., 0., 0., 0., 0., 0., 0.,
          5.12820529e-003, 5.12820529e-003, 0., 1.02564106e-002, 0., 0.,
          0., 0., 5.12820529e-003, 0., 0., 0., 1.02564106e-002, 0.,
          5.12820529e-003, 0., 0., 0., 0., 0., 5.12820529e-003, 0., 0.,
          0., 5.12820529e-003, 0., 0., 0., 0., 0., 0., 5.12820529e-003,
          5.12820529e-003, 0., 0., 1.53846163e-002, 0., 0., 0., 0., 0.,
          0., 0., 0., 0., 0., 0., 0., 0., 0., 0., 0., 0., 0., 0., 0., 0.,
          0., 0., 0., 0., 0., 0., 0., 0., 0., 5.12820529e-003, 0., 0.,
          0., 5.12820529e-003, 0., 0., 0., 0., 0., 0. ]
      - [ 0., 0., 0., 4.54545440e-003, 0., 0., 0., 0., 9.09090880e-003,
          0., 0., 0., 0., 1.81818176e-002, 0., 0., 0., 0., 0., 0.,
          2.27272715e-002, 0., 0., 0., 0., 0., 0., 4.54545440e-003, 0.,
          0., 0., 0., 0., 0., 0., 0., 1.81818176e-002, 0., 0., 0., 0.,
          4.54545440e-003, 0., 0., 0., 0., 0., 0., 0., 0.,
          4.54545440e-003, 0., 0., 4.54545440e-003, 0., 0., 0., 0., 0.,
          0., 0., 0., 0., 0., 0., 4.54545440e-003, 0., 0., 0., 0., 0.,
          9.09090880e-003, 0., 0., 9.09090880e-003, 0., 0.,
          1.36363637e-002, 0., 1.81818176e-002, 0., 0., 0., 0., 0., 0.,
          0., 0., 0., 0., 9.09090880e-003, 4.54545440e-003, 0., 0., 0.,
          9.09090880e-003, 0., 0., 0., 0., 4.54545440e-003, 0., 0., 0.,
          0., 0., 0., 4.54545440e-003, 0., 9.09090880e-003, 0.,
          9.09090880e-003, 0., 4.54545440e-003, 0., 4.54545440e-003, 0.,
          0., 4.54545440e-003, 0., 0., 0., 4.54545440e-003, 0., 0., 0.,
          0., 0., 0., 0., 0., 0., 0., 4.54545440e-003, 1.81818176e-002,
          0., 0., 0., 0., 0., 0., 0., 0., 0., 0., 4.54545440e-003, 0.,
          9.09090880e-003, 0., 4.54545440e-003, 0., 0., 0., 0., 0., 0.,
          9.09090880e-003, 0., 0., 0., 0., 0., 0., 0., 0., 0., 0., 0.,
          0., 0., 0., 0., 0., 0., 0., 0., 0., 0., 0., 0., 0., 0., 0.,
          4.54545440e-003, 0., 0., 0., 0., 0., 1.36363637e-002, 0., 0.,
          0., 0., 0., 0., 0., 0., 0., 0., 0., 0., 0., 0., 0., 0., 0., 0.,
          0., 0., 0., 0., 0., 0., 0., 0., 0., 0., 0., 0., 0., 0.,
          4.54545440e-003, 0., 0., 0., 4.54545440e-003, 4.54545440e-003,
          0., 0., 0., 0., 0., 0., 0., 0., 4.54545440e-003, 0., 0., 0.,
          0., 4.54545440e-003, 0., 0., 0., 0., 0., 0., 0., 0., 0., 0.,
          0., 0., 0., 0., 0., 0., 0., 0., 0., 9.09090880e-003, 0., 0.,
          0., 0., 0., 0., 0., 0., 4.54545440e-003, 0., 0., 0., 0.,
          4.54545440e-003, 0., 4.54545440e-003, 0., 0., 0., 0.,
          9.09090880e-003, 0., 0., 0., 0., 0., 0., 0., 0., 0., 0.,
          4.54545440e-003, 0., 0., 0., 0., 0., 0., 0., 0., 0., 0., 0.,
          0., 0., 0., 0., 0., 0., 0., 0., 0., 0., 0., 0., 0.,
          4.54545440e-003, 0., 0., 0., 0., 0., 0., 0., 0., 0., 0., 0.,
          0., 0., 0., 0., 0., 0., 0., 4.54545440e-003, 0., 0., 0., 0.,
          0., 0., 0., 0., 0., 0., 0., 0., 0., 0., 0., 0., 0., 0., 0., 0.,
          4.54545440e-003, 0., 0., 0., 0., 0., 0., 4.54545440e-003, 0.,
          4.54545440e-003, 4.54545440e-003, 0., 0., 0., 9.09090880e-003,
          0., 0., 0., 0., 0., 0., 0., 0., 0., 4.54545440e-003, 0., 0.,
          0., 0., 0., 4.54545440e-003, 0., 0., 9.09090880e-003, 0., 0.,
          0., 4.54545440e-003, 0., 0., 0., 0., 0., 0., 0., 0.,
          4.54545440e-003, 0., 0., 0., 0., 0., 0., 0., 0., 0., 0., 0.,
          4.54545440e-003, 0., 9.09090880e-003, 0., 4.54545440e-003, 0.,
          0., 0., 4.54545440e-003, 0., 4.54545440e-003, 0., 0.,
          4.54545440e-003, 0., 0., 0., 0., 0., 4.54545440e-003, 0.,
          4.54545440e-003, 0., 0., 0., 0., 0., 0., 0., 0., 0.,
          4.54545440e-003, 4.54545440e-003, 4.54545440e-003, 0.,
          4.54545440e-003, 0., 0., 0., 0., 0., 0., 0., 4.54545440e-003,
          0., 0., 0., 0., 0., 0., 0., 0., 0., 0., 0., 0., 0., 0.,
          1.36363637e-002, 0., 1.81818176e-002, 0., 0., 0., 0., 0., 0.,
          1.81818176e-002, 1.81818176e-002, 0., 4.54545440e-003, 0., 0.,
          0., 0., 4.54545440e-003, 4.54545440e-003, 0., 4.54545440e-003,
          0., 0., 0., 9.09090880e-003, 0., 0., 0., 0., 0.,
          4.54545440e-003, 0., 0., 0., 4.54545440e-003, 0., 0., 0., 0.,
          4.54545440e-003, 0., 0., 0., 4.54545440e-003, 0., 0., 0.,
          4.54545440e-003, 0., 0., 0., 0., 0., 0., 0., 4.54545440e-003,
          0., 0., 0., 0., 0., 0., 0., 0., 4.54545440e-003, 0., 0., 0.,
          0., 0., 4.54545440e-003, 0., 0., 0., 1.36363637e-002, 0., 0.,
          0., 0., 0., 0., 0., 0., 0., 0., 0., 0., 0., 0., 0., 0., 0., 0.,
          0., 4.54545440e-003, 0., 9.09090880e-003, 0., 0.,
          9.09090880e-003, 0., 4.54545440e-003, 0., 0., 0., 0., 0., 0.,
          0., 0., 0., 0., 0., 0., 4.54545440e-003, 0., 4.54545440e-003,
          0., 9.09090880e-003, 0., 4.54545440e-003, 0., 0., 0., 0., 0.,
          0., 0., 0., 4.54545440e-003, 0., 4.54545440e-003, 0., 0., 0.,
          0., 0., 0., 0., 0., 0., 0., 0., 0., 4.54545440e-003, 0., 0.,
          0., 0., 0., 0., 0., 0., 0., 0., 4.54545440e-003, 0.,
          4.54545440e-003, 0., 0., 0., 4.54545440e-003, 4.54545440e-003,
          0., 0., 0., 0., 0., 0., 0., 0., 4.54545440e-003, 0., 0., 0.,
          9.09090880e-003, 4.54545440e-003, 0., 0., 0., 0., 0., 0., 0.,
          0., 9.09090880e-003, 0., 0., 1.81818176e-002, 0., 0., 0., 0.,
          0., 0., 0., 0., 0., 0., 0., 0., 4.54545440e-003, 0., 0., 0.,
          0., 0., 0., 0., 0., 0., 4.54545440e-003, 0., 0., 0., 0.,
          4.54545440e-003, 0., 4.54545440e-003, 0., 0., 0., 0., 0., 0.,
          0., 4.54545440e-003, 0., 0., 0., 0., 0., 0., 0., 0., 0., 0.,
          0., 0., 0., 0., 0., 0., 0., 0., 0., 0., 0., 0., 0., 0., 0., 0.,
          0., 0., 0., 0., 0., 0., 0., 0., 0., 0., 0., 0., 0., 0., 0., 0.,
          0., 0., 0., 0., 0., 4.54545440e-003, 0., 0., 0., 0., 0., 0.,
          0., 0., 0., 0., 0., 0., 0., 0., 0., 0., 0., 0., 0.,
          9.09090880e-003, 0., 4.54545440e-003, 0., 0., 4.54545440e-003,
          0., 0., 4.54545440e-003, 0., 0., 0., 0., 0., 0., 0., 0., 0.,
          0., 0., 0., 0., 0., 0., 0., 0., 0., 0., 0., 0., 0., 0., 0.,
          4.54545440e-003, 9.09090880e-003, 4.54545440e-003, 0., 0., 0.,
          0., 0., 0., 4.54545440e-003, 0., 0., 0., 0., 0.,
          4.54545440e-003, 0., 0., 0., 1.36363637e-002, 0., 0., 0., 0.,
          0., 0., 9.09090880e-003, 0., 0., 0., 0., 9.09090880e-003, 0.,
          0., 0., 0., 0., 0., 0., 0., 0., 0., 0., 4.54545440e-003, 0.,
          0., 4.54545440e-003, 0., 0., 0., 0., 0., 0., 0., 0., 0., 0.,
          0., 0., 0., 0., 0., 0., 0., 0., 0., 0., 0., 0., 0., 0., 0., 0.,
          0., 0., 0., 0., 0., 4.54545440e-003, 1.36363637e-002, 0., 0.,
          9.09090880e-003, 0., 0., 0., 0., 0., 0., 0., 0., 0., 0., 0.,
          0., 4.54545440e-003, 0., 0., 0., 0., 4.54545440e-003,
          4.54545440e-003, 0., 0., 0., 4.54545440e-003, 0., 0., 0., 0.,
          2.27272715e-002, 0., 0., 0., 0., 0., 4.54545440e-003, 0.,
          4.54545440e-003, 0., 0., 0., 0., 4.54545440e-003, 0.,
          9.09090880e-003, 0., 0., 0., 4.54545440e-003, 0., 0., 0., 0.,
          4.54545440e-003, 0., 1.81818176e-002, 0., 0., 0., 0.,
          4.54545440e-003, 0., 0., 0., 0., 4.54545440e-003, 0., 0., 0.,
          0., 0., 0., 0., 0., 0., 0., 0., 0., 0., 0., 0., 0., 0., 0., 0.,
          0., 0., 0., 0., 0., 0., 0., 0., 0., 0., 0., 0., 0., 0., 0., 0.,
          0., 0., 0., 0., 0., 0., 0., 0., 0., 0., 1.36363637e-002, 0.,
          0., 0., 0., 0., 0. ]
      - [ 0., 0., 0., 0., 1.12359552e-002, 0., 0., 0., 0., 0., 0., 0.,
          0., 5.61797759e-003, 0., 0., 0., 0., 0., 0., 0.,
          1.12359552e-002, 0., 0., 0., 0., 0., 0., 0., 0., 0., 0., 0.,
          0., 0., 0., 1.12359552e-002, 0., 0., 0., 0., 0., 0., 0., 0.,
          0., 0., 0., 5.61797759e-003, 0., 0., 0., 5.61797759e-003,
          1.12359552e-002, 0., 0., 0., 0., 0., 0., 0., 0., 0., 0.,
          1.12359552e-002, 5.61797759e-003, 5.61797759e-003,
          5.61797759e-003, 5.61797759e-003, 0., 0., 5.61797759e-003, 0.,
          0., 0., 0., 0., 1.68539323e-002, 0., 1.12359552e-002,
          5.61797759e-003, 0., 0., 0., 0., 0., 5.61797759e-003, 0., 0.,
          0., 0., 5.61797759e-003, 0., 0., 0., 5.61797759e-003, 0., 0.,
          0., 0., 0., 0., 0., 0., 5.61797759e-003, 0., 0., 0., 0., 0.,
          5.61797759e-003, 0., 0., 0., 0., 0., 0., 0., 0., 0., 0., 0.,
          1.12359552e-002, 0., 5.61797759e-003, 0., 0., 0., 0., 0.,
          1.68539323e-002, 5.61797759e-003, 0., 0., 0., 0.,
          1.12359552e-002, 0., 0., 0., 5.61797759e-003, 0., 0., 0., 0.,
          0., 0., 0., 0., 0., 0., 0., 0., 0., 0., 0., 0.,
          5.61797759e-003, 0., 0., 0., 0., 0., 0., 0., 0., 0., 0., 0.,
          0., 0., 0., 0., 0., 0., 0., 0., 0., 0., 0., 0., 0., 0.,
          5.61797759e-003, 0., 5.61797759e-003, 0., 0., 0., 0., 0., 0.,
          0., 0., 0., 0., 0., 0., 0., 0., 0., 0., 0., 0., 0., 0., 0., 0.,
          0., 0., 0., 0., 0., 0., 0., 0., 0., 5.61797759e-003, 0., 0.,
          0., 0., 0., 0., 0., 0., 0., 0., 0., 0., 0., 5.61797759e-003,
          0., 0., 0., 0., 0., 5.61797759e-003, 0., 0., 0., 0., 0., 0.,
          0., 0., 0., 0., 0., 0., 0., 0., 0., 5.61797759e-003, 0., 0.,
          0., 0., 0., 0., 0., 5.61797759e-003, 0., 0., 0., 0., 0., 0.,
          0., 0., 0., 1.12359552e-002, 5.61797759e-003, 0., 0.,
          1.12359552e-002, 0., 0., 0., 0., 0., 0., 0., 0., 0., 0., 0.,
          0., 0., 0., 0., 0., 0., 0., 0., 0., 0., 0., 0., 0., 0., 0., 0.,
          0., 0., 5.61797759e-003, 0., 5.61797759e-003, 0., 0., 0., 0.,
          0., 0., 0., 0., 5.61797759e-003, 5.61797759e-003,
          1.68539323e-002, 5.61797759e-003, 0., 1.68539323e-002,
          5.61797759e-003, 0., 0., 5.61797759e-003, 5.61797759e-003,
          5.61797759e-003, 0., 5.61797759e-003, 0., 0., 5.61797759e-003,
          0., 0., 0., 0., 0., 0., 5.61797759e-003, 0., 0., 0.,
          5.61797759e-003, 0., 0., 0., 5.61797759e-003, 0., 0., 0., 0.,
          0., 0., 0., 5.61797759e-003, 0., 0., 0., 0., 0., 0., 0.,
          1.68539323e-002, 5.61797759e-003, 0., 0., 0., 0., 0., 0., 0.,
          0., 0., 0., 5.61797759e-003, 0., 5.61797759e-003, 0., 0., 0.,
          0., 5.61797759e-003, 0., 0., 0., 0., 0., 1.12359552e-002, 0.,
          0., 0., 0., 0., 0., 0., 0., 0., 0., 0., 0., 5.61797759e-003,
          0., 0., 0., 5.61797759e-003, 0., 0., 0., 0., 0., 0., 0., 0.,
          0., 0., 0., 0., 0., 0., 5.61797759e-003, 0., 0., 0., 0., 0.,
          5.61797759e-003, 0., 0., 0., 0., 0., 0., 0., 0., 0.,
          5.61797759e-003, 5.61797759e-003, 0., 0., 0., 0., 0., 0., 0.,
          0., 0., 0., 0., 5.61797759e-003, 0., 5.61797759e-003, 0., 0.,
          0., 0., 0., 0., 0., 0., 0., 0., 0., 0., 0., 0., 0., 0., 0., 0.,
          1.12359552e-002, 0., 0., 0., 5.61797759e-003, 0.,
          1.12359552e-002, 0., 0., 0., 0., 0., 0., 0., 0., 0.,
          5.61797759e-003, 0., 0., 0., 0., 0., 0., 0., 5.61797759e-003,
          0., 0., 0., 0., 0., 5.61797759e-003, 0., 0., 5.61797759e-003,
          0., 0., 0., 0., 5.61797759e-003, 0., 0., 5.61797759e-003, 0.,
          0., 0., 1.12359552e-002, 0., 0., 0., 0., 0., 0., 0.,
          5.61797759e-003, 0., 0., 0., 0., 0., 1.12359552e-002, 0., 0.,
          0., 0., 0., 0., 5.61797759e-003, 0., 0., 0., 0., 0., 0.,
          5.61797759e-003, 0., 0., 0., 5.61797759e-003, 0., 0., 0.,
          5.61797759e-003, 5.61797759e-003, 0., 0., 0., 0., 0., 0., 0.,
          1.12359552e-002, 0., 5.61797759e-003, 0., 0., 0., 0., 0., 0.,
          0., 0., 0., 0., 0., 0., 0., 0., 0., 0., 1.12359552e-002, 0.,
          0., 0., 0., 0., 0., 0., 0., 0., 0., 0., 0., 0.,
          5.61797759e-003, 0., 0., 0., 1.12359552e-002, 0.,
          5.61797759e-003, 0., 0., 0., 0., 0., 1.12359552e-002, 0., 0.,
          0., 5.61797759e-003, 0., 5.61797759e-003, 0., 0., 0., 0., 0.,
          5.61797759e-003, 0., 0., 0., 0., 0., 0., 0., 0., 0., 0., 0.,
          0., 0., 0., 5.61797759e-003, 0., 0., 0., 0., 0., 0., 0., 0.,
          0., 0., 0., 0., 0., 0., 0., 0., 0., 0., 0., 0., 0., 0., 0., 0.,
          0., 0., 0., 0., 5.61797759e-003, 0., 0., 0., 0.,
          5.61797759e-003, 0., 0., 0., 0., 0., 0., 0., 0., 0.,
          5.61797759e-003, 0., 0., 0., 0., 0., 0., 0., 0., 0., 0., 0.,
          0., 0., 1.12359552e-002, 2.24719103e-002, 0., 0.,
          5.61797759e-003, 0., 0., 0., 0., 0., 5.61797759e-003, 0., 0.,
          0., 0., 0., 0., 0., 0., 0., 0., 0., 0., 0., 0., 0., 0., 0., 0.,
          0., 0., 0., 0., 0., 0., 0., 0., 0., 5.61797759e-003,
          5.61797759e-003, 0., 0., 0., 0., 0., 0., 0., 0., 0., 0., 0.,
          0., 0., 0., 0., 0., 0., 5.61797759e-003, 0., 0.,
          5.61797759e-003, 0., 0., 0., 0., 5.61797759e-003,
          5.61797759e-003, 0., 0., 0., 0., 0., 0., 0., 0., 0., 0., 0.,
          5.61797759e-003, 5.61797759e-003, 0., 0., 0., 0.,
          5.61797759e-003, 0., 5.61797759e-003, 0., 0., 0., 0., 0.,
          5.61797759e-003, 0., 0., 0., 0., 0., 5.61797759e-003, 0., 0.,
          0., 0., 0., 0., 0., 0., 0., 0., 0., 0., 0., 0.,
          5.61797759e-003, 0., 0., 0., 0., 0., 0., 0., 5.61797759e-003,
          0., 0., 0., 5.61797759e-003, 0., 0., 0., 0., 5.61797759e-003,
          0., 0., 5.61797759e-003, 0., 0., 0., 0., 0., 1.12359552e-002,
          0., 0., 0., 0., 0., 0., 0., 0., 0., 0., 0., 0., 0.,
          1.12359552e-002, 0., 0., 0., 0., 0., 0., 0., 0., 0., 0., 0.,
          0., 1.12359552e-002, 0., 0., 0., 0., 0., 0., 0., 0., 0., 0.,
          0., 0., 0., 0., 0., 0., 0., 0., 5.61797759e-003,
          5.61797759e-003, 0., 0., 0., 0., 0., 0., 5.61797759e-003, 0.,
          0., 0., 0., 0., 0., 0., 0., 0., 0., 0., 0., 5.61797759e-003,
          0., 0., 0., 0., 0., 0., 0., 0., 0., 5.61797759e-003, 0., 0.,
          0., 0., 5.61797759e-003, 0., 0., 0., 0., 0., 0., 0., 0., 0.,
          0., 0., 0., 5.61797759e-003, 0., 0., 0., 0., 0., 0., 0., 0.,
          5.61797759e-003, 0., 0., 0., 0., 0., 0., 0., 0.,
          5.61797759e-003, 0., 0., 0., 0., 0., 0., 0., 5.61797759e-003,
          0., 0., 0., 0., 0., 0., 0., 5.61797759e-003, 0., 0., 0., 0.,
          0., 0., 0., 0., 0., 5.61797759e-003, 0., 1.12359552e-002, 0.,
          1.12359552e-002, 0., 0., 0., 0., 0., 0., 0., 0., 0., 0., 0.,
          0., 0., 0., 5.61797759e-003, 0., 0., 0., 0., 0.,
          5.61797759e-003, 0., 0., 0., 0., 0., 0. ]
      - [ 0., 0., 0., 0., 0., 0., 0., 0., 0., 0., 0., 0., 0.,
          5.64971752e-003, 0., 0., 0., 0., 5.64971752e-003, 0.,
          1.69491526e-002, 0., 0., 0., 0., 0., 0., 0., 0., 0.,
          1.12994350e-002, 0., 0., 0., 0., 0., 0., 0., 0., 0., 0., 0.,
          0., 0., 0., 0., 0., 5.64971752e-003, 0., 0., 0., 0., 0., 0.,
          0., 0., 0., 0., 0., 0., 0., 0., 0., 0., 5.64971752e-003, 0.,
          0., 0., 0., 5.64971752e-003, 0., 0., 0., 5.64971752e-003, 0.,
          0., 0., 1.69491526e-002, 0., 1.12994350e-002, 0., 0., 0., 0.,
          0., 0., 0., 0., 0., 0., 0., 5.64971752e-003, 0., 0., 0.,
          5.64971752e-003, 0., 1.12994350e-002, 0., 0., 0., 0., 0., 0.,
          2.25988701e-002, 0., 0., 0., 0., 5.64971752e-003, 0., 0., 0.,
          0., 0., 0., 0., 0., 0., 0., 0., 0., 0., 0., 0., 0., 0., 0.,
          5.64971752e-003, 0., 0., 0., 1.12994350e-002, 5.64971752e-003,
          5.64971752e-003, 0., 0., 0., 0., 0., 0., 0., 0., 0., 0., 0.,
          0., 0., 5.64971752e-003, 0., 0., 0., 0., 0., 0., 0., 0., 0.,
          0., 0., 0., 0., 0., 0., 0., 0., 5.64971752e-003, 0., 0., 0.,
          0., 0., 0., 5.64971752e-003, 0., 0., 0., 0., 0., 0., 0., 0.,
          5.64971752e-003, 0., 0., 0., 0., 0., 0., 0., 0., 0., 0., 0.,
          0., 0., 0., 0., 0., 0., 0., 0., 1.69491526e-002,
          5.64971752e-003, 0., 0., 0., 0., 0., 0., 0., 0., 0., 0., 0.,
          0., 0., 0., 0., 0., 0., 0., 0., 0., 5.64971752e-003, 0., 0.,
          0., 0., 0., 0., 0., 0., 1.12994350e-002, 1.12994350e-002, 0.,
          0., 0., 0., 0., 0., 0., 0., 0., 0., 0., 0., 0., 0., 0., 0., 0.,
          0., 5.64971752e-003, 0., 0., 0., 0., 0., 0., 0., 0., 0., 0.,
          0., 0., 0., 0., 0., 0., 0., 1.12994350e-002, 0., 0., 0., 0.,
          0., 0., 0., 0., 0., 0., 0., 0., 0., 0., 0., 0., 0., 0., 0., 0.,
          0., 0., 0., 0., 0., 0., 0., 0., 0., 0., 0., 0., 0., 0., 0., 0.,
          0., 0., 0., 0., 0., 0., 0., 0., 0., 5.64971752e-003,
          5.64971752e-003, 0., 0., 0., 0., 0., 0., 0., 5.64971752e-003,
          0., 0., 0., 0., 0., 5.64971752e-003, 0., 0., 0., 0., 0., 0.,
          1.12994350e-002, 0., 0., 0., 5.64971752e-003, 0., 0., 0., 0.,
          0., 0., 2.82485876e-002, 0., 0., 0., 0., 0., 0., 0.,
          1.69491526e-002, 0., 0., 0., 0., 5.64971752e-003,
          1.12994350e-002, 0., 0., 5.64971752e-003, 0., 0., 0., 0., 0.,
          0., 0., 0., 0., 0., 0., 0., 0., 0., 0., 0., 0., 0., 0., 0.,
          5.64971752e-003, 5.64971752e-003, 0., 0., 0., 5.64971752e-003,
          0., 0., 0., 0., 0., 0., 0., 0., 0., 0., 0., 0., 0., 0.,
          5.64971752e-003, 0., 0., 0., 0., 0., 0., 0., 5.64971752e-003,
          0., 0., 0., 0., 0., 0., 0., 0., 0., 0., 0., 0., 0., 0., 0.,
          5.64971752e-003, 0., 0., 0., 1.12994350e-002, 0., 0., 0.,
          5.64971752e-003, 5.64971752e-003, 1.12994350e-002, 0., 0., 0.,
          0., 0., 0., 0., 0., 0., 0., 0., 0., 0., 0., 0., 0., 0., 0., 0.,
          0., 0., 0., 0., 0., 5.64971752e-003, 0., 0., 5.64971752e-003,
          0., 0., 0., 0., 0., 0., 0., 5.64971752e-003, 0., 0., 0., 0.,
          5.64971752e-003, 1.12994350e-002, 0., 0., 0., 5.64971752e-003,
          0., 0., 0., 0., 0., 5.64971752e-003, 0., 0., 5.64971752e-003,
          5.64971752e-003, 0., 0., 0., 0., 0., 0., 0., 1.12994350e-002,
          5.64971752e-003, 0., 0., 0., 0., 0., 5.64971752e-003, 0., 0.,
          0., 0., 0., 0., 0., 0., 0., 0., 0., 0., 0., 0., 0., 0., 0.,
          5.64971752e-003, 0., 5.64971752e-003, 0., 0., 0., 0., 0., 0.,
          0., 0., 0., 0., 0., 0., 0., 0., 0., 0., 0., 0., 0., 0., 0., 0.,
          0., 5.64971752e-003, 0., 0., 0., 0., 0., 0., 0., 0., 0., 0.,
          0., 0., 1.69491526e-002, 0., 0., 5.64971752e-003, 0.,
          1.12994350e-002, 0., 0., 0., 0., 0., 0., 0., 0., 0., 0., 0.,
          0., 0., 0., 5.64971752e-003, 0., 1.12994350e-002,
          1.12994350e-002, 0., 0., 0., 0., 0., 0., 0., 0., 0., 0., 0.,
          0., 0., 0., 0., 5.64971752e-003, 0., 0., 0., 5.64971752e-003,
          0., 0., 0., 0., 0., 0., 0., 5.64971752e-003, 0., 0., 0., 0.,
          5.64971752e-003, 0., 0., 0., 0., 5.64971752e-003, 0., 0., 0.,
          0., 0., 0., 0., 0., 0., 0., 0., 0., 0., 5.64971752e-003,
          1.69491526e-002, 0., 0., 0., 0., 0., 5.64971752e-003, 0., 0.,
          0., 0., 0., 0., 1.12994350e-002, 0., 0., 0., 1.12994350e-002,
          0., 0., 5.64971752e-003, 0., 5.64971752e-003, 0., 0., 0., 0.,
          0., 0., 0., 0., 0., 0., 0., 0., 0., 5.64971752e-003, 0., 0.,
          0., 0., 0., 0., 0., 0., 0., 0., 0., 0., 0., 0.,
          5.64971752e-003, 0., 0., 0., 0., 0., 0., 0., 0., 0., 0., 0.,
          5.64971752e-003, 0., 0., 0., 0., 0., 0., 0., 0., 0., 0., 0.,
          0., 0., 0., 0., 0., 0., 0., 0., 0., 0., 0., 0., 0., 0., 0., 0.,
          0., 0., 1.12994350e-002, 0., 5.64971752e-003, 0., 0., 0., 0.,
          5.64971752e-003, 0., 0., 5.64971752e-003, 0., 0., 0., 0., 0.,
          0., 5.64971752e-003, 0., 0., 0., 0., 0., 0., 0., 0., 0., 0.,
          0., 0., 0., 0., 0., 0., 0., 0., 0., 0., 0., 0., 0., 0.,
          5.64971752e-003, 5.64971752e-003, 0., 0., 0., 0., 0., 0., 0.,
          0., 0., 0., 0., 0., 2.25988701e-002, 1.12994350e-002, 0., 0.,
          0., 0., 1.12994350e-002, 1.69491526e-002, 5.64971752e-003, 0.,
          0., 0., 0., 0., 2.25988701e-002, 1.12994350e-002, 0., 0., 0.,
          0., 0., 0., 0., 0., 0., 5.64971752e-003, 0., 0., 0., 0., 0.,
          0., 0., 0., 0., 0., 0., 0., 0., 0., 0., 0., 0., 0., 0., 0.,
          5.64971752e-003, 0., 0., 5.64971752e-003, 0., 0., 0., 0., 0.,
          0., 0., 0., 0., 0., 0., 0., 0., 0., 0., 0., 0., 0., 0., 0., 0.,
          0., 0., 0., 0., 0., 0., 0., 0., 0., 0., 0., 0.,
          5.64971752e-003, 5.64971752e-003, 0., 0., 0., 0.,
          1.12994350e-002, 0., 0., 0., 0., 0., 0., 0., 0., 0., 0.,
          1.12994350e-002, 0., 5.64971752e-003, 0., 0., 0.,
          5.64971752e-003, 0., 0., 0., 0., 0., 0., 0., 0., 0., 0., 0.,
          0., 0., 0., 0., 0., 0., 5.64971752e-003, 0., 0., 0., 0., 0.,
          0., 0., 0., 0., 0., 5.64971752e-003, 0., 0., 0., 0., 0., 0.,
          5.64971752e-003, 0., 0., 0., 0., 5.64971752e-003, 0., 0., 0.,
          0., 0., 0., 0., 0., 0., 0., 0., 0., 5.64971752e-003, 0., 0.,
          5.64971752e-003, 0., 0., 5.64971752e-003, 5.64971752e-003, 0.,
          0., 0., 0., 0., 0., 0., 0., 0., 0., 0., 0., 0., 0.,
          1.12994350e-002, 0., 0., 0., 0., 0., 0., 5.64971752e-003,
          5.64971752e-003, 5.64971752e-003, 0., 5.64971752e-003, 0., 0.,
          0., 5.64971752e-003, 0., 0., 0., 0., 0., 5.64971752e-003, 0. ]
      - [ 0., 0., 0., 0., 0., 0., 0., 0., 0., 0., 0., 0., 0.,
          1.75438598e-002, 0., 0., 0., 0., 0., 5.84795326e-003,
          4.09356728e-002, 0., 0., 0., 0., 0., 0., 1.16959065e-002, 0.,
          0., 0., 0., 0., 0., 1.16959065e-002, 0., 0., 0., 0., 0., 0.,
          5.84795326e-003, 0., 0., 0., 0., 0., 0., 0., 0., 0., 0., 0.,
          5.84795326e-003, 0., 0., 0., 0., 0., 0., 0., 5.84795326e-003,
          0., 0., 0., 1.16959065e-002, 0., 0., 0., 1.16959065e-002, 0.,
          0., 0., 0., 0., 0., 0., 0., 0., 0., 0., 0., 0., 0., 0., 0., 0.,
          0., 0., 0., 5.84795326e-003, 0., 0., 0., 0., 0., 0., 0., 0.,
          0., 0., 0., 0., 0., 0., 0., 0., 1.16959065e-002, 0.,
          5.84795326e-003, 0., 1.16959065e-002, 0., 0., 5.84795326e-003,
          0., 0., 0., 0., 0., 0., 0., 0., 0., 5.84795326e-003, 0., 0.,
          0., 0., 0., 0., 0., 5.84795326e-003, 0., 1.16959065e-002, 0.,
          1.16959065e-002, 0., 0., 0., 0., 0., 0., 0., 0., 0., 0., 0.,
          0., 0., 5.84795326e-003, 0., 0., 0., 0., 0., 0., 0., 0., 0.,
          0., 0., 0., 0., 0., 0., 0., 0., 0., 0., 0., 0., 0., 0., 0., 0.,
          0., 5.84795326e-003, 5.84795326e-003, 0., 0., 0., 0., 0., 0.,
          0., 0., 5.84795326e-003, 0., 0., 0., 0., 0., 0., 0., 0., 0.,
          0., 0., 0., 0., 0., 1.16959065e-002, 0., 0., 0., 0., 0., 0.,
          0., 0., 0., 0., 0., 0., 5.84795326e-003, 0., 5.84795326e-003,
          0., 0., 0., 1.16959065e-002, 0., 0., 0., 0., 0., 0., 0., 0.,
          0., 0., 0., 0., 0., 0., 0., 0., 5.84795326e-003, 0., 0., 0.,
          0., 0., 0., 0., 0., 0., 0., 0., 0., 0., 0., 0., 0., 0., 0.,
          1.75438598e-002, 0., 0., 0., 0., 0., 0., 0., 0., 0., 0., 0.,
          0., 0., 0., 0., 0., 0., 0., 0., 0., 0., 0., 0., 0., 0., 0., 0.,
          0., 0., 0., 0., 0., 2.92397663e-002, 0., 0., 0., 0., 0., 0.,
          0., 0., 0., 0., 0., 0., 0., 0., 0., 0., 5.84795326e-003, 0.,
          0., 5.84795326e-003, 0., 0., 0., 0., 0., 0., 0., 0., 0., 0.,
          5.84795326e-003, 0., 0., 0., 0., 0., 0., 0., 1.16959065e-002,
          0., 0., 2.33918130e-002, 0., 5.84795326e-003, 0., 0., 0., 0.,
          0., 0., 0., 0., 0., 0., 0., 0., 0., 0., 0., 0., 0., 0., 0.,
          1.16959065e-002, 0., 0., 0., 5.84795326e-003, 0., 0., 0., 0.,
          5.84795326e-003, 2.92397663e-002, 0., 5.84795326e-003, 0., 0.,
          0., 0., 0., 0., 0., 0., 0., 0., 5.84795326e-003, 0., 0., 0.,
          0., 0., 0., 0., 0., 0., 0., 0., 0., 0., 5.84795326e-003, 0.,
          5.84795326e-003, 0., 0., 0., 0., 0., 0., 0., 0., 0., 0., 0.,
          0., 0., 0., 0., 0., 0., 0., 0., 0., 0., 0., 5.84795326e-003,
          5.84795326e-003, 0., 0., 0., 0., 0., 0., 0., 0., 0., 0., 0.,
          0., 0., 0., 5.84795326e-003, 0., 0., 1.16959065e-002, 0., 0.,
          0., 0., 0., 0., 0., 0., 5.84795326e-003, 0., 0.,
          5.84795326e-003, 0., 0., 0., 0., 0., 0., 0., 0.,
          5.84795326e-003, 0., 0., 5.84795326e-003, 0., 0., 0., 0., 0.,
          0., 0., 0., 0., 0., 1.16959065e-002, 0., 0., 0., 0., 0., 0.,
          0., 0., 1.16959065e-002, 0., 0., 0., 1.16959065e-002,
          1.16959065e-002, 0., 0., 0., 0., 0., 0., 0., 0., 0.,
          5.84795326e-003, 0., 0., 0., 0., 0., 0., 0., 0., 0., 0., 0.,
          0., 0., 0., 0., 0., 0., 0., 0., 0., 0., 0., 0., 0., 0., 0., 0.,
          0., 0., 0., 5.84795326e-003, 0., 0., 0., 0., 0., 0., 0., 0.,
          5.84795326e-003, 0., 5.84795326e-003, 0., 5.84795326e-003, 0.,
          0., 1.75438598e-002, 0., 0., 0., 0., 0., 0., 5.84795326e-003,
          0., 0., 0., 0., 0., 0., 0., 0., 1.16959065e-002,
          5.84795326e-003, 0., 5.84795326e-003, 0., 0., 0., 0., 0., 0.,
          0., 0., 0., 0., 0., 0., 0., 1.16959065e-002, 5.84795326e-003,
          0., 0., 0., 0., 0., 0., 0., 0., 0., 0., 0., 0., 0., 0., 0., 0.,
          0., 0., 0., 0., 0., 0., 0., 0., 1.16959065e-002, 0., 0.,
          5.84795326e-003, 0., 0., 0., 5.84795326e-003, 0., 0., 0., 0.,
          0., 5.84795326e-003, 0., 0., 0., 0., 5.84795326e-003,
          1.16959065e-002, 0., 0., 0., 0., 0., 0., 0., 0., 0.,
          5.84795326e-003, 1.16959065e-002, 5.84795326e-003, 0., 0., 0.,
          0., 0., 0., 0., 0., 0., 0., 0., 0., 5.84795326e-003, 0., 0.,
          0., 0., 0., 0., 0., 0., 0., 0., 5.84795326e-003, 0., 0., 0.,
          5.84795326e-003, 0., 0., 1.16959065e-002, 0., 0., 0., 0., 0.,
          0., 0., 0., 0., 0., 0., 0., 0., 5.84795326e-003, 0., 0., 0.,
          0., 0., 1.75438598e-002, 0., 0., 0., 0., 0., 0., 0.,
          5.84795326e-003, 0., 0., 0., 0., 5.84795326e-003, 0., 0., 0.,
          0., 0., 0., 0., 0., 0., 0., 0., 0., 0., 5.84795326e-003, 0.,
          0., 0., 0., 0., 0., 0., 0., 0., 0., 0., 0., 0., 0., 0., 0., 0.,
          0., 0., 0., 0., 5.84795326e-003, 0., 0., 0., 0., 0.,
          5.84795326e-003, 0., 0., 0., 0., 0., 0., 0., 0., 0., 0., 0.,
          0., 5.84795326e-003, 0., 0., 0., 0., 0., 0., 0., 0., 0., 0.,
          0., 0., 0., 0., 0., 0., 0., 0., 5.84795326e-003, 0., 0., 0.,
          0., 0., 0., 0., 0., 0., 0., 0., 0., 0., 0., 0., 0., 0., 0., 0.,
          0., 0., 5.84795326e-003, 0., 0., 0., 0., 0., 0., 0., 0., 0.,
          0., 5.84795326e-003, 1.16959065e-002, 0., 0., 0., 0., 0.,
          5.84795326e-003, 5.84795326e-003, 0., 0., 0., 0., 0., 0., 0.,
          5.84795326e-003, 0., 1.16959065e-002, 0., 0., 0., 0., 0., 0.,
          0., 0., 0., 0., 0., 0., 0., 0., 0., 5.84795326e-003, 0., 0.,
          0., 0., 0., 0., 0., 0., 0., 0., 0., 0., 0., 0., 0., 0., 0., 0.,
          0., 0., 0., 0., 0., 0., 0., 0., 0., 0., 0., 0., 0., 0., 0., 0.,
          0., 0., 0., 0., 0., 0., 0., 0., 1.75438598e-002,
          5.84795326e-003, 0., 0., 0., 0., 0., 0., 0., 0., 0., 0., 0.,
          0., 0., 0., 0., 5.84795326e-003, 0., 0., 0., 0.,
          5.84795326e-003, 0., 5.84795326e-003, 1.16959065e-002, 0.,
          5.84795326e-003, 0., 0., 0., 5.84795326e-003, 1.16959065e-002,
          0., 0., 0., 0., 0., 0., 1.16959065e-002, 5.84795326e-003, 0.,
          0., 0., 0., 0., 0., 5.84795326e-003, 0., 0., 0., 0., 0., 0.,
          5.84795326e-003, 0., 5.84795326e-003, 0., 1.16959065e-002, 0.,
          0., 0., 0., 0., 0., 0., 5.84795326e-003, 0., 0., 0., 0., 0.,
          0., 0., 0., 0., 0., 0., 0., 0., 0., 0., 0., 0., 0., 0., 0., 0.,
          0., 0., 0., 0., 0., 0., 0., 0., 0., 0., 0., 0., 0., 0., 0., 0.,
          0., 0., 0., 5.84795326e-003, 0., 0., 0., 0., 0., 0., 0., 0.,
          0., 0., 0., 0., 0. ]
      - [ 4.99999989e-003, 0., 0., 0., 0., 4.99999989e-003, 0., 0., 0.,
          0., 0., 0., 0., 4.99999989e-003, 0., 0., 0., 0., 0., 0.,
          1.49999997e-002, 0., 0., 0., 0., 0., 0., 4.99999989e-003, 0.,
          4.99999989e-003, 0., 0., 0., 0., 0., 0., 0., 0., 0., 0., 0.,
          0., 0., 4.99999989e-003, 2.99999993e-002, 0., 4.99999989e-003,
          0., 0., 0., 4.99999989e-003, 0., 0., 9.99999978e-003, 0., 0.,
          0., 0., 0., 0., 0., 0., 0., 0., 4.99999989e-003, 0., 0., 0.,
          0., 0., 0., 0., 4.99999989e-003, 4.99999989e-003, 0., 0., 0.,
          9.99999978e-003, 0., 0., 0., 0., 0., 4.99999989e-003, 0., 0.,
          0., 4.99999989e-003, 0., 0., 0., 0., 0., 0., 0., 0., 0.,
          4.99999989e-003, 9.99999978e-003, 0., 0., 0., 4.99999989e-003,
          0., 3.99999991e-002, 0., 0., 0., 0., 0., 0., 4.99999989e-003,
          0., 0., 0., 0., 0., 0., 0., 0., 0., 0., 0., 0., 0., 0., 0., 0.,
          0., 0., 9.99999978e-003, 0., 0., 0., 4.99999989e-003, 0.,
          9.99999978e-003, 0., 0., 0., 0., 0., 0., 0., 0., 0., 0., 0.,
          0., 0., 0., 0., 0., 0., 0., 0., 0., 0., 0., 0., 0., 0., 0., 0.,
          0., 0., 4.99999989e-003, 0., 0., 0., 0., 0., 0.,
          4.99999989e-003, 0., 0., 0., 0., 0., 0., 0., 0.,
          1.49999997e-002, 0., 0., 0., 0., 0., 0., 9.99999978e-003, 0.,
          0., 9.99999978e-003, 4.99999989e-003, 0., 0., 0., 0., 0., 0.,
          0., 0., 1.49999997e-002, 0., 0., 0., 0., 0., 0., 0., 0., 0.,
          0., 0., 0., 0., 0., 0., 0., 0., 0., 0., 4.99999989e-003, 0.,
          4.99999989e-003, 0., 4.99999989e-003, 0., 0., 0., 0., 0., 0.,
          4.99999989e-003, 4.99999989e-003, 0., 0., 0., 4.99999989e-003,
          0., 0., 0., 0., 0., 0., 0., 0., 0., 4.99999989e-003, 0., 0.,
          0., 0., 4.99999989e-003, 0., 0., 4.99999989e-003, 0., 0.,
          1.49999997e-002, 0., 0., 0., 0., 0., 0., 0., 0., 0., 0., 0.,
          9.99999978e-003, 4.99999989e-003, 0., 0., 0., 4.99999989e-003,
          0., 0., 0., 0., 0., 0., 0., 4.99999989e-003, 0., 0., 0., 0.,
          0., 0., 0., 0., 0., 0., 0., 0., 0., 0., 0., 0.,
          4.99999989e-003, 0., 0., 0., 4.99999989e-003, 0., 0., 0., 0.,
          0., 0., 0., 0., 0., 0., 0., 0., 4.99999989e-003,
          4.99999989e-003, 0., 0., 0., 0., 0., 0., 0., 0., 0.,
          4.99999989e-003, 0., 0., 0., 0., 0., 4.99999989e-003, 0., 0.,
          0., 9.99999978e-003, 0., 0., 0., 0., 0., 0., 0., 0., 0., 0.,
          1.49999997e-002, 0., 0., 0., 0., 0., 0., 0., 4.99999989e-003,
          0., 0., 0., 0., 1.99999996e-002, 0., 0., 0., 0., 0., 0., 0.,
          0., 0., 0., 0., 0., 0., 0., 0., 0., 0., 0., 0., 0., 0., 0., 0.,
          0., 0., 4.99999989e-003, 0., 4.99999989e-003, 0., 0., 0., 0.,
          0., 0., 0., 0., 0., 9.99999978e-003, 0., 0., 0., 0., 0., 0.,
          0., 0., 0., 0., 0., 0., 0., 0., 0., 1.49999997e-002, 0., 0.,
          0., 0., 0., 0., 0., 0., 0., 0., 0., 0., 0., 0., 0., 0., 0.,
          4.99999989e-003, 9.99999978e-003, 0., 0., 0., 0.,
          9.99999978e-003, 0., 0., 0., 0., 0., 0., 0., 0., 0., 0.,
          9.99999978e-003, 0., 0., 0., 4.99999989e-003, 0., 0., 0., 0.,
          0., 0., 0., 0., 0., 4.99999989e-003, 0., 0., 0.,
          4.99999989e-003, 0., 0., 0., 9.99999978e-003, 0., 0., 0., 0.,
          0., 0., 0., 0., 0., 0., 0., 0., 0., 0., 0., 0., 0., 0., 0., 0.,
          0., 0., 0., 0., 0., 0., 0., 0., 0., 0., 0., 0., 0., 0., 0., 0.,
          0., 0., 0., 0., 0., 0., 4.99999989e-003, 4.99999989e-003, 0.,
          0., 0., 0., 0., 0., 0., 0., 0., 0., 9.99999978e-003, 0., 0.,
          4.99999989e-003, 1.49999997e-002, 0., 0., 0., 0., 0., 0.,
          4.99999989e-003, 0., 0., 0., 0., 0., 0., 0., 0., 0., 0., 0.,
          0., 0., 0., 0., 0., 9.99999978e-003, 0., 0., 0., 0., 0., 0.,
          0., 0., 0., 0., 0., 4.99999989e-003, 9.99999978e-003, 0., 0.,
          0., 0., 9.99999978e-003, 0., 9.99999978e-003, 0., 0., 0., 0.,
          0., 4.99999989e-003, 0., 9.99999978e-003, 0., 0., 0., 0., 0.,
          0., 0., 0., 4.99999989e-003, 4.99999989e-003, 9.99999978e-003,
          0., 0., 0., 0., 0., 0., 0., 0., 4.99999989e-003, 0., 0., 0.,
          0., 0., 0., 0., 0., 0., 0., 0., 0., 0., 0., 0.,
          4.99999989e-003, 0., 0., 4.99999989e-003, 0., 0., 0., 0., 0.,
          0., 0., 4.99999989e-003, 0., 0., 0., 0., 0., 0., 0., 0., 0.,
          0., 0., 0., 0., 9.99999978e-003, 0., 4.99999989e-003, 0., 0.,
          0., 0., 0., 0., 0., 0., 4.99999989e-003, 0., 9.99999978e-003,
          0., 0., 0., 9.99999978e-003, 0., 0., 0., 0., 0., 0., 0., 0.,
          0., 0., 0., 0., 0., 0., 0., 0., 0., 0., 4.99999989e-003, 0.,
          0., 9.99999978e-003, 0., 0., 0., 0., 0., 0., 0., 0., 0., 0.,
          0., 0., 0., 0., 9.99999978e-003, 4.99999989e-003, 0., 0., 0.,
          0., 0., 0., 0., 0., 0., 4.99999989e-003, 0., 0., 0., 0., 0.,
          0., 0., 0., 0., 0., 0., 0., 0., 0., 0., 4.99999989e-003,
          4.99999989e-003, 4.99999989e-003, 0., 0., 0., 0., 0., 0., 0.,
          0., 0., 0., 0., 0., 0., 0., 0., 0., 0., 0., 0., 0., 0., 0., 0.,
          0., 0., 0., 0., 4.99999989e-003, 0., 0., 0., 0., 0., 0., 0.,
          0., 0., 0., 0., 0., 0., 0., 0., 0., 0., 0., 0., 0., 0., 0., 0.,
          1.49999997e-002, 0., 0., 0., 0., 0., 0., 0., 0., 0., 0., 0.,
          0., 0., 0., 4.99999989e-003, 0., 0., 0., 0., 0.,
          9.99999978e-003, 0., 0., 0., 0., 0., 0., 9.99999978e-003,
          4.99999989e-003, 4.99999989e-003, 0., 0., 0., 0., 0., 0., 0.,
          0., 9.99999978e-003, 0., 0., 0., 0., 0., 0., 4.99999989e-003,
          0., 1.99999996e-002, 0., 0., 0., 0., 9.99999978e-003, 0., 0.,
          0., 0., 0., 0., 0., 0., 4.99999989e-003, 0., 0., 0.,
          4.99999989e-003, 0., 0., 0., 0., 0., 0., 0., 0., 0., 0., 0.,
          0., 0., 0., 0., 0., 0., 0., 0., 0., 0., 0., 0., 0., 0., 0., 0.,
          0., 0., 0., 0., 0., 4.99999989e-003, 0., 0., 0.,
          9.99999978e-003, 4.99999989e-003, 0., 0., 0., 0., 0., 0., 0.,
          0., 0., 1.99999996e-002, 4.99999989e-003, 0., 0., 0., 0.,
          4.99999989e-003, 0., 0., 0., 0., 0., 0., 0., 0., 0.,
          4.99999989e-003, 0., 0., 0., 0., 0., 0., 0., 0., 0., 0., 0.,
          0., 0., 0., 0., 0., 0., 4.99999989e-003, 0., 0., 0.,
          1.49999997e-002, 0., 0., 0., 0., 0., 0., 0., 0., 0., 0., 0.,
          0., 0., 0., 0., 0., 1.49999997e-002, 0., 0., 0., 0.,
          9.99999978e-003, 0., 0., 0., 0., 4.99999989e-003, 0., 0., 0.,
          0., 0., 0., 0., 0., 0., 0., 0., 0., 0., 0., 0., 0.,
          4.99999989e-003, 0., 0., 0., 0., 0., 0., 0., 0., 0., 0., 0.,
          0., 0., 0., 0., 0., 0., 0., 0., 0., 0., 0. ]
      - [ 0., 0., 0., 0., 0., 6.02409616e-003, 0., 0., 0., 0.,
          6.02409616e-003, 0., 6.02409616e-003, 0., 0., 0., 0.,
          6.02409616e-003, 6.02409616e-003, 0., 6.02409616e-003, 0., 0.,
          0., 0., 6.02409616e-003, 0., 6.02409616e-003, 0., 0.,
          2.40963846e-002, 0., 6.02409616e-003, 0., 0., 0.,
          6.02409616e-003, 0., 0., 0., 0., 6.02409616e-003, 0., 0., 0.,
          0., 0., 0., 0., 0., 0., 0., 6.02409616e-003, 0., 0., 0., 0.,
          0., 0., 1.20481923e-002, 0., 0., 0., 0., 1.80722885e-002, 0.,
          0., 6.02409616e-003, 0., 6.02409616e-003, 0., 0., 0., 0.,
          6.02409616e-003, 0., 0., 6.02409616e-003, 0., 6.02409616e-003,
          0., 0., 0., 0., 0., 0., 0., 0., 0., 0., 0., 0., 0., 0., 0.,
          6.02409616e-003, 0., 0., 1.20481923e-002, 0., 0., 0.,
          6.02409616e-003, 0., 0., 0., 0., 0., 0., 6.02409616e-003, 0.,
          0., 0., 6.02409616e-003, 0., 0., 0., 0., 0., 0., 0., 0.,
          6.02409616e-003, 0., 0., 0., 0., 0., 1.80722885e-002, 0., 0.,
          0., 0., 0., 1.20481923e-002, 0., 0., 1.20481923e-002, 0., 0.,
          0., 0., 6.02409616e-003, 0., 0., 0., 0., 0., 0., 0., 0., 0.,
          0., 6.02409616e-003, 0., 0., 0., 0., 0., 6.02409616e-003, 0.,
          0., 0., 0., 0., 0., 0., 0., 0., 0., 0., 0., 0., 0., 0.,
          6.02409616e-003, 0., 0., 0., 0., 0., 0., 0., 0., 0., 0.,
          6.02409616e-003, 0., 0., 0., 0., 0., 0., 0., 0., 0., 0., 0.,
          0., 0., 0., 0., 6.02409616e-003, 6.02409616e-003, 0., 0., 0.,
          0., 0., 0., 0., 0., 0., 0., 0., 0., 0., 0., 0., 0., 0.,
          6.02409616e-003, 0., 0., 0., 0., 0., 0., 0., 0., 0., 0., 0.,
          0., 6.02409616e-003, 0., 6.02409616e-003, 0., 0., 0., 0., 0.,
          0., 0., 0., 0., 0., 0., 0., 0., 0., 0., 0., 0., 0., 0., 0., 0.,
          0., 0., 0., 0., 0., 0., 0., 6.02409616e-003, 0., 0., 0., 0.,
          6.02409616e-003, 0., 0., 1.20481923e-002, 0., 0., 0., 0.,
          6.02409616e-003, 0., 0., 0., 6.02409616e-003, 0., 0., 0., 0.,
          0., 6.02409616e-003, 0., 0., 0., 0., 0., 0., 0., 0., 0., 0.,
          0., 0., 0., 0., 0., 0., 1.20481923e-002, 0., 0., 0.,
          6.02409616e-003, 0., 0., 0., 0., 0., 0., 0., 0., 0., 0., 0.,
          0., 0., 0., 0., 0., 0., 0., 0., 0., 0., 0., 0., 0., 0.,
          6.02409616e-003, 0., 6.02409616e-003, 0., 0., 0., 0., 0.,
          6.02409616e-003, 0., 0., 0., 0., 0., 0., 0., 0., 0., 0., 0.,
          0., 0., 0., 6.02409616e-003, 0., 0., 0., 0., 0., 0., 0., 0.,
          0., 0., 0., 6.02409616e-003, 0., 6.02409616e-003, 0., 0., 0.,
          0., 0., 0., 0., 0., 0., 0., 0., 0., 0., 6.02409616e-003, 0.,
          0., 0., 0., 0., 0., 6.02409616e-003, 0., 0., 0., 0., 0., 0.,
          0., 0., 0., 0., 6.02409616e-003, 0., 0., 0., 0., 0., 0., 0.,
          0., 0., 0., 0., 0., 0., 0., 0., 6.02409616e-003, 0., 0., 0.,
          0., 0., 6.02409616e-003, 0., 0., 1.20481923e-002, 0., 0., 0.,
          0., 0., 0., 0., 0., 0., 0., 0., 0., 6.02409616e-003, 0., 0.,
          0., 0., 0., 0., 6.02409616e-003, 0., 0., 0., 0., 0., 0., 0.,
          0., 0., 0., 0., 0., 0., 0., 6.02409616e-003, 6.02409616e-003,
          0., 6.02409616e-003, 6.02409616e-003, 0., 0., 0., 0., 0.,
          6.02409616e-003, 0., 0., 6.02409616e-003, 0., 6.02409616e-003,
          0., 0., 0., 6.02409616e-003, 0., 0., 0., 0., 0., 0., 0., 0.,
          0., 0., 0., 0., 0., 0., 0., 0., 0., 0., 0., 0., 0., 0., 0., 0.,
          0., 0., 0., 0., 0., 0., 6.02409616e-003, 0., 0., 0., 0., 0.,
          0., 0., 0., 0., 6.02409616e-003, 0., 6.02409616e-003, 0., 0.,
          6.02409616e-003, 0., 0., 0., 0., 0., 0., 6.02409616e-003, 0.,
          0., 0., 1.80722885e-002, 0., 0., 0., 6.02409616e-003, 0., 0.,
          0., 6.02409616e-003, 0., 0., 0., 0., 6.02409616e-003,
          6.02409616e-003, 0., 0., 6.02409616e-003, 0., 0., 0., 0., 0.,
          0., 0., 1.20481923e-002, 0., 0., 6.02409616e-003,
          6.02409616e-003, 0., 6.02409616e-003, 0., 0., 0.,
          6.02409616e-003, 0., 0., 0., 6.02409616e-003, 0., 0., 0., 0.,
          0., 0., 0., 6.02409616e-003, 0., 0., 0., 0., 6.02409616e-003,
          0., 0., 0., 0., 0., 0., 0., 0., 0., 0., 0., 0.,
          6.02409616e-003, 0., 0., 0., 0., 0., 0., 0., 0., 0., 0., 0.,
          0., 0., 0., 0., 0., 0., 0., 0., 6.02409616e-003, 0., 0., 0.,
          0., 0., 0., 0., 0., 0., 0., 0., 0., 0., 0., 0., 0., 0., 0., 0.,
          0., 0., 0., 0., 6.02409616e-003, 0., 0., 0., 0., 0., 0., 0.,
          0., 0., 0., 0., 0., 0., 0., 0., 0., 0., 0., 6.02409616e-003,
          0., 0., 0., 0., 6.02409616e-003, 0., 0., 6.02409616e-003, 0.,
          0., 0., 0., 0., 1.20481923e-002, 0., 0., 0., 0., 0., 0., 0.,
          0., 0., 0., 0., 0., 0., 0., 0., 0., 0., 6.02409616e-003, 0.,
          0., 0., 0., 0., 0., 0., 0., 6.02409616e-003, 0., 0., 0.,
          6.02409616e-003, 6.02409616e-003, 0., 0., 0., 0., 0., 0., 0.,
          0., 0., 0., 0., 0., 0., 0., 0., 0., 0., 0., 0.,
          6.02409616e-003, 0., 0., 0., 0., 6.02409616e-003, 0., 0., 0.,
          0., 0., 6.02409616e-003, 0., 6.02409616e-003, 0.,
          1.20481923e-002, 0., 0., 0., 0., 0., 0., 0., 6.02409616e-003,
          0., 0., 0., 0., 0., 0., 0., 0., 0., 0., 0., 0., 0., 0., 0., 0.,
          6.02409616e-003, 0., 0., 0., 0., 0., 0., 6.02409616e-003, 0.,
          0., 0., 0., 0., 0., 0., 0., 0., 0., 0., 1.20481923e-002,
          1.20481923e-002, 0., 0., 0., 0., 0., 0., 0., 1.80722885e-002,
          6.02409616e-003, 0., 0., 0., 0., 0., 6.02409616e-003,
          6.02409616e-003, 0., 0., 0., 0., 6.02409616e-003, 0., 0., 0.,
          0., 0., 0., 0., 0., 0., 0., 0., 6.02409616e-003, 0., 0., 0.,
          0., 0., 0., 0., 6.02409616e-003, 6.02409616e-003, 0., 0., 0.,
          0., 0., 0., 0., 6.02409616e-003, 0., 0., 0., 0., 0., 0., 0.,
          0., 0., 6.02409616e-003, 0., 0., 0., 0., 0., 0., 0., 0., 0.,
          0., 0., 0., 0., 0., 0., 0., 0., 0., 0., 0., 0., 0., 0., 0.,
          6.02409616e-003, 0., 0., 0., 6.02409616e-003, 1.80722885e-002,
          0., 6.02409616e-003, 0., 0., 0., 0., 0., 0., 0., 0., 0., 0.,
          0., 0., 0., 6.02409616e-003, 6.02409616e-003, 0.,
          6.02409616e-003, 0., 0., 0., 0., 0., 0., 0., 6.02409616e-003,
          0., 0., 0., 0., 0., 0., 0., 0., 0., 0., 0., 0.,
          6.02409616e-003, 0., 0., 6.02409616e-003, 0., 0., 0., 0., 0.,
          0., 1.20481923e-002, 0., 0., 6.02409616e-003, 0., 0., 0., 0.,
          6.02409616e-003, 0., 0., 6.02409616e-003, 0., 0., 0., 0., 0.,
          0., 0., 0., 6.02409616e-003, 0., 0., 0., 0., 0., 0., 0.,
          6.02409616e-003, 0., 0., 0., 0., 0., 0., 0., 0., 0., 0., 0.,
          0., 0., 0., 6.02409616e-003, 0., 0., 0., 0., 0., 0., 0., 0.,
          6.02409616e-003, 0., 0., 0., 1.20481923e-002, 0., 0., 0., 0.,
          0., 0., 6.02409616e-003, 0., 0. ]
      - [ 0., 0., 0., 0., 0., 0., 0., 0., 0., 0., 0., 0.,
          1.52671756e-002, 7.63358781e-003, 0., 0., 0., 0., 0., 0.,
          7.63358781e-003, 0., 0., 0., 1.52671756e-002, 7.63358781e-003,
          0., 0., 0., 0., 0., 0., 0., 0., 0., 0., 0., 0., 0., 0., 0., 0.,
          0., 0., 0., 0., 0., 0., 0., 0., 0., 0., 0., 2.29007639e-002,
          0., 0., 0., 0., 0., 0., 0., 0., 0., 0., 0., 0., 0.,
          2.29007639e-002, 7.63358781e-003, 0., 0., 7.63358781e-003, 0.,
          0., 0., 0., 0., 0., 0., 0., 0., 0., 7.63358781e-003, 0., 0.,
          0., 0., 0., 2.29007639e-002, 0., 7.63358781e-003, 0., 0., 0.,
          0., 7.63358781e-003, 0., 0., 0., 0., 0., 0., 0., 0., 0., 0.,
          0., 0., 0., 7.63358781e-003, 0., 0., 0., 0., 0., 0., 0., 0.,
          7.63358781e-003, 7.63358781e-003, 0., 0., 0., 0., 0., 0., 0.,
          0., 0., 0., 7.63358781e-003, 0., 0., 1.52671756e-002, 0., 0.,
          0., 0., 0., 0., 1.52671756e-002, 0., 7.63358781e-003, 0., 0.,
          0., 0., 0., 7.63358781e-003, 0., 0., 0., 0., 0., 0., 0.,
          1.52671756e-002, 0., 0., 0., 0., 0., 0., 0., 0., 0., 0., 0.,
          0., 0., 0., 0., 0., 0., 0., 0., 0., 0., 0., 0., 0., 0.,
          7.63358781e-003, 7.63358781e-003, 0., 0., 7.63358781e-003, 0.,
          0., 0., 0., 0., 0., 0., 0., 0., 0., 0., 0., 0.,
          7.63358781e-003, 0., 0., 0., 0., 0., 0., 0., 0., 0., 0., 0.,
          0., 7.63358781e-003, 0., 0., 0., 0., 0., 0., 0., 0., 0., 0.,
          0., 0., 0., 0., 0., 0., 0., 1.52671756e-002, 0.,
          7.63358781e-003, 7.63358781e-003, 7.63358781e-003, 0., 0., 0.,
          0., 0., 0., 0., 0., 0., 0., 0., 0., 1.52671756e-002, 0., 0.,
          0., 0., 7.63358781e-003, 0., 0., 0., 0., 0., 7.63358781e-003,
          0., 0., 0., 0., 0., 0., 0., 0., 0., 0., 7.63358781e-003, 0.,
          0., 0., 0., 7.63358781e-003, 0., 1.52671756e-002, 0., 0., 0.,
          0., 0., 0., 0., 0., 0., 0., 0., 0., 0., 0., 0., 0.,
          7.63358781e-003, 0., 0., 0., 0., 0., 0., 7.63358781e-003, 0.,
          0., 0., 0., 0., 0., 0., 0., 0., 0., 0., 0., 0., 0., 0., 0., 0.,
          0., 0., 0., 0., 0., 0., 0., 7.63358781e-003, 7.63358781e-003,
          0., 0., 0., 0., 7.63358781e-003, 0., 0., 0., 0., 0., 0., 0.,
          0., 0., 0., 0., 0., 0., 0., 0., 0., 0., 0., 0., 0., 0., 0., 0.,
          0., 0., 0., 0., 1.52671756e-002, 0., 0., 0., 0., 0., 0., 0.,
          0., 0., 0., 0., 7.63358781e-003, 0., 0., 7.63358781e-003, 0.,
          0., 0., 0., 0., 0., 0., 0., 0., 0., 7.63358781e-003, 0., 0.,
          0., 0., 0., 0., 1.52671756e-002, 0., 0., 0., 0., 0., 0., 0.,
          0., 7.63358781e-003, 0., 7.63358781e-003, 0., 0., 0., 0., 0.,
