%YAML:1.0
my_svm: !!opencv-ml-svm
   svm_type: C_SVC
   kernel: { type:RBF, gamma:5.0625000000000009e-001 }
   C: 1.0000000000000001e-001
   term_criteria: { epsilon:2.2204460492503131e-016, iterations:100 }
   var_all: 1000
   var_count: 1000
   class_count: 2
   class_labels: !!opencv-matrix
      rows: 1
      cols: 2
      dt: i
      data: [ 0, 1 ]
   sv_total: 200
   support_vectors:
      - [ 0., 0., 0., 0., 0., 0., 0., 0., 0., 0., 0., 0., 0., 0., 0., 0.,
          0., 0., 0., 0., 0., 0., 0., 0., 0., 0., 1.53846154e-002, 0.,
          3.07692308e-002, 0., 0., 0., 0., 0., 0., 1.53846154e-002, 0.,
          1.53846154e-002, 0., 0., 0., 1.53846154e-002, 0., 0., 0., 0.,
          0., 0., 0., 0., 0., 0., 0., 0., 0., 0., 0., 1.53846154e-002,
          1.53846154e-002, 0., 0., 0., 0., 0., 1.53846154e-002, 0., 0.,
          0., 0., 0., 1.53846154e-002, 1.53846154e-002, 0., 0., 0., 0.,
          0., 0., 0., 0., 0., 0., 0., 0., 0., 0., 0., 0., 0., 0., 0., 0.,
          0., 0., 0., 0., 1.53846154e-002, 0., 0., 0., 0., 0., 0., 0.,
          0., 0., 0., 0., 0., 0., 0., 0., 0., 0., 0., 0., 0., 0., 0., 0.,
          0., 0., 0., 0., 0., 0., 0., 0., 0., 0., 0., 0., 0., 0., 0., 0.,
          0., 0., 0., 0., 0., 0., 0., 0., 0., 0., 0., 0., 0.,
          1.53846154e-002, 0., 0., 0., 0., 0., 0., 0., 0., 0., 0., 0.,
          0., 0., 0., 0., 0., 0., 1.53846154e-002, 0., 0., 0., 0., 0.,
          0., 0., 0., 0., 0., 0., 0., 0., 0., 0., 0., 0.,
          1.53846154e-002, 0., 0., 0., 0., 0., 0., 0., 0., 0., 0., 0.,
          0., 0., 1.53846154e-002, 0., 0., 0., 0., 0., 0., 0., 0., 0.,
          1.53846154e-002, 0., 0., 0., 0., 0., 0., 0., 0., 0., 0., 0.,
          1.53846154e-002, 1.53846154e-002, 0., 0., 0., 0., 0., 0., 0.,
          0., 0., 0., 0., 0., 0., 0., 0., 0., 0., 0., 0., 0., 0., 0., 0.,
          0., 0., 0., 0., 0., 0., 0., 0., 0., 0., 0., 0., 0., 0., 0.,
          1.53846154e-002, 0., 0., 0., 0., 0., 1.53846154e-002,
          1.53846154e-002, 0., 0., 1.53846154e-002, 0., 0., 0., 0., 0.,
          0., 0., 0., 1.53846154e-002, 0., 0., 0., 0., 0., 0., 0., 0.,
          0., 0., 0., 0., 0., 0., 0., 0., 0., 0., 0., 0., 0.,
          1.53846154e-002, 0., 0., 0., 0., 0., 1.53846154e-002, 0., 0.,
          0., 0., 0., 0., 0., 0., 0., 0., 0., 0., 0., 0., 0., 0., 0., 0.,
          0., 0., 0., 0., 0., 0., 0., 0., 0., 0., 0., 0., 0., 0., 0., 0.,
          0., 0., 0., 0., 0., 0., 0., 0., 0., 0., 0., 0., 0., 0., 0., 0.,
          0., 0., 0., 0., 0., 0., 0., 0., 0., 0., 0., 0., 0., 0., 0., 0.,
          0., 0., 0., 0., 0., 0., 0., 0., 0., 0., 0., 0., 0., 0., 0., 0.,
          0., 0., 0., 0., 0., 0., 0., 1.53846154e-002, 0., 0., 0., 0.,
          0., 0., 0., 0., 0., 1.53846154e-002, 0., 0., 0., 0.,
          1.53846154e-002, 0., 0., 0., 0., 0., 0., 0., 0., 0., 0., 0.,
          1.53846154e-002, 0., 0., 0., 0., 0., 0., 0., 0., 0., 0., 0.,
          0., 0., 0., 0., 0., 0., 0., 1.53846154e-002, 0., 0., 0., 0.,
          0., 0., 0., 0., 0., 0., 0., 0., 0., 0., 0., 1.53846154e-002,
          0., 0., 0., 0., 0., 0., 0., 0., 0., 0., 0., 0.,
          1.53846154e-002, 0., 0., 0., 0., 0., 0., 0., 0., 0., 0., 0.,
          1.53846154e-002, 0., 0., 0., 0., 0., 0., 0., 0., 0., 0., 0.,
          0., 0., 0., 0., 0., 0., 0., 0., 0., 0., 0., 0., 0., 0., 0., 0.,
          0., 0., 0., 1.53846154e-002, 0., 0., 0., 0., 0., 0., 0., 0.,
          0., 0., 0., 0., 0., 0., 0., 0., 0., 0., 1.53846154e-002, 0.,
          0., 0., 0., 0., 0., 0., 0., 0., 0., 0., 0., 0., 0., 0., 0., 0.,
          0., 0., 0., 0., 0., 0., 0., 0., 0., 0., 0., 0., 0., 0., 0., 0.,
          0., 1.53846154e-002, 0., 0., 0., 0., 0., 0., 0., 0., 0., 0.,
          0., 0., 0., 0., 0., 0., 0., 0., 0., 0., 0., 0.,
          1.53846154e-002, 0., 0., 0., 0., 0., 0., 0., 0., 0., 0., 0.,
          0., 0., 0., 0., 0., 0., 0., 0., 0., 0., 0., 0., 0., 0., 0., 0.,
          0., 0., 0., 0., 0., 0., 0., 0., 0., 0., 0., 0., 0., 0., 0., 0.,
          0., 0., 0., 0., 0., 0., 0., 0., 0., 0., 0., 0., 0., 0., 0., 0.,
          0., 0., 0., 0., 0., 0., 0., 0., 0., 0., 1.53846154e-002, 0.,
          1.53846154e-002, 0., 0., 0., 0., 0., 0., 0., 0.,
          1.53846154e-002, 0., 0., 1.53846154e-002, 0., 0., 0., 0., 0.,
          0., 0., 0., 0., 0., 0., 0., 0., 0., 0., 0., 0., 0., 0., 0., 0.,
          0., 0., 0., 0., 0., 0., 0., 0., 0., 0., 0., 0., 0., 0., 0., 0.,
          0., 0., 0., 0., 0., 0., 0., 0., 0., 0., 0., 0.,
          1.53846154e-002, 0., 0., 0., 0., 0., 0., 0., 0., 0., 0., 0.,
          0., 0., 0., 0., 0., 0., 1.53846154e-002, 0., 0., 0., 0., 0.,
          0., 1.53846154e-002, 0., 0., 0., 0., 0., 0., 0., 0., 0., 0.,
          0., 0., 3.07692308e-002, 0., 1.53846154e-002, 0., 0., 0., 0.,
          0., 0., 0., 0., 1.53846154e-002, 0., 0., 0., 1.53846154e-002,
          0., 0., 1.53846154e-002, 0., 0., 0., 0., 0., 0., 0., 0., 0.,
          0., 0., 0., 0., 0., 1.53846154e-002, 0., 0., 0., 0.,
          1.53846154e-002, 0., 0., 0., 1.53846154e-002, 0., 0., 0., 0.,
          1.53846154e-002, 0., 0., 0., 0., 0., 0., 0., 0., 0., 0., 0.,
          0., 0., 0., 0., 0., 0., 0., 0., 0., 0., 0., 0., 0., 0., 0., 0.,
          0., 0., 0., 0., 0., 1.53846154e-002, 0., 0., 1.53846154e-002,
          0., 0., 0., 1.53846154e-002, 0., 0., 0., 0., 0., 0., 0., 0.,
          0., 0., 0., 0., 0., 0., 1.53846154e-002, 0., 0., 0., 0., 0.,
          0., 0., 0., 0., 0., 0., 0., 0., 0., 0., 0., 0., 0., 0., 0., 0.,
          0., 0., 0., 0., 0., 0., 0., 0., 0., 0., 0., 0., 0., 0., 0., 0.,
          0., 0., 0., 0., 0., 0., 0., 0., 0., 0., 0., 0.,
          1.53846154e-002, 0., 0., 0., 0., 0., 0., 0., 0., 0., 0., 0.,
          0., 0., 0., 0., 0., 0., 0., 0., 0., 1.53846154e-002, 0., 0.,
          0., 0., 0., 1.53846154e-002, 0., 0., 0., 0., 0., 0., 0., 0.,
          0., 0., 0., 0., 0., 0., 0., 0., 0., 0., 1.53846154e-002, 0.,
          0., 0., 0., 0., 0., 1.53846154e-002, 0., 0., 0., 0., 0., 0.,
          0., 0., 0., 0., 0., 0., 0., 0., 0., 0., 0., 0., 0., 0., 0., 0.,
          0., 0., 0., 0., 0., 0., 1.53846154e-002 ]
      - [ 0., 0., 0., 0., 0., 0., 0., 0., 0., 0., 0., 0., 0., 0., 0., 0.,
          0., 0., 0., 0., 0., 0., 0., 0., 0., 0., 0., 0., 0., 0., 0., 0.,
          0., 0., 0., 0., 0., 0., 0., 0., 0., 0., 2.50000004e-002, 0.,
          0., 0., 0., 0., 0., 0., 0., 0., 0., 0., 0., 0., 0., 0., 0., 0.,
          0., 0., 0., 0., 0., 0., 0., 0., 0., 0., 0., 0., 0., 0., 0., 0.,
          0., 0., 2.50000004e-002, 0., 0., 0., 2.50000004e-002, 0., 0.,
          0., 0., 0., 0., 0., 0., 0., 0., 0., 0., 0., 0.,
          2.50000004e-002, 0., 0., 0., 0., 0., 0., 0., 0., 0., 0., 0.,
          0., 0., 0., 2.50000004e-002, 0., 0., 0., 0., 0., 0., 0., 0.,
          0., 0., 0., 0., 0., 0., 0., 0., 0., 0., 0., 0., 0., 0., 0.,
          2.50000004e-002, 0., 0., 0., 0., 0., 0., 0., 0., 0., 0., 0.,
          0., 0., 0., 0., 0., 0., 0., 0., 0., 0., 0., 0., 0., 0., 0., 0.,
          0., 0., 0., 0., 0., 0., 2.50000004e-002, 0., 0., 0., 0., 0.,
          7.50000030e-002, 0., 0., 0., 0., 0., 0., 0., 0., 0., 0., 0.,
          0., 0., 0., 0., 0., 0., 0., 0., 0., 0., 0., 0., 0., 0., 0., 0.,
          0., 0., 0., 2.50000004e-002, 0., 0., 0., 0., 0., 0., 0., 0.,
          0., 2.50000004e-002, 0., 0., 0., 0., 0., 0., 0., 0., 0., 0.,
          2.50000004e-002, 0., 0., 0., 0., 0., 0., 0., 0., 0., 0., 0.,
          0., 0., 2.50000004e-002, 0., 2.50000004e-002, 0., 0., 0., 0.,
          0., 0., 0., 0., 0., 0., 0., 0., 0., 0., 0., 0., 0., 0., 0., 0.,
          0., 0., 0., 0., 0., 0., 0., 0., 0., 0., 0., 0., 0., 0., 0.,
          2.50000004e-002, 0., 0., 0., 0., 0., 0., 0., 0., 0., 0., 0.,
          0., 0., 0., 0., 0., 0., 0., 0., 0., 0., 0., 0., 0., 0., 0., 0.,
          0., 0., 0., 0., 0., 0., 0., 0., 0., 0., 0., 0., 0., 0., 0., 0.,
          0., 0., 0., 0., 0., 0., 0., 0., 0., 0., 0., 0., 0., 0., 0., 0.,
          0., 0., 0., 0., 0., 0., 0., 0., 0., 0., 0., 0., 0., 0., 0., 0.,
          0., 0., 2.50000004e-002, 0., 0., 0., 0., 0., 0., 0., 0., 0.,
          0., 0., 0., 0., 0., 0., 0., 0., 0., 0., 0., 0., 0., 0., 0., 0.,
          0., 0., 0., 0., 0., 0., 0., 0., 0., 0., 0., 0., 0., 0., 0., 0.,
          0., 0., 0., 0., 0., 0., 0., 0., 0., 0., 0., 0., 0., 0.,
          2.50000004e-002, 0., 0., 0., 0., 2.50000004e-002, 0., 0., 0.,
          0., 0., 0., 0., 0., 0., 0., 0., 0., 0., 0., 0., 0., 0., 0., 0.,
          0., 0., 0., 0., 0., 0., 0., 0., 0., 0., 0., 0., 0., 0., 0., 0.,
          0., 0., 0., 0., 0., 0., 0., 0., 0., 0., 0., 0., 0., 0., 0., 0.,
          0., 0., 0., 0., 0., 0., 0., 0., 0., 0., 0., 0., 0., 0., 0., 0.,
          0., 0., 0., 2.50000004e-002, 0., 2.50000004e-002, 0., 0., 0.,
          0., 0., 0., 0., 0., 0., 0., 0., 0., 0., 0., 0., 0., 0., 0., 0.,
          0., 0., 0., 0., 0., 0., 0., 0., 0., 0., 0., 0., 0., 0., 0., 0.,
          0., 0., 0., 0., 0., 0., 0., 0., 0., 0., 0., 0., 0., 0., 0.,
          2.50000004e-002, 0., 0., 0., 0., 0., 2.50000004e-002, 0.,
          2.50000004e-002, 2.50000004e-002, 0., 2.50000004e-002, 0., 0.,
          0., 0., 0., 0., 0., 0., 0., 0., 0., 0., 0., 0., 0., 0., 0., 0.,
          0., 0., 0., 0., 0., 0., 0., 0., 0., 0., 0., 0., 0., 0., 0., 0.,
          0., 0., 0., 0., 2.50000004e-002, 0., 0., 0., 0., 0., 0., 0.,
          0., 0., 0., 0., 0., 0., 0., 0., 0., 0., 0., 0., 0., 0., 0., 0.,
          0., 0., 0., 0., 0., 0., 0., 0., 0., 0., 0., 2.50000004e-002,
          0., 0., 0., 0., 2.50000004e-002, 0., 0., 0., 0., 0., 0., 0.,
          0., 0., 0., 0., 0., 0., 0., 0., 0., 0., 0., 0., 0., 0., 0., 0.,
          0., 0., 2.50000004e-002, 0., 0., 0., 0., 0., 0., 0., 0., 0.,
          0., 0., 0., 0., 0., 0., 0., 0., 0., 0., 0., 0., 0., 0., 0., 0.,
          0., 0., 0., 0., 0., 2.50000004e-002, 0., 0., 0., 0., 0., 0.,
          0., 0., 0., 0., 0., 0., 0., 0., 0., 0., 0., 0., 0., 0., 0., 0.,
          2.50000004e-002, 0., 0., 0., 0., 0., 0., 0., 0., 0., 0., 0.,
          0., 0., 0., 0., 0., 0., 0., 0., 0., 0., 2.50000004e-002, 0.,
          0., 0., 0., 0., 0., 0., 0., 0., 0., 0., 0., 0., 0., 0., 0., 0.,
          0., 0., 0., 0., 0., 0., 0., 0., 0., 0., 0., 0.,
          2.50000004e-002, 0., 0., 0., 0., 0., 0., 0., 0., 0., 0., 0.,
          0., 0., 0., 2.50000004e-002, 0., 0., 0., 0., 0., 0., 0., 0.,
          0., 0., 0., 0., 2.50000004e-002, 0., 0., 0., 0., 0., 0., 0.,
          0., 0., 0., 0., 0., 0., 0., 0., 0., 0., 0., 0., 0., 0., 0., 0.,
          0., 0., 0., 0., 0., 0., 0., 0., 0., 0., 0., 0., 0., 0.,
          2.50000004e-002, 0., 0., 0., 0., 0., 0., 2.50000004e-002, 0.,
          0., 0., 0., 0., 0., 0., 0., 0., 0., 0., 0., 0., 0., 0., 0., 0.,
          0., 0., 0., 0., 0., 0., 0., 0., 0., 0., 0., 0., 0., 0., 0., 0.,
          0., 0., 0., 0., 2.50000004e-002, 0., 0., 0., 0., 0., 0., 0.,
          0., 0., 0., 0., 0., 0., 0., 0., 0., 0., 0., 0., 0., 0., 0., 0.,
          0., 0., 0., 0., 0., 0., 0., 0., 0., 0., 0., 0., 0., 0., 0., 0.,
          0., 0., 0., 0., 0., 0., 0., 0., 0., 0., 0., 0., 0., 0., 0., 0.,
          0., 0., 0., 0., 0., 0., 0., 0., 0., 0., 0., 0., 0.,
          2.50000004e-002, 0., 0., 0., 0., 0., 0., 0., 0., 0., 0., 0.,
          0., 0., 0., 0., 0., 0., 0., 0., 0., 0., 0., 0., 0., 0., 0., 0.,
          0., 0., 0., 0., 0., 0., 0., 0., 0., 0., 0., 0., 0., 0., 0., 0.,
          0., 0., 0., 0., 0., 0., 0., 0., 0., 0., 0. ]
      - [ 0., 0., 0., 0., 0., 0., 0., 3.96825420e-003, 0.,
          3.96825420e-003, 3.96825420e-003, 0., 0., 0., 0., 0., 0., 0.,
          0., 7.93650839e-003, 0., 0., 0., 3.96825420e-003, 0., 0.,
          1.19047631e-002, 3.96825420e-003, 0., 0., 3.96825420e-003,
          3.96825420e-003, 0., 0., 0., 3.96825420e-003, 3.96825420e-003,
          0., 0., 0., 7.93650839e-003, 1.19047631e-002, 0., 0., 0., 0.,
          0., 3.96825420e-003, 3.96825420e-003, 0., 7.93650839e-003,
          3.96825420e-003, 0., 0., 0., 0., 0., 3.96825420e-003,
          3.96825420e-003, 0., 0., 0., 0., 0., 0., 3.96825420e-003, 0.,
          0., 0., 0., 0., 0., 3.96825420e-003, 0., 0., 3.96825420e-003,
          0., 7.93650839e-003, 0., 0., 0., 0., 0., 0., 0., 0., 0., 0.,
          0., 0., 3.96825420e-003, 0., 0., 0., 0., 0., 0., 0.,
          3.96825420e-003, 0., 3.96825420e-003, 0., 3.96825420e-003, 0.,
          0., 0., 0., 0., 0., 0., 0., 3.96825420e-003, 3.96825420e-003,
          0., 0., 0., 0., 0., 3.96825420e-003, 0., 0., 0., 0.,
          1.98412705e-002, 0., 0., 0., 0., 0., 3.96825420e-003,
          7.93650839e-003, 0., 3.96825420e-003, 3.96825420e-003, 0., 0.,
          3.96825420e-003, 0., 0., 0., 0., 0., 0., 0., 0., 0., 0., 0.,
          3.96825420e-003, 0., 0., 0., 0., 0., 0., 0., 0., 0., 0., 0.,
          0., 0., 0., 0., 0., 0., 0., 7.93650839e-003, 0., 0., 0., 0.,
          0., 0., 0., 0., 0., 0., 0., 0., 3.96825420e-003,
          3.96825420e-003, 3.96825420e-003, 0., 0., 0., 0., 0., 0., 0.,
          3.96825420e-003, 0., 0., 0., 0., 3.96825420e-003, 0., 0., 0.,
          0., 0., 3.96825420e-003, 0., 0., 0., 1.58730168e-002, 0., 0.,
          3.96825420e-003, 0., 3.96825420e-003, 0., 0., 0., 0., 0.,
          3.96825420e-003, 1.19047631e-002, 0., 0., 3.96825420e-003,
          3.96825420e-003, 0., 0., 0., 0., 0., 3.96825420e-003, 0., 0.,
          0., 0., 0., 0., 3.96825420e-003, 0., 0., 3.96825420e-003, 0.,
          1.98412705e-002, 0., 0., 0., 0., 3.96825420e-003, 0., 0.,
          3.96825420e-003, 0., 0., 0., 0., 0., 0., 0., 0.,
          3.96825420e-003, 0., 0., 0., 0., 0., 7.93650839e-003,
          3.96825420e-003, 0., 0., 0., 0., 0., 0., 0., 0., 0., 0.,
          3.96825420e-003, 0., 0., 0., 0., 0., 0., 0., 0., 0., 0., 0.,
          0., 0., 0., 0., 0., 0., 0., 0., 0., 3.96825420e-003, 0., 0.,
          0., 0., 0., 3.96825420e-003, 0., 0., 0., 3.96825420e-003, 0.,
          0., 0., 0., 0., 3.96825420e-003, 0., 0., 7.93650839e-003, 0.,
          0., 0., 0., 0., 0., 0., 0., 0., 0., 0., 0., 0.,
          7.93650839e-003, 0., 0., 0., 0., 0., 0., 0., 0., 0., 0., 0.,
          0., 0., 0., 0., 0., 0., 0., 0., 0., 7.93650839e-003, 0.,
          3.96825420e-003, 3.96825420e-003, 0., 0., 0., 0., 0., 0.,
          1.19047631e-002, 0., 0., 0., 0., 0., 0., 0., 3.96825420e-003,
          0., 0., 0., 0., 0., 0., 0., 3.96825420e-003, 0., 0., 0., 0.,
          0., 0., 0., 0., 0., 0., 0., 0., 0., 0., 0., 7.93650839e-003,
          3.96825420e-003, 0., 0., 3.96825420e-003, 0., 0., 0., 0., 0.,
          0., 0., 3.96825420e-003, 0., 7.93650839e-003, 0., 0., 0., 0.,
          0., 3.96825420e-003, 0., 3.96825420e-003, 0., 3.96825420e-003,
          0., 3.96825420e-003, 0., 0., 3.96825420e-003, 3.96825420e-003,
          0., 0., 0., 0., 0., 0., 0., 0., 0., 0., 0., 0., 0., 0., 0., 0.,
          0., 0., 0., 0., 0., 3.96825420e-003, 3.96825420e-003,
          3.96825420e-003, 0., 0., 0., 0., 3.96825420e-003, 0., 0., 0.,
          0., 0., 0., 0., 0., 3.96825420e-003, 3.96825420e-003, 0.,
          7.93650839e-003, 0., 0., 7.93650839e-003, 0., 3.96825420e-003,
          0., 0., 3.96825420e-003, 0., 0., 3.96825420e-003, 0., 0., 0.,
          0., 0., 0., 0., 0., 0., 0., 0., 0., 0., 0., 0., 0., 0., 0., 0.,
          0., 0., 0., 0., 0., 0., 0., 0., 0., 0., 3.96825420e-003, 0.,
          0., 0., 0., 3.96825420e-003, 3.96825420e-003, 3.96825420e-003,
          0., 3.96825420e-003, 0., 0., 7.93650839e-003, 0., 0., 0., 0.,
          3.96825420e-003, 0., 0., 0., 0., 0., 0., 0., 0., 0., 0., 0.,
          0., 0., 0., 0., 0., 0., 0., 0., 0., 3.96825420e-003, 0.,
          3.96825420e-003, 0., 0., 0., 0., 0., 0., 7.93650839e-003, 0.,
          0., 0., 3.96825420e-003, 3.96825420e-003, 0., 0., 0.,
          3.96825420e-003, 3.96825420e-003, 7.93650839e-003, 0., 0., 0.,
          0., 0., 0., 0., 0., 0., 0., 0., 0., 0., 3.96825420e-003, 0.,
          0., 0., 3.96825420e-003, 3.96825420e-003, 0., 0., 0., 0., 0.,
          0., 3.96825420e-003, 0., 0., 0., 0., 0., 0., 0.,
          3.96825420e-003, 0., 0., 0., 0., 0., 3.96825420e-003, 0., 0.,
          0., 0., 0., 0., 0., 0., 0., 0., 0., 0., 0., 0., 0., 0., 0., 0.,
          0., 0., 0., 0., 0., 0., 0., 0., 0., 3.96825420e-003, 0., 0.,
          0., 0., 0., 0., 0., 3.96825420e-003, 0., 0., 0., 0., 0., 0.,
          0., 0., 0., 0., 0., 0., 0., 7.93650839e-003, 3.96825420e-003,
          0., 0., 0., 3.96825420e-003, 0., 0., 0., 0., 0.,
          3.96825420e-003, 0., 0., 0., 0., 3.96825420e-003, 0., 0., 0.,
          0., 0., 0., 0., 3.96825420e-003, 0., 0., 0., 0., 0., 0., 0.,
          0., 0., 0., 0., 0., 0., 0., 0., 0., 0., 0., 0., 0.,
          7.93650839e-003, 3.96825420e-003, 0., 0., 0., 0.,
          3.96825420e-003, 0., 0., 0., 3.96825420e-003, 7.93650839e-003,
          1.19047631e-002, 3.96825420e-003, 3.96825420e-003, 0., 0.,
          3.96825420e-003, 3.96825420e-003, 0., 0., 0., 0.,
          3.96825420e-003, 0., 0., 7.93650839e-003, 0., 3.96825420e-003,
          0., 3.96825420e-003, 0., 7.93650839e-003, 0., 3.96825420e-003,
          0., 0., 0., 0., 0., 0., 0., 0., 0., 7.93650839e-003, 0.,
          7.93650839e-003, 0., 0., 0., 0., 0., 0., 0., 0., 0., 0., 0.,
          0., 3.96825420e-003, 0., 0., 3.96825420e-003, 0., 0., 0., 0.,
          0., 0., 0., 0., 0., 7.93650839e-003, 1.98412705e-002, 0.,
          3.96825420e-003, 0., 7.93650839e-003, 0., 0., 0., 0.,
          3.96825420e-003, 3.96825420e-003, 0., 0., 3.96825420e-003, 0.,
          0., 0., 3.96825420e-003, 0., 0., 0., 0., 7.93650839e-003, 0.,
          0., 0., 0., 0., 0., 0., 3.96825420e-003, 3.96825420e-003, 0.,
          0., 0., 0., 0., 0., 0., 0., 0., 0., 0., 0., 0.,
          3.96825420e-003, 0., 3.96825420e-003, 0., 3.96825420e-003, 0.,
          0., 0., 0., 0., 0., 0., 3.96825420e-003, 3.96825420e-003, 0.,
          0., 3.96825420e-003, 0., 7.93650839e-003, 3.96825420e-003, 0.,
          0., 0., 0., 0., 0., 0., 0., 3.96825420e-003, 0., 0., 0.,
          3.96825420e-003, 0., 0., 0., 0., 0., 0., 3.96825420e-003, 0.,
          0., 0., 0., 0., 3.96825420e-003, 0., 0., 0., 0., 0.,
          3.96825420e-003, 0., 0., 0., 0., 3.96825420e-003, 0., 0., 0.,
          0., 0., 0., 0., 0., 0., 0., 0., 0., 0., 3.96825420e-003, 0.,
          0., 0., 0., 0., 3.96825420e-003, 0., 0., 0., 0., 0.,
          3.96825420e-003, 3.96825420e-003, 0., 0., 0., 0., 0., 0., 0.,
          0., 0., 0., 0., 0., 3.96825420e-003, 0., 3.96825420e-003,
          3.96825420e-003, 0., 0., 0., 0., 0., 0., 0., 3.96825420e-003,
          0., 0., 0., 3.96825420e-003, 0., 0., 0., 3.96825420e-003, 0.,
          0., 0., 0., 0., 0., 0., 0., 0., 0., 0., 0., 0.,
          3.96825420e-003, 0., 0., 0., 7.93650839e-003, 0., 0., 0.,
          7.93650839e-003, 3.96825420e-003, 3.96825420e-003, 0.,
          3.96825420e-003, 0., 0., 0., 0., 0., 0., 0., 0., 0., 0., 0.,
          0., 0., 0., 0., 0., 0., 0., 0., 0., 3.96825420e-003,
          3.96825420e-003, 0., 0., 0., 0., 0., 0., 0., 0., 0., 0.,
          7.93650839e-003, 0., 0., 0., 7.93650839e-003, 0., 0., 0., 0.,
          2.38095261e-002, 0., 0. ]
      - [ 0., 0., 0., 0., 0., 0., 0., 0., 0., 0., 0., 0., 0., 0., 0., 0.,
          0., 0., 0., 0., 0., 0., 0., 0., 0., 2.63157897e-002, 0., 0.,
          0., 0., 0., 0., 0., 0., 0., 0., 0., 0., 0., 0.,
          2.63157897e-002, 0., 0., 0., 0., 0., 0., 0., 0., 0., 0., 0.,
          0., 2.63157897e-002, 0., 0., 0., 0., 0., 0., 0., 0., 0., 0.,
          0., 0., 0., 0., 0., 0., 0., 0., 0., 0., 0., 0., 0., 0.,
          2.63157897e-002, 0., 0., 0., 0., 0., 0., 0., 0., 0., 0., 0.,
          2.63157897e-002, 0., 0., 0., 0., 0., 0., 0., 0.,
          2.63157897e-002, 0., 0., 0., 0., 2.63157897e-002, 0.,
          2.63157897e-002, 0., 0., 0., 0., 0., 0., 0., 0., 0., 0., 0.,
          0., 0., 0., 0., 0., 0., 0., 0., 0., 0., 0., 0., 0., 0., 0., 0.,
          0., 0., 0., 0., 0., 0., 0., 0., 0., 0., 0., 0., 0., 0., 0., 0.,
          0., 0., 0., 0., 0., 0., 2.63157897e-002, 0., 0., 0., 0., 0.,
          0., 0., 0., 0., 0., 0., 0., 2.63157897e-002, 0., 0., 0., 0.,
          0., 0., 0., 0., 0., 0., 0., 0., 0., 0., 0., 0., 0., 0., 0., 0.,
          0., 0., 0., 0., 0., 0., 0., 0., 0., 0., 0., 0.,
          2.63157897e-002, 2.63157897e-002, 0., 0., 0., 0., 0., 0., 0.,
          0., 0., 0., 0., 0., 0., 0., 0., 0., 0., 0., 0., 0., 0., 0.,
          1.05263159e-001, 0., 0., 0., 0., 0., 0., 0., 0., 0., 0., 0.,
          0., 0., 0., 0., 0., 0., 0., 0., 0., 0., 0., 0., 0., 0., 0., 0.,
          0., 0., 0., 0., 0., 0., 0., 0., 0., 0., 0., 0., 0., 0., 0., 0.,
          0., 0., 0., 0., 0., 0., 2.63157897e-002, 0., 0., 0., 0., 0.,
          0., 0., 0., 0., 0., 0., 0., 0., 0., 0., 0., 0., 0., 0., 0., 0.,
          0., 0., 0., 0., 0., 0., 0., 0., 0., 0., 0., 0., 0., 0., 0., 0.,
          0., 0., 0., 0., 0., 0., 0., 0., 0., 0., 0., 0., 0., 0., 0., 0.,
          0., 0., 0., 0., 0., 0., 0., 0., 0., 0., 0., 0., 0., 0., 0., 0.,
          0., 0., 0., 0., 0., 0., 0., 0., 0., 0., 0., 0., 0.,
          2.63157897e-002, 0., 0., 0., 2.63157897e-002, 0., 0., 0., 0.,
          0., 0., 0., 0., 0., 0., 0., 0., 0., 0., 0., 0., 0., 0., 0., 0.,
          0., 0., 0., 0., 0., 0., 0., 0., 0., 0., 0., 0., 0., 0., 0., 0.,
          0., 0., 0., 0., 0., 0., 0., 0., 0., 0., 0., 0., 0., 0., 0., 0.,
          0., 0., 0., 0., 0., 0., 0., 0., 0., 0., 0., 0., 0., 0., 0., 0.,
          0., 0., 0., 0., 0., 0., 0., 0., 0., 0., 0., 0., 0., 0., 0., 0.,
          0., 0., 0., 0., 0., 0., 0., 0., 0., 0., 0., 0., 0., 0., 0., 0.,
          0., 0., 0., 0., 0., 0., 0., 0., 2.63157897e-002, 0., 0., 0.,
          0., 0., 0., 0., 0., 0., 0., 0., 0., 0., 0., 0.,
          2.63157897e-002, 0., 0., 0., 0., 0., 0., 0., 0., 0., 0., 0.,
          0., 0., 0., 0., 0., 0., 0., 0., 0., 0., 0., 0., 0., 0., 0., 0.,
          0., 0., 0., 0., 0., 0., 0., 0., 0., 0., 0., 0., 0., 0., 0., 0.,
          0., 0., 0., 0., 0., 0., 0., 0., 0., 0., 0., 0.,
          2.63157897e-002, 0., 0., 0., 0., 0., 2.63157897e-002, 0., 0.,
          0., 0., 0., 0., 0., 0., 0., 0., 0., 0., 0., 0., 0., 0., 0., 0.,
          0., 0., 0., 0., 0., 0., 0., 0., 0., 0., 0., 0., 0., 0., 0., 0.,
          0., 2.63157897e-002, 0., 0., 0., 0., 0., 0., 0., 0., 0., 0.,
          0., 0., 0., 0., 0., 0., 0., 0., 0., 0., 0., 0., 0., 0., 0., 0.,
          0., 0., 0., 0., 0., 0., 0., 0., 0., 2.63157897e-002, 0., 0.,
          0., 0., 0., 0., 0., 0., 0., 2.63157897e-002, 0., 0., 0., 0.,
          0., 0., 0., 0., 0., 0., 0., 0., 0., 0., 0., 0., 0., 0., 0., 0.,
          0., 0., 0., 0., 0., 0., 0., 0., 0., 0., 0., 0., 0., 0., 0., 0.,
          0., 0., 0., 0., 0., 0., 0., 0., 0., 0., 0., 0., 0., 0., 0., 0.,
          0., 0., 0., 0., 2.63157897e-002, 0., 0., 0., 0., 0., 0., 0.,
          0., 0., 0., 0., 0., 0., 0., 0., 0., 0., 0., 0., 0., 0., 0., 0.,
          0., 0., 0., 0., 0., 0., 0., 0., 0., 0., 0., 0., 0., 0., 0., 0.,
          0., 0., 0., 0., 0., 0., 0., 0., 0., 0., 0., 0., 0., 0., 0., 0.,
          0., 0., 0., 0., 0., 0., 0., 0., 0., 0., 0., 0., 0., 0., 0., 0.,
          0., 0., 0., 0., 0., 0., 0., 0., 2.63157897e-002, 0., 0., 0.,
          0., 0., 0., 0., 0., 0., 0., 0., 0., 0., 0., 0., 0., 0., 0., 0.,
          0., 0., 0., 0., 0., 0., 2.63157897e-002, 0., 0., 0., 0., 0.,
          0., 0., 0., 0., 0., 0., 0., 0., 0., 0., 0., 0., 0., 0., 0., 0.,
          0., 0., 0., 0., 0., 0., 0., 0., 2.63157897e-002, 0., 0., 0.,
          0., 0., 0., 0., 0., 0., 0., 0., 0., 0., 0., 0., 0., 0., 0., 0.,
          0., 0., 0., 0., 0., 2.63157897e-002, 0., 0., 0., 0., 0., 0.,
          0., 0., 0., 0., 0., 0., 0., 0., 0., 0., 0., 2.63157897e-002,
          0., 0., 0., 0., 0., 0., 0., 0., 0., 0., 0., 0., 0., 0., 0., 0.,
          0., 0., 0., 0., 0., 0., 0., 0., 0., 0., 0., 0., 0., 0., 0., 0.,
          0., 0., 0., 0., 0., 0., 0., 0., 0., 0., 0., 0., 0., 0., 0., 0.,
          0., 0., 0., 0., 7.89473653e-002, 0., 0., 0., 0., 0., 0., 0.,
          0., 0., 0., 0., 0., 0., 0., 0., 0., 0., 0., 0., 0., 0., 0., 0.,
          0., 0., 2.63157897e-002, 0., 0., 0., 0., 0., 0., 0., 0., 0.,
          0., 0., 0., 2.63157897e-002, 0., 0., 0., 0., 0., 0., 0., 0.,
          0., 0., 0., 0., 0., 0., 0., 0., 0., 0., 0., 0., 0., 0., 0., 0.,
          0., 0., 0., 2.63157897e-002, 0., 0., 0., 0., 0., 0., 0., 0.,
          0., 0., 0. ]
      - [ 0., 0., 0., 0., 0., 0., 0., 0., 1.23456791e-002, 0., 0.,
          1.23456791e-002, 0., 0., 0., 1.23456791e-002, 0., 0., 0., 0.,
          0., 1.23456791e-002, 0., 0., 0., 0., 0., 0., 0., 0., 0., 0.,
          0., 0., 0., 0., 0., 0., 0., 0., 0., 0., 0., 0., 0., 0., 0., 0.,
          0., 0., 1.23456791e-002, 0., 0., 0., 0., 0., 0., 0., 0.,
          1.23456791e-002, 0., 0., 0., 0., 0., 0., 0., 0.,
          1.23456791e-002, 0., 0., 0., 0., 0., 0., 0., 1.23456791e-002,
          0., 0., 0., 0., 0., 0., 0., 0., 0., 1.23456791e-002, 0., 0.,
          0., 0., 0., 0., 0., 0., 0., 0., 0., 0., 0., 0., 0., 0., 0., 0.,
          0., 0., 0., 0., 0., 0., 0., 0., 0., 0., 0., 0., 0., 0., 0., 0.,
          0., 0., 0., 0., 0., 0., 0., 1.23456791e-002, 0., 0., 0., 0.,
          0., 0., 0., 0., 0., 0., 0., 0., 0., 0., 0., 0., 0.,
          1.23456791e-002, 0., 0., 0., 1.23456791e-002, 0., 0., 0., 0.,
          0., 0., 0., 0., 0., 0., 0., 0., 0., 0., 0., 1.23456791e-002,
          0., 0., 0., 0., 1.23456791e-002, 0., 0., 0., 0., 0., 0., 0.,
          0., 1.23456791e-002, 0., 0., 0., 0., 0., 0., 0., 0.,
          1.23456791e-002, 0., 0., 0., 0., 0., 0., 0., 0., 0.,
          1.23456791e-002, 0., 0., 0., 0., 0., 1.23456791e-002, 0., 0.,
          0., 0., 0., 0., 0., 0., 0., 0., 0., 0., 0., 1.23456791e-002,
          0., 0., 0., 0., 0., 0., 0., 0., 0., 0., 0., 0., 0., 0., 0., 0.,
          0., 0., 0., 0., 0., 1.23456791e-002, 0., 0., 0., 0., 0.,
          1.23456791e-002, 0., 0., 0., 0., 0., 1.23456791e-002, 0., 0.,
          0., 0., 0., 0., 0., 0., 0., 0., 0., 0., 0., 0., 0., 0., 0., 0.,
          0., 0., 0., 0., 0., 0., 1.23456791e-002, 0., 0., 0., 0., 0.,
          0., 0., 0., 0., 0., 0., 0., 0., 0., 0., 0., 0., 0., 0., 0., 0.,
          0., 0., 1.23456791e-002, 0., 0., 0., 0., 0., 0.,
          2.46913582e-002, 0., 0., 0., 0., 0., 0., 0., 0., 0., 0., 0.,
          0., 0., 0., 0., 0., 0., 0., 0., 0., 0., 0., 0., 0., 0., 0.,
          1.23456791e-002, 0., 0., 0., 0., 0., 0., 0., 0., 0., 0., 0.,
          0., 0., 0., 0., 0., 0., 0., 0., 0., 0., 0., 0., 0., 0., 0., 0.,
          0., 0., 0., 0., 0., 0., 0., 0., 0., 0., 0., 0.,
          1.23456791e-002, 0., 0., 0., 0., 0., 0., 0., 0., 0., 0., 0.,
          0., 0., 0., 0., 0., 0., 0., 0., 0., 0., 0., 0., 0., 0., 0., 0.,
          0., 0., 0., 1.23456791e-002, 0., 0., 0., 0., 0.,
          1.23456791e-002, 0., 1.23456791e-002, 0., 0., 0., 0.,
          1.23456791e-002, 0., 0., 0., 0., 0., 0., 0., 0., 0., 0., 0.,
          0., 0., 0., 1.23456791e-002, 0., 0., 0., 0., 0., 0., 0., 0.,
          0., 0., 0., 0., 0., 0., 0., 0., 0., 0., 0., 0., 0., 0., 0., 0.,
          0., 0., 0., 0., 0., 0., 0., 0., 0., 0., 0., 0., 0., 0., 0., 0.,
          0., 0., 0., 0., 0., 0., 0., 0., 0., 0., 1.23456791e-002, 0.,
          0., 0., 0., 0., 0., 0., 0., 0., 0., 0., 0., 0., 0., 0., 0., 0.,
          0., 0., 0., 0., 0., 0., 0., 0., 0., 1.23456791e-002,
          1.23456791e-002, 0., 0., 0., 0., 0., 0., 0., 0.,
          1.23456791e-002, 0., 0., 0., 0., 0., 0., 0., 0., 0., 0., 0.,
          1.23456791e-002, 0., 1.23456791e-002, 0., 0., 0., 0.,
          1.23456791e-002, 1.23456791e-002, 0., 1.23456791e-002, 0., 0.,
          0., 0., 0., 0., 0., 0., 0., 1.23456791e-002, 0., 0., 0., 0.,
          0., 0., 0., 0., 0., 0., 1.23456791e-002, 0., 0., 0.,
          1.23456791e-002, 0., 0., 1.23456791e-002, 0., 0., 0., 0., 0.,
          0., 0., 0., 0., 0., 0., 0., 0., 0., 0., 0., 0., 0., 0., 0., 0.,
          0., 0., 0., 1.23456791e-002, 1.23456791e-002, 0., 0., 0., 0.,
          0., 0., 0., 0., 0., 0., 0., 0., 0., 0., 0., 0., 0.,
          1.23456791e-002, 0., 0., 0., 0., 0., 0., 1.23456791e-002, 0.,
          0., 0., 0., 0., 0., 0., 0., 0., 0., 0., 0., 0., 0., 0., 0., 0.,
          0., 0., 0., 0., 0., 0., 0., 0., 0., 0., 0., 0., 0., 0., 0., 0.,
          0., 0., 0., 1.23456791e-002, 0., 0., 0., 0., 0.,
          1.23456791e-002, 0., 0., 0., 0., 1.23456791e-002, 0., 0., 0.,
          0., 0., 0., 0., 0., 0., 0., 0., 0., 1.23456791e-002, 0., 0.,
          0., 0., 0., 0., 0., 0., 0., 0., 0., 0., 0., 0., 0., 0., 0., 0.,
          1.23456791e-002, 0., 0., 0., 0., 0., 0., 0., 0., 0.,
          1.23456791e-002, 0., 0., 0., 0., 1.23456791e-002, 0., 0., 0.,
          0., 0., 0., 0., 0., 0., 0., 0., 0., 0., 0., 0., 0., 0., 0., 0.,
          0., 0., 0., 1.23456791e-002, 0., 0., 0., 0., 0., 0., 0., 0.,
          0., 0., 0., 0., 1.23456791e-002, 0., 0., 0., 0., 0., 0.,
          1.23456791e-002, 0., 0., 0., 0., 0., 0., 0., 0., 0.,
          1.23456791e-002, 0., 0., 0., 0., 0., 0., 0., 0., 0., 0.,
          2.46913582e-002, 0., 0., 0., 0., 0., 0., 0., 0., 0., 0., 0.,
          0., 0., 0., 0., 0., 0., 0., 0., 0., 0., 0., 0., 0., 0., 0., 0.,
          0., 0., 0., 1.23456791e-002, 0., 0., 0., 0., 0., 0., 0., 0.,
          0., 0., 0., 0., 0., 0., 0., 0., 0., 0., 0., 1.23456791e-002,
          0., 1.23456791e-002, 0., 0., 0., 1.23456791e-002, 0., 0., 0.,
          1.23456791e-002, 0., 1.23456791e-002, 0., 0., 1.23456791e-002,
          0., 0., 0., 0., 0., 0., 0., 0., 0., 0., 0., 2.46913582e-002,
          0., 0., 0., 0., 0., 0., 0., 0., 0., 0., 0., 0., 0., 0., 0., 0.,
          0., 0., 1.23456791e-002, 0., 0., 0., 0., 0., 0., 0., 0., 0.,
          1.23456791e-002, 0., 0., 0., 0., 0., 0., 1.23456791e-002, 0.,
          0., 0., 1.23456791e-002, 0., 0., 0., 0., 0., 0., 0., 0., 0.,
          0., 0., 0., 1.23456791e-002, 0., 0., 0., 0., 0., 0., 0., 0.,
          0., 1.23456791e-002, 0., 0., 0., 0., 0., 0., 0., 0., 0., 0.,
          1.23456791e-002, 0., 0., 0., 0., 0., 0., 0., 1.23456791e-002,
          0., 0., 0., 0., 0., 0., 0., 0., 0., 0., 0., 0., 0., 0., 0., 0.,
          0., 0., 1.23456791e-002, 0., 0., 0., 0., 0., 0., 0., 0., 0.,
          0., 0., 0., 0., 0., 0., 0., 0., 0., 0., 0., 0., 0., 0., 0., 0.,
          0., 0., 0., 0., 0., 0., 0., 0., 0., 0., 0., 0. ]
      - [ 0., 0., 0., 0., 0., 0., 0., 0., 0., 0., 0., 0., 0., 0., 0., 0.,
          0., 0., 0., 0., 0., 0., 0., 0., 0., 0., 0., 0., 0., 0., 0., 0.,
          0., 0., 0., 0., 0., 0., 0., 0., 0., 0., 3.33333351e-002, 0.,
          0., 0., 0., 0., 0., 0., 0., 0., 0., 0., 0., 0., 0., 0., 0., 0.,
          0., 0., 0., 0., 0., 0., 0., 0., 0., 0., 0., 0., 0., 0., 0., 0.,
          0., 0., 0., 0., 0., 0., 0., 0., 0., 0., 0., 0., 0., 0., 0., 0.,
          0., 0., 0., 0., 0., 0., 0., 0., 0., 0., 0., 0., 0., 0., 0., 0.,
          0., 0., 0., 0., 0., 0., 0., 0., 0., 0., 0., 0., 0., 0., 0., 0.,
          0., 0., 0., 0., 0., 0., 0., 0., 0., 0., 0., 0., 0.,
          3.33333351e-002, 0., 0., 0., 0., 0., 0., 0., 0., 0., 0., 0.,
          0., 0., 0., 0., 0., 0., 0., 0., 0., 0., 0., 0., 0., 0., 0., 0.,
          0., 0., 0., 0., 0., 0., 0., 0., 0., 0., 0., 0., 0., 0., 0., 0.,
          0., 0., 0., 0., 0., 0., 0., 0., 0., 0., 0., 0., 0., 0., 0., 0.,
          0., 0., 0., 0., 0., 0., 0., 0., 0., 0., 0., 0., 0., 0., 0., 0.,
          0., 0., 0., 0., 0., 0., 0., 0., 0., 0., 0., 0., 0., 0., 0., 0.,
          0., 0., 0., 0., 0., 0., 0., 0., 0., 0., 0., 0., 0., 0., 0., 0.,
          0., 0., 0., 0., 3.33333351e-002, 0., 0., 0., 0., 0., 0., 0.,
          0., 0., 0., 0., 0., 0., 0., 0., 0., 0., 0., 0., 0., 0., 0., 0.,
          0., 0., 0., 0., 0., 0., 0., 0., 0., 0., 0., 0., 0., 0., 0., 0.,
          0., 0., 0., 0., 0., 0., 0., 0., 0., 0., 0., 0., 0., 0., 0., 0.,
          0., 3.33333351e-002, 0., 0., 0., 0., 0., 0., 0., 0., 0., 0.,
          0., 0., 0., 0., 0., 0., 0., 0., 0., 3.33333351e-002, 0., 0.,
          0., 0., 0., 0., 0., 0., 0., 0., 0., 0., 0., 0., 0., 0., 0., 0.,
          0., 0., 0., 0., 0., 0., 0., 0., 0., 0., 0., 0., 0., 0.,
          3.33333351e-002, 0., 0., 0., 0., 0., 0., 0., 0., 0., 0., 0.,
          0., 0., 0., 0., 0., 0., 0., 0., 0., 0., 0., 0., 0., 0., 0., 0.,
          0., 0., 0., 0., 0., 0., 0., 0., 0., 0., 0., 0., 0.,
          3.33333351e-002, 0., 0., 0., 0., 0., 0., 0., 3.33333351e-002,
          0., 0., 0., 0., 0., 0., 0., 0., 3.33333351e-002, 0., 0., 0.,
          0., 0., 0., 0., 0., 0., 0., 0., 0., 0., 0., 0., 0., 0., 0., 0.,
          0., 0., 0., 0., 0., 0., 0., 0., 0., 0., 0., 0., 0., 0., 0., 0.,
          0., 0., 0., 0., 0., 0., 0., 0., 0., 0., 0., 0., 0., 0., 0., 0.,
          0., 0., 0., 0., 0., 0., 0., 0., 0., 0., 0., 0., 0., 0., 0., 0.,
          0., 0., 0., 0., 0., 0., 0., 0., 0., 0., 0., 0., 0., 0., 0., 0.,
          0., 0., 0., 0., 0., 0., 0., 0., 0., 0., 0., 0., 0., 0., 0., 0.,
          0., 0., 0., 0., 0., 0., 0., 0., 0., 0., 0., 0., 0., 0., 0., 0.,
          0., 0., 0., 3.33333351e-002, 0., 0., 0., 0., 0., 0., 0., 0.,
          0., 0., 0., 0., 0., 0., 0., 0., 0., 0., 0., 0., 0., 0., 0., 0.,
          0., 0., 0., 0., 0., 0., 0., 0., 0., 0., 0., 0., 0., 0., 0., 0.,
          0., 0., 0., 0., 0., 0., 0., 0., 0., 0., 0., 0., 0., 0., 0., 0.,
          0., 0., 0., 0., 0., 0., 0., 0., 0., 0., 0., 0., 0., 0., 0., 0.,
          0., 0., 0., 0., 0., 0., 0., 0., 0., 0., 0., 0., 0., 0., 0., 0.,
          0., 0., 0., 0., 0., 0., 0., 0., 0., 0., 0., 0., 0., 0., 0., 0.,
          0., 0., 0., 0., 0., 0., 0., 0., 0., 0., 0., 0., 0., 0., 0.,
          3.33333351e-002, 0., 0., 0., 0., 0., 0., 0., 0., 0., 0., 0.,
          0., 0., 0., 0., 0., 0., 0., 0., 0., 0., 0., 0., 0., 0., 0., 0.,
          0., 0., 0., 0., 0., 0., 0., 0., 3.33333351e-002, 0., 0., 0.,
          0., 0., 0., 0., 0., 0., 0., 0., 0., 0., 0., 0., 0., 0., 0., 0.,
          6.66666701e-002, 0., 0., 0., 0., 0., 0., 0., 0., 0., 0., 0.,
          0., 0., 0., 0., 0., 0., 0., 0., 0., 6.66666701e-002, 0., 0.,
          0., 0., 0., 0., 0., 0., 0., 0., 0., 0., 0., 0., 0., 0., 0., 0.,
          0., 0., 0., 0., 3.33333351e-002, 0., 0., 0., 0., 0., 0., 0.,
          0., 0., 0., 0., 0., 0., 0., 0., 0., 0., 0., 0., 0., 0., 0., 0.,
          0., 0., 0., 0., 0., 0., 0., 0., 0., 0., 0., 0., 0., 0., 0., 0.,
          0., 0., 0., 0., 0., 0., 1.00000009e-001, 0., 0., 0., 0., 0.,
          0., 0., 0., 0., 0., 0., 0., 0., 0., 0., 0., 0., 0., 0., 0., 0.,
          0., 0., 0., 0., 0., 0., 0., 0., 0., 0., 0., 0.,
          1.33333340e-001, 0., 0., 0., 0., 0., 0., 0., 0., 0., 0., 0.,
          0., 3.33333351e-002, 0., 0., 3.33333351e-002, 0., 0., 0., 0.,
          0., 0., 0., 0., 0., 0., 0., 0., 0., 0., 0., 0., 0., 0., 0., 0.,
          0., 0., 0., 0., 0., 0., 0., 0., 0., 0., 0., 0., 0., 0., 0., 0.,
          0., 0., 0., 0., 0., 0., 0., 0., 0., 0., 0., 0., 0., 0., 0., 0.,
          0., 0., 0., 0., 0., 0., 0., 3.33333351e-002, 0., 0., 0., 0.,
          0., 0., 0., 0., 0., 0., 0., 0., 0., 0., 0., 0., 0., 0., 0., 0.,
          0., 0., 0., 0., 0., 0., 0., 0., 0., 0., 0., 0., 0., 0., 0., 0.,
          0., 0., 0., 0., 0., 0., 0., 0., 0., 0., 0., 0., 0., 0., 0., 0.,
          0., 0., 0., 0., 0., 0., 6.66666701e-002, 0., 0., 0., 0., 0.,
          0., 0., 0., 0., 0., 0., 3.33333351e-002, 0., 0., 0., 0., 0.,
          0., 0., 0., 0., 0., 0., 0., 0., 0., 0., 0. ]
      - [ 0., 0., 0., 0., 0., 0., 8.69565178e-003, 0., 0., 0., 0., 0.,
          0., 0., 0., 0., 0., 0., 0., 0., 0., 8.69565178e-003, 0., 0.,
          0., 0., 0., 0., 0., 0., 0., 0., 0., 0., 0., 0., 0., 0., 0., 0.,
          0., 0., 0., 0., 0., 0., 0., 0., 0., 0., 0., 0., 0., 0., 0., 0.,
          0., 0., 0., 0., 0., 0., 0., 0., 0., 0., 0., 0.,
          8.69565178e-003, 0., 0., 8.69565178e-003, 0., 1.73913036e-002,
          0., 8.69565178e-003, 0., 0., 0., 0., 0., 0., 0.,
          8.69565178e-003, 0., 0., 0., 0., 0., 8.69565178e-003, 0., 0.,
          0., 0., 0., 0., 0., 0., 0., 0., 0., 0., 0., 0., 0., 0., 0., 0.,
          0., 0., 0., 8.69565178e-003, 0., 0., 0., 0., 0., 0., 0., 0.,
          0., 0., 0., 0., 0., 0., 0., 0., 0., 0., 0., 0., 0., 0., 0., 0.,
          8.69565178e-003, 0., 0., 0., 0., 0., 0., 0., 0., 0., 0., 0.,
          0., 8.69565178e-003, 0., 0., 0., 8.69565178e-003, 0., 0., 0.,
          0., 0., 0., 0., 0., 0., 0., 0., 0., 0., 0., 0., 0., 0., 0., 0.,
          0., 0., 0., 0., 0., 0., 0., 8.69565178e-003, 0., 0., 0., 0.,
          8.69565178e-003, 0., 0., 0., 0., 0., 0., 0., 0., 0.,
          8.69565178e-003, 0., 0., 0., 0., 0., 0., 8.69565178e-003, 0.,
          8.69565178e-003, 0., 0., 0., 8.69565178e-003, 0., 0., 0., 0.,
          0., 0., 0., 0., 0., 0., 0., 0., 0., 8.69565178e-003, 0., 0.,
          0., 0., 0., 0., 0., 0., 8.69565178e-003, 0., 0., 0., 0., 0.,
          0., 0., 0., 0., 0., 0., 0., 0., 0., 0., 0., 0., 0., 0., 0., 0.,
          0., 0., 0., 0., 0., 0., 0., 0., 0., 0., 0., 8.69565178e-003,
          0., 0., 0., 0., 0., 0., 0., 0., 0., 0., 0., 0.,
          8.69565178e-003, 0., 0., 0., 0., 0., 0., 0., 0., 0., 0., 0.,
          0., 0., 0., 0., 0., 0., 0., 0., 0., 0., 0., 8.69565178e-003,
          0., 0., 0., 0., 0., 0., 0., 0., 0., 0., 0., 0., 0., 0., 0., 0.,
          0., 8.69565178e-003, 0., 0., 0., 0., 0., 0., 0., 0., 0., 0.,
          0., 0., 0., 0., 0., 8.69565178e-003, 0., 0., 0., 0., 0., 0.,
          0., 0., 0., 0., 0., 0., 0., 0., 0., 0., 0., 0.,
          8.69565178e-003, 8.69565178e-003, 0., 0., 0., 0.,
          1.73913036e-002, 0., 0., 0., 0., 0., 0., 0., 0., 0., 0.,
          8.69565178e-003, 0., 0., 0., 0., 0., 0., 0., 0., 0., 0., 0.,
          0., 0., 0., 0., 0., 0., 0., 0., 0., 5.21739125e-002, 0., 0.,
          0., 0., 0., 0., 0., 0., 0., 0., 0., 0., 0., 0., 0., 0., 0., 0.,
          0., 8.69565178e-003, 0., 0., 0., 0., 0., 0., 0., 0.,
          8.69565178e-003, 0., 0., 1.73913036e-002, 0., 0., 0., 0., 0.,
          0., 0., 0., 0., 8.69565178e-003, 0., 0., 0., 0., 0., 0., 0.,
          0., 0., 0., 0., 0., 0., 0., 0., 0., 0., 0., 8.69565178e-003,
          0., 0., 0., 0., 0., 0., 0., 0., 0., 0., 0., 0., 0., 0., 0., 0.,
          0., 0., 0., 8.69565178e-003, 0., 0., 0., 0., 0., 0., 0., 0.,
          0., 0., 0., 8.69565178e-003, 8.69565178e-003, 0., 0., 0., 0.,
          1.73913036e-002, 0., 0., 0., 8.69565178e-003, 0., 0.,
          8.69565178e-003, 0., 0., 0., 0., 0., 0., 0., 0., 0., 0., 0.,
          0., 8.69565178e-003, 0., 0., 0., 0., 0., 0., 0., 0., 0., 0.,
          0., 0., 8.69565178e-003, 0., 0., 8.69565178e-003, 0., 0., 0.,
          0., 0., 0., 0., 0., 0., 0., 0., 0., 0., 0., 0.,
          8.69565178e-003, 0., 0., 0., 0., 0., 0., 0., 0., 0., 0., 0.,
          0., 0., 0., 0., 0., 0., 0., 0., 0., 8.69565178e-003,
          8.69565178e-003, 0., 0., 0., 0., 0., 8.69565178e-003, 0., 0.,
          0., 0., 1.73913036e-002, 0., 0., 0., 0., 0., 0.,
          8.69565178e-003, 0., 0., 0., 0., 0., 3.47826071e-002, 0.,
          8.69565178e-003, 0., 0., 0., 0., 0., 0., 0., 8.69565178e-003,
          0., 0., 0., 0., 0., 0., 0., 0., 0., 0., 0., 0., 0., 0., 0., 0.,
          0., 0., 0., 0., 0., 8.69565178e-003, 0., 0., 0., 0., 0., 0.,
          0., 0., 0., 0., 0., 8.69565178e-003, 0., 0., 8.69565178e-003,
          8.69565178e-003, 8.69565178e-003, 0., 0., 0., 0., 0., 0., 0.,
          0., 0., 0., 0., 0., 0., 0., 0., 0., 0., 0., 0., 0., 0., 0., 0.,
          0., 0., 0., 0., 0., 0., 0., 0., 0., 0., 0., 0., 0., 0., 0., 0.,
          0., 0., 0., 0., 0., 0., 0., 0., 0., 0., 0., 0., 0., 0., 0., 0.,
          0., 0., 0., 0., 0., 8.69565178e-003, 0., 8.69565178e-003, 0.,
          0., 0., 0., 0., 0., 0., 8.69565178e-003, 0., 0., 0., 0., 0.,
          1.73913036e-002, 0., 0., 0., 8.69565178e-003, 0., 0., 0., 0.,
          0., 0., 0., 0., 0., 0., 0., 0., 0., 0., 0., 0., 0.,
          8.69565178e-003, 0., 1.73913036e-002, 0., 0., 0., 0., 0.,
          8.69565178e-003, 0., 0., 0., 0., 0., 8.69565178e-003, 0., 0.,
          0., 0., 0., 0., 0., 8.69565178e-003, 0., 0., 0., 0.,
          8.69565178e-003, 0., 0., 0., 0., 0., 8.69565178e-003, 0., 0.,
          8.69565178e-003, 0., 0., 0., 0., 0., 8.69565178e-003, 0., 0.,
          0., 0., 0., 0., 0., 8.69565178e-003, 0., 0., 0., 0., 0., 0.,
          0., 0., 0., 0., 0., 0., 0., 0., 0., 0., 0., 0., 0., 0., 0., 0.,
          0., 0., 1.73913036e-002, 0., 0., 0., 0., 0., 0., 0., 0., 0.,
          0., 0., 0., 0., 0., 0., 0., 0., 0., 0., 0., 0., 0., 0., 0., 0.,
          0., 0., 0., 0., 8.69565178e-003, 0., 2.60869563e-002, 0., 0.,
          0., 0., 0., 8.69565178e-003, 0., 0., 8.69565178e-003, 0., 0.,
          0., 0., 0., 0., 8.69565178e-003, 0., 0., 0., 0., 0.,
          8.69565178e-003, 0., 0., 0., 0., 0., 0., 0., 0., 0., 0., 0.,
          0., 0., 0., 0., 8.69565178e-003, 0., 8.69565178e-003,
          8.69565178e-003, 0., 0., 0., 0., 0., 8.69565178e-003, 0., 0.,
          0., 0., 0., 0., 0., 0., 0., 0., 0., 0., 0., 0., 0., 0., 0., 0.,
          0., 0., 0., 0., 0., 0., 0., 0., 0., 0., 0., 8.69565178e-003,
          8.69565178e-003, 0., 0., 0., 0., 0., 0., 0., 8.69565178e-003,
          0., 0., 0., 0., 0., 0., 0., 0., 0., 0., 0., 0., 0., 0., 0., 0.,
          0., 0., 0., 0., 0., 0., 0., 0., 8.69565178e-003, 0., 0., 0.,
          0., 0., 0., 0., 0., 0., 0., 8.69565178e-003, 0., 0., 0., 0.,
          0., 0., 0., 0., 0., 0., 0., 8.69565178e-003, 0., 0., 0., 0.,
          0., 0., 0., 0., 0., 0., 0., 0., 0., 0., 0., 0., 0., 0., 0.,
          6.08695634e-002, 0., 0. ]
      - [ 0., 0., 0., 0., 0., 0., 0., 0., 0., 0., 0., 0.,
          1.85185187e-002, 0., 0., 1.85185187e-002, 0., 0., 0., 0., 0.,
          0., 0., 0., 0., 0., 0., 0., 0., 0., 0., 0., 0., 0., 0., 0., 0.,
          0., 0., 0., 0., 0., 0., 0., 0., 0., 0., 0., 0., 0., 0., 0.,
          1.85185187e-002, 0., 0., 0., 0., 0., 0., 0., 0., 0., 0.,
          1.85185187e-002, 0., 0., 0., 0., 0., 0., 0., 0., 0., 0., 0.,
          0., 0., 0., 0., 0., 0., 0., 0., 0., 0., 0., 0., 0., 0., 0., 0.,
          0., 0., 1.85185187e-002, 0., 0., 0., 0., 0., 0., 0., 0., 0.,
          0., 0., 1.85185187e-002, 0., 0., 0., 0., 0., 0., 0., 0., 0.,
          0., 0., 1.85185187e-002, 0., 0., 0., 0., 0., 0., 0., 0., 0.,
          0., 0., 0., 0., 0., 0., 0., 0., 0., 0., 0., 0., 0., 0., 0., 0.,
          0., 0., 0., 0., 0., 0., 0., 0., 0., 0., 0., 0., 0., 0., 0., 0.,
          0., 0., 0., 0., 1.85185187e-002, 0., 0., 0., 0., 0.,
          1.85185187e-002, 0., 0., 0., 0., 0., 0., 0., 1.85185187e-002,
          0., 0., 0., 0., 0., 0., 0., 0., 0., 0., 0., 0., 0., 0., 0., 0.,
          0., 0., 1.85185187e-002, 0., 0., 0., 0., 0., 0., 0., 0.,
          3.70370373e-002, 0., 0., 0., 0., 0., 0., 0., 0., 0., 0., 0.,
          0., 0., 0., 0., 0., 0., 0., 0., 0., 0., 0., 0., 0., 0., 0., 0.,
          0., 0., 0., 0., 0., 0., 0., 0., 0., 0., 0., 0., 0., 0., 0., 0.,
          0., 0., 0., 0., 0., 0., 0., 0., 0., 0., 0., 0., 0., 0., 0., 0.,
          0., 1.85185187e-002, 0., 0., 0., 0., 0., 0., 1.85185187e-002,
          0., 0., 0., 0., 0., 0., 0., 0., 0., 0., 0., 1.85185187e-002,
          0., 0., 0., 0., 0., 0., 0., 0., 0., 0., 0., 0., 0., 0., 0., 0.,
          1.85185187e-002, 0., 0., 0., 0., 0., 0., 0., 1.85185187e-002,
          0., 0., 0., 0., 0., 0., 0., 3.70370373e-002, 0., 0., 0., 0.,
          0., 0., 0., 0., 0., 1.85185187e-002, 0., 0., 0., 0., 0., 0.,
          1.85185187e-002, 0., 0., 0., 0., 0., 0., 0., 1.85185187e-002,
          0., 0., 0., 0., 0., 0., 0., 0., 0., 0., 0., 0., 0., 0., 0., 0.,
          0., 0., 0., 0., 0., 0., 0., 0., 0., 0., 0., 0., 0., 0., 0.,
          3.70370373e-002, 0., 0., 0., 0., 0., 0., 0., 0., 0., 0., 0.,
          0., 0., 0., 0., 0., 0., 0., 0., 0., 0., 0., 0., 0., 0., 0.,
          1.85185187e-002, 0., 0., 0., 0., 0., 0., 0., 0., 0., 0., 0.,
          0., 0., 0., 0., 0., 0., 0., 1.85185187e-002, 0., 0., 0., 0.,
          0., 0., 0., 0., 1.85185187e-002, 0., 0., 0., 0., 0., 0., 0.,
          0., 0., 1.85185187e-002, 0., 0., 1.85185187e-002, 0., 0., 0.,
          0., 0., 0., 0., 0., 0., 1.85185187e-002, 0., 0., 0., 0., 0.,
          0., 0., 0., 0., 1.85185187e-002, 1.85185187e-002, 0., 0., 0.,
          0., 0., 0., 0., 0., 0., 0., 0., 0., 0., 0., 1.85185187e-002,
          0., 0., 0., 0., 0., 0., 0., 0., 0., 0., 0., 0., 0.,
          1.85185187e-002, 0., 0., 0., 0., 0., 0., 0., 0., 0., 0., 0.,
          0., 0., 0., 1.85185187e-002, 0., 0., 0., 0., 0., 0., 0., 0.,
          0., 0., 0., 0., 0., 0., 1.85185187e-002, 0., 0., 0., 0., 0.,
          0., 0., 0., 0., 0., 0., 0., 0., 0., 0., 0., 0., 0., 0., 0., 0.,
          0., 0., 0., 0., 0., 1.85185187e-002, 0., 0., 0., 0., 0., 0.,
          0., 0., 0., 0., 0., 0., 0., 0., 0., 0., 0., 0., 0., 0., 0., 0.,
          0., 0., 0., 0., 0., 0., 0., 0., 0., 0., 0., 0., 0., 0., 0.,
          3.70370373e-002, 0., 0., 0., 0., 0., 0., 0., 0., 0., 0., 0.,
          0., 0., 0., 0., 0., 0., 0., 0., 0., 0., 0., 0., 0., 0., 0., 0.,
          0., 0., 0., 0., 1.85185187e-002, 0., 0., 0., 0., 0., 0., 0.,
          0., 0., 0., 0., 1.85185187e-002, 0., 0., 0., 0., 0., 0., 0.,
          0., 0., 0., 0., 0., 0., 0., 0., 0., 0., 0., 0., 0., 0., 0., 0.,
          0., 0., 0., 0., 0., 0., 0., 0., 0., 0., 0., 0., 0., 0., 0., 0.,
          0., 0., 0., 0., 0., 0., 0., 0., 0., 0., 0., 0., 0., 0., 0., 0.,
          0., 0., 0., 0., 0., 0., 0., 0., 0., 0., 0., 0., 0., 0.,
          3.70370373e-002, 0., 0., 0., 0., 0., 0., 0., 0., 0., 0., 0.,
          0., 0., 0., 0., 0., 0., 0., 0., 0., 0., 0., 0., 0., 0., 0., 0.,
          0., 0., 0., 0., 0., 0., 0., 0., 0., 0., 0., 0., 0., 0., 0., 0.,
          0., 0., 0., 0., 1.85185187e-002, 0., 0., 0., 0., 0., 0., 0.,
          0., 0., 0., 0., 0., 0., 0., 0., 0., 0., 0., 0., 0., 0., 0., 0.,
          0., 0., 0., 0., 5.55555560e-002, 0., 0., 0., 0., 0., 0., 0.,
          0., 0., 0., 0., 0., 0., 0., 0., 0., 0., 0., 0., 0., 0., 0., 0.,
          0., 0., 0., 0., 0., 0., 0., 0., 0., 0., 0., 0., 0., 0., 0., 0.,
          0., 0., 0., 0., 0., 0., 0., 0., 0., 0., 0., 0., 0., 0., 0., 0.,
          0., 0., 0., 0., 0., 0., 0., 0., 0., 0., 0., 0., 0., 0., 0., 0.,
          0., 0., 0., 0., 0., 0., 0., 0., 0., 0., 0., 0., 0., 0., 0., 0.,
          0., 0., 0., 0., 0., 0., 0., 1.85185187e-002, 0., 0., 0., 0.,
          0., 0., 0., 0., 0., 0., 0., 0., 0., 0., 0., 0., 0., 0., 0., 0.,
          0., 0., 0., 0., 0., 0., 0., 0., 0., 0., 0., 1.85185187e-002,
          0., 0., 0., 0., 0., 0., 0., 0., 0., 0., 1.85185187e-002, 0.,
          0., 0., 0., 0., 0., 0., 0., 0., 0., 0., 0., 0., 0., 0., 0., 0.,
          0., 0., 0., 0., 0., 0., 0., 0., 0., 0., 0., 0., 0., 0., 0., 0.,
          0., 0., 0., 0., 0., 0., 0., 0., 0., 0., 0., 0., 0., 0., 0., 0.,
          0., 0., 0., 0., 0., 0., 0., 0., 1.85185187e-002, 0., 0., 0.,
          0., 1.85185187e-002, 0., 0., 0., 0., 0., 0., 0., 0., 0., 0.,
          0., 0., 0., 0., 1.85185187e-002, 0., 0., 0., 0., 0. ]
      - [ 0., 0., 0., 0., 0., 0., 0., 0., 0., 0., 0., 0., 0., 0., 0., 0.,
          0., 0., 0., 0., 0., 0., 0., 0., 0., 0., 0., 0., 0., 0., 0., 0.,
          0., 0., 0., 0., 0., 0., 0., 0., 0., 0., 0., 0., 0., 0., 0., 0.,
          0., 0., 2.17391308e-002, 0., 0., 0., 0., 0., 8.69565234e-002,
          0., 0., 0., 0., 0., 0., 0., 0., 0., 0., 0., 0., 0., 0., 0., 0.,
          0., 0., 0., 0., 0., 0., 0., 0., 0., 0., 0., 0., 0., 0., 0., 0.,
          0., 0., 0., 2.17391308e-002, 0., 0., 0., 0., 0., 0., 0., 0.,
          0., 0., 0., 0., 0., 0., 0., 0., 0., 0., 0., 0., 0., 0., 0., 0.,
          0., 0., 0., 0., 0., 0., 0., 4.34782617e-002, 0., 0., 0., 0.,
          0., 0., 0., 0., 0., 0., 0., 0., 0., 0., 0., 0., 0., 0., 0., 0.,
          0., 0., 0., 0., 0., 0., 0., 0., 0., 0., 0., 0., 0., 0., 0., 0.,
          0., 0., 0., 0., 0., 0., 0., 0., 0., 0., 0., 0., 0., 0.,
          2.17391308e-002, 0., 0., 0., 2.17391308e-002, 0., 0., 0., 0.,
          0., 0., 0., 0., 0., 0., 0., 0., 0., 0., 0., 0., 0., 0., 0., 0.,
          0., 0., 0., 0., 0., 0., 0., 0., 0., 0., 0., 0., 0., 0., 0., 0.,
          0., 0., 0., 0., 0., 0., 0., 0., 0., 0., 0., 0., 0., 0., 0., 0.,
          0., 2.17391308e-002, 0., 0., 0., 0., 0., 0., 0., 0., 0., 0.,
          4.34782617e-002, 0., 2.17391308e-002, 0., 0., 0., 0., 0., 0.,
          0., 0., 0., 0., 0., 2.17391308e-002, 0., 0., 0., 0., 0., 0.,
          0., 0., 0., 0., 0., 0., 0., 0., 0., 0., 0., 0., 0., 0., 0., 0.,
          0., 0., 0., 0., 0., 0., 0., 0., 0., 0., 0., 0., 0., 0., 0., 0.,
          0., 0., 0., 0., 0., 0., 0., 0., 0., 0., 2.17391308e-002, 0.,
          0., 0., 0., 0., 0., 0., 0., 0., 0., 0., 0., 0., 0., 0., 0., 0.,
          0., 4.34782617e-002, 0., 0., 0., 0., 0., 0., 0., 0., 0., 0.,
          0., 0., 0., 0., 0., 0., 0., 2.17391308e-002, 0., 0., 0., 0.,
          0., 0., 0., 0., 0., 0., 0., 0., 0., 0., 0., 0., 0., 0., 0., 0.,
          0., 0., 0., 2.17391308e-002, 0., 0., 0., 0., 0., 0., 0., 0.,
          2.17391308e-002, 0., 0., 0., 0., 0., 0., 0., 0., 0., 0., 0.,
          0., 0., 0., 0., 0., 0., 0., 0., 0., 0., 0., 0., 0., 0., 0., 0.,
          0., 0., 0., 0., 0., 0., 0., 0., 0., 0., 0., 0., 0., 0., 0., 0.,
          0., 0., 0., 0., 0., 0., 0., 0., 0., 0., 0., 0., 0., 0., 0., 0.,
          0., 0., 0., 0., 2.17391308e-002, 0., 0., 0., 0., 0., 0., 0.,
          0., 0., 0., 0., 0., 0., 0., 0., 0., 0., 0., 0., 0., 0., 0., 0.,
          0., 0., 0., 0., 0., 0., 2.17391308e-002, 0., 0., 0., 0., 0.,
          0., 0., 0., 0., 0., 2.17391308e-002, 0., 0., 0., 0., 0., 0.,
          0., 0., 0., 0., 0., 0., 0., 0., 0., 0., 0., 0., 0., 0., 0., 0.,
          0., 0., 0., 0., 0., 4.34782617e-002, 0., 0., 0., 0., 0., 0.,
          0., 0., 0., 0., 0., 0., 0., 2.17391308e-002, 0., 0., 0., 0.,
          0., 0., 0., 0., 0., 0., 0., 0., 0., 0., 0., 0., 0., 0., 0., 0.,
          0., 0., 0., 0., 0., 0., 0., 0., 0., 0., 0., 0., 0., 0., 0., 0.,
          0., 0., 0., 4.34782617e-002, 0., 0., 0., 0., 0., 0., 0., 0.,
          0., 0., 0., 0., 0., 0., 0., 0., 0., 0., 0., 0., 0., 0., 0., 0.,
          0., 0., 0., 0., 0., 0., 2.17391308e-002, 0., 0., 0., 0., 0.,
          0., 0., 0., 0., 0., 0., 0., 0., 0., 2.17391308e-002, 0., 0.,
          0., 0., 0., 0., 2.17391308e-002, 0., 0., 0., 0., 0., 0., 0.,
          0., 0., 0., 0., 0., 0., 0., 0., 0., 0., 0., 0., 0., 0., 0., 0.,
          0., 0., 0., 0., 0., 0., 0., 0., 0., 0., 0., 0., 0., 0., 0., 0.,
          0., 0., 0., 0., 0., 0., 0., 0., 0., 0., 0., 0., 0., 0., 0., 0.,
          2.17391308e-002, 0., 0., 0., 0., 0., 2.17391308e-002, 0., 0.,
          0., 0., 0., 0., 0., 0., 0., 0., 0., 0., 0., 0., 0., 0., 0., 0.,
          0., 0., 0., 0., 4.34782617e-002, 0., 0., 0., 0., 0., 0., 0.,
          0., 0., 0., 0., 0., 0., 0., 0., 0., 0., 0., 0., 0., 0., 0., 0.,
          0., 0., 0., 0., 0., 0., 0., 0., 0., 0., 0., 0., 0., 0., 0., 0.,
          0., 0., 0., 0., 0., 0., 0., 0., 0., 0., 0., 0., 0., 0., 0., 0.,
          0., 0., 0., 0., 0., 0., 0., 0., 0., 0., 0., 0., 0., 0., 0., 0.,
          0., 0., 0., 0., 0., 0., 0., 2.17391308e-002, 0., 0., 0., 0.,
          0., 0., 0., 0., 0., 0., 0., 0., 0., 0., 0., 0., 0., 0., 0., 0.,
          0., 0., 0., 0., 0., 0., 0., 0., 0., 0., 0., 0., 0., 0., 0., 0.,
          0., 0., 0., 0., 0., 0., 0., 0., 0., 0., 0., 0., 0., 0., 0., 0.,
          0., 0., 0., 0., 0., 0., 0., 0., 0., 0., 0., 2.17391308e-002,
          0., 0., 0., 0., 0., 0., 0., 0., 0., 0., 0., 0., 0., 0., 0., 0.,
          0., 0., 0., 0., 4.34782617e-002, 0., 0., 0., 0., 0., 0., 0.,
          2.17391308e-002, 0., 0., 0., 0., 0., 0., 0., 0., 0., 0., 0.,
          0., 0., 0., 0., 0., 0., 0., 0., 0., 0., 0., 0., 0., 0.,
          2.17391308e-002, 0., 0., 0., 0., 0., 0., 0., 0., 0., 0., 0.,
          2.17391308e-002, 0., 0., 0., 0., 0., 0., 0., 0.,
          2.17391308e-002, 0., 0., 0., 0., 0., 0., 0., 0., 0., 0., 0.,
          0., 0., 0., 0., 0., 2.17391308e-002, 0., 0., 0., 0., 0., 0.,
          0., 0., 0., 0., 0., 0., 0., 0., 0., 0., 0., 2.17391308e-002,
          0., 0., 0., 0., 0., 0., 0., 0., 0., 0., 0., 0., 0., 0., 0., 0.,
          0., 0., 0., 0., 0., 0., 0., 0., 0., 0., 0., 0., 0., 0., 0., 0.,
          0., 0., 0., 0., 0., 0., 0., 0., 0., 0., 0. ]
      - [ 0., 0., 2.24719103e-003, 2.24719103e-003, 2.24719103e-003, 0.,
          0., 0., 0., 2.24719103e-003, 0., 0., 0., 0., 0., 0., 0., 0.,
          6.74157310e-003, 0., 0., 0., 0., 2.24719103e-003,
          2.24719103e-003, 0., 0., 0., 0., 0., 0., 0., 0., 0., 0., 0.,
          0., 0., 2.24719103e-003, 0., 0., 2.24719103e-003,
          2.24719103e-003, 0., 0., 0., 0., 0., 4.49438207e-003, 0., 0.,
          0., 0., 0., 0., 0., 2.24719103e-003, 4.49438207e-003, 0., 0.,
          0., 2.24719103e-003, 6.74157310e-003, 0., 0., 0., 0., 0.,
          2.24719103e-003, 0., 0., 0., 0., 0., 2.24719103e-003, 0., 0.,
          2.24719103e-003, 4.49438207e-003, 0., 0., 2.24719103e-003, 0.,
          0., 0., 0., 0., 0., 0., 0., 0., 0., 0., 0., 0.,
          4.49438207e-003, 0., 4.49438207e-003, 0., 2.24719103e-003, 0.,
          0., 4.49438207e-003, 0., 0., 2.24719103e-003, 0., 0., 0., 0.,
          0., 2.24719103e-003, 0., 0., 0., 0., 2.24719103e-003,
          2.24719103e-003, 0., 0., 0., 0., 0., 0., 0., 0.,
          2.24719103e-003, 0., 0., 0., 0., 0., 0., 0., 0., 0.,
          4.49438207e-003, 0., 0., 0., 0., 1.57303363e-002,
          4.49438207e-003, 0., 0., 0., 0., 0., 0., 0., 0., 0., 0., 0.,
          0., 4.49438207e-003, 0., 0., 4.49438207e-003, 0., 0., 0., 0.,
          0., 0., 0., 0., 4.49438207e-003, 0., 0., 0., 0.,
          4.49438207e-003, 4.49438207e-003, 0., 0., 2.24719103e-003, 0.,
          2.24719103e-003, 0., 0., 0., 0., 0., 3.14606726e-002, 0., 0.,
          0., 1.34831462e-002, 8.98876414e-003, 0., 2.24719103e-003,
          2.24719103e-003, 0., 2.24719103e-003, 2.24719103e-003, 0.,
          6.74157310e-003, 0., 0., 0., 8.98876414e-003, 0., 0., 0., 0.,
          0., 0., 0., 0., 0., 0., 2.24719103e-003, 2.24719103e-003, 0.,
          4.49438207e-003, 0., 0., 6.74157310e-003, 2.24719103e-003, 0.,
          3.37078646e-002, 0., 0., 0., 0., 0., 2.24719103e-003, 0.,
          2.24719103e-003, 0., 0., 0., 0., 4.49438207e-003,
          2.24719103e-003, 0., 0., 0., 0., 2.24719103e-003, 0., 0., 0.,
          3.14606726e-002, 0., 2.24719103e-003, 0., 2.24719103e-003, 0.,
          2.24719103e-003, 0., 0., 2.24719103e-003, 2.24719103e-003, 0.,
          0., 0., 0., 0., 0., 2.24719103e-003, 0., 2.24719103e-003, 0.,
          4.49438207e-003, 0., 2.24719103e-003, 2.24719103e-003, 0., 0.,
          0., 2.24719103e-003, 0., 2.24719103e-003, 0., 0., 0.,
          2.24719103e-003, 0., 4.49438207e-003, 0., 0., 2.24719103e-003,
          2.24719103e-003, 0., 0., 1.12359552e-002, 0., 0., 0., 0., 0.,
          0., 0., 0., 0., 0., 0., 0., 1.79775283e-002, 0., 0., 0.,
          2.24719103e-003, 0., 0., 0., 0., 0., 0., 0., 0.,
          2.24719103e-003, 2.24719103e-003, 0., 2.24719103e-003, 0.,
          2.24719103e-003, 0., 0., 0., 0., 0., 0., 2.24719103e-003,
          6.74157310e-003, 0., 4.49438207e-003, 0., 0., 0., 0., 0., 0.,
          4.49438207e-003, 0., 4.49438207e-003, 0., 0., 0.,
          8.98876414e-003, 0., 0., 0., 2.24719103e-003, 0., 0., 0.,
          1.12359552e-002, 0., 0., 0., 0., 0., 0., 0., 0., 0.,
          4.49438207e-003, 0., 2.24719103e-003, 0., 0., 0., 0., 0., 0.,
          0., 0., 0., 0., 0., 2.24719103e-003, 0., 0., 0.,
          2.24719103e-003, 0., 0., 0., 0., 0., 0., 2.24719103e-003, 0.,
          0., 0., 0., 0., 0., 0., 0., 0., 0., 2.24719103e-003, 0., 0.,
          2.24719103e-003, 0., 0., 2.24719103e-003, 2.24719103e-003, 0.,
          0., 6.74157310e-003, 2.24719103e-003, 0., 0., 0., 0., 0., 0.,
          0., 2.24719103e-003, 0., 0., 0., 2.24719103e-003,
          2.24719103e-003, 0., 0., 0., 0., 2.24719103e-003, 0., 0.,
          8.98876414e-003, 2.24719103e-003, 0., 0., 0., 0., 0., 0., 0.,
          0., 0., 0., 0., 0., 0., 0., 0., 0., 0., 0., 0., 0.,
          2.24719103e-003, 0., 0., 0., 4.49438207e-003, 0., 0., 0., 0.,
          0., 1.12359552e-002, 0., 0., 0., 8.98876414e-003, 0., 0., 0.,
          4.49438207e-003, 0., 0., 1.12359552e-002, 2.24719103e-003, 0.,
          0., 2.24719103e-003, 8.98876414e-003, 0., 2.24719103e-003,
          4.49438207e-003, 0., 0., 0., 0., 0., 0., 2.24719103e-003, 0.,
          0., 0., 8.98876414e-003, 0., 0., 4.49438207e-003, 0.,
          4.49438207e-003, 0., 0., 2.24719103e-003, 0., 0., 0., 0., 0.,
          0., 0., 0., 2.24719103e-003, 0., 0., 0., 0., 2.24719103e-003,
          0., 2.24719103e-003, 0., 0., 0., 0., 0., 0., 0.,
          2.24719103e-003, 2.24719103e-003, 0., 1.12359552e-002, 0., 0.,
          0., 0., 4.49438207e-003, 0., 2.24719103e-003, 0., 0., 0., 0.,
          0., 0., 2.24719103e-003, 0., 0., 0., 2.24719103e-003,
          2.24719103e-003, 2.24719103e-003, 0., 0., 0., 0., 0., 0., 0.,
          0., 0., 0., 0., 4.49438207e-003, 0., 0., 0., 0., 0., 0., 0.,
          0., 0., 0., 0., 0., 0., 0., 0., 2.24719103e-003, 0., 0., 0.,
          2.24719103e-003, 0., 0., 0., 0., 0., 0., 0., 0., 0., 0., 0.,
          0., 0., 0., 0., 0., 0., 0., 8.98876414e-003, 0., 0.,
          1.79775283e-002, 4.49438207e-003, 0., 0., 0., 0., 0., 0., 0.,
          0., 0., 4.49438207e-003, 0., 0., 6.74157310e-003, 0., 0., 0.,
          0., 0., 0., 0., 0., 0., 2.24719103e-003, 4.49438207e-003, 0.,
          2.24719103e-003, 0., 0., 0., 0., 2.24719103e-003, 0.,
          2.24719103e-003, 0., 4.49438207e-003, 0., 0., 0., 0., 0., 0.,
          0., 2.24719103e-003, 0., 0., 0., 0., 0., 0., 0., 0.,
          2.24719103e-003, 2.24719103e-003, 0., 0., 0., 2.24719103e-003,
          0., 0., 0., 0., 8.98876414e-003, 0., 2.24719103e-003, 0., 0.,
          0., 0., 0., 0., 0., 0., 1.57303363e-002, 0., 0., 0.,
          2.24719103e-003, 2.24719103e-003, 0., 0., 2.24719103e-003, 0.,
          0., 0., 0., 0., 0., 0., 0., 0., 0., 0., 0., 0., 0., 0., 0.,
          6.74157310e-003, 0., 0., 4.49438207e-003, 0., 0., 0., 0.,
          4.49438207e-003, 0., 0., 0., 0., 0., 0., 0., 0., 0.,
          2.24719103e-003, 0., 6.74157310e-003, 0., 0., 0., 0.,
          2.24719103e-003, 6.74157310e-003, 0., 0., 0., 0., 0., 0.,
          2.24719103e-003, 4.49438207e-003, 2.24719103e-003,
          1.12359552e-002, 0., 0., 0., 0., 0., 0., 0., 0., 0., 0., 0.,
          0., 4.49438207e-003, 0., 0., 0., 0., 0., 0., 2.24719103e-003,
          0., 2.24719103e-003, 6.74157310e-003, 0., 5.16853929e-002, 0.,
          0., 0., 0., 0., 0., 0., 6.74157310e-003, 0., 2.24719103e-003,
          0., 0., 0., 0., 0., 0., 2.24719103e-003, 0., 0., 0., 0., 0.,
          2.24719103e-003, 0., 2.24719103e-003, 0., 0., 0., 0., 0., 0.,
          0., 0., 2.24719103e-003, 0., 0., 0., 0., 0., 0., 0., 0., 0.,
          0., 0., 0., 0., 0., 0., 2.24719103e-003, 2.24719103e-003, 0.,
          0., 0., 0., 0., 0., 0., 2.24719103e-003, 0., 2.24719103e-003,
          0., 0., 0., 0., 0., 0., 0., 0., 0., 0., 0., 0., 0., 0., 0.,
          2.24719103e-003, 0., 2.24719103e-003, 0., 2.24719103e-003, 0.,
          0., 6.74157310e-003, 0., 0., 0., 0., 2.24719103e-003, 0., 0.,
          0., 0., 0., 0., 0., 0., 0., 0., 0., 0., 2.24719103e-003, 0.,
          0., 0., 0., 2.24719103e-003, 0., 0., 0., 0., 0., 0., 0.,
          4.49438207e-003, 0., 0., 0., 2.24719103e-003, 0., 0., 0., 0.,
          0., 0., 0., 0., 0., 0., 0., 0., 2.24719103e-003, 0., 0., 0.,
          0., 8.98876414e-003, 0., 0., 0., 0., 4.49438207e-003, 0., 0.,
          0., 0., 0., 2.24719103e-003, 0., 0., 0., 0., 0., 0., 0., 0.,
          0., 0., 0., 0., 2.24719103e-003, 2.24719103e-003,
          2.24719103e-003, 0., 0., 0., 2.24719103e-003, 0., 0., 0., 0.,
          4.49438207e-003, 0., 2.24719103e-003, 0., 0., 0., 0.,
          2.24719103e-003, 0., 0., 0., 0., 2.24719103e-003, 0., 0., 0.,
          0., 2.24719103e-003, 2.24719103e-003, 0., 0., 0., 0., 0.,
          2.69662924e-002, 0., 0., 0., 0., 0., 2.24719103e-003, 0., 0.,
          2.24719103e-003, 0., 0., 2.24719103e-003, 0., 2.24719103e-003,
          0., 0., 0., 0., 0., 0., 0., 0., 0., 0., 0., 0., 0., 0., 0., 0.,
          0., 0., 2.24719103e-003, 0., 0., 0., 8.98876414e-003, 0., 0.,
          0., 0., 2.24719103e-003, 0., 4.49438207e-003, 0. ]
      - [ 0., 0., 0., 0., 0., 0., 0., 0., 0., 0., 0., 0., 0., 0., 0., 0.,
          2.32558139e-002, 0., 0., 2.32558139e-002, 0., 0., 0., 0., 0.,
          0., 0., 0., 0., 0., 0., 0., 0., 0., 0., 0., 0., 0., 0.,
          2.32558139e-002, 0., 0., 0., 0., 0., 0., 0., 0., 0., 0., 0.,
          0., 0., 0., 0., 0., 0., 0., 0., 0., 0., 0., 0., 0., 0., 0., 0.,
          0., 0., 0., 0., 0., 0., 0., 0., 0., 0., 0., 0., 0., 0., 0., 0.,
          0., 0., 0., 0., 2.32558139e-002, 0., 0., 0., 0., 0., 0., 0.,
          0., 0., 0., 0., 0., 0., 0., 0., 0., 0., 0., 0., 0., 0., 0., 0.,
          0., 0., 0., 0., 0., 0., 2.32558139e-002, 0., 0., 0., 0., 0.,
          0., 0., 0., 0., 0., 0., 2.32558139e-002, 0., 0.,
          2.32558139e-002, 0., 0., 0., 0., 0., 0., 0., 0., 0., 0., 0.,
          0., 0., 0., 0., 0., 0., 0., 0., 2.32558139e-002, 0., 0., 0.,
          0., 0., 0., 0., 0., 0., 0., 0., 0., 0., 0., 0., 0., 0., 0., 0.,
          0., 0., 0., 0., 0., 0., 0., 0., 0., 0., 0., 0., 0.,
          2.32558139e-002, 0., 0., 0., 0., 0., 0., 2.32558139e-002, 0.,
          2.32558139e-002, 0., 0., 2.32558139e-002, 0., 0., 0., 0., 0.,
          0., 0., 0., 0., 0., 0., 0., 0., 2.32558139e-002, 0., 0., 0.,
          0., 0., 0., 0., 0., 2.32558139e-002, 0., 0., 0., 0., 0., 0.,
          0., 0., 0., 0., 0., 0., 0., 0., 0., 0., 0., 0., 0., 0., 0., 0.,
          0., 0., 0., 0., 0., 0., 0., 0., 0., 0., 0., 0., 0., 0., 0., 0.,
          0., 0., 0., 0., 0., 0., 0., 0., 2.32558139e-002, 0., 0., 0.,
          0., 0., 2.32558139e-002, 0., 0., 0., 0., 0., 0.,
          2.32558139e-002, 0., 0., 0., 0., 0., 0., 0., 0., 0., 0., 0.,
          0., 0., 0., 2.32558139e-002, 0., 0., 0., 0., 0., 0., 0., 0.,
          0., 0., 0., 0., 0., 0., 0., 0., 0., 0., 2.32558139e-002, 0.,
          0., 0., 0., 0., 0., 0., 0., 0., 2.32558139e-002, 0., 0., 0.,
          0., 0., 0., 0., 0., 0., 0., 0., 0., 0., 0., 0., 0., 0., 0., 0.,
          0., 0., 0., 0., 0., 0., 0., 0., 0., 0., 0., 0., 0., 0., 0., 0.,
          0., 0., 0., 0., 0., 0., 0., 0., 0., 0., 0., 0., 0., 0., 0., 0.,
          0., 0., 0., 0., 0., 0., 0., 0., 0., 0., 0., 0., 0., 0., 0., 0.,
          0., 0., 0., 0., 0., 0., 0., 0., 0., 0., 0., 0., 0., 0., 0., 0.,
          0., 0., 0., 0., 0., 0., 0., 0., 0., 0., 0., 0., 0., 0., 0., 0.,
          0., 2.32558139e-002, 0., 0., 0., 0., 0., 0., 0., 0., 0., 0.,
          0., 0., 0., 0., 0., 0., 0., 0., 0., 0., 0., 0., 0., 0., 0., 0.,
          0., 0., 0., 0., 0., 0., 0., 0., 0., 0., 0., 0., 0., 0., 0., 0.,
          0., 0., 0., 0., 0., 0., 0., 0., 0., 0., 0., 0., 0., 0., 0., 0.,
          0., 0., 0., 0., 0., 0., 0., 2.32558139e-002, 0., 0., 0., 0.,
          0., 0., 0., 0., 0., 0., 0., 0., 0., 0., 0., 0., 0., 0., 0.,
          2.32558139e-002, 0., 0., 0., 0., 0., 0., 0., 0., 0., 0., 0.,
          0., 0., 0., 2.32558139e-002, 0., 0., 0., 0., 0., 0., 0., 0.,
          0., 0., 0., 0., 0., 0., 0., 0., 0., 0., 0., 0., 0., 0., 0., 0.,
          0., 0., 0., 0., 0., 0., 0., 0., 0., 0., 0., 0., 0., 0., 0., 0.,
          0., 0., 0., 0., 2.32558139e-002, 0., 0., 0., 0., 0., 0., 0.,
          0., 0., 0., 0., 0., 0., 0., 0., 2.32558139e-002, 0., 0., 0.,
          0., 0., 0., 0., 0., 0., 0., 0., 0., 0., 0., 0., 0., 0., 0., 0.,
          0., 0., 0., 0., 0., 0., 0., 0., 0., 0., 0., 0., 0., 0., 0., 0.,
          0., 0., 0., 0., 0., 0., 0., 0., 0., 0., 0., 0., 0., 0., 0., 0.,
          0., 0., 0., 0., 0., 0., 0., 0., 0., 0., 0., 0., 0., 0.,
          2.32558139e-002, 0., 0., 0., 0., 0., 0., 0., 0., 0., 0., 0.,
          0., 0., 0., 0., 0., 0., 0., 0., 0., 0., 0., 0., 0., 0., 0.,
          2.32558139e-002, 0., 0., 0., 2.32558139e-002, 0., 0., 0., 0.,
          0., 0., 0., 2.32558139e-002, 0., 0., 2.32558139e-002, 0., 0.,
          0., 0., 0., 0., 0., 0., 0., 0., 0., 0., 0., 0., 0., 0., 0., 0.,
          0., 0., 0., 0., 0., 0., 0., 0., 0., 0., 0., 0., 0., 0., 0., 0.,
          0., 0., 0., 0., 0., 0., 0., 0., 0., 0., 0., 0., 0., 0., 0., 0.,
          0., 0., 0., 0., 0., 0., 0., 0., 0., 0., 0., 0., 0., 0., 0., 0.,
          0., 0., 0., 0., 0., 0., 0., 0., 2.32558139e-002, 0., 0., 0.,
          0., 0., 0., 0., 2.32558139e-002, 0., 0., 0., 0., 0., 0., 0.,
          0., 0., 2.32558139e-002, 0., 0., 0., 2.32558139e-002, 0.,
          2.32558139e-002, 0., 0., 0., 0., 0., 0., 0., 0., 0., 0., 0.,
          0., 0., 0., 0., 0., 0., 0., 0., 0., 0., 0., 0., 0., 0., 0., 0.,
          0., 0., 0., 0., 0., 0., 0., 0., 0., 0., 0., 0., 0., 0., 0., 0.,
          0., 0., 0., 0., 0., 0., 0., 0., 0., 0., 0., 0., 0., 0., 0., 0.,
          0., 0., 0., 0., 0., 0., 0., 6.97674453e-002, 0.,
          2.32558139e-002, 0., 0., 0., 0., 0., 0., 0., 0., 0., 0., 0.,
          0., 0., 0., 0., 0., 0., 0., 0., 0., 0., 0., 0., 0., 0., 0., 0.,
          0., 0., 0., 0., 0., 0., 0., 0., 0., 0., 0., 0., 0., 0., 0., 0.,
          0., 0., 0., 0., 0., 0., 0., 0., 0., 0., 2.32558139e-002, 0.,
          0., 0., 0., 0., 0., 0., 2.32558139e-002, 0., 0., 0., 0., 0.,
          0., 0., 0., 0., 0., 0., 0., 0., 0., 0., 0., 0., 0., 0., 0., 0.,
          2.32558139e-002, 0., 0., 0., 0., 0., 0., 0., 0., 0., 0., 0.,
          0., 0., 0., 0., 0., 0., 0., 0., 0., 0., 0., 0., 0., 0., 0., 0.,
          0., 0., 0., 0., 0., 0., 0., 0., 0., 0., 0., 0., 0., 0., 0., 0.,
          0., 0., 0., 0., 0., 0., 0., 0., 0. ]
      - [ 0., 0., 0., 0., 0., 0., 0., 0., 3.53356893e-003, 0., 0., 0.,
          0., 0., 0., 3.53356893e-003, 0., 0., 0., 0., 0.,
          3.53356893e-003, 3.53356893e-003, 0., 3.53356893e-003, 0.,
          7.06713786e-003, 7.06713786e-003, 0., 0., 0., 0., 0., 0., 0.,
          3.53356893e-003, 3.53356893e-003, 0., 3.53356893e-003, 0., 0.,
          3.53356893e-003, 0., 0., 0., 0., 0., 0., 0., 0., 0., 0., 0.,
          1.06007066e-002, 0., 3.53356893e-003, 0., 0., 0., 0., 0.,
          3.53356893e-003, 3.53356893e-003, 0., 3.53356893e-003, 0., 0.,
          0., 1.41342757e-002, 0., 0., 0., 0., 0., 0., 0., 0.,
          3.53356893e-003, 0., 0., 0., 0., 0., 0., 0., 3.53356893e-003,
          0., 0., 0., 0., 0., 3.53356893e-003, 0., 3.53356893e-003,
          3.53356893e-003, 0., 1.06007066e-002, 0., 0., 0., 0., 0.,
          3.53356893e-003, 0., 0., 0., 0., 0., 0., 0., 0., 0.,
          3.53356893e-003, 0., 0., 0., 3.53356893e-003, 0., 0., 0.,
          7.06713786e-003, 0., 0., 0., 0., 0., 7.06713786e-003, 0., 0.,
          7.06713786e-003, 0., 0., 0., 0., 0., 0., 0., 3.53356893e-003,
          0., 0., 0., 0., 0., 3.53356893e-003, 0., 0., 3.53356893e-003,
          0., 0., 0., 0., 0., 0., 0., 0., 0., 0., 3.53356893e-003,
          3.53356893e-003, 0., 1.06007066e-002, 3.53356893e-003, 0., 0.,
          0., 0., 0., 0., 0., 0., 0., 0., 0., 0., 0., 3.53356893e-003,
          0., 0., 0., 3.53356893e-003, 0., 0., 0., 0., 0., 0., 0., 0.,
          0., 0., 7.06713786e-003, 0., 0., 3.53356893e-003, 0., 0., 0.,
          0., 0., 0., 0., 0., 0., 0., 3.53356893e-003, 0., 0., 0., 0.,
          0., 0., 0., 0., 0., 0., 0., 0., 1.06007066e-002, 0., 0.,
          3.53356893e-003, 0., 3.53356893e-003, 0., 0., 0., 0.,
          3.53356893e-003, 0., 0., 0., 0., 0., 0., 7.06713786e-003,
          3.53356893e-003, 0., 0., 0., 0., 0., 0., 0., 0.,
          3.53356893e-003, 0., 0., 0., 0., 0., 0., 7.06713786e-003, 0.,
          0., 0., 3.53356893e-003, 0., 0., 0., 0., 0., 3.53356893e-003,
          0., 3.53356893e-003, 0., 0., 0., 0., 0., 0., 3.53356893e-003,
          0., 3.53356893e-003, 0., 0., 3.53356893e-003, 0., 0., 0., 0.,
          0., 3.53356893e-003, 0., 0., 7.06713786e-003, 3.53356893e-003,
          0., 0., 0., 0., 0., 7.06713786e-003, 0., 0., 0.,
          3.53356893e-003, 0., 3.53356893e-003, 3.53356893e-003, 0., 0.,
          0., 3.53356893e-003, 0., 0., 0., 3.53356893e-003, 0., 0., 0.,
          0., 0., 0., 0., 0., 0., 0., 0., 0., 0., 3.53356893e-003, 0.,
          7.06713786e-003, 0., 0., 0., 0., 0., 0., 3.53356893e-003, 0.,
          0., 7.06713786e-003, 0., 0., 0., 0., 0., 0., 3.53356893e-003,
          0., 0., 0., 0., 0., 0., 0., 7.06713786e-003, 0., 0., 0., 0.,
          0., 0., 0., 0., 0., 0., 0., 7.06713786e-003, 0., 0.,
          3.53356893e-003, 7.06713786e-003, 0., 0., 0., 0., 0., 0., 0.,
          0., 0., 0., 0., 0., 3.53356893e-003, 3.53356893e-003, 0., 0.,
          0., 0., 0., 7.06713786e-003, 0., 3.53356893e-003, 0., 0., 0.,
          0., 0., 0., 0., 0., 0., 3.53356893e-003, 0., 0.,
          3.53356893e-003, 0., 0., 0., 0., 0., 3.53356893e-003, 0., 0.,
          0., 0., 0., 0., 3.53356893e-003, 0., 0., 0., 0., 0., 0., 0.,
          0., 0., 0., 0., 3.53356893e-003, 0., 0., 0., 0.,
          7.06713786e-003, 3.53356893e-003, 0., 0., 0., 0., 0., 0., 0.,
          0., 0., 0., 0., 0., 0., 0., 0., 0., 0., 1.06007066e-002,
          3.53356893e-003, 3.53356893e-003, 3.53356893e-003, 0.,
          3.53356893e-003, 0., 0., 3.53356893e-003, 0., 1.06007066e-002,
          0., 0., 0., 0., 0., 0., 0., 3.53356893e-003, 0., 0., 0., 0.,
          3.53356893e-003, 0., 0., 0., 0., 0., 0., 0., 0., 0., 0.,
          1.06007066e-002, 0., 3.53356893e-003, 0., 0., 0., 0., 0.,
          2.12014131e-002, 3.53356893e-003, 0., 0., 3.53356893e-003, 0.,
          3.53356893e-003, 7.06713786e-003, 0., 0., 3.53356893e-003,
          7.06713786e-003, 0., 0., 0., 0., 0., 0., 3.53356893e-003, 0.,
          0., 0., 7.06713786e-003, 7.06713786e-003, 0., 3.53356893e-003,
          0., 7.06713786e-003, 3.53356893e-003, 3.53356893e-003, 0., 0.,
          0., 0., 0., 0., 0., 3.53356893e-003, 0., 0., 0.,
          1.06007066e-002, 0., 0., 0., 0., 0., 0., 0., 0., 0., 0., 0.,
          7.06713786e-003, 0., 0., 0., 0., 7.06713786e-003, 0., 0.,
          3.53356893e-003, 0., 0., 0., 0., 0., 3.53356893e-003,
          3.53356893e-003, 0., 7.06713786e-003, 0., 3.53356893e-003,
          7.06713786e-003, 0., 0., 0., 3.53356893e-003, 0., 0., 0., 0.,
          3.53356893e-003, 3.53356893e-003, 7.06713786e-003,
          7.06713786e-003, 0., 0., 3.53356893e-003, 3.53356893e-003, 0.,
          0., 0., 0., 0., 0., 0., 0., 0., 3.53356893e-003, 0., 0., 0.,
          3.53356893e-003, 0., 0., 3.53356893e-003, 7.06713786e-003,
          3.53356893e-003, 0., 0., 0., 0., 0., 0., 3.53356893e-003, 0.,
          0., 3.53356893e-003, 0., 3.53356893e-003, 0., 0., 0., 0., 0.,
          0., 0., 0., 0., 0., 0., 0., 0., 0., 0., 0., 0., 0., 0., 0., 0.,
          7.06713786e-003, 0., 0., 1.06007066e-002, 0., 0., 0., 0., 0.,
          0., 0., 0., 0., 1.41342757e-002, 0., 3.53356893e-003, 0., 0.,
          0., 0., 0., 0., 0., 0., 0., 0., 0., 0., 0., 0., 0., 0.,
          3.53356893e-003, 0., 0., 0., 0., 0., 3.53356893e-003, 0., 0.,
          0., 0., 3.53356893e-003, 0., 0., 3.53356893e-003, 0., 0.,
          1.06007066e-002, 3.53356893e-003, 0., 0., 3.53356893e-003, 0.,
          0., 3.53356893e-003, 0., 0., 0., 0., 0., 3.53356893e-003,
          3.53356893e-003, 0., 0., 3.53356893e-003, 0., 0., 0., 0.,
          7.06713786e-003, 0., 3.53356893e-003, 0., 0., 0., 0., 0., 0.,
          0., 0., 1.06007066e-002, 3.53356893e-003, 0., 0., 0., 0., 0.,
          0., 0., 0., 0., 0., 0., 0., 0., 0., 0., 0., 0.,
          1.06007066e-002, 0., 0., 3.53356893e-003, 0., 0., 0.,
          3.53356893e-003, 0., 7.06713786e-003, 0., 0., 0., 0., 0., 0.,
          0., 3.53356893e-003, 0., 0., 0., 0., 0., 0., 3.53356893e-003,
          0., 7.06713786e-003, 0., 0., 0., 7.06713786e-003,
          3.53356893e-003, 0., 0., 0., 0., 0., 0., 0., 0., 0.,
          1.41342757e-002, 0., 0., 0., 0., 7.06713786e-003, 0., 0., 0.,
          0., 0., 3.53356893e-003, 0., 0., 0., 0., 0., 0., 0., 0.,
          3.53356893e-003, 3.53356893e-003, 0., 0., 0., 0., 0., 0., 0.,
          0., 0., 0., 0., 0., 0., 0., 0., 0., 0., 0., 0., 0., 0.,
          7.06713786e-003, 0., 1.06007066e-002, 0., 3.53356893e-003, 0.,
          0., 0., 0., 0., 1.76678449e-002, 0., 0., 7.06713786e-003, 0.,
          0., 0., 0., 0., 0., 0., 0., 7.06713786e-003, 0., 0.,
          7.06713786e-003, 0., 3.53356893e-003, 3.53356893e-003, 0., 0.,
          3.53356893e-003, 0., 0., 0., 0., 3.53356893e-003, 0., 0., 0.,
          3.53356893e-003, 0., 0., 0., 3.53356893e-003, 0., 0., 0., 0.,
          3.53356893e-003, 0., 3.53356893e-003, 0., 0., 0., 0., 0., 0.,
          0., 0., 0., 0., 0., 0., 0., 0., 0., 0., 0., 0., 0., 0., 0., 0.,
          0., 0., 3.53356893e-003, 0., 0., 3.53356893e-003, 0., 0., 0.,
          3.53356893e-003, 3.53356893e-003, 0., 0., 3.53356893e-003, 0.,
          0., 0., 0., 0., 0., 0., 3.53356893e-003, 0., 3.53356893e-003,
          0., 0., 0., 3.53356893e-003, 0., 0., 0., 0., 3.53356893e-003,
          0., 0., 0., 0., 3.53356893e-003, 0., 0., 0., 0., 0., 0., 0.,
          0., 0., 0., 0., 0., 0., 0., 0., 3.53356893e-003, 0., 0.,
          3.53356893e-003, 0., 0., 0., 0., 0., 0., 0., 0.,
          3.53356893e-003, 0., 0., 0., 0., 0., 0., 0., 0., 0.,
          3.53356893e-003, 0., 0., 0., 0., 0., 0., 0., 3.53356893e-003,
          0., 0., 0., 0., 0., 0., 0., 0., 0., 0., 0., 0., 0., 0., 0.,
          3.53356893e-003, 0., 0., 0., 0., 0., 0., 0., 7.06713786e-003,
          0., 0. ]
      - [ 0., 0., 0., 0., 0., 0., 0., 5.18134702e-003, 0.,
          1.03626940e-002, 5.18134702e-003, 0., 1.03626940e-002,
          5.18134702e-003, 0., 0., 0., 0., 1.55440411e-002, 0., 0., 0.,
          0., 0., 5.18134702e-003, 0., 0., 0., 0., 0., 0., 0., 0., 0.,
          0., 5.18134702e-003, 5.18134702e-003, 0., 0., 0., 0., 0., 0.,
          0., 0., 0., 0., 0., 0., 5.18134702e-003, 0., 0., 0., 0., 0.,
          1.03626940e-002, 0., 5.18134702e-003, 0., 0., 5.18134702e-003,
          0., 0., 0., 5.18134702e-003, 5.18134702e-003, 0., 0.,
          5.18134702e-003, 0., 0., 0., 0., 0., 0., 0., 0.,
          5.18134702e-003, 0., 0., 0., 0., 0., 0., 0., 0., 0., 0., 0.,
          5.18134702e-003, 1.03626940e-002, 0., 0., 0., 0., 0., 0., 0.,
          0., 0., 0., 0., 0., 0., 5.18134702e-003, 0., 0., 0., 0., 0.,
          0., 0., 0., 0., 0., 5.18134702e-003, 0., 0., 0., 0., 0.,
          1.03626940e-002, 0., 2.07253881e-002, 0., 0., 0., 0., 0.,
          5.18134702e-003, 0., 0., 0., 0., 0., 0., 0., 0., 0., 0., 0.,
          0., 5.18134702e-003, 0., 0., 0., 0., 0., 0., 0., 0., 0., 0.,
          0., 0., 0., 0., 0., 0., 5.18134702e-003, 0., 0., 0., 0., 0.,
          0., 5.18134702e-003, 0., 0., 0., 0., 0., 0., 0., 0., 0., 0.,
          0., 0., 0., 5.18134702e-003, 0., 0., 1.55440411e-002, 0., 0.,
          0., 0., 0., 0., 5.18134702e-003, 0., 0., 0., 0., 0., 0., 0.,
          0., 0., 0., 0., 0., 0., 0., 0., 0., 5.18134702e-003, 0., 0.,
          0., 0., 0., 0., 0., 1.03626940e-002, 0., 0., 5.18134702e-003,
          0., 0., 0., 0., 5.18134702e-003, 5.18134702e-003, 0., 0., 0.,
          0., 0., 5.18134702e-003, 0., 0., 0., 5.18134702e-003,
          5.18134702e-003, 0., 0., 5.18134702e-003, 0., 1.03626940e-002,
          0., 0., 0., 5.18134702e-003, 0., 0., 0., 0., 0., 0., 0., 0.,
          0., 0., 0., 0., 5.18134702e-003, 0., 0., 0., 0.,
          5.18134702e-003, 0., 0., 0., 5.18134702e-003, 5.18134702e-003,
          0., 5.18134702e-003, 5.18134702e-003, 5.18134702e-003, 0.,
          5.18134702e-003, 0., 0., 0., 0., 1.03626940e-002, 0., 0., 0.,
          0., 0., 0., 0., 0., 0., 0., 0., 0., 0., 0., 0.,
          5.18134702e-003, 0., 0., 0., 0., 0., 5.18134702e-003,
          5.18134702e-003, 0., 0., 5.18134702e-003, 0., 0., 0., 0.,
          5.18134702e-003, 0., 0., 0., 0., 0., 0., 0., 5.18134702e-003,
          0., 0., 5.18134702e-003, 0., 0., 0., 0., 0., 0., 0., 0., 0.,
          0., 5.18134702e-003, 0., 0., 0., 0., 0., 5.18134702e-003,
          5.18134702e-003, 0., 0., 0., 0., 5.18134702e-003,
          1.03626940e-002, 0., 0., 5.18134702e-003, 0., 0.,
          5.18134702e-003, 0., 5.18134702e-003, 5.18134702e-003, 0., 0.,
          0., 5.18134702e-003, 0., 0., 0., 0., 0., 0., 0., 0., 0., 0.,
          0., 0., 0., 0., 5.18134702e-003, 0., 5.18134702e-003, 0., 0.,
          0., 0., 0., 0., 5.18134702e-003, 0., 0., 0., 0., 0., 0., 0.,
          0., 0., 0., 5.18134702e-003, 0., 0., 0., 0., 0., 0., 0.,
          5.18134702e-003, 1.03626940e-002, 0., 0., 0., 0., 0., 0.,
          5.18134702e-003, 5.18134702e-003, 0., 0., 0., 0., 0., 0., 0.,
          5.18134702e-003, 5.18134702e-003, 0., 0., 0., 0., 0., 0., 0.,
          0., 0., 0., 0., 0., 0., 0., 0., 0., 5.18134702e-003,
          1.03626940e-002, 0., 5.18134702e-003, 5.18134702e-003, 0., 0.,
          0., 0., 0., 5.18134702e-003, 5.18134702e-003, 5.18134702e-003,
          0., 0., 0., 0., 0., 0., 0., 0., 0., 0., 0., 0., 0.,
          5.18134702e-003, 0., 0., 0., 0., 0., 0., 0., 1.03626940e-002,
          0., 0., 0., 0., 0., 0., 0., 0., 0., 0., 0., 0., 0., 0., 0., 0.,
          0., 0., 0., 0., 5.18134702e-003, 0., 0., 0., 0., 0., 0.,
          5.18134702e-003, 0., 0., 0., 0., 0., 0., 0., 0., 0.,
          5.18134702e-003, 0., 0., 5.18134702e-003, 0., 0., 0., 0.,
          5.18134702e-003, 0., 0., 0., 5.18134702e-003, 0.,
          5.18134702e-003, 0., 0., 0., 0., 0., 0., 0., 0., 0.,
          5.18134702e-003, 0., 0., 0., 0., 0., 0., 0., 0., 0., 0., 0.,
          0., 0., 0., 0., 0., 0., 0., 0., 0., 5.18134702e-003, 0., 0.,
          0., 0., 0., 0., 0., 0., 5.18134702e-003, 0., 0., 0., 0., 0.,
          0., 0., 0., 0., 0., 0., 0., 0., 0., 0., 0., 0., 0., 0., 0., 0.,
          0., 5.18134702e-003, 0., 0., 0., 1.03626940e-002, 0., 0., 0.,
          0., 0., 0., 0., 0., 5.18134702e-003, 0., 0., 0., 0., 0., 0.,
          0., 0., 0., 0., 0., 0., 0., 0., 0., 0., 0., 0., 0., 0., 0., 0.,
          0., 0., 0., 0., 0., 0., 0., 0., 5.18134702e-003, 0.,
          5.18134702e-003, 0., 0., 0., 2.59067342e-002, 0., 0., 0., 0.,
          0., 0., 0., 5.18134702e-003, 0., 0., 5.18134702e-003, 0.,
          5.18134702e-003, 0., 0., 0., 0., 0., 0., 0., 0., 0., 0., 0.,
          0., 0., 0., 0., 0., 0., 0., 5.18134702e-003, 0., 0., 0., 0.,
          0., 0., 0., 0., 1.03626940e-002, 0., 0., 0., 0., 0., 0., 0.,
          0., 0., 0., 0., 0., 0., 0., 0., 0., 0., 0., 0., 0., 0., 0., 0.,
          0., 0., 0., 5.18134702e-003, 0., 0., 0., 0., 1.03626940e-002,
          0., 0., 0., 0., 0., 0., 1.03626940e-002, 0., 0., 0., 0., 0.,
          0., 0., 0., 0., 0., 0., 0., 5.18134702e-003, 0., 0., 0., 0.,
          0., 0., 0., 0., 0., 0., 0., 0., 0., 0., 0., 0., 0., 0., 0.,
          5.18134702e-003, 0., 0., 5.18134702e-003, 0., 5.18134702e-003,
          5.18134702e-003, 0., 0., 0., 0., 6.21761642e-002, 0., 0., 0.,
          0., 0., 0., 0., 0., 0., 0., 0., 0., 0., 1.03626940e-002, 0.,
          1.03626940e-002, 5.18134702e-003, 0., 0., 0., 0., 0., 0., 0.,
          0., 0., 0., 0., 0., 0., 0., 5.18134702e-003, 0., 0., 0., 0.,
          0., 0., 0., 0., 0., 0., 0., 0., 1.03626940e-002,
          5.18134702e-003, 0., 0., 0., 0., 0., 5.18134702e-003, 0., 0.,
          0., 0., 5.18134702e-003, 0., 0., 0., 0., 0., 0., 0., 0., 0.,
          0., 0., 0., 0., 2.07253881e-002, 0., 0., 0., 0.,
          5.18134702e-003, 5.18134702e-003, 0., 0., 0., 0., 0., 0., 0.,
          0., 0., 0., 0., 5.18134702e-003, 0., 0., 0., 0.,
          5.18134702e-003, 0., 0., 0., 0., 0., 0., 0., 0.,
          5.18134702e-003, 0., 0., 0., 0., 0., 5.18134702e-003, 0., 0.,
          1.55440411e-002, 0., 0., 0., 0., 0., 5.18134702e-003,
          5.18134702e-003, 0., 0., 0., 0., 0., 0., 0., 0., 0., 0., 0.,
          0., 5.18134702e-003, 5.18134702e-003, 0., 0., 0., 0.,
          5.18134702e-003, 0., 0., 0., 0., 0., 5.18134702e-003, 0., 0.,
          0., 0., 5.18134702e-003, 0., 0., 0., 0., 0., 0., 0., 0., 0.,
          0., 0., 0., 0., 0., 0., 0., 5.18134702e-003, 0., 0., 0., 0.,
          0., 0., 0., 0., 0., 0., 0., 0., 0., 0., 0., 0.,
          1.03626940e-002, 0., 0., 0., 0., 0., 5.18134702e-003, 0., 0.,
          0., 0., 0., 0., 0., 0., 0., 0., 0., 0., 0., 0., 0., 0., 0., 0.,
          0., 0., 0., 0., 0., 5.18134702e-003, 0., 0., 0., 0., 0., 0.,
          0., 0., 0., 0., 5.18134702e-003, 0., 0., 0., 5.18134702e-003,
          0., 5.18134702e-003, 0., 0., 0., 0., 0., 0., 0., 0., 0., 0.,
          0. ]
      - [ 0., 0., 0., 6.49350649e-003, 0., 0., 0., 0., 0., 0., 0., 0.,
          6.49350649e-003, 0., 6.49350649e-003, 1.29870130e-002, 0., 0.,
          6.49350649e-003, 0., 0., 0., 0., 0., 6.49350649e-003, 0., 0.,
          0., 0., 0., 0., 0., 0., 0., 0., 0., 0., 0., 0., 0., 0., 0., 0.,
          0., 0., 1.29870130e-002, 1.94805190e-002, 0., 6.49350649e-003,
          0., 0., 0., 0., 0., 0., 6.49350649e-003, 0., 6.49350649e-003,
          0., 0., 0., 0., 0., 0., 6.49350649e-003, 0., 0.,
          6.49350649e-003, 0., 0., 0., 0., 0., 0., 0., 0., 0., 0., 0.,
          0., 0., 0., 0., 0., 6.49350649e-003, 0., 0., 0., 0., 0.,
          6.49350649e-003, 0., 0., 0., 0., 0., 0., 0., 0.,
          6.49350649e-003, 0., 0., 0., 0., 0., 0., 0., 0., 0., 0., 0.,
          0., 0., 0., 0., 0., 0., 0., 0., 0., 0., 0., 0.,
          6.49350649e-003, 0., 0., 0., 0., 0., 0., 0., 0., 0., 0., 0.,
          0., 0., 0., 0., 0., 0., 0., 0., 0., 0., 0., 0., 0., 0., 0., 0.,
          0., 6.49350649e-003, 0., 0., 0., 0., 0., 0., 0., 0., 0., 0.,
          0., 0., 0., 1.94805190e-002, 0., 0., 0., 0., 0., 0.,
          6.49350649e-003, 0., 6.49350649e-003, 0., 3.24675329e-002, 0.,
          0., 0., 0., 0., 6.49350649e-003, 0., 0., 0., 0.,
          6.49350649e-003, 0., 0., 0., 0., 0., 0., 6.49350649e-003, 0.,
          0., 0., 0., 0., 0., 0., 6.49350649e-003, 0., 0., 0., 0., 0.,
          0., 0., 6.49350649e-003, 0., 0., 0., 0., 0., 0., 0., 0.,
          6.49350649e-003, 0., 0., 0., 0., 0., 0., 0., 0.,
          6.49350649e-003, 0., 0., 0., 6.49350649e-003, 0., 0.,
          6.49350649e-003, 0., 6.49350649e-003, 0., 0., 0., 0., 0.,
          6.49350649e-003, 6.49350649e-003, 0., 0., 6.49350649e-003, 0.,
          0., 0., 0., 0., 0., 0., 0., 0., 0., 0., 0., 0., 0., 0., 0., 0.,
          0., 1.29870130e-002, 0., 0., 6.49350649e-003, 0., 0., 0., 0.,
          0., 0., 0., 0., 0., 0., 0., 0., 2.59740259e-002, 0., 0., 0.,
          0., 0., 0., 0., 0., 0., 0., 0., 0., 0., 0., 0.,
          6.49350649e-003, 0., 6.49350649e-003, 0., 0., 0., 0., 0., 0.,
          1.29870130e-002, 0., 0., 0., 6.49350649e-003, 6.49350649e-003,
          0., 0., 0., 0., 0., 0., 0., 0., 0., 0., 0., 0., 0., 0., 0., 0.,
          0., 0., 0., 0., 0., 0., 0., 0., 6.49350649e-003, 0., 0., 0.,
          0., 0., 0., 0., 0., 0., 0., 0., 0., 0., 0., 0., 0.,
          6.49350649e-003, 0., 0., 0., 0., 0., 0., 0., 0., 0., 0.,
          6.49350649e-003, 1.94805190e-002, 0., 0., 0., 0.,
          6.49350649e-003, 0., 0., 0., 0., 6.49350649e-003, 0., 0., 0.,
          6.49350649e-003, 6.49350649e-003, 0., 0., 0., 0., 0., 0., 0.,
          1.29870130e-002, 0., 0., 0., 0., 0., 0., 0., 0., 0., 0.,
          6.49350649e-003, 0., 0., 0., 6.49350649e-003, 0., 0., 0., 0.,
          0., 0., 0., 0., 0., 0., 0., 0., 0., 0., 0., 0., 0., 0., 0., 0.,
          0., 6.49350649e-003, 0., 0., 6.49350649e-003, 0.,
          6.49350649e-003, 0., 0., 0., 6.49350649e-003, 0.,
          6.49350649e-003, 0., 0., 0., 0., 0., 0., 0., 0., 0., 0., 0.,
          0., 0., 0., 6.49350649e-003, 0., 0., 6.49350649e-003, 0.,
          6.49350649e-003, 0., 6.49350649e-003, 0., 6.49350649e-003, 0.,
          0., 0., 0., 0., 0., 0., 0., 0., 6.49350649e-003, 0., 0., 0.,
          0., 0., 0., 0., 0., 0., 0., 6.49350649e-003, 0., 0., 0., 0.,
          0., 0., 0., 0., 0., 0., 0., 0., 0., 6.49350649e-003, 0., 0.,
          0., 0., 0., 0., 0., 0., 0., 0., 0., 0., 0., 0., 0., 0., 0., 0.,
          0., 0., 0., 0., 0., 0., 0., 0., 0., 0., 0., 0., 0., 0., 0., 0.,
          0., 0., 6.49350649e-003, 0., 0., 0., 0., 0., 0., 0., 0., 0.,
          0., 0., 0., 0., 0., 0., 0., 0., 0., 0., 0., 0.,
          6.49350649e-003, 0., 0., 0., 6.49350649e-003, 0., 0., 0., 0.,
          0., 0., 0., 0., 0., 6.49350649e-003, 0., 0., 0., 0.,
          6.49350649e-003, 0., 0., 0., 0., 0., 0., 0., 0., 0.,
          6.49350649e-003, 0., 0., 0., 0., 0., 0., 0., 0., 0., 0., 0.,
          6.49350649e-003, 0., 0., 0., 0., 0., 0., 0., 0., 0., 0., 0.,
          0., 0., 0., 0., 0., 0., 0., 0., 6.49350649e-003, 0., 0.,
          6.49350649e-003, 0., 0., 0., 0., 0., 0., 0., 0., 0., 0.,
          6.49350649e-003, 0., 0., 0., 0., 1.29870130e-002, 0.,
          6.49350649e-003, 6.49350649e-003, 0., 0., 6.49350649e-003, 0.,
          0., 0., 0., 6.49350649e-003, 6.49350649e-003, 0., 0., 0., 0.,
          0., 0., 6.49350649e-003, 0., 0., 0., 0., 0., 0., 0., 0., 0.,
          0., 0., 0., 0., 0., 0., 0., 0., 0., 6.49350649e-003, 0., 0.,
          0., 0., 6.49350649e-003, 0., 6.49350649e-003, 0., 0., 0.,
          6.49350649e-003, 0., 0., 0., 0., 0., 0., 0., 0., 0.,
          6.49350649e-003, 0., 0., 0., 0., 1.29870130e-002, 0., 0., 0.,
          0., 0., 0., 6.49350649e-003, 6.49350649e-003, 0., 0., 0., 0.,
          0., 0., 0., 0., 0., 0., 0., 0., 0., 0., 6.49350649e-003, 0.,
          0., 0., 0., 0., 6.49350649e-003, 0., 0., 0., 0., 0., 0., 0.,
          0., 6.49350649e-003, 0., 0., 0., 0., 6.49350649e-003, 0., 0.,
          0., 0., 6.49350649e-003, 0., 0., 0., 0., 0., 1.29870130e-002,
          0., 6.49350649e-003, 1.29870130e-002, 0., 0., 0., 0., 0., 0.,
          0., 0., 1.29870130e-002, 0., 6.49350649e-003, 6.49350649e-003,
          0., 0., 0., 0., 0., 0., 0., 0., 0., 0., 0., 0., 0., 0., 0., 0.,
          6.49350649e-003, 0., 0., 0., 0., 0., 0., 0., 0.,
          1.29870130e-002, 6.49350649e-003, 0., 0., 0., 0., 0., 0., 0.,
          0., 0., 0., 0., 0., 0., 0., 0., 1.29870130e-002, 0., 0., 0.,
          0., 0., 0., 0., 0., 0., 0., 0., 0., 0., 0., 6.49350649e-003,
          0., 0., 6.49350649e-003, 6.49350649e-003, 0., 6.49350649e-003,
          0., 1.29870130e-002, 0., 0., 0., 0., 0., 0., 6.49350649e-003,
          0., 0., 0., 0., 0., 0., 0., 0., 0., 0., 0., 0., 0., 0.,
          6.49350649e-003, 0., 6.49350649e-003, 0., 0., 0., 0., 0., 0.,
          0., 0., 0., 0., 0., 0., 0., 0., 0., 6.49350649e-003, 0., 0.,
          0., 0., 0., 0., 0., 0., 0., 0., 0., 0., 0., 0., 0., 0., 0., 0.,
          6.49350649e-003, 0., 0., 0., 0., 0., 0., 0., 6.49350649e-003,
          0., 0., 0., 0., 0., 0., 0., 0., 0., 0., 0., 0., 0., 0., 0., 0.,
          0., 0., 0., 0., 0., 0., 0., 0., 0., 0., 0., 0., 0., 0., 0., 0.,
          0., 0., 0., 0., 0., 0., 0., 0., 6.49350649e-003, 0., 0., 0.,
          0., 6.49350649e-003, 0., 0., 0., 0., 0., 6.49350649e-003,
          6.49350649e-003, 0., 0., 6.49350649e-003, 0., 0., 0.,
          6.49350649e-003, 0., 0., 0., 6.49350649e-003, 0.,
          6.49350649e-003, 0., 0., 0., 0., 0., 0., 0., 0., 0., 0., 0.,
          0., 0., 0., 0., 0., 0., 0., 0., 0., 0., 6.49350649e-003, 0.,
          0., 6.49350649e-003, 0., 0., 0., 0., 0., 0. ]
      - [ 0., 0., 0., 0., 0., 0., 0., 0., 0., 0., 0., 0., 0., 0., 0.,
          9.43396240e-003, 0., 0., 0., 0., 0., 0., 0., 9.43396240e-003,
          0., 0., 0., 0., 0., 0., 0., 0., 0., 9.43396240e-003, 0., 0.,
          0., 0., 0., 0., 0., 0., 0., 0., 0., 0., 0., 0., 0., 0.,
          2.83018872e-002, 0., 0., 0., 0., 0., 9.43396240e-003, 0., 0.,
          9.43396240e-003, 0., 0., 0., 0., 0., 0., 0., 0., 0., 0., 0.,
          0., 0., 0., 0., 0., 0., 0., 9.43396240e-003, 0., 0., 0., 0.,
          0., 0., 0., 0., 9.43396240e-003, 0., 0., 0., 0., 0.,
          9.43396240e-003, 1.88679248e-002, 0., 0., 0., 0., 0., 0., 0.,
          0., 9.43396240e-003, 0., 0., 9.43396240e-003, 0., 0., 0., 0.,
          0., 0., 0., 0., 0., 0., 0., 0., 0., 0., 0., 0., 0., 0., 0., 0.,
          0., 0., 0., 0., 0., 0., 0., 0., 0., 0., 0., 0., 0.,
          9.43396240e-003, 0., 0., 9.43396240e-003, 0., 0., 0., 0., 0.,
          0., 0., 0., 0., 0., 0., 9.43396240e-003, 9.43396240e-003, 0.,
          0., 0., 0., 0., 0., 0., 0., 0., 0., 0., 0., 0., 0., 0., 0., 0.,
          0., 0., 0., 0., 0., 0., 9.43396240e-003, 0., 0., 0., 0., 0.,
          0., 0., 9.43396240e-003, 0., 0., 0., 0., 0., 0., 0., 0.,
          9.43396240e-003, 0., 0., 0., 0., 0., 9.43396240e-003, 0.,
          9.43396240e-003, 0., 0., 0., 0., 0., 0., 0., 0., 0., 0., 0.,
          0., 0., 0., 0., 0., 0., 0., 0., 0., 0., 0., 0., 0., 0., 0., 0.,
          0., 9.43396240e-003, 0., 0., 0., 0., 0., 0., 0., 0., 0., 0.,
          0., 0., 0., 0., 0., 0., 0., 0., 9.43396240e-003, 0., 0., 0.,
          0., 0., 0., 0., 0., 0., 0., 0., 0., 0., 0., 0., 0., 0., 0., 0.,
          0., 0., 0., 0., 0., 9.43396240e-003, 0., 0., 0., 0., 0., 0.,
          0., 0., 0., 0., 0., 0., 0., 0., 0., 0., 9.43396240e-003, 0.,
          0., 0., 0., 9.43396240e-003, 0., 0., 0., 0., 0., 0., 0., 0.,
          9.43396240e-003, 0., 0., 0., 0., 9.43396240e-003, 0., 0., 0.,
          0., 0., 9.43396240e-003, 0., 0., 0., 9.43396240e-003, 0.,
          9.43396240e-003, 0., 0., 0., 0., 0., 0., 9.43396240e-003, 0.,
          0., 0., 0., 0., 0., 0., 0., 0., 0., 0., 0., 0., 0., 0., 0., 0.,
          0., 0., 0., 0., 0., 0., 0., 1.88679248e-002, 9.43396240e-003,
          0., 0., 0., 0., 0., 0., 0., 0., 0., 0., 0., 0., 0., 0., 0., 0.,
          0., 0., 0., 0., 0., 0., 0., 0., 0., 0., 0., 0., 0., 0., 0.,
          3.77358496e-002, 0., 0., 0., 0., 0., 0., 0., 0.,
          9.43396240e-003, 0., 0., 0., 0., 0., 0., 0., 0., 0., 0., 0.,
          0., 0., 0., 0., 0., 0., 0., 0., 0., 0., 1.88679248e-002, 0.,
          0., 0., 0., 0., 0., 0., 0., 0., 0., 0., 0., 0., 0., 0., 0., 0.,
          0., 9.43396240e-003, 0., 0., 0., 0., 0., 0., 0., 0., 0., 0.,
          0., 0., 0., 0., 0., 0., 0., 0., 0., 0., 0., 9.43396240e-003,
          0., 0., 0., 0., 0., 0., 0., 0., 0., 0., 9.43396240e-003, 0.,
          0., 0., 0., 0., 0., 0., 0., 0., 0., 0., 0., 0.,
          9.43396240e-003, 0., 0., 0., 0., 0., 0., 0., 0., 0., 0., 0.,
          0., 0., 0., 9.43396240e-003, 0., 0., 0., 0., 0., 0., 0.,
          9.43396240e-003, 0., 0., 0., 0., 0., 9.43396240e-003, 0., 0.,
          0., 0., 0., 0., 0., 0., 0., 0., 0., 0., 0., 0., 0., 0., 0., 0.,
          0., 0., 0., 0., 0., 0., 0., 0., 0., 0., 0., 0., 0., 0.,
          2.83018872e-002, 0., 0., 0., 0., 0., 0., 9.43396240e-003, 0.,
          0., 0., 0., 0., 0., 0., 0., 0., 0., 0., 0., 0., 0., 0., 0., 0.,
          0., 0., 0., 0., 0., 0., 0., 0., 0., 0., 0., 0., 0.,
          4.71698120e-002, 0., 1.88679248e-002, 0., 0., 0., 0., 0., 0.,
          0., 9.43396240e-003, 9.43396240e-003, 9.43396240e-003,
          9.43396240e-003, 0., 0., 0., 0., 0., 0., 0., 0., 0., 0., 0.,
          0., 0., 0., 0., 0., 9.43396240e-003, 0., 0., 0., 0., 0., 0.,
          0., 0., 0., 0., 0., 0., 0., 0., 9.43396240e-003, 0., 0., 0.,
          0., 0., 0., 0., 0., 0., 0., 0., 0., 0., 0., 0., 0., 0., 0., 0.,
          0., 0., 9.43396240e-003, 0., 0., 0., 0., 0., 0., 0., 0., 0.,
          0., 0., 0., 0., 9.43396240e-003, 0., 0., 0., 0., 0., 0., 0.,
          0., 0., 0., 0., 0., 0., 0., 0., 0., 0., 9.43396240e-003, 0.,
          0., 0., 0., 0., 0., 0., 0., 9.43396240e-003, 9.43396240e-003,
          0., 0., 0., 0., 0., 0., 9.43396240e-003, 0., 0.,
          4.71698120e-002, 0., 0., 0., 0., 0., 0., 0., 0., 0., 0., 0.,
          0., 0., 0., 0., 0., 0., 0., 0., 0., 0., 0., 0., 0., 0., 0., 0.,
          0., 9.43396240e-003, 0., 0., 0., 0., 0., 0., 0., 0., 0., 0.,
          0., 0., 0., 0., 0., 0., 0., 0., 0., 9.43396240e-003, 0., 0.,
          9.43396240e-003, 0., 0., 0., 0., 0., 0., 0., 0., 0.,
          9.43396240e-003, 0., 9.43396240e-003, 0., 0., 0., 0., 0., 0.,
          0., 0., 0., 0., 0., 0., 0., 9.43396240e-003, 0.,
          9.43396240e-003, 0., 0., 0., 0., 0., 0., 0., 0., 0., 0., 0.,
          0., 0., 0., 9.43396240e-003, 0., 0., 0., 0., 0., 0., 0., 0.,
          0., 0., 0., 0., 0., 0., 0., 0., 0., 0., 0., 0., 0., 0., 0., 0.,
          0., 0., 0., 0., 0., 0., 0., 0., 0., 0., 9.43396240e-003, 0.,
          0., 0., 0., 0., 9.43396240e-003, 0., 0., 0., 0., 0., 0.,
          1.88679248e-002, 0., 0., 0., 0., 0., 0., 0., 0., 0., 0., 0.,
          0., 0., 0., 0., 0., 0., 0., 0., 0., 0., 0., 0.,
          1.88679248e-002, 0., 9.43396240e-003, 0., 0., 0., 0., 0., 0.,
          0., 9.43396240e-003, 0., 0., 0., 0., 0., 0., 0., 0., 0., 0.,
          0., 0., 0., 0., 0., 0., 0., 0., 0., 0., 0., 0., 0., 0., 0., 0.,
          0., 0., 0., 0., 0., 0., 0., 0., 0., 0., 0., 0., 0., 0., 0., 0.,
          0., 0., 0., 0., 0., 0., 0., 0., 0., 0., 0., 0., 0., 0., 0., 0.,
          1.88679248e-002, 0., 0., 0., 0., 0., 9.43396240e-003, 0., 0.,
          0., 0., 0., 0., 0., 0., 0., 0., 0., 0., 0., 0., 0., 0., 0., 0.,
          0., 9.43396240e-003, 0., 0., 0., 0., 0., 0., 0., 0., 0., 0.,
          0., 0., 0., 0., 0., 0., 0., 0., 9.43396240e-003, 0., 0., 0.,
          0., 9.43396240e-003, 0., 0., 0., 3.77358496e-002, 0., 0. ]
      - [ 0., 0., 0., 0., 0., 0., 0., 0., 0., 0., 0., 0., 0., 0., 0.,
          1.02040814e-002, 0., 0., 0., 0., 0., 0., 0., 0., 0., 0., 0.,
          0., 1.02040814e-002, 0., 0., 0., 0., 0., 0., 0., 0., 0., 0.,
          0., 0., 0., 0., 0., 1.02040814e-002, 0., 0., 0., 0., 0., 0.,
          0., 0., 0., 0., 0., 0., 0., 0., 0., 0., 0., 0.,
          1.02040814e-002, 1.02040814e-002, 0., 0., 1.02040814e-002, 0.,
          0., 0., 0., 0., 0., 2.04081628e-002, 0., 0., 0., 0., 0., 0.,
          0., 0., 0., 0., 0., 0., 0., 0., 0., 2.04081628e-002, 0., 0.,
          0., 0., 0., 0., 0., 0., 0., 0., 0., 0., 0., 1.02040814e-002,
          0., 0., 0., 0., 1.02040814e-002, 0., 0., 1.02040814e-002, 0.,
          0., 1.02040814e-002, 0., 0., 0., 0., 1.02040814e-002,
          1.02040814e-002, 0., 0., 0., 0., 0., 0., 0., 0., 0., 0., 0.,
          0., 0., 0., 1.02040814e-002, 0., 0., 0., 0., 0., 0., 0., 0.,
          0., 0., 0., 2.04081628e-002, 0., 0., 0., 0., 0., 0., 0., 0.,
          0., 0., 0., 0., 0., 0., 0., 0., 0., 1.02040814e-002, 0., 0.,
          0., 0., 0., 0., 0., 0., 0., 0., 0., 0., 0., 1.02040814e-002,
          0., 0., 0., 0., 0., 0., 0., 0., 0., 0., 0., 0., 0., 0., 0., 0.,
          0., 0., 1.02040814e-002, 0., 0., 1.02040814e-002, 0., 0., 0.,
          0., 0., 0., 0., 0., 0., 0., 0., 0., 0., 0., 0., 0., 0., 0., 0.,
          0., 0., 0., 0., 0., 0., 0., 0., 0., 1.02040814e-002, 0., 0.,
          0., 0., 0., 0., 1.02040814e-002, 0., 0., 0., 0., 0., 0., 0.,
          0., 0., 0., 0., 0., 0., 0., 0., 0., 0., 0., 0., 0., 0., 0., 0.,
          1.02040814e-002, 0., 0., 0., 1.02040814e-002, 0., 0., 0., 0.,
          0., 0., 0., 0., 0., 0., 0., 0., 0., 3.06122452e-002, 0., 0.,
          0., 0., 0., 0., 0., 0., 0., 0., 0., 0., 0., 2.04081628e-002,
          0., 0., 0., 0., 0., 0., 0., 0., 0., 0., 0., 0., 0., 0., 0., 0.,
          0., 0., 0., 0., 0., 0., 0., 0., 0., 0., 0., 0., 0., 0., 0., 0.,
          0., 0., 0., 0., 0., 0., 0., 1.02040814e-002, 0., 0., 0., 0.,
          0., 0., 0., 0., 0., 0., 0., 0., 0., 0., 0., 0., 0., 0., 0., 0.,
          0., 0., 0., 0., 0., 0., 0., 0., 0., 0., 2.04081628e-002, 0.,
          0., 0., 0., 0., 0., 1.02040814e-002, 0., 0., 0., 0., 0., 0.,
          2.04081628e-002, 0., 0., 0., 0., 0., 0., 0., 0.,
          1.02040814e-002, 0., 0., 0., 0., 0., 0., 0., 0., 0., 0., 0.,
          0., 1.02040814e-002, 0., 0., 0., 0., 0., 0., 0., 0., 0.,
          1.02040814e-002, 0., 0., 0., 0., 0., 0., 0., 0., 0., 0., 0.,
          0., 0., 0., 0., 0., 0., 0., 0., 0., 0., 0., 0., 0., 0., 0., 0.,
          0., 0., 0., 0., 0., 0., 1.02040814e-002, 0., 0., 0., 0., 0.,
          0., 0., 0., 0., 0., 0., 0., 0., 0., 0., 0., 0., 0., 0., 0., 0.,
          0., 0., 0., 0., 0., 1.02040814e-002, 0., 0., 0., 0., 0., 0.,
          0., 0., 0., 0., 0., 0., 0., 0., 0., 1.02040814e-002, 0., 0.,
          0., 0., 0., 0., 0., 0., 0., 0., 0., 0., 1.02040814e-002, 0.,
          0., 0., 0., 0., 0., 0., 0., 0., 0., 1.02040814e-002, 0., 0.,
          0., 1.02040814e-002, 0., 0., 0., 0., 0., 0., 0., 0.,
          1.02040814e-002, 0., 0., 0., 0., 0., 0., 0., 0., 0., 0., 0.,
          0., 0., 0., 0., 0., 0., 0., 1.02040814e-002, 0., 0., 0., 0.,
          0., 0., 0., 0., 0., 0., 0., 0., 0., 0., 0., 0., 0., 0., 0., 0.,
          0., 0., 0., 0., 0., 1.02040814e-002, 0., 0., 0., 0., 0., 0.,
          0., 0., 0., 0., 0., 0., 0., 0., 0., 0., 0., 0., 0., 0., 0., 0.,
          1.02040814e-002, 0., 0., 0., 0., 0., 0., 0., 0., 0., 0., 0.,
          0., 0., 1.02040814e-002, 0., 0., 0., 0., 0., 0., 0., 0., 0.,
          0., 1.02040814e-002, 0., 0., 0., 0., 0., 1.02040814e-002, 0.,
          0., 0., 1.02040814e-002, 0., 0., 0., 0., 0., 0., 0.,
          1.02040814e-002, 0., 0., 0., 0., 0., 0., 1.02040814e-002, 0.,
          0., 0., 1.02040814e-002, 0., 0., 0., 0., 0., 0., 0., 0., 0.,
          5.10204062e-002, 0., 1.02040814e-002, 0., 0., 0., 0., 0., 0.,
          0., 0., 0., 0., 0., 0., 1.02040814e-002, 0., 0., 0., 0., 0.,
          0., 0., 0., 0., 0., 0., 1.02040814e-002, 0., 0., 0.,
          2.04081628e-002, 0., 0., 0., 0., 0., 0., 0., 0., 0., 0., 0.,
          0., 0., 0., 0., 0., 0., 0., 0., 0., 0., 0., 0., 0., 0., 0., 0.,
          0., 0., 2.04081628e-002, 0., 0., 0., 0., 0., 0., 0., 0.,
          2.04081628e-002, 0., 0., 0., 0., 0., 0., 0., 0., 0., 0., 0.,
          0., 0., 0., 0., 0., 0., 0., 0., 0., 0., 0., 0., 0., 0., 0., 0.,
          0., 0., 0., 0., 0., 0., 0., 0., 0., 0., 0., 0., 0., 0.,
          3.06122452e-002, 0., 0., 0., 0., 0., 0., 0., 0., 0., 0., 0.,
          0., 1.02040814e-002, 0., 0., 2.04081628e-002, 0., 0., 0., 0.,
          1.02040814e-002, 0., 0., 0., 0., 0., 0., 0., 0.,
          1.02040814e-002, 0., 0., 0., 0., 0., 0., 0., 0., 0., 0., 0.,
          0., 0., 0., 0., 0., 0., 0., 0., 0., 0., 0., 0., 0., 0., 0., 0.,
          0., 0., 0., 0., 1.02040814e-002, 2.04081628e-002, 0., 0.,
          1.02040814e-002, 0., 0., 0., 0., 0., 0., 0., 0., 0., 0., 0.,
          0., 0., 0., 0., 1.02040814e-002, 0., 0., 0., 0., 0., 0., 0.,
          0., 0., 0., 0., 1.02040814e-002, 0., 0., 0., 0.,
          1.02040814e-002, 0., 0., 0., 0., 0., 0., 0., 0., 0., 0., 0.,
          0., 1.02040814e-002, 0., 0., 0., 0., 0., 0., 0., 0., 0., 0.,
          0., 0., 0., 0., 0., 0., 0., 0., 0., 0., 0., 0., 0., 0., 0., 0.,
          0., 1.02040814e-002, 0., 0., 0., 0., 0., 0., 0.,
          1.02040814e-002, 0., 0., 0., 0., 0., 0., 1.02040814e-002, 0.,
          0., 0., 0., 0., 0., 0., 0., 0., 0., 0., 0., 0., 0., 0.,
          1.02040814e-002, 0., 0., 1.02040814e-002, 0., 0., 0., 0., 0.,
          0., 0., 0., 0., 0., 0., 0., 0., 0., 0., 0., 0., 0., 0., 0., 0.,
          2.04081628e-002, 0., 0., 0., 0., 0., 0., 0., 0., 0., 0., 0.,
          0., 0., 0., 0., 0., 0., 0., 0., 0., 0., 0., 0., 0., 0., 0., 0.,
          0., 1.02040814e-002, 0., 0., 1.02040814e-002, 0.,
          1.02040814e-002 ]
      - [ 1.94174761e-003, 0., 0., 7.76699046e-003, 0., 0., 0., 0., 0.,
          1.94174761e-003, 0., 0., 0., 0., 0., 0., 2.33009718e-002, 0.,
          0., 0., 0., 0., 0., 0., 0., 0., 0., 0., 0., 0., 0.,
          3.88349523e-003, 1.94174761e-003, 0., 0., 0., 1.94174761e-003,
          0., 0., 0., 1.94174761e-003, 0., 3.88349523e-003, 0., 0., 0.,
          0., 0., 0., 0., 0., 1.94174761e-003, 1.94174761e-003, 0., 0.,
          0., 2.13592239e-002, 0., 0., 0., 0., 0., 1.94174761e-003, 0.,
          0., 0., 0., 0., 0., 0., 1.94174761e-003, 0., 0., 0., 0., 0.,
          0., 0., 0., 1.94174761e-003, 0., 1.94174761e-003,
          1.94174761e-003, 0., 0., 5.82524296e-003, 0., 1.94174761e-003,
          0., 5.82524296e-003, 1.94174761e-003, 0., 1.94174761e-003, 0.,
          0., 0., 0., 1.94174761e-003, 1.94174761e-003, 1.94174761e-003,
          0., 1.94174761e-003, 0., 0., 0., 1.94174761e-003, 0., 0.,
          1.94174761e-003, 1.94174761e-003, 0., 0., 1.94174761e-003, 0.,
          0., 1.94174761e-003, 0., 0., 0., 0., 1.94174761e-003, 0.,
          1.94174761e-003, 1.94174761e-003, 0., 0., 3.88349523e-003,
          1.94174761e-003, 0., 0., 0., 3.88349523e-003, 0.,
          1.94174761e-003, 0., 1.94174761e-003, 0., 0., 0.,
          1.94174761e-003, 0., 0., 0., 0., 0., 0., 0., 0.,
          1.94174761e-003, 0., 0., 0., 0., 0., 0., 2.11650491e-001, 0.,
          1.94174761e-003, 0., 0., 0., 0., 1.94174761e-003, 0., 0., 0.,
          1.94174761e-003, 0., 1.94174761e-003, 0., 0., 0., 0.,
          1.94174761e-003, 0., 0., 0., 0., 3.88349523e-003, 0., 0., 0.,
          0., 0., 0., 0., 0., 0., 0., 0., 0., 0., 0., 0., 0., 0., 0., 0.,
          0., 1.94174761e-003, 0., 0., 0., 0., 1.94174761e-003,
          1.94174761e-003, 0., 1.94174761e-003, 0., 1.94174761e-003, 0.,
          0., 0., 0., 0., 0., 1.94174761e-003, 0., 0., 0., 0., 0., 0.,
          0., 0., 0., 0., 0., 0., 0., 0., 0., 0., 0., 0., 0., 0., 0., 0.,
          0., 0., 0., 1.94174761e-003, 0., 0., 0., 0., 0., 0., 0., 0.,
          0., 0., 0., 0., 0., 0., 0., 0., 0., 0., 0., 5.82524296e-003,
          0., 0., 0., 3.88349523e-003, 0., 1.94174761e-003, 0., 0., 0.,
          0., 3.88349523e-003, 0., 0., 1.94174761e-003, 0., 0., 0., 0.,
          0., 0., 0., 0., 3.88349523e-003, 0., 0., 3.88349523e-003,
