%YAML:1.0
my_svm: !!opencv-ml-svm
   svm_type: C_SVC
   kernel: { type:RBF, gamma:5.0625000000000009e-001 }
   C: 3.1250000000000000e+002
   term_criteria: { epsilon:2.2204460492503131e-016, iterations:100 }
   var_all: 1000
   var_count: 1000
   class_count: 2
   class_labels: !!opencv-matrix
      rows: 1
      cols: 2
      dt: i
      data: [ 0, 1 ]
   sv_total: 148
   support_vectors:
      - [ 0., 0., 0., 0., 0., 0., 0., 0., 0., 0., 0., 0., 0., 0., 0., 0.,
          0., 0., 0., 8.54700897e-003, 0., 0., 0., 0., 0., 0., 0., 0.,
          0., 0., 0., 8.54700897e-003, 8.54700897e-003, 0., 0., 0., 0.,
          8.54700897e-003, 0., 0., 0., 0., 0., 0., 8.54700897e-003, 0.,
          8.54700897e-003, 0., 0., 0., 0., 0., 0., 0., 0., 0., 0., 0.,
          0., 0., 0., 8.54700897e-003, 0., 0., 0., 0., 0., 0., 0., 0.,
          0., 0., 0., 0., 0., 0., 0., 0., 0., 0., 0., 8.54700897e-003,
          8.54700897e-003, 0., 0., 0., 0., 0., 8.54700897e-003,
          8.54700897e-003, 0., 0., 0., 0., 0., 0., 0., 0., 0., 0., 0.,
          0., 0., 8.54700897e-003, 0., 0., 0., 0., 0., 1.70940179e-002,
          0., 0., 0., 0., 8.54700897e-003, 0., 0., 0., 0., 0., 0., 0.,
          0., 0., 0., 0., 0., 0., 0., 0., 0., 0., 0., 0., 0., 0.,
          8.54700897e-003, 8.54700897e-003, 8.54700897e-003, 0., 0.,
          8.54700897e-003, 0., 0., 8.54700897e-003, 0., 0., 0.,
          8.54700897e-003, 0., 8.54700897e-003, 0., 0., 0., 0., 0., 0.,
          0., 0., 0., 0., 0., 0., 0., 8.54700897e-003, 0., 0., 0., 0.,
          0., 0., 0., 0., 0., 0., 0., 8.54700897e-003, 0., 0., 0., 0.,
          0., 0., 1.70940179e-002, 0., 0., 0., 0., 0., 0.,
          8.54700897e-003, 0., 0., 0., 8.54700897e-003, 0., 0.,
          8.54700897e-003, 0., 0., 0., 0., 0., 0., 0., 0., 0., 0., 0.,
          0., 0., 0., 0., 0., 0., 0., 0., 0., 8.54700897e-003, 0., 0.,
          0., 0., 0., 0., 0., 0., 8.54700897e-003, 0., 0., 0.,
          8.54700897e-003, 0., 0., 0., 0., 0., 0., 0., 0., 0., 0., 0.,
          0., 0., 0., 0., 0., 0., 0., 0., 8.54700897e-003, 0., 0., 0.,
          0., 0., 0., 0., 0., 0., 0., 0., 0., 0., 0., 0., 0., 0., 0., 0.,
          0., 0., 0., 0., 0., 0., 0., 0., 0., 0., 0., 0., 0., 0., 0., 0.,
          0., 0., 0., 0., 0., 0., 0., 0., 0., 0., 0., 0., 0., 0., 0., 0.,
          0., 0., 0., 0., 0., 0., 0., 0., 0., 8.54700897e-003, 0.,
          8.54700897e-003, 0., 8.54700897e-003, 0., 0., 0., 0., 0., 0.,
          0., 0., 0., 0., 0., 0., 0., 0., 0., 8.54700897e-003,
          8.54700897e-003, 0., 0., 0., 0., 0., 0., 0., 0., 0.,
          8.54700897e-003, 0., 0., 0., 0., 8.54700897e-003, 0., 0., 0.,
          0., 8.54700897e-003, 0., 8.54700897e-003, 0., 0., 0., 0.,
          1.70940179e-002, 0., 0., 0., 0., 0., 0., 0., 0., 0., 0., 0.,
          0., 0., 0., 0., 0., 0., 8.54700897e-003, 0., 8.54700897e-003,
          8.54700897e-003, 0., 0., 0., 0., 0., 0., 0., 0., 0., 0., 0.,
          0., 0., 0., 0., 0., 0., 0., 8.54700897e-003, 0., 0., 0., 0.,
          0., 0., 0., 0., 0., 0., 0., 0., 0., 0., 0., 0., 0., 0., 0., 0.,
          0., 0., 0., 0., 0., 0., 0., 0., 0., 0., 0., 3.41880359e-002,
          0., 0., 0., 0., 0., 0., 0., 0., 0., 0., 0., 0., 0.,
          8.54700897e-003, 0., 0., 0., 0., 0., 1.70940179e-002, 0., 0.,
          0., 0., 0., 0., 0., 8.54700897e-003, 0., 0., 0., 0., 0., 0.,
          0., 0., 0., 0., 0., 0., 0., 0., 0., 0., 0., 0., 0., 0., 0.,
          8.54700897e-003, 0., 1.70940179e-002, 0., 0., 0., 0., 0., 0.,
          0., 0., 0., 2.56410278e-002, 0., 0., 0., 0., 0., 0., 0., 0.,
          0., 1.70940179e-002, 0., 0., 0., 0., 0., 0., 0., 0., 0., 0.,
          0., 0., 0., 0., 0., 0., 0., 0., 0., 0., 0., 0., 0., 0., 0., 0.,
          0., 0., 0., 0., 0., 0., 0., 0., 8.54700897e-003, 0.,
          8.54700897e-003, 0., 0., 8.54700897e-003, 0., 0.,
          8.54700897e-003, 0., 0., 0., 0., 0., 0., 0., 0., 0., 0., 0.,
          0., 8.54700897e-003, 0., 0., 0., 0., 0., 0., 0., 0., 0., 0.,
          0., 0., 0., 0., 1.70940179e-002, 0., 0., 0., 0., 0., 0., 0.,
          0., 0., 0., 0., 0., 0., 0., 0., 0., 0., 0., 0., 0., 0.,
          8.54700897e-003, 0., 0., 0., 0., 8.54700897e-003,
          8.54700897e-003, 0., 0., 0., 0., 0., 0., 8.54700897e-003, 0.,
          0., 0., 0., 0., 0., 0., 0., 0., 0., 0., 0., 0., 0., 0., 0.,
          8.54700897e-003, 0., 0., 0., 0., 0., 8.54700897e-003, 0., 0.,
          0., 0., 0., 0., 0., 0., 0., 0., 0., 0., 0., 0., 0.,
          8.54700897e-003, 0., 0., 0., 0., 8.54700897e-003, 0., 0., 0.,
          0., 0., 0., 0., 0., 8.54700897e-003, 0., 0., 0., 0., 0., 0.,
          0., 0., 1.70940179e-002, 1.70940179e-002, 0., 0., 0., 0., 0.,
          0., 0., 0., 0., 0., 0., 0., 0., 0., 0., 0., 0., 0., 0., 0., 0.,
          0., 0., 0., 0., 0., 0., 0., 0., 8.54700897e-003, 0., 0., 0.,
          0., 0., 0., 1.70940179e-002, 0., 0., 0., 0., 0., 0., 0., 0.,
          0., 0., 0., 0., 0., 0., 0., 0., 0., 0., 0., 0., 0., 0., 0., 0.,
          0., 0., 0., 0., 0., 0., 0., 0., 0., 8.54700897e-003, 0., 0.,
          0., 8.54700897e-003, 8.54700897e-003, 0., 0., 0., 0., 0., 0.,
          0., 0., 0., 0., 0., 8.54700897e-003, 0., 0., 8.54700897e-003,
          0., 0., 0., 0., 0., 0., 0., 0., 0., 0., 0., 0., 0., 0., 0., 0.,
          0., 0., 0., 0., 0., 0., 0., 0., 0., 0., 0., 0., 0., 0., 0., 0.,
          0., 0., 0., 0., 0., 0., 0., 0., 0., 8.54700897e-003, 0., 0.,
          0., 0., 0., 0., 0., 0., 0., 0., 8.54700897e-003, 0., 0., 0.,
          0., 0., 0., 0., 1.70940179e-002, 0., 0., 0., 0., 0., 0., 0.,
          0., 0., 0., 0., 0., 0., 0., 0., 0., 8.54700897e-003, 0., 0.,
          0., 0., 8.54700897e-003, 0., 0., 0., 0., 0., 0., 0.,
          1.70940179e-002, 0., 0., 0., 0., 0., 0., 0., 0., 0., 0., 0.,
          8.54700897e-003, 0., 0., 0., 8.54700897e-003, 0.,
          8.54700897e-003, 0., 0., 0., 0., 0., 0., 0., 0., 0., 0.,
          8.54700897e-003, 0., 0., 0., 0., 0., 0., 1.70940179e-002,
          8.54700897e-003, 0., 0., 0., 0., 0., 0., 0., 0., 0., 0., 0.,
          0., 0., 0., 0., 0., 0., 0., 0., 0., 0., 8.54700897e-003, 0.,
          0., 0., 0., 0., 0., 0., 0., 0., 0., 0., 0., 0., 0., 0., 0., 0.,
          0., 0., 0., 0., 0., 0., 0., 0., 0., 0., 0., 0., 0., 0., 0., 0.,
          0., 8.54700897e-003, 0., 0., 0., 0., 0., 8.54700897e-003, 0.,
          0., 0., 0., 0., 0., 8.54700897e-003, 0., 0., 0., 0., 0.,
          1.70940179e-002, 0., 0., 0., 0., 0., 0., 0., 0., 0., 0., 0.,
          0., 8.54700897e-003, 0., 0., 0., 8.54700897e-003, 0.,
          8.54700897e-003, 0., 0., 0., 0., 0., 0., 0., 0., 0.,
          8.54700897e-003, 0., 0. ]
      - [ 0., 0., 0., 0., 0., 0., 0., 0., 0., 0., 0., 0., 0., 0., 0., 0.,
          0., 0., 0., 0., 0., 0., 0., 0., 0., 0., 0., 0., 0., 0., 0.,
          9.99999978e-003, 0., 0., 0., 0., 0., 0., 0., 0., 0., 0., 0.,
          0., 0., 0., 0., 0., 0., 0., 0., 0., 0., 0., 0., 0., 0., 0., 0.,
          0., 0., 0., 0., 0., 9.99999978e-003, 0., 9.99999978e-003, 0.,
          0., 0., 0., 0., 0., 9.99999978e-003, 0., 1.99999996e-002, 0.,
          0., 0., 0., 0., 0., 0., 0., 0., 9.99999978e-003, 0., 0., 0.,
          0., 0., 0., 0., 0., 0., 0., 0., 0., 0., 0., 0., 0., 0., 0., 0.,
          0., 0., 0., 0., 0., 0., 0., 0., 0., 0., 9.99999978e-003, 0.,
          0., 0., 0., 0., 0., 0., 0., 9.99999978e-003, 9.99999978e-003,
          0., 0., 0., 0., 0., 0., 0., 0., 0., 0., 0., 0., 0.,
          2.99999993e-002, 0., 0., 0., 0., 1.99999996e-002, 0., 0.,
          9.99999978e-003, 0., 0., 0., 0., 0., 0., 0., 0., 0., 0., 0.,
          0., 0., 0., 0., 0., 0., 0., 0., 0., 0., 0., 0., 0., 0., 0., 0.,
          0., 0., 0., 9.99999978e-003, 0., 0., 0., 0., 0., 0., 0., 0.,
          0., 0., 9.99999978e-003, 0., 0., 0., 0., 0., 0., 0., 0., 0.,
          0., 0., 0., 0., 0., 0., 0., 0., 0., 0., 0., 0., 0., 0., 0., 0.,
          0., 0., 0., 0., 0., 1.99999996e-002, 0., 9.99999978e-003,
          9.99999978e-003, 9.99999978e-003, 0., 0., 0., 0., 0., 0., 0.,
          0., 0., 0., 0., 0., 0., 0., 0., 0., 0., 0., 0., 0., 0., 0., 0.,
          9.99999978e-003, 0., 0., 0., 0., 0., 9.99999978e-003, 0., 0.,
          0., 0., 0., 0., 0., 0., 9.99999978e-003, 0., 0., 0., 0., 0.,
          0., 9.99999978e-003, 0., 0., 0., 0., 0., 0., 0., 0., 0., 0.,
          0., 0., 0., 0., 0., 0., 0., 0., 0., 0., 0., 0., 0.,
          9.99999978e-003, 0., 0., 0., 0., 0., 0., 0., 0., 0., 0., 0.,
          0., 0., 0., 0., 0., 0., 0., 0., 0., 9.99999978e-003, 0., 0.,
          0., 0., 0., 9.99999978e-003, 0., 0., 0., 0., 0., 0., 0., 0.,
          0., 0., 0., 0., 0., 0., 0., 0., 0., 0., 0., 0., 0., 0., 0., 0.,
          0., 0., 0., 0., 0., 0., 0., 0., 0., 0., 9.99999978e-003, 0.,
          9.99999978e-003, 0., 0., 0., 0., 0., 0., 0., 0., 0., 0., 0.,
          0., 0., 0., 0., 9.99999978e-003, 9.99999978e-003, 0., 0., 0.,
          0., 0., 0., 0., 0., 0., 0., 9.99999978e-003, 0., 0., 0., 0.,
          0., 0., 0., 0., 0., 0., 0., 0., 0., 0., 0., 0., 0., 0., 0., 0.,
          0., 0., 0., 0., 0., 0., 0., 0., 0., 0., 0., 0., 0., 0., 0.,
          1.99999996e-002, 0., 0., 0., 0., 0., 0., 0., 0., 0., 0., 0.,
          9.99999978e-003, 0., 0., 0., 0., 0., 0., 0., 0., 0., 0., 0.,
          0., 0., 0., 0., 0., 0., 0., 0., 0., 0., 0., 0., 0., 0., 0., 0.,
          0., 0., 0., 0., 0., 0., 0., 0., 0., 0., 0., 9.99999978e-003,
          0., 0., 0., 0., 0., 0., 9.99999978e-003, 0., 0., 0., 0., 0.,
          0., 0., 0., 0., 0., 0., 0., 0., 0., 0., 0., 0., 0., 0.,
          9.99999978e-003, 0., 0., 0., 0., 4.99999970e-002, 0., 0., 0.,
          0., 0., 0., 0., 0., 0., 0., 0., 9.99999940e-002, 0., 0., 0.,
          0., 0., 0., 0., 0., 0., 0., 0., 0., 0., 0., 0.,
          9.99999978e-003, 9.99999978e-003, 0., 0., 0., 0.,
          9.99999978e-003, 0., 0., 0., 0., 0., 0., 0., 0., 0., 0., 0.,
          0., 0., 0., 0., 0., 9.99999978e-003, 1.99999996e-002, 0., 0.,
          0., 0., 0., 0., 9.99999978e-003, 0., 0., 0., 0., 0., 0., 0.,
          0., 0., 0., 0., 0., 0., 9.99999978e-003, 0., 0., 0.,
          9.99999978e-003, 0., 0., 0., 0., 0., 9.99999978e-003, 0., 0.,
          0., 0., 0., 0., 0., 0., 0., 0., 0., 0., 0., 0., 0.,
          9.99999978e-003, 0., 0., 0., 0., 0., 0., 0., 0., 0., 0., 0.,
          0., 0., 0., 0., 0., 0., 0., 0., 0., 0., 0., 0., 0., 0., 0.,
          9.99999978e-003, 0., 0., 0., 0., 0., 0., 0., 0., 0., 0., 0.,
          0., 0., 0., 0., 0., 0., 9.99999978e-003, 0., 1.99999996e-002,
          0., 0., 0., 0., 0., 0., 0., 0., 0., 0., 0., 0., 0., 0., 0., 0.,
          9.99999978e-003, 9.99999978e-003, 0., 0., 0., 0., 0., 0., 0.,
          0., 0., 0., 0., 0., 0., 0., 0., 0., 0., 0., 0., 0., 0., 0., 0.,
          0., 0., 0., 0., 0., 9.99999978e-003, 0., 0., 0., 0.,
          1.99999996e-002, 0., 0., 0., 0., 0., 0., 0., 0.,
          9.99999978e-003, 0., 0., 0., 0., 0., 0., 0., 0., 0., 0., 0.,
          0., 0., 0., 0., 0., 0., 0., 0., 0., 0., 0., 0., 0., 0., 0., 0.,
          0., 0., 0., 0., 0., 0., 0., 0., 0., 0., 0., 0., 0., 0., 0., 0.,
          0., 0., 0., 0., 0., 0., 0., 0., 1.99999996e-002, 0., 0.,
          9.99999978e-003, 0., 0., 0., 0., 0., 0., 0., 0., 0., 0., 0.,
          0., 0., 0., 0., 0., 0., 0., 0., 0., 0., 0., 0., 0., 0., 0., 0.,
          9.99999978e-003, 0., 0., 0., 0., 0., 0., 0., 0., 0., 0., 0.,
          0., 0., 0., 1.99999996e-002, 9.99999978e-003, 0., 0., 0., 0.,
          0., 0., 0., 0., 0., 0., 0., 0., 0., 1.99999996e-002, 0., 0.,
          0., 0., 0., 0., 0., 0., 0., 0., 0., 0., 0., 0., 0., 0., 0., 0.,
          0., 0., 0., 0., 0., 0., 0., 0., 0., 0., 0., 0., 0., 0., 0., 0.,
          0., 0., 0., 0., 0., 0., 0., 0., 0., 2.99999993e-002,
          1.99999996e-002, 0., 0., 9.99999978e-003, 0., 0.,
          9.99999978e-003, 0., 0., 0., 0., 0., 0., 0., 9.99999978e-003,
          0., 0., 0., 0., 0., 0., 0., 0., 0., 0., 0., 0., 0., 0., 0., 0.,
          0., 0., 0., 0., 0., 0., 0., 0., 0., 0., 0., 0., 0., 0., 0.,
          9.99999978e-003, 0., 0., 0., 0., 0., 0., 0., 0., 0., 0., 0.,
          0., 0., 0., 0., 0., 0., 0., 0., 9.99999978e-003, 0., 0., 0.,
          0., 0., 0., 0., 0., 0., 0., 0., 0., 0., 0., 0., 0., 0., 0., 0.,
          0., 0., 0., 0., 0., 0., 0., 0., 0., 0., 0., 0., 0., 0.,
          9.99999978e-003, 0., 0., 9.99999978e-003, 0., 0., 0., 0., 0.,
          0., 0., 0., 0., 0., 0., 0., 0., 9.99999978e-003, 0., 0., 0.,
          0., 0., 0., 0., 0., 0., 9.99999978e-003, 0., 0. ]
      - [ 1.13636367e-002, 0., 0., 0., 0., 0., 0., 0., 0., 0., 0., 0.,
          0., 0., 0., 0., 0., 0., 0., 0., 0., 0., 0., 0.,
          1.13636367e-002, 0., 0., 0., 0., 0., 0., 0., 0., 0., 0.,
          2.27272734e-002, 0., 1.13636367e-002, 0., 0., 0., 0., 0.,
          1.13636367e-002, 0., 0., 0., 0., 0., 0., 0., 0., 0., 0., 0.,
          0., 0., 0., 0., 0., 0., 0., 0., 0., 0., 0., 0., 0., 0., 0., 0.,
          0., 0., 0., 2.27272734e-002, 0., 0., 0., 0., 0., 0., 0., 0.,
          1.13636367e-002, 0., 0., 0., 0., 0., 0., 0., 0., 0., 0., 0.,
          0., 0., 0., 0., 0., 0., 0., 1.13636367e-002, 0.,
          1.13636367e-002, 0., 0., 0., 0., 0., 0., 1.13636367e-002, 0.,
          0., 0., 0., 1.13636367e-002, 0., 0., 0., 0., 0.,
          1.13636367e-002, 0., 0., 0., 0., 0., 0., 0., 1.13636367e-002,
          1.13636367e-002, 0., 0., 0., 0., 0., 1.13636367e-002, 0., 0.,
          0., 0., 1.13636367e-002, 0., 0., 1.13636367e-002, 0., 0., 0.,
          0., 0., 0., 0., 0., 1.13636367e-002, 0., 0., 0., 0., 0., 0.,
          0., 0., 0., 0., 1.13636367e-002, 0., 1.13636367e-002, 0., 0.,
          0., 0., 0., 0., 0., 0., 0., 0., 0., 0., 0., 0., 0., 0., 0., 0.,
          0., 0., 0., 0., 0., 0., 0., 1.13636367e-002, 0., 0., 0., 0.,
          0., 0., 0., 0., 0., 0., 0., 0., 0., 0., 0., 0.,
          1.13636367e-002, 1.13636367e-002, 0., 0., 0., 0., 0., 0., 0.,
          0., 0., 0., 0., 0., 0., 0., 0., 0., 0., 0., 2.27272734e-002,
          0., 0., 0., 0., 0., 0., 1.13636367e-002, 0., 0., 0., 0., 0.,
          0., 0., 0., 1.13636367e-002, 0., 0., 0., 0., 0., 0., 0., 0.,
          0., 1.13636367e-002, 0., 0., 0., 0., 0., 0., 0., 0., 0., 0.,
          0., 0., 0., 0., 1.13636367e-002, 0., 0., 0., 0., 0., 0., 0.,
          0., 0., 0., 0., 0., 0., 0., 0., 0., 0., 0., 0., 0., 0., 0., 0.,
          0., 0., 0., 0., 0., 0., 0., 0., 1.13636367e-002, 0., 0., 0.,
          1.13636367e-002, 1.13636367e-002, 0., 0., 0., 0., 0., 0., 0.,
          0., 0., 0., 0., 0., 0., 0., 0., 0., 0., 0., 0., 0., 0., 0., 0.,
          0., 1.13636367e-002, 0., 0., 0., 0., 0., 0., 1.13636367e-002,
          0., 0., 0., 0., 0., 0., 0., 0., 0., 0., 0., 0., 0., 0., 0., 0.,
          0., 0., 1.13636367e-002, 0., 0., 0., 0., 0., 0., 0., 0., 0.,
          0., 0., 0., 0., 0., 0., 0., 0., 0., 0., 0., 0., 0., 0.,
          1.13636367e-002, 0., 0., 0., 0., 1.13636367e-002, 0., 0., 0.,
          0., 1.13636367e-002, 0., 0., 0., 0., 0., 0., 0., 0., 0., 0.,
          0., 1.13636367e-002, 0., 0., 0., 0., 0., 0., 0.,
          1.13636367e-002, 0., 0., 0., 0., 0., 0., 0., 0., 0., 0., 0.,
          0., 0., 0., 0., 1.13636367e-002, 0., 0., 0., 0., 0., 0., 0.,
          0., 1.13636367e-002, 0., 0., 0., 0., 0., 0., 0., 0., 0., 0.,
          0., 0., 0., 0., 0., 0., 0., 1.13636367e-002, 0., 0., 0., 0.,
          0., 0., 0., 0., 0., 0., 0., 0., 0., 0., 0., 0., 0., 0., 0., 0.,
          1.13636367e-002, 0., 0., 0., 1.13636367e-002, 0., 0., 0., 0.,
          0., 0., 0., 0., 0., 0., 0., 0., 2.27272734e-002, 0., 0., 0.,
          0., 0., 0., 0., 0., 0., 0., 0., 0., 0., 0., 0., 0., 0., 0., 0.,
          0., 0., 0., 0., 0., 0., 0., 0., 0., 0., 1.13636367e-002, 0.,
          0., 0., 0., 0., 0., 0., 0., 0., 0., 0., 0., 1.13636367e-002,
          0., 0., 0., 0., 0., 0., 0., 0., 0., 0., 0., 0., 0., 0., 0., 0.,
          0., 0., 0., 1.13636367e-002, 0., 0., 0., 1.13636367e-002,
          1.13636367e-002, 0., 2.27272734e-002, 0., 0., 0., 0., 0., 0.,
          0., 1.13636367e-002, 0., 0., 0., 0., 0., 0., 0., 0., 0., 0.,
          0., 0., 0., 0., 0., 0., 0., 0., 0., 0., 0., 0., 0., 0., 0., 0.,
          0., 0., 1.13636367e-002, 0., 0., 0., 0., 0., 0., 0., 0., 0.,
          0., 0., 0., 0., 0., 1.13636367e-002, 0., 1.13636367e-002, 0.,
          0., 0., 0., 0., 0., 0., 0., 0., 0., 0., 0., 0., 0., 0., 0., 0.,
          0., 0., 0., 0., 0., 0., 0., 0., 0., 0., 0., 0., 0., 0., 0., 0.,
          0., 0., 0., 1.13636367e-002, 0., 0., 0., 0., 0., 0., 0., 0.,
          0., 0., 0., 0., 0., 0., 0., 0., 0., 0., 0., 1.13636367e-002,
          0., 0., 0., 0., 0., 0., 0., 0., 0., 1.13636367e-002, 0., 0.,
          0., 0., 0., 0., 0., 0., 0., 0., 0., 0., 1.13636367e-002, 0.,
          0., 0., 0., 0., 0., 0., 0., 0., 0., 0., 0., 0., 0., 0., 0., 0.,
          0., 0., 0., 0., 0., 0., 0., 0., 0., 0., 0., 0., 0., 0., 0., 0.,
          0., 0., 0., 1.13636367e-002, 0., 0., 0., 1.13636367e-002, 0.,
          0., 0., 0., 0., 0., 0., 0., 0., 0., 1.13636367e-002, 0., 0.,
          0., 0., 0., 0., 0., 0., 0., 0., 0., 0., 0., 0., 0., 0.,
          1.13636367e-002, 0., 0., 1.13636367e-002, 0., 0., 0., 0., 0.,
          0., 1.13636367e-002, 0., 0., 0., 0., 0., 0., 0., 0.,
          1.13636367e-002, 0., 0., 0., 0., 1.13636367e-002, 0., 0., 0.,
          1.13636367e-002, 0., 0., 0., 1.13636367e-002, 0., 0., 0., 0.,
          0., 0., 0., 0., 0., 0., 0., 0., 0., 0., 0., 0., 0., 0., 0., 0.,
          0., 0., 0., 0., 0., 0., 0., 0., 0., 0., 0., 0., 0., 0., 0., 0.,
          0., 0., 0., 0., 0., 1.13636367e-002, 0., 0., 0., 0., 0., 0.,
          0., 0., 0., 0., 0., 0., 0., 0., 0., 0., 0., 0., 0., 0., 0., 0.,
          1.13636367e-002, 0., 0., 0., 1.13636367e-002, 0., 0., 0., 0.,
          0., 1.13636367e-002, 0., 0., 0., 0., 1.13636367e-002, 0., 0.,
          0., 0., 0., 0., 0., 0., 0., 0., 0., 0., 0., 1.13636367e-002,
          0., 0., 0., 0., 0., 0., 0., 0., 0., 0., 0., 0., 0., 0., 0., 0.,
          0., 0., 0., 0., 0., 0., 0., 0., 0., 0., 1.13636367e-002, 0.,
          0., 0., 0., 0., 0., 0., 0., 0., 0., 1.13636367e-002, 0., 0.,
          1.13636367e-002, 0., 0., 0., 0., 0., 0., 0., 0., 0., 0., 0.,
          0., 1.13636367e-002, 0., 0., 0., 0., 0., 0., 0., 0.,
          1.13636367e-002, 0., 0., 0., 0., 0., 0., 0., 0., 0., 0., 0.,
          0., 0., 0., 0., 0., 1.13636367e-002, 0., 1.13636367e-002, 0.,
          0., 0., 0., 0., 1.13636367e-002, 0., 0., 0., 0., 0., 0., 0.,
          0., 0., 0., 0., 0., 0., 0., 0., 0., 0., 0. ]
      - [ 8.84955749e-003, 0., 0., 0., 0., 0., 0., 0., 0., 0., 0., 0.,
          0., 0., 0., 0., 0., 8.84955749e-003, 0., 0., 0., 0., 0., 0.,
          0., 0., 0., 0., 0., 0., 0., 0., 0., 1.76991150e-002, 0., 0.,
          8.84955749e-003, 0., 0., 0., 0., 0., 0., 0., 0., 0., 0., 0.,
          0., 0., 0., 0., 0., 0., 8.84955749e-003, 0., 8.84955749e-003,
          0., 0., 0., 0., 0., 0., 0., 0., 0., 0., 0., 0., 0., 0., 0., 0.,
          0., 0., 0., 0., 0., 0., 0., 0., 0., 0., 0., 8.84955749e-003,
          0., 0., 8.84955749e-003, 0., 0., 0., 0., 0., 0., 0., 0., 0.,
          0., 0., 8.84955749e-003, 0., 8.84955749e-003, 0., 0., 0., 0.,
          0., 0., 0., 0., 0., 0., 0., 0., 0., 0., 8.84955749e-003, 0.,
          0., 0., 0., 8.84955749e-003, 0., 0., 0., 0., 0., 0., 0., 0.,
          8.84955749e-003, 0., 0., 0., 0., 0., 0., 0., 0., 0.,
          8.84955749e-003, 0., 0., 0., 2.65486725e-002, 0., 0., 0., 0.,
          8.84955749e-003, 0., 8.84955749e-003, 0., 0., 0.,
          1.76991150e-002, 0., 0., 0., 0., 0., 0., 0., 8.84955749e-003,
          0., 0., 0., 0., 8.84955749e-003, 8.84955749e-003, 0., 0., 0.,
          8.84955749e-003, 0., 0., 0., 0., 0., 0., 0., 0., 0., 0., 0.,
          8.84955749e-003, 8.84955749e-003, 0., 0., 0., 0., 0., 0., 0.,
          0., 0., 0., 0., 0., 0., 0., 0., 0., 0., 0., 0.,
          8.84955749e-003, 0., 0., 0., 0., 0., 0., 0., 0., 0.,
          8.84955749e-003, 0., 8.84955749e-003, 1.76991150e-002, 0., 0.,
          0., 0., 8.84955749e-003, 0., 0., 0., 0., 0., 0., 0., 0., 0.,
          0., 8.84955749e-003, 0., 8.84955749e-003, 0., 0., 0., 0., 0.,
          0., 0., 0., 0., 0., 0., 0., 0., 0., 0., 0., 0., 0., 0., 0., 0.,
          8.84955749e-003, 8.84955749e-003, 0., 8.84955749e-003, 0., 0.,
          0., 0., 0., 0., 0., 0., 0., 0., 0., 0., 0., 0., 0., 0., 0., 0.,
          0., 0., 8.84955749e-003, 0., 0., 0., 0., 0., 0., 0.,
          8.84955749e-003, 1.76991150e-002, 0., 0., 0., 0., 0., 0., 0.,
          0., 0., 8.84955749e-003, 0., 0., 0., 0., 0., 0., 0., 0., 0.,
          0., 0., 0., 0., 0., 0., 0., 0., 0., 0., 0., 0., 0., 0., 0., 0.,
          0., 0., 0., 0., 0., 0., 0., 0., 8.84955749e-003, 0., 0., 0.,
          0., 0., 0., 0., 0., 8.84955749e-003, 0., 0., 0., 0., 0., 0.,
          0., 0., 8.84955749e-003, 0., 0., 8.84955749e-003, 0., 0., 0.,
          0., 0., 0., 0., 0., 0., 0., 0., 0., 0., 0., 0., 0., 0., 0., 0.,
          0., 0., 0., 8.84955749e-003, 0., 0., 0., 0., 0., 0., 0., 0.,
          0., 0., 8.84955749e-003, 0., 0., 0., 0., 0., 0., 0., 0., 0.,
          0., 0., 0., 0., 0., 0., 0., 0., 0., 0., 0., 0., 0., 0., 0., 0.,
          8.84955749e-003, 0., 0., 0., 0., 0., 0., 0., 0., 0., 0., 0.,
          1.76991150e-002, 0., 0., 2.65486725e-002, 8.84955749e-003, 0.,
          8.84955749e-003, 0., 0., 0., 0., 0., 0., 0., 0., 0., 0.,
          8.84955749e-003, 0., 8.84955749e-003, 0., 8.84955749e-003, 0.,
          8.84955749e-003, 0., 0., 0., 0., 0., 0., 0., 0., 0., 0., 0.,
          0., 0., 0., 0., 0., 0., 0., 0., 0., 0., 0., 0., 0., 0., 0., 0.,
          0., 0., 0., 0., 0., 0., 0., 0., 0., 0., 0., 0., 0., 0., 0., 0.,
          0., 0., 0., 0., 0., 0., 0., 0., 0., 0., 0., 0., 0., 0., 0., 0.,
          8.84955749e-003, 0., 0., 0., 0., 0., 0., 0., 0., 0., 0., 0.,
          0., 0., 0., 0., 0., 0., 0., 0., 0., 0., 0., 0.,
          8.84955749e-003, 0., 0., 0., 0., 0., 0., 0., 0., 0., 0., 0.,
          0., 0., 0., 0., 0., 0., 0., 0., 1.76991150e-002, 0., 0.,
          8.84955749e-003, 8.84955749e-003, 0., 0., 0., 0., 0., 0., 0.,
          0., 0., 0., 0., 0., 0., 0., 8.84955749e-003, 0., 0., 0., 0.,
          0., 0., 0., 0., 8.84955749e-003, 0., 8.84955749e-003, 0., 0.,
          0., 0., 0., 0., 0., 8.84955749e-003, 0., 8.84955749e-003, 0.,
          0., 0., 0., 0., 0., 0., 0., 0., 0., 0., 0., 0., 0., 0., 0., 0.,
          0., 0., 8.84955749e-003, 0., 0., 8.84955749e-003, 0., 0., 0.,
          0., 0., 8.84955749e-003, 0., 0., 8.84955749e-003, 0., 0., 0.,
          0., 0., 0., 0., 0., 0., 8.84955749e-003, 0., 0.,
          8.84955749e-003, 0., 0., 0., 0., 0., 0., 0., 0., 0., 0., 0.,
          0., 0., 0., 0., 0., 0., 8.84955749e-003, 0., 0., 0., 0., 0.,
          0., 0., 0., 0., 0., 0., 0., 0., 0., 0., 0., 0., 0., 0.,
          8.84955749e-003, 0., 0., 0., 0., 0., 8.84955749e-003, 0., 0.,
          0., 0., 0., 0., 0., 0., 0., 0., 0., 8.84955749e-003, 0., 0.,
          0., 0., 0., 0., 0., 0., 0., 0., 0., 0., 0., 0., 0., 0., 0., 0.,
          0., 0., 0., 0., 0., 0., 0., 0., 0., 0., 0., 0., 0., 0., 0., 0.,
          0., 0., 8.84955749e-003, 0., 0., 8.84955749e-003, 0.,
          8.84955749e-003, 0., 0., 0., 0., 0., 0., 0., 8.84955749e-003,
          8.84955749e-003, 0., 0., 0., 0., 0., 0., 0., 0.,
          8.84955749e-003, 0., 8.84955749e-003, 0., 0., 8.84955749e-003,
          0., 0., 0., 0., 0., 0., 0., 0., 1.76991150e-002, 0., 0., 0.,
          0., 0., 0., 0., 0., 0., 0., 0., 0., 8.84955749e-003, 0., 0.,
          0., 0., 0., 0., 8.84955749e-003, 0., 0., 0., 8.84955749e-003,
          0., 0., 0., 0., 0., 0., 0., 0., 0., 0., 0., 0., 0., 0., 0., 0.,
          0., 0., 0., 0., 0., 0., 0., 0., 0., 0., 0., 0., 0., 0., 0., 0.,
          0., 8.84955749e-003, 0., 0., 0., 0., 0., 0., 0., 0., 0., 0.,
          0., 0., 0., 0., 0., 0., 0., 0., 0., 0., 0., 0., 0., 0., 0., 0.,
          0., 0., 0., 0., 0., 0., 0., 0., 0., 0., 0., 0., 0., 0., 0., 0.,
          0., 0., 8.84955749e-003, 0., 0., 0., 0., 0., 0., 0., 0., 0.,
          0., 0., 0., 0., 0., 0., 0., 0., 0., 0., 0., 0., 0., 0., 0., 0.,
          0., 0., 0., 0., 0., 0., 0., 0., 0., 0., 0., 0., 0., 0.,
          8.84955749e-003, 0., 8.84955749e-003, 0., 0., 0., 0., 0.,
          8.84955749e-003, 0., 8.84955749e-003, 0., 0., 0., 0.,
          8.84955749e-003, 0., 0., 0., 0., 0., 0., 0., 0., 0., 0., 0.,
          0., 0., 0., 0., 0., 8.84955749e-003, 1.76991150e-002, 0., 0.,
          8.84955749e-003, 0., 0., 0., 0., 0., 0., 1.76991150e-002, 0.,
          0., 0., 0., 0., 0., 0., 0., 0., 0., 0., 0., 0., 0., 0., 0., 0.,
          0., 0., 0., 0., 0., 0., 8.84955749e-003, 0., 0., 0., 0., 0.,
          8.84955749e-003, 0., 8.84955749e-003, 0., 0., 0., 0., 0., 0.,
          0., 8.84955749e-003, 0., 0. ]
      - [ 8.19672085e-003, 0., 0., 0., 0., 0., 1.63934417e-002, 0.,
          8.19672085e-003, 0., 0., 0., 0., 0., 0., 0., 0., 0., 0., 0.,
          0., 0., 0., 0., 0., 0., 0., 2.45901626e-002, 0., 0.,
          8.19672085e-003, 0., 2.45901626e-002, 0., 0., 0., 0., 0., 0.,
          0., 8.19672085e-003, 0., 0., 0., 0., 0., 0., 0., 0., 0., 0.,
          0., 0., 8.19672085e-003, 0., 0., 0., 0., 0., 0.,
          8.19672085e-003, 0., 0., 0., 8.19672085e-003, 0., 0., 0., 0.,
          0., 0., 0., 0., 0., 0., 0., 0., 0., 0., 0., 0., 0., 0., 0., 0.,
          0., 0., 0., 0., 0., 0., 0., 0., 0., 0., 0., 0., 0., 0., 0., 0.,
          0., 0., 0., 0., 0., 0., 0., 0., 8.19672085e-003,
          1.63934417e-002, 0., 0., 8.19672085e-003, 0., 0., 0., 0., 0.,
          8.19672085e-003, 8.19672085e-003, 0., 0., 0., 0., 0., 0., 0.,
          0., 0., 0., 8.19672085e-003, 0., 0., 0., 0., 0., 0., 0.,
          8.19672085e-003, 0., 1.63934417e-002, 0., 0., 0., 0., 0., 0.,
          0., 0., 0., 0., 0., 0., 0., 0., 0., 0., 0., 0., 0., 0., 0., 0.,
          0., 0., 0., 0., 0., 0., 0., 0., 0., 8.19672085e-003,
          1.63934417e-002, 0., 0., 0., 0., 8.19672085e-003, 0., 0., 0.,
          0., 0., 0., 0., 8.19672085e-003, 0., 0., 8.19672085e-003, 0.,
          0., 0., 0., 0., 0., 0., 0., 8.19672085e-003, 0.,
          8.19672085e-003, 0., 0., 0., 0., 0., 0., 8.19672085e-003, 0.,
          0., 1.63934417e-002, 0., 0., 8.19672085e-003, 0.,
          8.19672085e-003, 0., 0., 0., 0., 8.19672085e-003, 0., 0.,
          8.19672085e-003, 0., 0., 0., 0., 0., 0., 0., 0., 0., 0.,
          8.19672085e-003, 0., 0., 0., 0., 0., 0., 8.19672085e-003, 0.,
          0., 1.63934417e-002, 0., 0., 0., 0., 0., 0., 0., 0., 0., 0.,
          0., 8.19672085e-003, 0., 0., 0., 0., 0., 0., 0., 0., 0., 0.,
          0., 0., 0., 0., 0., 0., 0., 0., 0., 0., 8.19672085e-003, 0.,
          0., 0., 0., 0., 0., 0., 0., 0., 0., 0., 0., 0., 0., 0., 0., 0.,
          0., 0., 0., 0., 0., 0., 0., 0., 0., 0., 0., 0.,
          8.19672085e-003, 0., 0., 0., 0., 0., 8.19672085e-003, 0., 0.,
          0., 0., 0., 0., 0., 0., 0., 0., 0., 0., 0., 0., 0., 0., 0., 0.,
          0., 0., 8.19672085e-003, 0., 0., 0., 0., 0., 0., 0.,
          8.19672085e-003, 0., 0., 0., 0., 8.19672085e-003, 0., 0., 0.,
          0., 0., 8.19672085e-003, 0., 0., 0., 0., 0., 0., 0.,
          8.19672085e-003, 0., 0., 0., 0., 0., 0., 0., 0.,
          8.19672085e-003, 0., 0., 0., 0., 8.19672085e-003, 0., 0., 0.,
          0., 0., 0., 1.63934417e-002, 8.19672085e-003, 0., 0.,
          8.19672085e-003, 0., 0., 0., 0., 0., 0., 0., 0., 0.,
          8.19672085e-003, 8.19672085e-003, 0., 0., 0., 0., 0.,
          8.19672085e-003, 0., 0., 0., 0., 8.19672085e-003, 0.,
          8.19672085e-003, 0., 0., 0., 0., 0., 0., 0., 0., 0., 0., 0.,
          0., 0., 0., 0., 0., 0., 0., 0., 0., 0., 0., 0.,
          8.19672085e-003, 0., 0., 0., 0., 0., 0., 0., 0., 0., 0., 0.,
          0., 0., 0., 0., 0., 0., 0., 0., 0., 0., 0., 0.,
          8.19672085e-003, 0., 0., 0., 0., 0., 0., 8.19672085e-003, 0.,
          0., 0., 0., 0., 0., 0., 0., 0., 8.19672085e-003, 0., 0.,
          8.19672085e-003, 0., 0., 0., 0., 8.19672085e-003, 0., 0., 0.,
          0., 0., 0., 0., 0., 0., 0., 0., 0., 0., 0., 0., 0., 0., 0., 0.,
          0., 0., 0., 0., 0., 0., 0., 0., 0., 0., 8.19672085e-003, 0.,
          0., 0., 0., 0., 0., 0., 0., 0., 0., 0., 0., 0., 0., 0., 0., 0.,
          0., 0., 0., 0., 0., 0., 0., 0., 0., 0., 8.19672085e-003, 0.,
          0., 0., 0., 8.19672085e-003, 0., 0., 8.19672085e-003, 0., 0.,
          0., 0., 0., 0., 0., 0., 0., 0., 0., 0., 0., 0., 0., 0., 0., 0.,
          0., 0., 0., 0., 0., 0., 0., 0., 0., 0., 8.19672085e-003, 0.,
          0., 0., 0., 8.19672085e-003, 0., 0., 0., 0., 0., 0., 0., 0.,
          0., 0., 0., 0., 0., 0., 0., 0., 0., 0., 0., 0., 0., 0., 0., 0.,
          0., 0., 0., 0., 0., 0., 0., 0., 0., 0., 0., 0., 0., 0., 0., 0.,
          0., 0., 0., 0., 0., 0., 8.19672085e-003, 0., 0., 0., 0., 0.,
          0., 0., 0., 8.19672085e-003, 0., 0., 0., 0., 0., 0., 0.,
          8.19672085e-003, 0., 0., 0., 0., 0., 0., 0., 8.19672085e-003,
          0., 0., 0., 0., 0., 0., 0., 0., 8.19672085e-003, 0., 0., 0.,
          0., 0., 8.19672085e-003, 0., 0., 0., 0., 0., 0., 0., 0., 0.,
          0., 0., 0., 0., 0., 0., 0., 0., 0., 0., 0., 0., 0., 0., 0., 0.,
          0., 8.19672085e-003, 0., 0., 0., 0., 0., 0., 8.19672085e-003,
          0., 0., 0., 0., 0., 0., 0., 0., 0., 8.19672085e-003,
          8.19672085e-003, 0., 0., 0., 0., 0., 0., 8.19672085e-003,
          8.19672085e-003, 0., 0., 0., 0., 0., 0., 0., 0., 0., 0.,
          8.19672085e-003, 8.19672085e-003, 0., 0., 0., 0., 0.,
          8.19672085e-003, 0., 0., 8.19672085e-003, 0., 8.19672085e-003,
          0., 0., 0., 0., 0., 0., 0., 0., 0., 0., 0., 0., 0., 0.,
          8.19672085e-003, 0., 0., 0., 0., 0., 0., 0., 0., 0., 0., 0.,
          0., 0., 0., 0., 0., 0., 0., 0., 0., 0., 8.19672085e-003, 0.,
          0., 0., 0., 0., 0., 0., 0., 0., 0., 0., 0., 0., 0., 0., 0., 0.,
          0., 0., 0., 0., 0., 0., 0., 0., 0., 0., 0., 0., 0., 0., 0., 0.,
          0., 0., 8.19672085e-003, 0., 0., 0., 0., 0., 0., 0.,
          8.19672085e-003, 0., 0., 0., 0., 0., 0., 0., 0., 0.,
          8.19672085e-003, 0., 0., 0., 0., 0., 0., 0., 0., 0., 0., 0.,
          0., 8.19672085e-003, 0., 0., 0., 8.19672085e-003, 0.,
          8.19672085e-003, 0., 0., 0., 0., 0., 0., 8.19672085e-003, 0.,
          0., 0., 8.19672085e-003, 0., 0., 0., 0., 0., 0., 0., 0.,
          8.19672085e-003, 0., 0., 0., 0., 0., 0., 0., 0., 0.,
          8.19672085e-003, 8.19672085e-003, 0., 8.19672085e-003, 0., 0.,
          0., 0., 0., 0., 0., 0., 0., 0., 0., 0., 0., 8.19672085e-003,
          0., 0., 0., 0., 0., 8.19672085e-003, 0., 0., 0., 0., 0., 0.,
          0., 0., 0., 0., 0., 0., 0., 0., 0., 0., 0., 0., 0., 0., 0., 0.,
          0., 0., 8.19672085e-003, 8.19672085e-003, 8.19672085e-003, 0.,
          8.19672085e-003, 0., 0., 0., 0., 0., 8.19672085e-003,
          8.19672085e-003, 0., 0., 0., 0., 8.19672085e-003,
          1.63934417e-002, 0., 0., 0., 0., 0., 0., 0., 0., 0., 0., 0.,
          0., 0., 8.19672085e-003, 0., 0., 0., 0., 0., 0., 0., 0., 0.,
          0., 0., 0., 0., 0., 0., 8.19672085e-003, 0., 0., 0., 0.,
          1.63934417e-002, 0., 0., 0., 0., 0., 0., 0., 0., 0., 0., 0.,
          0. ]
      - [ 0., 0., 0., 0., 0., 0., 0., 0., 0., 0., 7.04225339e-003, 0.,
          0., 7.04225339e-003, 0., 0., 0., 0., 0., 0., 0., 0., 0., 0.,
          0., 0., 0., 0., 0., 0., 7.04225339e-003, 7.04225339e-003, 0.,
          0., 0., 0., 0., 0., 0., 0., 0., 1.40845068e-002,
          7.04225339e-003, 0., 0., 0., 0., 0., 0., 0., 0., 0., 0., 0.,
          0., 0., 7.04225339e-003, 0., 0., 0., 0., 7.04225339e-003, 0.,
          0., 7.04225339e-003, 0., 0., 0., 0., 0., 0., 0., 0.,
          7.04225339e-003, 0., 0., 7.04225339e-003, 0., 0., 0., 0., 0.,
          0., 0., 0., 0., 0., 1.40845068e-002, 0., 0., 0., 0., 0., 0.,
          0., 0., 7.04225339e-003, 0., 0., 0., 0., 0., 0., 0., 0., 0.,
          0., 0., 0., 0., 0., 0., 0., 0., 0., 0., 0., 0.,
          7.04225339e-003, 0., 0., 0., 0., 0., 0., 0., 0.,
          7.04225339e-003, 0., 0., 0., 0., 1.40845068e-002, 0., 0.,
          7.04225339e-003, 0., 0., 0., 0., 0., 0., 0., 0.,
          1.40845068e-002, 0., 0., 0., 0., 7.04225339e-003, 0., 0., 0.,
          0., 0., 0., 0., 2.11267602e-002, 0., 0., 0., 0., 0., 0., 0.,
          0., 0., 0., 0., 0., 0., 0., 0., 0., 0., 0., 0.,
          1.40845068e-002, 0., 0., 0., 0., 0., 0., 0., 7.04225339e-003,
          0., 0., 0., 0., 7.04225339e-003, 0., 0., 0., 0., 0., 0., 0.,
          0., 0., 0., 0., 0., 0., 0., 0., 0., 0., 0., 0., 0.,
          7.04225339e-003, 0., 0., 0., 0., 0., 0., 7.04225339e-003, 0.,
          1.40845068e-002, 0., 0., 0., 0., 0., 1.40845068e-002, 0., 0.,
          0., 1.40845068e-002, 0., 0., 0., 0., 0., 0., 0.,
          7.04225339e-003, 0., 1.40845068e-002, 0., 0., 0., 0., 0., 0.,
          0., 0., 0., 0., 0., 0., 0., 0., 0., 0., 0., 0., 0., 0., 0.,
          7.04225339e-003, 0., 0., 0., 0., 0., 0., 0., 0., 0., 0., 0.,
          0., 0., 0., 0., 0., 0., 0., 0., 0., 7.04225339e-003, 0., 0.,
          0., 0., 0., 0., 0., 0., 0., 0., 0., 1.40845068e-002, 0., 0.,
          0., 7.04225339e-003, 0., 0., 0., 0., 0., 0., 0., 0., 0., 0.,
          0., 7.04225339e-003, 7.04225339e-003, 0., 0., 7.04225339e-003,
          0., 0., 0., 0., 0., 0., 0., 0., 0., 0., 0., 0., 0., 0., 0., 0.,
          0., 0., 0., 0., 7.04225339e-003, 1.40845068e-002,
          1.40845068e-002, 0., 0., 0., 7.04225339e-003, 0., 0., 0., 0.,
          0., 0., 0., 0., 0., 0., 0., 0., 0., 0., 0., 0., 0., 0., 0., 0.,
          0., 0., 0., 0., 0., 0., 0., 0., 0., 0., 0., 0., 0., 0., 0., 0.,
          0., 0., 0., 0., 0., 0., 0., 0., 0., 0., 0., 0., 0., 0., 0., 0.,
          0., 0., 0., 0., 0., 0., 0., 0., 0., 0., 0., 0., 0., 0., 0., 0.,
          0., 0., 7.04225339e-003, 0., 0., 0., 7.04225339e-003, 0., 0.,
          0., 7.04225339e-003, 0., 0., 0., 0., 0., 0., 0., 0., 0., 0.,
          0., 0., 0., 0., 0., 0., 0., 0., 0., 0., 0., 0., 0.,
          7.04225339e-003, 0., 0., 0., 0., 0., 0., 0., 0., 0.,
          7.04225339e-003, 0., 7.04225339e-003, 0., 0., 0., 0., 0., 0.,
          0., 0., 7.04225339e-003, 0., 0., 0., 0., 0., 0., 0., 0., 0.,
          0., 0., 0., 0., 0., 0., 0., 0., 0., 0., 0., 0., 0., 0., 0., 0.,
          0., 7.04225339e-003, 7.04225339e-003, 0., 0., 0., 0., 0.,
          7.04225339e-003, 0., 0., 0., 0., 0., 0., 0., 0., 0., 0.,
          1.40845068e-002, 0., 0., 0., 0., 2.11267602e-002, 0., 0., 0.,
          0., 0., 0., 0., 0., 0., 0., 0., 7.04225339e-003, 0., 0., 0.,
          0., 0., 0., 7.04225339e-003, 0., 1.40845068e-002,
          7.04225339e-003, 0., 0., 0., 0., 0., 0., 0., 0., 0.,
          2.11267602e-002, 0., 0., 0., 0., 0., 0., 7.04225339e-003, 0.,
          0., 0., 0., 0., 7.04225339e-003, 0., 0., 7.04225339e-003, 0.,
          0., 0., 0., 0., 7.04225339e-003, 0., 0., 0., 0., 0., 0., 0.,
          0., 0., 0., 0., 0., 7.04225339e-003, 0., 0., 0.,
          7.04225339e-003, 0., 7.04225339e-003, 0., 0., 0., 0.,
          7.04225339e-003, 0., 0., 7.04225339e-003, 0., 0., 0., 0., 0.,
          0., 7.04225339e-003, 0., 0., 0., 7.04225339e-003, 0.,
          7.04225339e-003, 0., 0., 0., 0., 0., 0., 7.04225339e-003, 0.,
          1.40845068e-002, 0., 0., 7.04225339e-003, 0., 0., 0., 0., 0.,
          0., 0., 0., 0., 0., 0., 0., 0., 0., 0., 0., 0., 0.,
          7.04225339e-003, 0., 0., 0., 7.04225339e-003, 0., 0., 0., 0.,
          0., 0., 0., 7.04225339e-003, 0., 0., 0., 0., 1.40845068e-002,
          0., 0., 0., 0., 0., 7.04225339e-003, 0., 0., 0.,
          7.04225339e-003, 0., 0., 0., 0., 0., 0., 0., 0., 0., 0.,
          7.04225339e-003, 0., 0., 0., 0., 7.04225339e-003, 0., 0., 0.,
          7.04225339e-003, 0., 0., 0., 0., 1.40845068e-002, 0., 0.,
          7.04225339e-003, 7.04225339e-003, 0., 7.04225339e-003, 0., 0.,
          7.04225339e-003, 0., 0., 0., 0., 0., 0., 0., 0., 0., 0., 0.,
          0., 0., 0., 0., 0., 0., 0., 0., 0., 0., 0., 1.40845068e-002,
          0., 0., 0., 0., 0., 0., 0., 0., 0., 0., 0., 2.11267602e-002,
          0., 0., 0., 0., 0., 0., 0., 0., 0., 0., 7.04225339e-003, 0.,
          0., 0., 0., 0., 0., 0., 0., 0., 0., 0., 0., 7.04225339e-003,
          0., 0., 0., 0., 0., 0., 0., 0., 0., 0., 0., 7.04225339e-003,
          0., 0., 0., 0., 0., 0., 0., 0., 0., 0., 0., 0., 0., 0., 0., 0.,
          0., 0., 7.04225339e-003, 0., 0., 0., 0., 0., 0., 0., 0., 0.,
          0., 0., 0., 0., 0., 0., 0., 0., 0., 0., 0., 0., 0., 0., 0., 0.,
          0., 0., 0., 0., 0., 0., 0., 0., 0., 0., 0., 0., 0., 0., 0.,
          7.04225339e-003, 0., 0., 0., 0., 0., 0., 0., 7.04225339e-003,
          0., 0., 0., 0., 0., 0., 7.04225339e-003, 0., 0., 0., 0., 0.,
          0., 0., 0., 0., 0., 0., 0., 0., 0., 0., 0., 0., 0., 0., 0., 0.,
          0., 0., 7.04225339e-003, 0., 0., 1.40845068e-002, 0., 0., 0.,
          0., 0., 7.04225339e-003, 0., 0., 7.04225339e-003, 0., 0., 0.,
          0., 0., 0., 0., 0., 0., 0., 7.04225339e-003, 0.,
          7.04225339e-003, 0., 0., 7.04225339e-003, 1.40845068e-002, 0.,
          0., 0., 0., 0., 0., 0., 0., 0., 0., 7.04225339e-003,
          7.04225339e-003, 0., 0., 0., 0., 0., 0., 0., 0., 0., 0., 0.,
          0., 0., 0., 0., 0., 7.04225339e-003, 0., 0., 0., 0.,
          7.04225339e-003, 0., 7.04225339e-003, 0., 0., 0., 0., 0., 0.,
          0., 0., 0., 0., 0., 1.40845068e-002, 0., 0., 0.,
          7.04225339e-003, 0., 0., 0., 0., 0., 0., 0., 0., 0., 0., 0.,
          0., 0., 0., 0., 0., 1.40845068e-002, 0., 0., 0., 0., 0., 0.,
          0., 0., 0., 0., 0., 0., 0., 0., 0., 0., 0., 0., 0., 0., 0., 0.,
          0., 0., 0., 0., 0., 0., 0. ]
      - [ 0., 0., 1.38888890e-002, 0., 0., 0., 0., 0., 0., 0., 0., 0.,
          0., 0., 0., 0., 0., 0., 0., 0., 0., 0., 0., 1.38888890e-002,
          0., 0., 0., 0., 0., 0., 0., 0., 0., 0., 0., 0.,
          1.38888890e-002, 0., 1.38888890e-002, 0., 0., 0., 0., 0., 0.,
          0., 0., 0., 0., 0., 0., 0., 0., 0., 0., 0., 0., 0., 0., 0., 0.,
          0., 0., 0., 0., 0., 0., 0., 0., 0., 0., 0., 0.,
          1.38888890e-002, 0., 0., 0., 0., 0., 0., 0., 0., 0., 0., 0.,
          0., 0., 0., 0., 0., 0., 0., 1.38888890e-002, 0., 0., 0., 0.,
          0., 0., 0., 0., 0., 0., 0., 0., 0., 0., 0., 0., 0., 0., 0., 0.,
          0., 0., 0., 0., 0., 0., 0., 0., 0., 0., 0., 1.38888890e-002,
          0., 0., 0., 0., 0., 0., 0., 0., 0., 0., 0., 0., 0., 0.,
          1.38888890e-002, 0., 0., 0., 0., 0., 0., 0., 0., 0., 0., 0.,
          2.77777780e-002, 0., 0., 0., 0., 0., 0., 0., 0., 0., 0., 0.,
          0., 0., 0., 0., 0., 0., 0., 0., 0., 0., 0., 0., 0., 0., 0., 0.,
          0., 0., 0., 0., 0., 1.38888890e-002, 0., 0., 2.77777780e-002,
          0., 0., 0., 0., 0., 0., 0., 0., 0., 0., 0., 0., 0., 0.,
          1.38888890e-002, 0., 0., 0., 0., 0., 0., 0., 0., 0., 0., 0.,
          0., 0., 0., 0., 0., 0., 0., 0., 0., 0., 0., 0.,
          2.77777780e-002, 0., 0., 0., 0., 0., 0., 1.38888890e-002, 0.,
          2.77777780e-002, 0., 0., 0., 0., 0., 0., 0., 1.38888890e-002,
          0., 0., 0., 0., 0., 0., 0., 0., 0., 0., 0., 0., 0., 0., 0., 0.,
          0., 0., 0., 0., 0., 0., 0., 0., 1.38888890e-002, 0., 0., 0.,
          1.38888890e-002, 0., 0., 0., 0., 0., 0., 1.38888890e-002, 0.,
          0., 0., 0., 0., 0., 0., 0., 0., 0., 0., 0., 0., 0., 0., 0., 0.,
          0., 0., 0., 0., 0., 0., 0., 0., 0., 0., 0., 1.38888890e-002,
          0., 2.77777780e-002, 0., 0., 1.38888890e-002, 0., 0., 0., 0.,
          0., 0., 0., 0., 1.38888890e-002, 0., 0., 0., 0., 0., 0.,
          1.38888890e-002, 0., 0., 0., 0., 0., 0., 0., 0., 0., 0., 0.,
          0., 0., 0., 0., 0., 0., 0., 0., 0., 0., 0., 0., 0., 0., 0., 0.,
          0., 0., 0., 0., 0., 0., 0., 0., 0., 0., 0., 0., 0., 0., 0., 0.,
          0., 0., 0., 0., 0., 0., 0., 0., 1.38888890e-002, 0., 0., 0.,
          0., 0., 0., 0., 0., 0., 0., 0., 0., 0., 0., 1.38888890e-002,
          0., 0., 0., 0., 0., 0., 0., 1.38888890e-002, 0., 0., 0., 0.,
          0., 0., 0., 0., 2.77777780e-002, 0., 0., 0., 0., 0., 0., 0.,
          0., 0., 1.38888890e-002, 0., 0., 0., 0., 1.38888890e-002, 0.,
          0., 0., 0., 0., 0., 0., 0., 0., 0., 0., 0., 0., 0., 0., 0., 0.,
          0., 0., 0., 0., 0., 0., 0., 0., 0., 0., 0., 0., 0., 0., 0.,
          1.38888890e-002, 0., 0., 0., 0., 0., 0., 0., 0., 0., 0., 0.,
          0., 0., 0., 0., 0., 0., 0., 0., 0., 0., 0., 0., 0., 0., 0., 0.,
          0., 0., 1.38888890e-002, 1.38888890e-002, 0., 0., 0., 0., 0.,
          0., 0., 0., 0., 0., 0., 0., 0., 0., 0., 0., 0., 0., 0., 0., 0.,
          0., 0., 0., 0., 0., 0., 0., 0., 0., 0., 0., 0., 0., 0., 0., 0.,
          1.38888890e-002, 0., 0., 0., 0., 0., 0., 0., 0., 0., 0., 0.,
          0., 0., 0., 0., 0., 0., 0., 1.38888890e-002, 0., 0., 0., 0.,
          0., 0., 0., 0., 0., 0., 0., 0., 0., 0., 0., 0., 0., 0., 0., 0.,
          0., 0., 0., 0., 0., 0., 0., 0., 0., 0., 0., 0., 0.,
          1.38888890e-002, 0., 0., 0., 0., 0., 1.38888890e-002,
          1.38888890e-002, 0., 0., 0., 0., 1.38888890e-002, 0., 0., 0.,
          0., 0., 0., 0., 0., 0., 0., 1.38888890e-002, 0., 0., 0., 0.,
          0., 0., 0., 0., 0., 0., 1.38888890e-002, 0., 0.,
          1.38888890e-002, 0., 0., 0., 0., 0., 0., 0., 0., 0., 0., 0.,
          0., 0., 0., 0., 0., 0., 0., 0., 0., 0., 0., 0., 0.,
          1.38888890e-002, 0., 0., 0., 0., 0., 0., 0., 0., 0., 0., 0.,
          0., 0., 0., 0., 0., 0., 0., 0., 0., 0., 0., 0., 0., 0., 0., 0.,
          0., 0., 0., 0., 0., 0., 0., 0., 0., 0., 0., 0., 0., 0., 0., 0.,
          0., 0., 0., 0., 0., 4.16666679e-002, 0., 0., 0., 0., 0., 0.,
          0., 0., 0., 0., 0., 0., 0., 0., 0., 0., 1.38888890e-002, 0.,
          0., 0., 0., 0., 0., 0., 0., 0., 0., 0., 0., 0., 0., 0., 0., 0.,
          0., 0., 0., 0., 0., 0., 0., 1.38888890e-002, 0., 0., 0., 0.,
          0., 0., 0., 0., 0., 0., 1.38888890e-002, 0., 0., 0., 0., 0.,
          0., 0., 0., 0., 0., 0., 0., 0., 0., 0., 0., 0., 0., 0., 0., 0.,
          0., 0., 0., 0., 0., 0., 0., 0., 0., 0., 0., 0., 0., 0., 0., 0.,
          0., 0., 0., 0., 0., 0., 1.38888890e-002, 0., 0., 0., 0., 0.,
          0., 0., 0., 0., 0., 0., 0., 0., 0., 0., 0., 0., 0., 0., 0., 0.,
          0., 0., 0., 0., 0., 0., 0., 2.77777780e-002, 0., 0., 0., 0.,
          0., 0., 0., 0., 0., 0., 0., 0., 0., 0., 0., 0., 0., 0., 0., 0.,
          0., 0., 0., 1.38888890e-002, 0., 0., 0., 0., 0., 0., 0., 0.,
          0., 0., 0., 0., 0., 0., 0., 0., 0., 0., 0., 0., 0., 0., 0., 0.,
          0., 0., 0., 0., 0., 0., 0., 0., 0., 0., 0., 0., 0., 0.,
          1.38888890e-002, 0., 0., 0., 0., 0., 0., 0., 0., 0., 0., 0.,
          0., 0., 0., 0., 0., 4.16666679e-002, 0., 0., 0., 0., 0., 0.,
          0., 0., 0., 0., 0., 0., 0., 0., 0., 0., 0., 0., 0., 0., 0., 0.,
          0., 0., 0., 1.38888890e-002, 0., 0., 4.16666679e-002, 0., 0.,
          0., 0., 0., 0., 0., 0., 0., 1.38888890e-002, 0., 0., 0., 0.,
          0., 0., 0., 0., 0., 0., 0., 0., 0., 0., 0., 0., 0., 0., 0.,
          1.38888890e-002, 0., 0., 0., 0., 0., 0., 1.38888890e-002, 0.,
          0., 0., 0., 0., 1.38888890e-002, 0., 0., 1.38888890e-002, 0.,
          0., 0., 0., 0., 0., 0., 0., 0., 0., 0., 0., 0., 0., 0., 0., 0.,
          0., 0., 0., 0., 0., 0., 0. ]
      - [ 0., 0., 0., 0., 0., 0., 0., 0., 0., 0., 0., 0., 0., 0., 0., 0.,
          0., 0., 0., 0., 0., 0., 0., 0., 0., 0., 0., 0., 0., 0., 0., 0.,
          0., 0., 0., 0., 0., 0., 0., 0., 0., 0., 0., 0.,
          1.02040814e-002, 0., 0., 1.02040814e-002, 0., 0., 0., 0., 0.,
          0., 0., 0., 0., 0., 0., 0., 0., 0., 0., 0., 0., 0., 0., 0., 0.,
          0., 0., 0., 0., 0., 0., 0., 0., 0., 0., 0., 1.02040814e-002,
          0., 0., 0., 0., 0., 0., 0., 0., 0., 0., 0., 1.02040814e-002,
          0., 0., 0., 0., 0., 0., 0., 0., 0., 0., 0., 0., 0., 0., 0., 0.,
          0., 0., 0., 0., 0., 0., 0., 0., 0., 0., 0., 1.02040814e-002,
          0., 0., 0., 0., 0., 0., 0., 0., 0., 1.02040814e-002, 0., 0.,
          0., 0., 0., 0., 0., 0., 0., 0., 0., 0., 0., 0., 0., 0., 0.,
          1.02040814e-002, 1.02040814e-002, 0., 0., 0., 0., 0., 0., 0.,
          0., 0., 0., 0., 0., 0., 0., 0., 0., 1.02040814e-002, 0., 0.,
          0., 0., 0., 0., 0., 0., 0., 0., 0., 0., 0., 0., 0., 0., 0., 0.,
          0., 0., 0., 1.02040814e-002, 0., 0., 0., 0., 0., 0., 0., 0.,
          0., 0., 0., 0., 0., 0., 0., 0., 0., 3.06122452e-002, 0., 0.,
          0., 0., 0., 0., 0., 2.04081628e-002, 0., 0., 1.02040814e-002,
          0., 1.02040814e-002, 0., 0., 0., 0., 0., 3.06122452e-002,
          1.02040814e-002, 0., 0., 0., 0., 0., 0., 0., 0., 0., 0., 0.,
          2.04081628e-002, 0., 1.02040814e-002, 0., 0., 0., 0., 0., 0.,
          0., 0., 0., 0., 0., 0., 0., 0., 0., 0., 0., 0., 0., 0., 0., 0.,
          0., 0., 0., 0., 0., 0., 0., 0., 0., 1.02040814e-002, 0., 0.,
          0., 0., 0., 1.02040814e-002, 1.02040814e-002, 0., 0., 0., 0.,
          0., 0., 0., 0., 0., 0., 0., 0., 0., 0., 0., 0., 0., 0., 0., 0.,
          0., 0., 0., 0., 0., 0., 0., 0., 0., 0., 0., 0., 0., 0., 0., 0.,
          0., 0., 0., 0., 0., 0., 0., 0., 0., 0., 0., 0., 0., 0., 0., 0.,
          0., 0., 0., 0., 0., 0., 0., 0., 0., 0., 0., 0., 0., 0., 0., 0.,
          0., 1.02040814e-002, 0., 0., 0., 0., 1.02040814e-002,
          1.02040814e-002, 0., 0., 0., 2.04081628e-002, 0., 0., 0., 0.,
          0., 0., 0., 0., 0., 0., 0., 0., 0., 0., 0., 0., 0., 0., 0., 0.,
          0., 0., 0., 0., 0., 0., 0., 0., 1.02040814e-002, 0., 0., 0.,
          0., 0., 0., 0., 0., 0., 0., 0., 1.02040814e-002, 0., 0., 0.,
          0., 0., 0., 0., 0., 0., 0., 0., 0., 0., 0., 0., 0., 0., 0., 0.,
          0., 0., 0., 0., 0., 0., 0., 1.02040814e-002, 0., 0., 0., 0.,
          0., 0., 0., 0., 0., 0., 0., 0., 1.02040814e-002, 0.,
          1.02040814e-002, 1.02040814e-002, 0., 0., 0., 1.02040814e-002,
          0., 0., 0., 0., 0., 0., 0., 0., 0., 0., 0., 0., 0., 0., 0., 0.,
          0., 0., 0., 0., 1.02040814e-002, 0., 0., 0., 0., 0., 0., 0.,
          0., 1.02040814e-002, 0., 0., 0., 0., 1.02040814e-002, 0., 0.,
          0., 0., 0., 0., 0., 0., 0., 0., 0., 0., 0., 0., 0., 0., 0.,
          1.02040814e-002, 0., 0., 0., 0., 0., 0., 0., 0.,
          1.02040814e-002, 0., 1.02040814e-002, 0., 0., 0., 0., 0., 0.,
          0., 0., 0., 0., 0., 0., 0., 0., 0., 0., 0., 0., 0.,
          1.02040814e-002, 0., 0., 0., 0., 0., 0., 0., 0., 0., 0., 0.,
          0., 0., 0., 0., 0., 0., 0., 0., 0., 1.02040814e-002, 0., 0.,
          2.04081628e-002, 0., 0., 0., 0., 0., 0., 0., 0., 0., 0., 0.,
          0., 1.02040814e-002, 0., 0., 0., 0., 0., 0., 0., 0.,
          1.02040814e-002, 0., 0., 0., 0., 0., 0., 0., 0.,
          2.04081628e-002, 0., 0., 0., 0., 0., 0., 0., 0., 0., 0.,
          1.02040814e-002, 0., 0., 0., 0., 1.02040814e-002, 0., 0., 0.,
          0., 0., 0., 0., 2.04081628e-002, 0., 0., 2.04081628e-002, 0.,
          0., 0., 0., 0., 0., 0., 0., 0., 0., 0., 1.02040814e-002, 0.,
          1.02040814e-002, 0., 0., 0., 0., 0., 0., 0., 0., 0., 0., 0.,
          0., 0., 0., 0., 0., 0., 0., 0., 0., 0., 0., 0., 0.,
          1.02040814e-002, 0., 0., 0., 0., 0., 1.02040814e-002, 0., 0.,
          0., 0., 0., 1.02040814e-002, 0., 0., 0., 0., 1.02040814e-002,
          0., 0., 1.02040814e-002, 0., 0., 1.02040814e-002, 0., 0., 0.,
          0., 0., 0., 0., 0., 0., 0., 0., 0., 0., 0., 0., 0., 0., 0., 0.,
          0., 0., 0., 0., 0., 0., 0., 0., 0., 0., 0., 0., 0., 0., 0., 0.,
          0., 0., 0., 0., 0., 0., 0., 0., 0., 0., 0., 0., 0., 0., 0., 0.,
          0., 0., 0., 0., 0., 0., 0., 0., 0., 0., 1.02040814e-002, 0.,
          1.02040814e-002, 0., 0., 0., 0., 0., 0., 0., 0., 0., 0., 0.,
          0., 0., 0., 0., 0., 0., 0., 0., 0., 0., 0., 1.02040814e-002,
          0., 0., 0., 0., 0., 0., 0., 0., 0., 0., 2.04081628e-002, 0.,
          0., 0., 0., 0., 0., 0., 0., 0., 0., 0., 0., 0., 0., 0., 0., 0.,
          0., 0., 1.02040814e-002, 0., 0., 0., 0., 2.04081628e-002, 0.,
          0., 0., 0., 0., 0., 0., 0., 0., 0., 0., 0., 0., 0., 0., 0., 0.,
          0., 0., 1.02040814e-002, 0., 1.02040814e-002, 0., 0., 0., 0.,
          0., 0., 0., 0., 0., 0., 0., 0., 0., 0., 0., 0., 0., 0., 0.,
          2.04081628e-002, 0., 0., 1.02040814e-002, 0., 0., 0., 0., 0.,
          0., 0., 0., 0., 0., 0., 0., 0., 0., 0., 0., 0., 0., 0., 0., 0.,
          0., 0., 0., 0., 0., 0., 1.02040814e-002, 1.02040814e-002,
          1.02040814e-002, 0., 0., 0., 0., 0., 0., 0., 0., 0., 0.,
          1.02040814e-002, 0., 1.02040814e-002, 0., 0., 0., 0.,
          1.02040814e-002, 2.04081628e-002, 0., 0., 0., 0., 0., 0., 0.,
          0., 0., 0., 0., 0., 0., 0., 1.02040814e-002, 0., 0., 0., 0.,
          0., 0., 0., 0., 0., 0., 0., 0., 0., 0., 0., 0., 0., 0., 0., 0.,
          0., 2.04081628e-002, 0., 1.02040814e-002, 0., 0., 0., 0., 0.,
          3.06122452e-002, 0., 0., 0., 0., 0., 0., 0., 0., 0., 0., 0.,
          0., 0., 0., 0., 0., 0., 0., 0., 0., 0., 0., 0., 0., 0., 0., 0.,
          0., 0., 0., 1.02040814e-002, 1.02040814e-002, 0., 0., 0., 0.,
          0., 0., 0., 0., 0., 0., 0., 0., 0., 0., 0., 0., 0., 0.,
          1.02040814e-002, 0., 0., 0., 0., 0., 0., 0., 0., 0., 0., 0. ]
      - [ 0., 0., 0., 9.99999978e-003, 0., 0., 0., 0., 0., 0., 0., 0.,
          9.99999978e-003, 0., 0., 0., 0., 0., 0., 0., 0., 0., 0., 0.,
          0., 0., 0., 0., 0., 0., 0., 0., 0., 0., 0., 0.,
          9.99999978e-003, 0., 0., 0., 0., 0., 0., 0., 0., 0.,
          9.99999978e-003, 0., 0., 0., 0., 0., 0., 0., 0., 0., 0., 0.,
          9.99999978e-003, 0., 0., 0., 0., 0., 9.99999978e-003, 0., 0.,
          0., 0., 0., 0., 0., 0., 9.99999978e-003, 0., 0., 0., 0., 0.,
          0., 0., 0., 9.99999978e-003, 0., 0., 0., 0., 0., 0., 0., 0.,
          0., 0., 0., 0., 0., 0., 0., 0., 0., 0., 0., 0., 0., 0., 0., 0.,
          0., 9.99999978e-003, 0., 0., 0., 0., 0., 0., 0., 0., 0., 0.,
          0., 0., 0., 0., 0., 9.99999978e-003, 0., 0., 0., 0., 0., 0.,
          0., 0., 0., 0., 9.99999978e-003, 0., 0., 9.99999978e-003, 0.,
          0., 0., 0., 0., 0., 0., 0., 0., 0., 0., 0., 9.99999978e-003,
          0., 0., 0., 0., 0., 0., 0., 0., 0., 0., 0., 0., 0., 0., 0., 0.,
          0., 0., 0., 9.99999978e-003, 0., 0., 0., 9.99999978e-003, 0.,
          0., 0., 0., 0., 0., 0., 0., 0., 0., 0., 9.99999978e-003, 0.,
          0., 0., 9.99999978e-003, 0., 0., 0., 0., 0., 0., 0., 0., 0.,
          0., 0., 0., 0., 9.99999978e-003, 0., 0., 0., 0., 0., 0., 0.,
          0., 0., 0., 0., 0., 0., 0., 0., 0., 9.99999978e-003,
          9.99999978e-003, 0., 0., 0., 0., 9.99999978e-003, 0., 0., 0.,
          0., 0., 0., 0., 9.99999978e-003, 0., 9.99999978e-003,
          9.99999978e-003, 0., 0., 0., 0., 0., 0., 0., 0., 0., 0., 0.,
          9.99999978e-003, 0., 0., 0., 0., 0., 0., 0., 0., 0., 0., 0.,
          0., 0., 0., 0., 0., 0., 0., 0., 0., 0., 0., 0., 0., 0., 0., 0.,
          0., 0., 0., 0., 0., 0., 0., 0., 0., 0., 0., 0., 0., 0., 0., 0.,
          0., 0., 0., 0., 0., 0., 0., 0., 0., 0., 0., 0., 0., 0., 0., 0.,
          0., 9.99999978e-003, 0., 0., 0., 0., 0., 0., 0.,
          9.99999978e-003, 1.99999996e-002, 0., 0., 0., 0., 0., 0., 0.,
          0., 0., 0., 0., 0., 0., 0., 0., 0., 0., 0., 0., 0., 0., 0., 0.,
          9.99999978e-003, 0., 0., 0., 0., 9.99999978e-003, 0., 0., 0.,
          3.99999991e-002, 0., 0., 0., 0., 0., 0., 0., 0., 0., 0., 0.,
          0., 0., 9.99999978e-003, 0., 0., 0., 0., 0., 0., 0.,
          9.99999978e-003, 0., 0., 0., 0., 0., 0., 0., 0., 0., 0., 0.,
          0., 0., 0., 9.99999978e-003, 2.99999993e-002, 0., 0., 0., 0.,
          0., 0., 0., 0., 0., 0., 0., 9.99999978e-003, 0., 0., 0., 0.,
          0., 0., 0., 0., 0., 0., 0., 0., 9.99999978e-003, 0., 0.,
          9.99999978e-003, 0., 0., 0., 0., 0., 0., 9.99999978e-003,
          9.99999978e-003, 0., 0., 0., 0., 0., 0., 1.99999996e-002, 0.,
          0., 0., 0., 0., 0., 0., 0., 0., 0., 0., 0., 0., 0., 0., 0., 0.,
          0., 0., 0., 0., 0., 0., 0., 0., 0., 0., 0., 0.,
          9.99999978e-003, 0., 0., 0., 0., 0., 0., 0., 0., 0.,
          9.99999978e-003, 0., 0., 0., 0., 0., 0., 0., 0., 0., 0., 0.,
          0., 0., 0., 0., 0., 0., 0., 0., 0., 0., 0., 0., 0., 0., 0., 0.,
          9.99999978e-003, 0., 0., 0., 0., 0., 9.99999978e-003, 0., 0.,
          0., 0., 0., 0., 0., 0., 0., 9.99999978e-003, 0.,
          9.99999978e-003, 0., 0., 0., 0., 0., 9.99999978e-003, 0., 0.,
          0., 0., 0., 0., 0., 0., 0., 0., 0., 0., 0., 0., 0., 0.,
          9.99999978e-003, 0., 0., 0., 0., 0., 9.99999978e-003, 0., 0.,
          0., 0., 0., 0., 0., 9.99999978e-003, 0., 0., 0., 0., 0., 0.,
          0., 0., 0., 0., 0., 0., 0., 0., 0., 0., 9.99999978e-003, 0.,
          0., 0., 0., 0., 0., 0., 0., 0., 0., 0., 0., 0., 0., 0., 0., 0.,
          0., 0., 0., 0., 0., 0., 0., 0., 9.99999978e-003, 0., 0., 0.,
          0., 0., 9.99999978e-003, 0., 0., 0., 9.99999978e-003, 0., 0.,
          0., 0., 0., 0., 0., 0., 0., 0., 0., 0., 0., 0., 0., 0., 0., 0.,
          0., 0., 9.99999978e-003, 0., 0., 0., 0., 0., 0., 0., 0.,
          9.99999978e-003, 0., 0., 0., 0., 0., 0., 0., 0., 0., 0., 0.,
          0., 0., 0., 0., 0., 0., 0., 0., 0., 0., 0., 0., 0., 0., 0., 0.,
          0., 9.99999978e-003, 0., 9.99999978e-003, 0., 0., 0., 0., 0.,
          0., 0., 0., 0., 0., 0., 0., 0., 0., 0., 0., 0., 0., 0., 0.,
          9.99999978e-003, 0., 0., 0., 0., 9.99999978e-003, 0., 0., 0.,
          0., 0., 0., 0., 9.99999978e-003, 0., 0., 0., 0., 0., 0., 0.,
          9.99999978e-003, 0., 0., 0., 0., 0., 0., 0., 0., 0.,
          9.99999978e-003, 0., 0., 0., 0., 0., 0., 0., 0., 0., 0., 0.,
          0., 0., 0., 0., 9.99999978e-003, 0., 0., 0., 9.99999978e-003,
          0., 0., 0., 0., 0., 0., 0., 0., 0., 0., 9.99999978e-003, 0.,
          0., 0., 0., 0., 0., 0., 0., 0., 0., 0., 0., 0., 0., 0., 0., 0.,
          0., 0., 0., 0., 0., 0., 9.99999978e-003, 0., 0., 0., 0., 0.,
          0., 0., 0., 0., 0., 0., 0., 0., 0., 0., 0., 0., 0., 0., 0., 0.,
          0., 0., 0., 0., 0., 0., 9.99999978e-003, 0., 9.99999978e-003,
          0., 0., 0., 0., 0., 0., 0., 0., 0., 9.99999978e-003, 0., 0.,
          0., 0., 0., 0., 0., 0., 0., 0., 0., 0., 0., 0., 0., 0., 0.,
          9.99999978e-003, 0., 9.99999978e-003, 0., 0., 0., 0., 0., 0.,
          0., 0., 0., 0., 0., 0., 0., 0., 0., 0., 0., 0., 0., 0., 0., 0.,
          0., 0., 0., 0., 0., 0., 0., 0., 0., 0., 0., 0., 0., 0.,
          1.99999996e-002, 0., 0., 0., 0., 0., 0., 9.99999978e-003, 0.,
          0., 0., 0., 0., 0., 0., 0., 0., 9.99999978e-003, 0., 0., 0.,
          0., 1.99999996e-002, 0., 0., 0., 0., 0., 9.99999978e-003, 0.,
          0., 0., 0., 0., 0., 0., 0., 0., 0., 0., 0., 0., 0., 0., 0., 0.,
          0., 0., 9.99999978e-003, 0., 0., 9.99999978e-003, 0., 0., 0.,
          0., 0., 0., 0., 0., 0., 0., 0., 0., 0., 0., 0., 0., 0.,
          9.99999978e-003, 9.99999978e-003, 0., 0., 0., 0., 0., 0.,
          9.99999978e-003, 0., 0., 9.99999978e-003, 9.99999978e-003, 0.,
          0., 0., 0., 0., 9.99999978e-003, 0., 9.99999978e-003, 0., 0.,
          0., 0., 0., 0., 0., 0., 0., 0., 0., 0., 0., 9.99999978e-003,
          0., 0., 0., 0., 9.99999978e-003, 0., 0., 0., 0., 0., 0.,
          9.99999978e-003, 0., 9.99999978e-003, 0., 0., 0., 0., 0., 0. ]
      - [ 0., 0., 0., 0., 3.42465751e-003, 0., 0., 0., 0., 0., 0., 0.,
          0., 0., 0., 0., 3.42465751e-003, 0., 0., 1.02739725e-002, 0.,
          0., 0., 0., 0., 0., 0., 0., 1.02739725e-002, 0., 0., 0., 0.,
          0., 0., 0., 3.42465751e-003, 0., 0., 0., 3.42465751e-003, 0.,
          3.42465751e-003, 0., 0., 0., 0., 0., 0., 3.42465751e-003, 0.,
          0., 0., 0., 0., 0., 0., 0., 0., 0., 3.42465751e-003, 0., 0.,
          0., 0., 0., 0., 0., 0., 0., 0., 0., 0., 0., 0., 0., 0., 0.,
          3.42465751e-003, 0., 0., 0., 0., 0., 3.42465751e-003, 0., 0.,
          0., 0., 0., 0., 0., 3.42465751e-003, 0., 1.36986300e-002, 0.,
          0., 0., 0., 0., 0., 0., 0., 0., 0., 0., 0., 0., 0., 0., 0., 0.,
          0., 0., 3.42465751e-003, 0., 0., 0., 3.42465751e-003,
          1.02739725e-002, 0., 0., 3.42465751e-003, 0., 0.,
          3.42465751e-003, 0., 0., 0., 0., 3.42465751e-003, 0., 0.,
          1.36986300e-002, 0., 0., 0., 0., 0., 0., 0., 0., 0.,
          3.42465751e-003, 0., 0., 0., 0., 0., 0., 0., 0., 0., 0., 0.,
          0., 0., 0., 3.42465751e-003, 3.42465751e-003, 0.,
          3.42465751e-003, 0., 3.42465751e-003, 0., 0., 0., 0., 0., 0.,
          0., 3.42465751e-003, 3.42465751e-003, 0., 0., 0.,
          3.42465751e-003, 0., 3.42465751e-003, 3.42465751e-003,
          6.84931502e-003, 0., 1.36986300e-002, 0., 0., 0., 0., 0., 0.,
          0., 0., 0., 0., 0., 0., 0., 0., 0., 3.42465751e-003,
          1.36986300e-002, 0., 0., 0., 0., 0., 6.84931502e-003, 0., 0.,
          0., 0., 0., 3.42465751e-003, 0., 0., 0., 0., 0., 0., 0., 0.,
          0., 1.02739725e-002, 0., 0., 0., 0., 0., 0., 0., 0., 0., 0.,
          3.42465751e-003, 0., 0., 0., 0., 0., 0., 3.42465751e-003, 0.,
          0., 3.42465751e-003, 0., 3.42465751e-003, 0., 0., 0., 0., 0.,
          0., 0., 0., 0., 0., 0., 0., 0., 6.84931502e-003, 0., 0., 0.,
          0., 0., 0., 0., 0., 6.84931502e-003, 0., 0., 0., 0., 0., 0.,
          0., 0., 3.42465751e-003, 0., 0., 0., 0., 3.42465751e-003, 0.,
          0., 0., 6.84931502e-003, 1.71232875e-002, 0., 0., 0., 0.,
          3.42465751e-003, 3.42465751e-003, 0., 0., 0., 0., 0., 0., 0.,
          0., 0., 0., 0., 0., 0., 0., 0., 0., 0., 0., 0., 0., 0., 0., 0.,
          3.42465751e-003, 0., 0., 0., 6.84931502e-003, 6.84931502e-003,
          0., 0., 0., 0., 0., 0., 0., 0., 0., 0., 1.71232875e-002,
          6.84931502e-003, 0., 0., 3.42465751e-003, 0., 0., 0.,
          3.42465751e-003, 0., 0., 0., 0., 0., 0., 0., 0., 0.,
          6.84931502e-003, 0., 3.42465751e-003, 0., 0., 0., 0., 0.,
          3.42465751e-003, 3.42465751e-003, 3.42465751e-003, 0., 0., 0.,
          0., 0., 0., 1.36986300e-002, 0., 0., 0., 0., 0., 0.,
          6.84931502e-003, 0., 1.02739725e-002, 6.84931502e-003,
          3.42465751e-003, 0., 0., 0., 0., 0., 0., 0., 0.,
          3.42465751e-003, 0., 0., 0., 0., 0., 0., 0., 0., 0.,
          2.05479451e-002, 1.02739725e-002, 0., 0., 1.02739725e-002, 0.,
          3.42465751e-003, 0., 0., 0., 0., 0., 0., 0., 0., 0., 0., 0.,
          0., 0., 0., 0., 0., 3.42465751e-003, 0., 6.84931502e-003, 0.,
          0., 3.42465751e-003, 0., 0., 0., 0., 0., 0., 0., 0.,
          3.42465751e-003, 0., 0., 0., 0., 3.42465751e-003, 0., 0., 0.,
          0., 3.42465751e-003, 0., 3.42465751e-003, 3.42465751e-003, 0.,
          0., 0., 0., 0., 0., 0., 0., 0., 0., 3.42465751e-003, 0., 0.,
          0., 0., 0., 3.42465751e-003, 0., 0., 0., 0., 0., 0.,
          6.84931502e-003, 0., 0., 0., 0., 0., 0., 1.02739725e-002, 0.,
          0., 0., 0., 6.84931502e-003, 6.84931502e-003, 0.,
          3.42465751e-003, 0., 0., 0., 0., 0., 0., 3.42465751e-003, 0.,
          0., 3.42465751e-003, 0., 0., 0., 0., 0., 0., 0., 0., 0., 0.,
          1.02739725e-002, 1.02739725e-002, 0., 0., 0., 0., 0., 0., 0.,
          0., 0., 0., 0., 0., 3.42465751e-003, 1.02739725e-002,
          3.42465751e-003, 0., 0., 0., 0., 0., 0., 0., 0., 0., 0.,
          1.02739725e-002, 0., 6.84931502e-003, 0., 0., 0.,
          3.42465751e-003, 0., 1.36986300e-002, 0., 0., 0., 0., 0., 0.,
          3.42465751e-003, 0., 3.42465751e-003, 0., 0., 3.42465751e-003,
          0., 0., 0., 0., 0., 0., 3.42465751e-003, 0., 0., 0.,
          3.42465751e-003, 0., 0., 0., 1.02739725e-002, 0., 0., 0.,
          6.84931502e-003, 0., 0., 0., 0., 0., 0., 0., 0., 0., 0., 0.,
          0., 0., 0., 0., 0., 0., 3.42465751e-003, 3.42465751e-003,
          3.42465751e-003, 0., 0., 0., 0., 0., 0., 0., 0.,
          6.84931502e-003, 0., 0., 0., 1.36986300e-002, 0., 0.,
          3.42465751e-003, 0., 1.02739725e-002, 0., 0., 0., 0.,
          3.42465751e-003, 0., 0., 0., 0., 3.42465751e-003, 0., 0., 0.,
          0., 1.02739725e-002, 0., 0., 0., 0., 0., 0., 0., 0., 0., 0.,
          1.02739725e-002, 0., 0., 0., 3.42465751e-003, 0., 0., 0.,
          3.42465751e-003, 0., 0., 0., 0., 0., 3.42465751e-003, 0., 0.,
          0., 3.42465751e-003, 0., 0., 0., 0., 0., 3.42465751e-003, 0.,
          0., 0., 0., 3.42465751e-003, 0., 0., 0., 3.42465751e-003, 0.,
          0., 6.84931502e-003, 0., 0., 0., 0., 3.42465751e-003, 0., 0.,
          3.42465751e-003, 0., 0., 0., 0., 0., 0., 0., 3.42465751e-003,
          0., 3.42465751e-003, 0., 3.42465751e-003, 0., 0.,
          6.84931502e-003, 0., 0., 3.42465751e-003, 0., 0., 0., 0., 0.,
          0., 0., 0., 0., 6.84931502e-003, 3.42465751e-003, 0., 0., 0.,
          0., 0., 6.84931502e-003, 0., 0., 3.42465751e-003, 0.,
          3.42465751e-003, 3.42465751e-003, 6.84931502e-003, 0., 0., 0.,
          0., 0., 0., 1.36986300e-002, 0., 0., 0., 0., 0., 0., 0., 0.,
          0., 0., 3.42465751e-003, 0., 0., 3.42465751e-003, 0., 0., 0.,
          0., 3.42465751e-003, 0., 3.42465751e-003, 0., 0., 0., 0., 0.,
          0., 0., 0., 0., 0., 0., 0., 0., 0., 3.42465751e-003, 0., 0.,
          1.36986300e-002, 0., 0., 0., 0., 0., 0., 0., 0., 0., 0., 0.,
          0., 0., 0., 0., 0., 0., 0., 0., 0., 3.42465751e-003, 0., 0.,
          3.42465751e-003, 0., 0., 0., 3.42465751e-003, 0., 0., 0., 0.,
          0., 0., 0., 0., 0., 0., 0., 0., 0., 6.84931502e-003, 0., 0.,
          1.36986300e-002, 0., 0., 3.42465751e-003, 0., 0., 0., 0., 0.,
          0., 0., 0., 0., 0., 0., 0., 6.84931502e-003, 0., 0., 0., 0.,
          3.42465751e-003, 0., 0., 3.42465751e-003, 0., 0., 0., 0., 0.,
          0., 0., 0., 0., 0., 0., 0., 0., 0., 0., 0., 0., 0., 0., 0., 0.,
          0., 0., 0., 0., 0., 0., 0., 0., 0., 0., 0., 0., 0.,
          3.42465751e-003, 3.42465751e-003, 0., 0., 0., 0., 0., 0.,
          3.42465751e-003, 6.84931502e-003, 3.42465751e-003, 0., 0., 0.,
          0., 1.02739725e-002, 0., 0., 0., 0., 0., 0., 0., 0.,
          6.84931502e-003, 3.42465751e-003, 0., 0., 0., 0., 0.,
          3.42465751e-003, 0., 0., 0., 1.02739725e-002, 0., 0.,
          3.42465751e-003, 3.42465751e-003, 0., 6.84931502e-003, 0.,
          6.84931502e-003, 0., 0., 0., 0., 0., 0., 0., 0., 0., 0., 0.,
          0., 0., 0., 0., 0., 0., 0., 0., 0., 0., 0., 0.,
          3.42465751e-003, 0., 0., 0., 0., 0., 0., 0., 0., 0., 0., 0.,
          0., 0., 1.71232875e-002, 0., 0., 0., 0., 0., 0.,
          6.84931502e-003, 3.42465751e-003, 0., 0., 0., 0., 0.,
          3.42465751e-003, 0., 0., 3.42465751e-003, 0., 0., 0., 0., 0.,
          0., 0., 0., 0., 0., 0., 0., 0., 6.84931502e-003,
          3.42465751e-003, 0., 0., 0., 0., 0., 0., 1.02739725e-002, 0.,
          0., 0., 0., 0., 0. ]
      - [ 0., 0., 0., 0., 0., 0., 0., 0., 7.19424477e-003, 0., 0., 0.,
          0., 0., 0., 0., 0., 0., 0., 0., 1.43884895e-002,
          7.19424477e-003, 0., 0., 0., 0., 0., 0., 0., 0., 0., 0., 0.,
          0., 7.19424477e-003, 0., 0., 0., 0., 7.19424477e-003, 0., 0.,
          0., 7.19424477e-003, 0., 0., 1.43884895e-002, 0., 0.,
          7.19424477e-003, 0., 0., 0., 0., 0., 7.19424477e-003, 0., 0.,
          0., 2.87769791e-002, 0., 0., 0., 0., 0., 0., 0., 0., 0., 0.,
          0., 0., 7.19424477e-003, 0., 0., 0., 0., 0., 0., 0., 0., 0.,
          0., 0., 0., 0., 0., 0., 0., 0., 0., 0., 0., 0., 0., 0.,
          7.19424477e-003, 0., 0., 7.19424477e-003, 0., 0., 0., 0., 0.,
          7.19424477e-003, 7.19424477e-003, 0., 0., 0., 0., 0.,
          7.19424477e-003, 0., 0., 0., 0., 0., 0., 7.19424477e-003, 0.,
          0., 0., 7.19424477e-003, 0., 0., 0., 2.15827338e-002, 0.,
          7.19424477e-003, 0., 0., 0., 0., 0., 0., 0., 7.19424477e-003,
          0., 0., 0., 0., 0., 0., 0., 0., 0., 0., 0., 0., 0., 0., 0., 0.,
          0., 0., 0., 0., 0., 0., 7.19424477e-003, 0., 0., 0., 0., 0.,
          0., 0., 0., 7.19424477e-003, 0., 0., 0., 0., 0., 0., 0., 0.,
          0., 0., 0., 0., 0., 0., 0., 0., 0., 0., 0., 0., 0., 0.,
          7.19424477e-003, 0., 0., 0., 0., 0., 0., 0., 0., 0., 0., 0.,
          0., 0., 0., 0., 0., 0., 0., 7.19424477e-003, 0.,
          1.43884895e-002, 0., 0., 0., 7.19424477e-003, 2.15827338e-002,
          0., 7.19424477e-003, 0., 0., 0., 0., 0., 0., 0.,
          7.19424477e-003, 0., 0., 0., 0., 0., 7.19424477e-003, 0., 0.,
          0., 0., 0., 0., 0., 0., 0., 0., 0., 0., 0., 7.19424477e-003,
          7.19424477e-003, 0., 7.19424477e-003, 0., 0., 0., 0.,
          7.19424477e-003, 0., 7.19424477e-003, 0., 0., 0.,
          1.43884895e-002, 0., 0., 0., 0., 0., 0., 0., 0., 0., 0., 0.,
          0., 0., 0., 0., 0., 0., 7.19424477e-003, 0., 0., 0., 0., 0.,
          0., 0., 0., 0., 0., 0., 0., 0., 0., 0., 7.19424477e-003, 0.,
          1.43884895e-002, 0., 0., 0., 0., 0., 0., 0., 1.43884895e-002,
          0., 0., 0., 0., 0., 0., 0., 0., 7.19424477e-003, 0., 0.,
          7.19424477e-003, 0., 0., 0., 0., 0., 0., 0., 0., 0., 0., 0.,
          0., 0., 0., 0., 7.19424477e-003, 0., 0., 0., 0.,
          7.19424477e-003, 0., 0., 0., 0., 0., 7.19424477e-003, 0., 0.,
          0., 0., 0., 0., 0., 0., 0., 0., 0., 0., 0., 0., 0., 0., 0., 0.,
          0., 0., 0., 0., 0., 0., 0., 7.19424477e-003, 0., 0., 0., 0.,
          0., 0., 0., 0., 0., 0., 0., 0., 0., 7.19424477e-003, 0., 0.,
          0., 7.19424477e-003, 0., 0., 0., 0., 0., 0., 0., 0., 0., 0.,
          0., 0., 0., 0., 0., 0., 0., 0., 0., 0., 0., 0., 0., 0., 0., 0.,
          0., 0., 0., 0., 0., 0., 0., 0., 0., 0., 0., 0., 0., 0., 0., 0.,
          0., 0., 0., 0., 0., 0., 0., 0., 0., 0., 0., 0., 0., 0., 0., 0.,
          0., 0., 0., 0., 7.19424477e-003, 0., 7.19424477e-003, 0., 0.,
          0., 0., 0., 0., 0., 0., 0., 0., 0., 0., 0., 0., 0., 0., 0., 0.,
          0., 0., 7.19424477e-003, 0., 0., 0., 0., 0., 0., 0., 0.,
          7.19424477e-003, 0., 0., 0., 7.19424477e-003, 0.,
          7.19424477e-003, 0., 0., 0., 0., 0., 0., 0., 0., 0., 0., 0.,
          0., 0., 0., 0., 0., 0., 0., 0., 0., 0., 0., 0., 0., 0.,
          7.19424477e-003, 0., 0., 0., 0., 0., 0., 7.19424477e-003,
          7.19424477e-003, 0., 7.19424477e-003, 0., 0., 0.,
          1.43884895e-002, 0., 0., 0., 0., 0., 0., 0., 0., 0., 0., 0.,
          0., 0., 0., 0., 0., 0., 0., 0., 0., 0., 0., 7.19424477e-003,
          0., 0., 0., 0., 0., 0., 0., 0., 0., 0., 0., 0., 0., 0., 0.,
          7.19424477e-003, 0., 0., 0., 0., 0., 0., 0., 0., 0., 0., 0.,
          0., 0., 0., 0., 0., 0., 0., 0., 0., 0., 7.19424477e-003, 0.,
          0., 0., 0., 0., 0., 0., 0., 0., 0., 0., 0., 0., 0., 0., 0., 0.,
          0., 0., 0., 0., 0., 0., 7.19424477e-003, 0., 0., 0., 0., 0.,
          0., 0., 7.19424477e-003, 0., 0., 0., 0., 0., 0., 0., 0., 0.,
          0., 0., 0., 0., 0., 0., 0., 0., 0., 0., 0., 0., 0., 0., 0., 0.,
          0., 0., 0., 0., 0., 0., 0., 0., 0., 0., 0., 0., 0., 0., 0.,
          7.19424477e-003, 0., 0., 0., 7.19424477e-003, 0., 0., 0.,
          2.87769791e-002, 0., 0., 0., 0., 0., 0., 0., 0., 0., 0., 0.,
          0., 0., 0., 1.43884895e-002, 0., 0., 0., 0., 7.19424477e-003,
          0., 0., 0., 0., 0., 0., 0., 0., 0., 0., 0., 0.,
          7.19424477e-003, 0., 0., 0., 0., 7.19424477e-003, 0.,
          7.19424477e-003, 0., 0., 0., 0., 0., 0., 0., 0.,
          7.19424477e-003, 7.19424477e-003, 0., 7.19424477e-003, 0., 0.,
          2.87769791e-002, 0., 0., 0., 0., 0., 0., 0., 0., 0., 0., 0.,
          7.19424477e-003, 1.43884895e-002, 0., 0., 0., 0., 0., 0., 0.,
          0., 0., 0., 0., 0., 0., 0., 0., 0., 0., 0., 0., 0., 0., 0., 0.,
          0., 0., 0., 0., 0., 0., 7.19424477e-003, 0., 0., 0., 0., 0.,
          7.19424477e-003, 0., 1.43884895e-002, 0., 0., 0.,
          7.19424477e-003, 7.19424477e-003, 0., 0., 0., 7.19424477e-003,
          0., 0., 0., 0., 0., 0., 0., 0., 0., 0., 0., 0., 0., 0., 0., 0.,
          0., 0., 0., 0., 0., 0., 0., 0., 0., 0., 0., 0., 0.,
          7.19424477e-003, 0., 7.19424477e-003, 0., 0., 0., 0., 0., 0.,
          0., 0., 0., 0., 0., 1.43884895e-002, 0., 7.19424477e-003, 0.,
          7.19424477e-003, 0., 0., 0., 0., 0., 0., 0., 0., 0., 0., 0.,
          0., 0., 0., 0., 0., 0., 0., 7.19424477e-003, 0.,
          7.19424477e-003, 0., 0., 0., 0., 0., 0., 0., 0., 0., 0., 0.,
          0., 0., 0., 0., 0., 0., 0., 0., 0., 7.19424477e-003, 0., 0.,
          0., 0., 0., 0., 0., 0., 0., 0., 0., 0., 0., 0., 0., 0., 0., 0.,
          0., 0., 0., 0., 0., 0., 7.19424477e-003, 0., 0., 0., 0., 0.,
          0., 7.19424477e-003, 0., 7.19424477e-003, 0., 0., 0., 0., 0.,
          0., 0., 0., 0., 0., 0., 1.43884895e-002, 0., 0., 0., 0., 0.,
          0., 0., 0., 0., 0., 0., 0., 0., 0., 0., 0., 0., 0., 0., 0., 0.,
          0., 0., 0., 7.19424477e-003, 0., 1.43884895e-002, 0.,
          7.19424477e-003, 0., 0., 1.43884895e-002, 0., 0.,
          7.19424477e-003, 0., 1.43884895e-002, 0., 0., 0., 0., 0., 0.,
          0., 0., 0., 0., 0., 0., 0., 2.15827338e-002, 0., 0., 0.,
          7.19424477e-003, 0., 0., 0., 0., 1.43884895e-002, 0., 0., 0.,
          0., 0., 0., 0., 0., 7.19424477e-003, 0., 7.19424477e-003, 0.,
          0., 0., 0., 0. ]
      - [ 0., 0., 0., 0., 0., 0., 0., 2.53164563e-002, 0., 0., 0., 0.,
          1.26582282e-002, 0., 0., 0., 0., 0., 0., 0., 0., 0., 0., 0.,
          0., 0., 0., 0., 0., 0., 0., 0., 0., 0., 1.26582282e-002, 0.,
          0., 0., 0., 0., 0., 0., 0., 0., 0., 1.26582282e-002, 0., 0.,
          0., 0., 0., 0., 0., 0., 0., 0., 0., 0., 0., 0., 0., 0., 0., 0.,
          0., 0., 0., 0., 0., 0., 0., 0., 0., 0., 0., 0., 0., 0., 0., 0.,
          0., 0., 0., 0., 0., 0., 0., 1.26582282e-002, 0., 0., 0.,
          1.26582282e-002, 0., 0., 0., 0., 1.26582282e-002, 0., 0.,
          1.26582282e-002, 0., 0., 0., 0., 2.53164563e-002, 0., 0., 0.,
          0., 0., 0., 0., 0., 0., 0., 0., 0., 0., 0., 0., 0., 0., 0., 0.,
          0., 0., 0., 0., 0., 0., 0., 0., 0., 0., 0., 0.,
          2.53164563e-002, 0., 0., 0., 1.26582282e-002, 0., 0., 0., 0.,
          0., 0., 0., 0., 0., 0., 0., 0., 0., 0., 0., 0., 0., 0., 0., 0.,
          0., 0., 0., 0., 0., 0., 0., 0., 0., 0., 0., 0., 0., 0., 0., 0.,
          0., 0., 1.26582282e-002, 0., 0., 0., 0., 0., 0., 0., 0., 0.,
          0., 0., 0., 1.26582282e-002, 0., 1.26582282e-002,
          1.26582282e-002, 0., 0., 0., 0., 0., 0., 0., 0., 0., 0., 0.,
          0., 0., 1.26582282e-002, 0., 0., 0., 0., 0., 0., 0., 0., 0.,
          0., 0., 0., 0., 1.26582282e-002, 0., 0., 0., 0., 0., 0., 0.,
          0., 0., 2.53164563e-002, 0., 0., 0., 0., 0., 1.26582282e-002,
          0., 0., 0., 2.53164563e-002, 0., 1.26582282e-002, 0., 0., 0.,
          0., 0., 1.26582282e-002, 0., 1.26582282e-002, 0., 0., 0., 0.,
          1.26582282e-002, 0., 0., 0., 0., 0., 0., 0., 0., 0., 0., 0.,
          0., 0., 0., 0., 0., 0., 0., 0., 0., 0., 0., 0., 0., 0., 0., 0.,
          0., 0., 0., 0., 0., 0., 0., 0., 0., 0., 0., 0., 0., 0.,
          1.26582282e-002, 0., 0., 0., 0., 0., 0., 0., 0., 0.,
          1.26582282e-002, 0., 1.26582282e-002, 0., 0., 0., 0., 0., 0.,
          0., 1.26582282e-002, 0., 2.53164563e-002, 0., 0., 0., 0., 0.,
          0., 0., 0., 0., 0., 0., 0., 0., 0., 1.26582282e-002, 0., 0.,
          0., 0., 0., 0., 0., 0., 0., 1.26582282e-002, 0.,
          1.26582282e-002, 0., 0., 0., 0., 0., 0., 0., 0., 0.,
          1.26582282e-002, 0., 0., 0., 0., 0., 0., 1.26582282e-002, 0.,
          0., 0., 0., 0., 0., 0., 0., 0., 0., 0., 1.26582282e-002, 0.,
          0., 0., 0., 0., 0., 0., 1.26582282e-002, 0., 0., 0., 0., 0.,
          0., 0., 0., 0., 0., 0., 0., 0., 0., 0., 0., 0., 0., 0., 0., 0.,
          0., 0., 0., 0., 0., 0., 0., 0., 0., 0., 0., 0., 0., 0.,
          1.26582282e-002, 0., 0., 0., 0., 0., 0., 0., 0., 0., 0., 0.,
          0., 0., 1.26582282e-002, 0., 0., 0., 0., 0., 1.26582282e-002,
          0., 0., 1.26582282e-002, 0., 0., 0., 0., 0., 0., 0., 0., 0.,
          0., 0., 0., 0., 0., 1.26582282e-002, 0., 0., 0., 0., 0., 0.,
          0., 0., 0., 0., 0., 0., 0., 0., 0., 1.26582282e-002, 0., 0.,
          0., 0., 0., 1.26582282e-002, 0., 0., 0., 0., 0., 0., 0., 0.,
          0., 0., 0., 0., 0., 0., 0., 0., 1.26582282e-002, 0., 0., 0.,
          0., 0., 0., 1.26582282e-002, 0., 0., 1.26582282e-002, 0., 0.,
          0., 0., 0., 0., 0., 0., 0., 0., 0., 0., 0., 0., 0., 0., 0., 0.,
          0., 0., 0., 0., 0., 0., 0., 0., 0., 0., 0., 0., 0., 0., 0., 0.,
          0., 0., 0., 0., 0., 0., 0., 0., 0., 0., 0., 0., 0., 0., 0., 0.,
          0., 0., 0., 0., 0., 0., 0., 0., 0., 0., 0., 0., 0., 0., 0., 0.,
          1.26582282e-002, 0., 0., 0., 0., 0., 0., 0., 0., 0., 0., 0.,
          0., 0., 0., 0., 0., 0., 0., 1.26582282e-002, 0., 0., 0., 0.,
          0., 0., 1.26582282e-002, 0., 0., 0., 0., 0., 1.26582282e-002,
          0., 0., 0., 0., 0., 0., 0., 0., 0., 1.26582282e-002, 0., 0.,
          0., 0., 0., 0., 0., 0., 0., 0., 0., 0., 0., 0., 0.,
          1.26582282e-002, 0., 0., 0., 0., 0., 0., 0., 0., 0., 0., 0.,
          0., 0., 0., 0., 0., 0., 0., 0., 0., 0., 0., 0., 0., 0., 0., 0.,
          0., 0., 0., 0., 0., 0., 0., 0., 0., 0., 0., 0., 0., 0., 0., 0.,
          0., 0., 0., 0., 0., 0., 0., 0., 0., 0., 0., 0., 0., 0., 0., 0.,
          0., 0., 0., 0., 1.26582282e-002, 0., 0., 0., 0., 0., 0., 0.,
          0., 0., 0., 0., 0., 0., 0., 0., 0., 1.26582282e-002, 0., 0.,
          0., 0., 0., 0., 0., 1.26582282e-002, 0., 0., 0., 0., 0., 0.,
          1.26582282e-002, 0., 0., 0., 0., 0., 0., 0., 0., 0., 0., 0.,
          0., 0., 0., 0., 0., 0., 1.26582282e-002, 1.26582282e-002, 0.,
          0., 0., 0., 0., 0., 0., 0., 0., 0., 0., 0., 0., 0., 0., 0., 0.,
          3.79746854e-002, 0., 0., 0., 0., 0., 0., 0., 0., 0., 0., 0.,
          0., 0., 0., 0., 0., 0., 0., 0., 1.26582282e-002, 0., 0., 0.,
          0., 0., 0., 0., 0., 0., 0., 0., 1.26582282e-002, 0., 0.,
          1.26582282e-002, 0., 1.26582282e-002, 2.53164563e-002, 0., 0.,
          0., 0., 0., 0., 0., 0., 0., 0., 0., 0., 0., 0., 0., 0., 0., 0.,
          0., 0., 0., 0., 0., 0., 1.26582282e-002, 0., 0., 0., 0., 0.,
          0., 0., 0., 0., 0., 0., 0., 1.26582282e-002, 0., 0., 0., 0.,
          0., 0., 0., 0., 0., 0., 0., 0., 0., 0., 0., 0., 0., 0., 0., 0.,
          0., 0., 0., 0., 0., 0., 0., 0., 1.26582282e-002, 0., 0., 0.,
          0., 0., 0., 0., 0., 0., 0., 0., 0., 0., 0., 0., 0., 0., 0., 0.,
          0., 0., 0., 0., 0., 0., 0., 0., 0., 0., 0., 0., 0., 0., 0., 0.,
          0., 0., 0., 0., 0., 0., 0., 0., 0., 0., 0., 0.,
          1.26582282e-002, 0., 0., 0., 0., 0., 0., 0., 0., 0., 0., 0.,
          0., 0., 0., 0., 0., 0., 0., 0., 0., 0., 0., 0., 0., 0., 0., 0.,
          0., 0., 0., 0., 0., 0., 0., 0., 0., 0., 0., 0., 0., 0., 0., 0.,
          0., 0., 0., 0., 0., 0., 0., 0., 0., 0., 0., 0., 0., 0., 0., 0.,
          0., 0., 1.26582282e-002, 0., 0., 0., 0., 0., 0., 0., 0., 0.,
          0., 0., 0., 1.26582282e-002, 0., 0., 0., 0. ]
      - [ 0., 0., 0., 0., 6.60066027e-003, 0., 0., 0., 0., 0., 0., 0.,
          3.30033014e-003, 0., 0., 0., 0., 0., 0., 9.90099087e-003, 0.,
          1.65016502e-002, 0., 0., 0., 0., 0., 0., 3.30033014e-003, 0.,
          0., 0., 0., 0., 0., 0., 0., 0., 0., 0., 0., 0.,
          3.30033014e-003, 0., 0., 0., 0., 0., 0., 0., 0., 0., 0., 0.,
          0., 0., 0., 0., 0., 0., 9.90099087e-003, 0., 0., 0., 0., 0.,
          0., 0., 0., 0., 0., 0., 0., 0., 0., 0., 0., 0., 0., 0., 0., 0.,
          0., 0., 0., 0., 0., 0., 0., 0., 0., 0., 0., 3.30033014e-003,
          1.32013205e-002, 0., 0., 0., 0., 0., 0., 0., 0., 0., 0., 0.,
          0., 0., 0., 0., 0., 0., 0., 0., 6.60066027e-003, 0., 0.,
          6.60066027e-003, 9.90099087e-003, 2.64026411e-002, 0., 0., 0.,
          3.30033014e-003, 0., 9.90099087e-003, 3.30033014e-003, 0., 0.,
          0., 0., 0., 0., 4.29042913e-002, 0., 0., 0., 0., 0., 0., 0.,
          0., 0., 0., 0., 0., 0., 0., 0., 0., 1.32013205e-002, 0., 0.,
          0., 0., 0., 0., 0., 3.30033014e-003, 0., 0., 0., 0., 0.,
          3.30033014e-003, 0., 0., 0., 0., 0., 0., 0., 0., 0., 0., 0.,
          0., 0., 9.90099087e-003, 0., 6.60066027e-003, 0., 0., 0., 0.,
          0., 0., 0., 0., 0., 0., 0., 0., 0., 0., 0., 0., 0.,
          1.98019817e-002, 3.30033014e-003, 3.30033014e-003, 0., 0.,
          1.32013205e-002, 0., 6.60066027e-003, 0., 0., 0., 0., 0., 0.,
          0., 0., 0., 0., 0., 0., 0., 0., 0., 3.30033014e-003, 0., 0.,
          0., 0., 0., 0., 0., 0., 0., 0., 9.90099087e-003, 0., 0., 0.,
          0., 0., 0., 0., 0., 0., 3.30033014e-003, 0., 0., 0., 0., 0.,
          3.30033014e-003, 0., 0., 0., 0., 0., 0., 0., 0., 0., 0., 0.,
          0., 0., 0., 0., 0., 0., 0., 0., 0., 0., 0., 0., 0., 0., 0., 0.,
          3.30033014e-003, 0., 0., 0., 0., 3.30033014e-003, 0., 0., 0.,
          0., 9.90099087e-003, 0., 0., 0., 0., 0., 0., 0., 0., 0., 0.,
          0., 0., 0., 0., 0., 0., 0., 0., 0., 0., 0., 0., 0., 0., 0., 0.,
          0., 0., 0., 0., 0., 0., 6.60066027e-003, 6.60066027e-003,
          9.90099087e-003, 0., 0., 9.90099087e-003, 0., 0., 0., 0., 0.,
          0., 0., 9.90099087e-003, 0., 0., 0., 0., 0., 0., 0., 0., 0.,
          0., 0., 6.60066027e-003, 0., 0., 0., 0., 0., 0., 0.,
          6.60066027e-003, 0., 0., 0., 0., 0., 0., 0., 0., 0., 0., 0.,
          0., 0., 0., 0., 0., 0., 0., 0., 0., 0., 0., 0.,
          1.32013205e-002, 6.60066027e-003, 0., 0., 0., 0., 0., 0., 0.,
          0., 0., 0., 0., 0., 0., 0., 0., 0., 0., 0., 0.,
          6.60066027e-003, 3.30033014e-003, 0., 0., 0., 0., 0., 0., 0.,
          0., 0., 0., 0., 0., 0., 1.98019817e-002, 0., 0., 0., 0., 0.,
          0., 0., 3.30033014e-003, 0., 0., 0., 0., 6.60066027e-003, 0.,
          0., 0., 0., 0., 0., 0., 0., 3.30033014e-003, 0., 0., 0., 0.,
          3.30033014e-003, 0., 0., 0., 0., 6.60066027e-003, 0., 0., 0.,
          0., 0., 0., 3.30033014e-003, 0., 0., 0., 0., 0., 0.,
          3.30033014e-003, 0., 0., 0., 6.60066027e-003, 0., 0., 0., 0.,
          0., 0., 0., 0., 0., 0., 0., 0., 0., 0., 0., 9.90099087e-003,
          0., 0., 0., 0., 3.30033014e-003, 0., 0., 0., 0., 0., 0., 0.,
          0., 0., 3.30033004e-002, 0., 0., 3.30033014e-003, 0., 0., 0.,
          0., 0., 0., 0., 0., 0., 0., 2.64026411e-002, 6.60066027e-003,
          0., 0., 0., 0., 0., 0., 0., 3.30033014e-003, 0., 0., 0., 0.,
          1.32013205e-002, 0., 9.90099087e-003, 0., 0., 0., 0., 0., 0.,
          0., 6.60066027e-003, 0., 0., 3.30033014e-003, 0.,
          6.60066027e-003, 0., 0., 0., 9.90099087e-003, 0.,
          3.30033014e-003, 0., 0., 0., 0., 0., 0., 0., 0., 0., 0., 0.,
          6.60066027e-003, 0., 0., 0., 0., 0., 0., 3.30033014e-003, 0.,
          0., 0., 9.90099087e-003, 0., 0., 0., 0., 0., 0., 0.,
          9.90099087e-003, 0., 0., 0., 0., 0., 0., 0., 0.,
          6.60066027e-003, 0., 0., 0., 0., 0., 0., 0., 0.,
          1.32013205e-002, 0., 1.32013205e-002, 0., 3.30033014e-003, 0.,
          0., 0., 0., 0., 0., 0., 0., 0., 0., 3.63036320e-002, 0.,
          6.60066027e-003, 6.60066027e-003, 0., 0., 0., 0., 0., 0., 0.,
          0., 0., 0., 0., 3.30033014e-003, 0., 0., 0., 0., 0., 0., 0.,
          0., 0., 0., 0., 0., 3.30033014e-003, 0., 0., 0., 0., 0., 0.,
          0., 0., 3.30033014e-003, 0., 0., 0., 0., 0., 0., 0., 0., 0.,
          0., 0., 0., 0., 0., 0., 0., 0., 0., 0., 0., 0., 0.,
          3.30033014e-003, 0., 0., 0., 6.60066027e-003, 0., 0., 0., 0.,
          0., 0., 0., 6.60066027e-003, 0., 0., 0., 0., 0., 0., 0., 0.,
          0., 0., 0., 0., 1.65016502e-002, 0., 0., 0., 3.30033014e-003,
          0., 0., 0., 0., 0., 0., 0., 0., 0., 0., 0., 0., 0.,
          1.32013205e-002, 0., 0., 0., 3.63036320e-002, 0., 0., 0., 0.,
          0., 0., 0., 0., 0., 0., 0., 0., 0., 0., 0., 0., 0., 0., 0.,
          1.32013205e-002, 0., 0., 0., 0., 0., 0., 0., 6.60066027e-003,
          0., 0., 6.60066027e-003, 0., 0., 0., 0., 0., 0., 0., 0., 0.,
          0., 0., 0., 0., 0., 0., 0., 0., 0., 0., 0., 0.,
          3.30033014e-003, 0., 0., 6.60066027e-003, 0., 0., 0., 0., 0.,
          0., 0., 0., 0., 0., 0., 0., 0., 0., 0., 0., 0., 0., 0., 0., 0.,
          0., 0., 3.30033014e-003, 0., 0., 0., 3.30033014e-003, 0., 0.,
          0., 0., 6.60066027e-003, 0., 0., 0., 0., 0., 0., 0., 0.,
          1.65016502e-002, 0., 0., 6.60066027e-003, 0., 0., 0., 0., 0.,
          0., 0., 0., 0., 0., 0., 0., 0., 0., 0., 0., 0., 0.,
          3.30033014e-003, 0., 6.60066027e-003, 0., 0., 9.90099087e-003,
          0., 0., 0., 0., 0., 0., 0., 0., 0., 0., 0., 0., 0.,
          3.30033014e-003, 0., 0., 0., 0., 0., 9.90099087e-003, 0., 0.,
          0., 0., 0., 0., 0., 0., 0., 0., 0., 0., 0., 0., 0.,
          1.65016502e-002, 0., 0., 0., 0., 0., 3.30033014e-003,
          9.90099087e-003, 3.30033014e-003, 1.65016502e-002, 0., 0., 0.,
          0., 0., 0., 0., 0., 0., 0., 0., 0., 0., 3.30033014e-003, 0.,
          0., 0., 0., 0., 0., 0., 0., 0., 0., 6.60066027e-003, 0., 0.,
          0., 6.60066027e-003, 3.30033014e-003, 0., 0., 0., 0., 0., 0.,
          3.30033014e-003, 0., 0., 0., 0., 0., 0., 0., 0., 0., 0., 0.,
          0., 0., 0., 0., 0., 0., 0., 0., 0., 0., 0., 0., 0., 0., 0., 0.,
          0., 0., 0., 3.30033014e-003, 0., 0., 6.60066027e-003, 0., 0.,
          0., 0., 0., 0., 6.60066027e-003, 0., 0., 0., 0., 0., 0., 0.,
          0., 0., 6.60066027e-003, 0., 0., 0., 0., 0., 0., 0., 0., 0.,
          0., 0., 0., 0., 3.30033014e-003, 6.60066027e-003, 0., 0., 0.,
          0., 0., 0., 0., 0., 0., 0., 0., 0., 0. ]
      - [ 0., 0., 0., 0., 0., 0., 0., 0., 0., 0., 0., 0., 0., 0., 0., 0.,
          0., 0., 0., 0., 0., 0., 0., 0., 0., 0., 0., 0., 0., 0., 0., 0.,
          0., 0., 0., 0., 0., 0., 0., 0., 0., 0., 0., 0., 0., 0., 0., 0.,
          0., 0., 0., 0., 0., 0., 0., 0., 0., 0., 0., 0., 0., 0., 0., 0.,
          0., 0., 0., 0., 1.63934417e-002, 0., 0., 0., 1.63934417e-002,
          0., 1.63934417e-002, 0., 3.27868834e-002, 0., 0., 0., 0., 0.,
          1.63934417e-002, 0., 0., 0., 0., 0., 0., 0., 0., 0., 0., 0.,
          0., 0., 0., 0., 0., 0., 0., 0., 0., 0., 0., 0., 0., 0.,
          1.63934417e-002, 0., 0., 0., 3.27868834e-002, 0., 0., 0., 0.,
          0., 0., 0., 0., 0., 0., 0., 0., 0., 0., 0., 0., 0., 0., 0., 0.,
          0., 0., 0., 0., 0., 0., 0., 0., 0., 0., 0., 0., 0., 0., 0., 0.,
          0., 0., 0., 0., 0., 0., 0., 0., 0., 0., 0., 0., 0., 0., 0., 0.,
          0., 0., 0., 0., 0., 0., 0., 0., 0., 0., 0., 0., 0., 0., 0., 0.,
          0., 0., 0., 0., 0., 0., 0., 0., 0., 0., 0., 0., 0., 0., 0., 0.,
          0., 0., 0., 1.63934417e-002, 0., 0., 0., 0., 0., 0., 0., 0.,
          0., 0., 1.63934417e-002, 0., 0., 0., 1.63934417e-002, 0., 0.,
          0., 0., 0., 0., 0., 0., 0., 0., 0., 0., 0., 0., 0., 0., 0., 0.,
          0., 0., 0., 0., 0., 0., 0., 0., 0., 0., 0., 0., 0., 0., 0., 0.,
          0., 0., 0., 0., 0., 0., 0., 0., 1.63934417e-002, 0., 0., 0.,
          0., 0., 0., 0., 0., 0., 0., 0., 0., 0., 0., 0., 0., 0., 0., 0.,
          0., 0., 0., 0., 0., 0., 0., 0., 0., 0., 0., 0., 0., 0., 0., 0.,
          0., 0., 0., 0., 0., 0., 0., 0., 0., 0., 0., 0., 0., 0., 0., 0.,
          0., 0., 0., 0., 0., 0., 0., 0., 0., 0., 0., 0., 0., 0., 0., 0.,
          0., 0., 0., 0., 0., 0., 0., 0., 0., 0., 0., 0., 0., 0., 0., 0.,
          0., 0., 0., 0., 0., 0., 0., 0., 0., 0., 0., 0., 0., 0., 0., 0.,
          0., 0., 0., 0., 0., 0., 0., 0., 0., 0., 0., 1.63934417e-002,
          0., 0., 0., 0., 0., 0., 0., 0., 0., 0., 0., 0., 0., 0., 0., 0.,
          0., 0., 0., 0., 0., 0., 0., 0., 3.27868834e-002, 0., 0., 0.,
          0., 0., 0., 0., 0., 0., 0., 3.27868834e-002, 0., 0., 0., 0.,
          0., 0., 0., 0., 0., 0., 0., 0., 0., 0., 0., 0., 0., 0., 0., 0.,
          0., 0., 0., 0., 0., 0., 1.63934417e-002, 0., 0., 0., 0., 0.,
          0., 0., 0., 0., 0., 0., 0., 0., 0., 0., 1.63934417e-002,
          1.63934417e-002, 0., 0., 0., 0., 0., 0., 0., 0.,
          1.63934417e-002, 0., 0., 0., 0., 0., 0., 0., 0., 0., 0., 0.,
          0., 0., 0., 0., 0., 0., 0., 0., 0., 0., 0., 0., 0.,
          1.63934417e-002, 0., 0., 0., 0., 0., 0., 0., 0., 0., 0.,
          1.63934417e-002, 0., 0., 0., 0., 0., 0., 0., 0., 0., 0., 0.,
          0., 0., 0., 0., 0., 0., 0., 0., 0., 0., 0., 0., 0., 0., 0., 0.,
          0., 0., 0., 0., 0., 0., 0., 1.63934417e-002, 0., 0., 0., 0.,
          0., 0., 0., 0., 0., 0., 0., 0., 0., 0., 0., 0., 0., 0., 0.,
          1.63934417e-002, 0., 0., 0., 0., 0., 0., 0., 0., 0., 0., 0.,
          0., 0., 0., 0., 1.63934417e-002, 0., 0., 0., 0., 0., 0., 0.,
          0., 0., 0., 0., 0., 0., 0., 0., 0., 0., 1.63934417e-002, 0.,
          0., 0., 0., 0., 0., 0., 1.63934417e-002, 0., 0., 0.,
          1.63934417e-002, 1.63934417e-002, 0., 0., 0., 0., 0.,
          1.63934417e-002, 0., 0., 1.63934417e-002, 0., 0., 0., 0., 0.,
          0., 0., 0., 3.27868834e-002, 0., 0., 0., 0., 0., 0., 0., 0.,
          0., 0., 0., 0., 0., 0., 0., 0., 0., 0., 0., 0., 0., 0., 0., 0.,
          0., 0., 0., 0., 0., 0., 0., 0., 0., 0., 0., 0., 0., 0., 0., 0.,
          0., 0., 0., 0., 0., 0., 0., 0., 1.63934417e-002, 0., 0., 0.,
          0., 1.63934417e-002, 0., 0., 1.63934417e-002, 0., 0., 0., 0.,
          0., 0., 0., 0., 0., 0., 0., 0., 0., 0., 0., 0., 0.,
          1.63934417e-002, 0., 4.91803251e-002, 0., 0., 0., 0., 0., 0.,
          0., 0., 0., 1.63934417e-002, 0., 0., 0., 0., 0., 0., 0., 0.,
          0., 0., 0., 0., 0., 0., 0., 1.63934417e-002, 0., 0., 0., 0.,
          0., 0., 0., 0., 0., 0., 0., 0., 0., 0., 0., 0., 0., 0., 0., 0.,
          0., 0., 0., 0., 0., 0., 0., 0., 0., 0., 1.63934417e-002, 0.,
          0., 0., 0., 0., 0., 0., 0., 0., 0., 0., 0., 0., 0., 0., 0., 0.,
          0., 0., 1.63934417e-002, 0., 0., 0., 0., 0., 0., 0., 0., 0.,
          0., 0., 0., 0., 0., 0., 0., 3.27868834e-002, 0., 0., 0., 0.,
          0., 0., 0., 0., 0., 0., 0., 0., 0., 0., 0., 0., 0., 0., 0., 0.,
          0., 0., 0., 0., 0., 0., 0., 0., 0., 0., 0., 0., 0., 0., 0., 0.,
          0., 0., 0., 0., 0., 0., 0., 0., 0., 0., 0., 0., 0., 0.,
          1.63934417e-002, 0., 0., 0., 0., 0., 0., 0., 0., 0., 0., 0.,
          0., 0., 0., 0., 0., 0., 0., 0., 0., 0., 0., 0., 0.,
          1.63934417e-002, 0., 0., 0., 0., 0., 0., 0., 1.63934417e-002,
          0., 0., 0., 0., 0., 0., 0., 0., 1.63934417e-002, 0., 0., 0.,
          0., 0., 0., 0., 0., 0., 0., 0., 0., 0., 0., 0., 0., 0., 0.,
          1.63934417e-002, 0., 0., 0., 0., 0., 0., 0., 0., 0., 0., 0.,
          0., 0., 0., 0., 0., 0., 0., 1.63934417e-002, 0., 0., 0., 0.,
          0., 0., 0., 0., 0., 0., 0., 0., 0., 0., 0., 0., 0., 0.,
          1.63934417e-002, 0., 0., 0., 3.27868834e-002, 1.63934417e-002,
          0., 0., 0., 0., 0., 0., 0., 0., 0., 0., 0., 0., 0., 0., 0., 0.,
          0., 0., 0., 0., 0., 0., 0., 0., 0., 0., 0., 0., 0., 0., 0., 0.,
          0., 0., 0., 0., 0., 0., 0., 0., 0., 4.91803251e-002, 0., 0.,
          0., 0., 0., 0., 0., 0., 0., 0., 0., 0., 0., 0., 0., 0., 0. ]
      - [ 0., 0., 0., 0., 0., 0., 0., 0., 0., 0., 0., 0., 0., 0., 0., 0.,
          0., 0., 0., 0., 0., 0., 0., 0., 0., 0., 0., 0., 0., 0., 0., 0.,
          1.85185187e-002, 1.85185187e-002, 0., 0., 0., 0.,
          1.85185187e-002, 0., 0., 0., 0., 0., 0., 0., 0., 0., 0., 0.,
          0., 0., 0., 0., 0., 0., 0., 1.85185187e-002, 1.85185187e-002,
          0., 0., 0., 0., 0., 0., 0., 0., 0., 0., 0., 0., 0., 0., 0., 0.,
          0., 0., 0., 0., 0., 0., 0., 0., 0., 0., 0., 0., 0., 0., 0., 0.,
          0., 0., 0., 0., 0., 0., 0., 0., 0., 0., 0., 0., 0., 0., 0., 0.,
          0., 0., 0., 0., 3.70370373e-002, 0., 0., 0., 0., 0., 0., 0.,
          0., 0., 0., 0., 0., 0., 0., 0., 0., 0., 0., 0., 0., 0., 0., 0.,
          0., 0., 0., 1.85185187e-002, 0., 0., 0., 0., 0., 0., 0., 0.,
          0., 0., 0., 0., 0., 0., 1.85185187e-002, 0., 0.,
          1.85185187e-002, 0., 0., 0., 0., 0., 0., 0., 0., 0., 0., 0.,
          0., 0., 0., 1.85185187e-002, 0., 0., 0., 0., 1.85185187e-002,
          0., 0., 0., 0., 0., 0., 0., 0., 0., 0., 0., 0., 0., 0., 0., 0.,
          0., 0., 0., 0., 0., 0., 0., 0., 1.85185187e-002, 0., 0., 0.,
          0., 0., 0., 1.85185187e-002, 0., 0., 0., 0., 0., 0., 0., 0.,
          0., 0., 0., 0., 0., 0., 1.85185187e-002, 0., 0., 0., 0., 0.,
          0., 0., 0., 0., 0., 0., 0., 0., 0., 0., 0., 0., 0., 0., 0., 0.,
          0., 1.85185187e-002, 0., 0., 0., 0., 0., 0., 0., 0., 0., 0.,
          0., 0., 0., 0., 0., 0., 0., 0., 0., 0., 0., 0., 0., 0., 0., 0.,
          0., 0., 0., 0., 0., 0., 0., 0., 0., 0., 0., 0., 0., 0., 0., 0.,
          0., 0., 0., 0., 0., 0., 0., 0., 0., 0., 0., 0., 0., 0.,
          1.85185187e-002, 0., 0., 0., 0., 0., 0., 0., 0., 0., 0., 0.,
          0., 0., 0., 0., 0., 0., 0., 1.85185187e-002, 0., 0., 0., 0.,
          1.85185187e-002, 0., 0., 0., 0., 0., 0., 0., 0., 0., 0., 0.,
          0., 0., 0., 0., 0., 0., 0., 0., 0., 0., 0., 0., 0., 0., 0., 0.,
          1.85185187e-002, 0., 0., 0., 0., 0., 0., 0., 0., 0., 0., 0.,
          0., 0., 0., 0., 0., 0., 0., 0., 1.85185187e-002, 0., 0., 0.,
          0., 0., 0., 0., 0., 0., 0., 0., 0., 0., 0., 1.85185187e-002,
          1.85185187e-002, 0., 0., 0., 0., 0., 0., 0., 0., 0., 0., 0.,
          0., 0., 0., 0., 0., 0., 0., 0., 0., 0., 0., 0., 0., 0., 0., 0.,
          0., 0., 0., 0., 0., 0., 0., 0., 0., 0., 0., 0., 0., 0., 0., 0.,
          1.85185187e-002, 0., 0., 0., 0., 0., 0., 1.85185187e-002, 0.,
          0., 0., 0., 0., 0., 0., 0., 0., 1.85185187e-002, 0., 0., 0.,
          0., 0., 0., 0., 0., 0., 0., 0., 0., 0., 0., 0., 0., 0., 0., 0.,
          0., 0., 0., 0., 0., 0., 0., 0., 0., 0., 0., 0., 0., 0., 0.,
          1.85185187e-002, 1.85185187e-002, 0., 0., 0., 0., 0., 0., 0.,
          0., 0., 0., 0., 0., 0., 0., 0., 0., 0., 0., 0., 0., 0., 0., 0.,
          0., 0., 0., 0., 0., 0., 0., 0., 0., 0., 0., 0., 0., 0., 0., 0.,
          0., 0., 0., 0., 0., 0., 0., 0., 0., 0., 0., 0., 0., 0., 0., 0.,
          0., 0., 0., 0., 0., 0., 0., 0., 0., 0., 0., 0., 0., 0., 0., 0.,
          0., 0., 0., 0., 0., 0., 0., 0., 0., 0., 0., 0.,
          1.85185187e-002, 0., 0., 0., 0., 3.70370373e-002, 0., 0., 0.,
          3.70370373e-002, 0., 0., 0., 0., 0., 0., 0., 1.85185187e-002,
          0., 0., 0., 0., 0., 0., 0., 0., 0., 0., 0., 0., 0., 0., 0., 0.,
          0., 0., 0., 0., 0., 0., 1.85185187e-002, 0., 0., 0., 0., 0.,
          0., 0., 0., 0., 0., 0., 0., 0., 0., 0., 0., 0., 0., 0., 0., 0.,
          0., 0., 0., 0., 0., 0., 0., 0., 0., 0., 0., 0.,
          1.85185187e-002, 0., 0., 0., 0., 0., 0., 0., 1.85185187e-002,
          0., 0., 0., 0., 0., 0., 0., 0., 0., 0., 0., 0., 0., 0., 0., 0.,
          0., 0., 0., 0., 0., 0., 0., 0., 0., 0., 0., 0., 0., 0., 0., 0.,
          0., 0., 0., 0., 0., 0., 0., 0., 0., 0., 0., 0., 0., 0., 0., 0.,
          0., 0., 0., 0., 0., 0., 0., 0., 0., 0., 0., 0., 0., 0., 0., 0.,
          0., 0., 0., 0., 0., 0., 0., 0., 0., 0., 0., 0., 0., 0., 0., 0.,
          0., 0., 0., 0., 0., 0., 0., 0., 0., 0., 0., 0., 0., 0., 0., 0.,
          0., 0., 0., 0., 0., 0., 0., 0., 0., 1.85185187e-002, 0., 0.,
          0., 0., 0., 0., 0., 0., 0., 0., 0., 0., 0., 0., 0., 0., 0., 0.,
          0., 0., 0., 0., 0., 0., 0., 0., 0., 1.85185187e-002, 0., 0.,
          0., 0., 0., 0., 0., 0., 0., 0., 0., 0., 0., 0., 0., 0., 0., 0.,
          0., 0., 1.85185187e-002, 0., 0., 0., 0., 0., 0., 0., 0., 0.,
          0., 0., 0., 0., 0., 0., 0., 0., 0., 0., 0., 0., 0., 0., 0., 0.,
          0., 1.85185187e-002, 0., 0., 0., 0., 0., 0., 0., 0., 0., 0.,
          0., 0., 0., 0., 0., 0., 0., 0., 0., 0., 0., 0., 0., 0., 0.,
          1.85185187e-002, 0., 0., 0., 0., 0., 0., 0., 0.,
          1.85185187e-002, 0., 0., 0., 0., 0., 0., 0., 0., 0., 0., 0.,
          0., 0., 0., 0., 0., 0., 0., 0., 0., 0., 0., 0., 0., 0., 0.,
          1.85185187e-002, 0., 0., 0., 0., 0., 0., 0., 0., 0., 0.,
          1.85185187e-002, 0., 0., 0., 0., 0., 1.85185187e-002, 0., 0.,
          0., 0., 0., 1.85185187e-002, 0., 0., 0., 0., 0., 0., 0., 0.,
          0., 0., 0., 0., 0., 0., 0., 0., 0., 0., 0., 0., 0., 0., 0., 0.,
          0., 0., 0., 3.70370373e-002, 0., 0., 0., 0., 0.,
          1.85185187e-002, 0., 1.85185187e-002, 1.85185187e-002, 0., 0.,
          0., 0., 0., 0., 0., 0., 0., 0., 0., 0., 0., 0., 0., 0., 0., 0.,
          0., 0., 0., 0., 0., 0., 0., 0., 0., 0., 0., 0., 0., 0., 0., 0.,
          0., 0., 0., 0., 0., 3.70370373e-002, 0. ]
      - [ 0., 0., 0., 0., 0., 0., 0., 0., 0., 0., 0., 0., 0., 0., 0., 0.,
          0., 0., 0., 0., 0., 0., 0., 0., 0., 0., 0., 0., 0., 0., 0., 0.,
          0., 0., 0., 3.57142873e-002, 0., 0., 0., 0., 0., 0., 0., 0.,
          0., 3.57142873e-002, 0., 0., 0., 0., 0., 0., 0., 0., 0., 0.,
          0., 0., 0., 0., 0., 0., 0., 0., 0., 0., 0., 0., 0., 0., 0., 0.,
          0., 0., 0., 0., 0., 0., 0., 0., 0., 0., 0., 0., 0., 0., 0., 0.,
          0., 0., 0., 0., 0., 0., 0., 0., 0., 0., 0., 3.57142873e-002,
          0., 0., 0., 0., 0., 0., 0., 0., 0., 0., 0., 0., 0., 0., 0., 0.,
          0., 0., 0., 0., 0., 0., 0., 0., 0., 0., 0., 0., 0., 0., 0., 0.,
          0., 0., 0., 0., 0., 0., 0., 0., 0., 0., 0., 0., 0., 0., 0., 0.,
          0., 0., 0., 0., 0., 0., 0., 0., 0., 0., 0., 0., 0., 0., 0., 0.,
          0., 0., 0., 0., 0., 0., 0., 0., 0., 0., 0., 0., 0., 0., 0., 0.,
          0., 0., 0., 0., 0., 0., 0., 0., 0., 0., 0., 0., 0., 0., 0., 0.,
          0., 0., 0., 0., 0., 0., 0., 0., 0., 0., 0., 0., 0., 0., 0., 0.,
          0., 0., 0., 0., 0., 0., 0., 0., 0., 0., 0., 0., 0., 0.,
          3.57142873e-002, 0., 0., 0., 0., 0., 0., 0., 0., 0., 0., 0.,
          0., 0., 0., 0., 0., 1.07142866e-001, 0., 0., 0., 0., 0., 0.,
          0., 0., 0., 0., 0., 0., 0., 0., 0., 0., 0., 0., 0., 0., 0., 0.,
          0., 0., 0., 0., 0., 0., 0., 0., 0., 0., 0., 0., 0., 0., 0., 0.,
          0., 3.57142873e-002, 0., 0., 0., 0., 0., 0., 0., 0., 0., 0.,
          0., 0., 0., 0., 0., 0., 0., 0., 0., 0., 0., 0., 0., 0., 0., 0.,
          0., 0., 0., 0., 0., 0., 0., 0., 0., 0., 0., 0., 0., 0., 0., 0.,
          0., 0., 0., 0., 0., 0., 0., 0., 0., 0., 0., 0., 0., 0., 0., 0.,
          0., 0., 0., 0., 0., 0., 0., 0., 0., 0., 0., 0., 0., 0., 0., 0.,
          0., 0., 0., 0., 0., 0., 0., 0., 0., 0., 0., 0., 0., 0., 0., 0.,
          0., 0., 0., 0., 0., 0., 0., 0., 0., 0., 0., 0., 0., 0.,
          3.57142873e-002, 0., 0., 0., 0., 0., 0., 0., 0., 0., 0., 0.,
          0., 0., 0., 0., 0., 0., 0., 0., 0., 0., 0., 0., 0., 0., 0., 0.,
          0., 0., 0., 0., 0., 0., 0., 0., 3.57142873e-002, 0., 0.,
          3.57142873e-002, 0., 0., 0., 0., 0., 0., 0., 0., 0., 0., 0.,
          0., 0., 0., 0., 0., 0., 0., 0., 0., 0., 0., 0., 0., 0., 0., 0.,
          0., 0., 0., 0., 0., 0., 0., 0., 0., 0., 0., 0., 0., 0., 0., 0.,
          0., 0., 0., 0., 0., 0., 0., 0., 0., 0., 7.14285746e-002, 0.,
          0., 0., 0., 0., 0., 0., 0., 0., 0., 0., 0., 0., 0., 0., 0., 0.,
          0., 0., 0., 0., 0., 0., 0., 0., 0., 0., 0., 0., 0., 0., 0., 0.,
          0., 0., 0., 0., 0., 0., 0., 0., 0., 0., 0., 0., 0., 0., 0., 0.,
          0., 0., 0., 0., 0., 0., 1.07142866e-001, 0., 0., 0., 0., 0.,
          0., 0., 0., 0., 0., 0., 0., 0., 0., 0., 0., 0., 0., 0., 0., 0.,
          0., 0., 0., 0., 0., 0., 0., 0., 0., 0., 0., 0., 0., 0., 0., 0.,
          0., 0., 0., 0., 0., 0., 0., 0., 0., 0., 0., 0., 0., 0., 0., 0.,
          0., 0., 0., 0., 0., 0., 0., 0., 0., 0., 0., 0., 0., 0., 0., 0.,
          0., 0., 0., 0., 0., 0., 0., 0., 0., 0., 0., 0., 0., 0., 0., 0.,
          0., 0., 0., 0., 0., 0., 0., 0., 0., 0., 0., 0., 0., 0., 0., 0.,
          0., 0., 0., 0., 0., 0., 0., 0., 0., 0., 0., 0., 0., 0., 0., 0.,
          0., 0., 0., 0., 0., 0., 0., 0., 0., 0., 0., 0., 0., 0., 0., 0.,
          0., 0., 0., 3.57142873e-002, 0., 0., 0., 0., 0., 0., 0., 0.,
          0., 0., 0., 0., 0., 0., 0., 0., 0., 0., 0., 3.57142873e-002,
          0., 0., 0., 0., 0., 0., 0., 0., 0., 0., 0., 0., 0., 0., 0., 0.,
          0., 0., 0., 0., 0., 0., 0., 0., 0., 0., 0., 0., 0., 0., 0., 0.,
          0., 0., 0., 0., 0., 0., 0., 0., 0., 0., 0., 0., 0., 0., 0., 0.,
          0., 0., 0., 0., 0., 0., 0., 0., 0., 0., 0., 0., 0., 0., 0., 0.,
          0., 0., 0., 0., 0., 0., 0., 0., 0., 0., 0., 0., 0., 0., 0., 0.,
          0., 0., 0., 0., 0., 0., 0., 0., 0., 0., 0., 0., 0., 0., 0., 0.,
          0., 0., 0., 0., 0., 0., 0., 0., 0., 0., 0., 0., 0., 0.,
          3.57142873e-002, 0., 0., 0., 0., 0., 0., 0., 0., 0., 0., 0.,
          0., 0., 0., 0., 0., 0., 0., 0., 0., 0., 0., 0., 0., 0., 0., 0.,
          0., 0., 0., 0., 0., 0., 0., 0., 0., 0., 0., 0., 0., 0., 0., 0.,
          0., 0., 0., 0., 0., 0., 0., 0., 0., 0., 0., 0., 0., 0., 0., 0.,
          0., 0., 0., 0., 0., 0., 0., 0., 0., 0., 0., 0., 0., 0., 0., 0.,
          0., 0., 0., 0., 0., 0., 0., 0., 0., 0., 0., 0., 0., 0.,
          1.07142866e-001, 0., 0., 0., 0., 3.57142873e-002, 0., 0., 0.,
          0., 0., 0., 0., 0., 0., 0., 0., 0., 0., 0., 0., 0., 0., 0., 0.,
          0., 0., 0., 0., 0., 0., 0., 0., 0., 0., 7.14285746e-002, 0.,
          0., 0., 0., 3.57142873e-002, 0., 0., 0., 0., 0., 0., 0., 0.,
          0., 0., 0., 0., 0., 0., 0., 0., 0., 0., 0., 0., 0., 0., 0., 0.,
          0., 0., 0., 0., 0., 0., 0., 0., 0., 0., 7.14285746e-002, 0.,
          0., 0., 0., 0., 0., 0., 0., 0., 0., 0., 0., 0., 0., 0., 0., 0.,
          0., 0., 0., 0., 0., 0., 0., 0., 0., 0., 0., 0. ]
      - [ 0., 0., 0., 0., 0., 0., 0., 0., 0., 0., 0., 1.49253728e-002,
          0., 1.49253728e-002, 0., 0., 0., 0., 0., 0., 1.49253728e-002,
          0., 0., 0., 0., 0., 0., 0., 0., 0., 0., 0., 0., 0., 0., 0., 0.,
          0., 0., 0., 0., 0., 0., 0., 0., 0., 0., 0., 0., 0., 0., 0., 0.,
          0., 0., 0., 0., 0., 0., 0., 0., 0., 0., 0., 0., 0., 0., 0., 0.,
          0., 0., 0., 0., 0., 0., 0., 0., 0., 0., 0., 0., 0., 0., 0., 0.,
          0., 0., 0., 0., 0., 0., 0., 0., 0., 0., 0., 0., 0., 0., 0., 0.,
          0., 1.49253728e-002, 0., 0., 0., 0., 0., 0., 0., 0., 0., 0.,
          0., 0., 0., 0., 0., 0., 0., 0., 0., 0., 0., 0., 0., 0., 0., 0.,
          0., 0., 0., 1.49253728e-002, 0., 0., 0., 1.49253728e-002,
          1.49253728e-002, 0., 0., 0., 0., 0., 0., 0., 0., 0., 0., 0.,
          0., 0., 0., 0., 0., 1.49253728e-002, 0., 0., 0., 0., 0., 0.,
          0., 0., 0., 0., 0., 0., 0., 0., 0., 0., 0., 0., 0., 0., 0., 0.,
          0., 0., 0., 0., 0., 0., 0., 0., 0., 0., 0., 0., 0.,
          1.49253728e-002, 0., 0., 0., 0., 2.98507456e-002, 0., 0., 0.,
          0., 0., 1.49253728e-002, 0., 0., 0., 0., 0., 1.49253728e-002,
          0., 0., 0., 0., 0., 0., 0., 0., 0., 0., 0., 0., 0., 0., 0., 0.,
          2.98507456e-002, 0., 0., 0., 0., 0., 0., 0., 0., 0., 0., 0.,
          0., 0., 0., 0., 0., 0., 0., 2.98507456e-002, 0., 0., 0., 0.,
          0., 1.49253728e-002, 1.49253728e-002, 0., 0., 0., 0., 0., 0.,
          0., 0., 0., 1.49253728e-002, 0., 0., 0., 0., 0., 0., 0., 0.,
          0., 0., 0., 0., 0., 0., 0., 0., 0., 0., 1.49253728e-002, 0.,
          0., 0., 0., 0., 0., 0., 0., 0., 0., 0., 0., 0., 0., 0., 0., 0.,
          0., 0., 0., 1.49253728e-002, 0., 0., 0., 0., 0., 0., 0., 0.,
          0., 0., 0., 0., 0., 0., 0., 0., 0., 0., 0., 0., 0., 0., 0., 0.,
          0., 0., 1.49253728e-002, 0., 0., 0., 0., 0., 0.,
          1.49253728e-002, 0., 0., 0., 1.49253728e-002, 0., 0., 0., 0.,
          0., 0., 0., 0., 0., 0., 0., 0., 0., 0., 0., 0., 0., 0., 0., 0.,
          0., 0., 0., 0., 0., 0., 0., 0., 0., 0., 0., 0., 0., 0., 0., 0.,
          0., 0., 0., 0., 0., 0., 0., 0., 0., 0., 0., 0.,
          1.49253728e-002, 0., 0., 0., 0., 0., 0., 0., 0.,
          1.49253728e-002, 0., 0., 0., 0., 0., 1.49253728e-002, 0., 0.,
          0., 0., 0., 0., 0., 0., 0., 0., 0., 0., 0., 0., 0., 0., 0., 0.,
          0., 0., 0., 0., 0., 0., 0., 0., 0., 0., 0., 0., 0., 0., 0., 0.,
          0., 0., 0., 0., 0., 0., 0., 0., 0., 0., 0., 0., 0., 0., 0., 0.,
          0., 0., 0., 2.98507456e-002, 2.98507456e-002, 0., 0., 0., 0.,
          0., 0., 0., 0., 0., 0., 0., 0., 0., 0., 0., 0., 0., 0., 0.,
          1.49253728e-002, 0., 0., 0., 1.49253728e-002, 0., 0., 0., 0.,
          0., 0., 0., 0., 0., 0., 0., 0., 0., 0., 0., 0., 0., 0., 0., 0.,
          0., 0., 0., 0., 0., 0., 0., 0., 0., 0., 0., 0., 0., 0., 0., 0.,
          0., 1.49253728e-002, 0., 0., 0., 0., 0., 0., 0.,
          1.49253728e-002, 0., 0., 0., 0., 0., 0., 0., 0., 0.,
          1.49253728e-002, 0., 0., 0., 0., 0., 0., 0., 0., 0., 0., 0.,
          0., 0., 0., 0., 0., 0., 0., 1.49253728e-002, 0., 0., 0., 0.,
          0., 1.49253728e-002, 1.49253728e-002, 0., 0., 0., 0., 0., 0.,
          0., 0., 0., 0., 0., 0., 0., 0., 2.98507456e-002, 0., 0., 0.,
          0., 0., 0., 0., 0., 0., 0., 0., 0., 0., 0., 0., 0., 0., 0., 0.,
          0., 0., 0., 0., 0., 0., 0., 0., 0., 0., 0., 0., 0., 0.,
          2.98507456e-002, 0., 0., 0., 0., 0., 0., 0., 0., 0., 0., 0.,
          0., 1.49253728e-002, 0., 0., 0., 0., 1.49253728e-002, 0., 0.,
          0., 0., 1.49253728e-002, 0., 0., 0., 0., 0., 0.,
          1.49253728e-002, 0., 0., 0., 0., 0., 0., 0., 0., 0., 0., 0.,
